tree
version=v3
num_class=1
num_tree_per_iteration=1
label_index=0
max_feature_idx=10
objective=regression
feature_names=Column_0 Column_1 Column_2 Column_3 Column_4 Column_5 Column_6 Column_7 Column_8 Column_9 Column_10
feature_infos=[1:18] [15540:1469520] [1969:2013] [26.833333329999999:32.833333330000002] [11.66666667:18.93333333] [0:107.66670000000001] [65:88.666666669999998] [0.066666666999999999:5.8666669999999996] [0.366666667:3.1000000000000001] [2.3666666670000001:9.6999999999999993] [3:63]
tree_sizes=3471 3382 3339 3457 3494 3432 3678 3653 3497 3889 3487 3470 3565 3556 3887 3813 4034 3683

Tree=0
num_leaves=35
num_cat=0
split_feature=1 0 6 1 1 9 5 0 1 3 3 6 9 1 0 1 3 3 1 1 6 1 3 9 1 1 0 9 1 1 5 0 9 3
split_gain=95.3166 26.5509 36.0387 17.1556 14.5466 15.9632 8.79052 7.11268 6.7778 5.63392 4.93671 7.40169 4.86502 4.79567 6.37799 4.70593 4.52487 3.91733 3.62123 3.35213 2.78187 2.35198 3.28362 2.09634 1.99189 1.19209 1.79409 1.05259 0.692277 0.592737 0.586501 0.904487 0.685894 0.112913
threshold=369982.50000000006 3.5000000000000004 76.833333335000006 477510.00000000006 236715.00000000003 7.1500000000000012 11.166665000000002 1.5000000000000002 325340.00000000006 30.050000000000004 30.650000000000002 78.166666665000022 6.9500000000000011 844100.00000000012 6.5000000000000009 742235.00000000012 29.583333335000003 29.783333335000005 568955.00000000012 620562.50000000012 82.166666665000022 884745.00000000012 29.750000000000004 8.0833333335000024 808745.00000000012 543206.00000000012 7.5000000000000009 7.0500000000000007 983959.50000000012 975852.50000000012 19.500000000000004 15.500000000000002 7.2373737370000013 29.283333335000005
decision_type=2 2 2 2 2 2 2 2 2 2 2 2 2 2 2 2 2 2 2 2 2 2 2 2 2 2 2 2 2 2 2 2 2 2
left_child=4 3 13 -2 10 8 12 -5 -6 15 11 -1 -4 14 18 27 -9 -13 -3 23 21 22 -14 -18 -11 -16 -27 -8 -23 -17 31 32 -15 -28
right_child=1 2 6 7 5 -7 9 16 -10 24 -12 17 20 30 25 29 19 -19 -20 -21 -22 28 -24 -25 -26 26 33 -29 -30 -31 -32 -33 -34 -35
leaf_value=0.072348844859061359 0.28666088085586694 -0.013822054060694401 0.12658969884730159 -0.10420542119275127 0.080264547268576833 -0.078526662919229204 -0.13115378601680783 -0.043658482139045489 0.25382597939838381 0.065493346411984912 0.35805234856078438 0.36633484886754947 -0.099968439473018936 -0.074965874536142646 -0.2674981425536731 -0.074267194701538392 0.10503627036493922 0.21021147863735168 -0.16716641779927149 0.16255179103880535 -0.086136184746579261 0.11768175618518793 0.047987045507077462 -0.021488130915920403 -0.039904156422422253 -0.26701303102901169 -0.19093450023065595 -0.22291823519598039 0.04497359207711752 -0.0054057586027243948 -0.14154944200539041 -0.053001787582059909 -0.14173644706811103 -0.16415143825646714
leaf_weight=10.999999999999998 10.999999999999998 11.000000000000002 19 14.999999999999998 18 14.999999999999998 10.000000000000002 13.999999999999998 18 13.000000000000002 11.999999999999998 10.000000000000002 10.000000000000002 10.000000000000002 15.999999999999998 10.000000000000002 10.000000000000002 18 13.999999999999998 14.999999999999998 9.9999999999999982 10.000000000000002 14.999999999999998 10.999999999999998 15.999999999999998 11.999999999999998 10.000000000000002 9.9999999999999982 10.999999999999998 9.9999999999999982 13.999999999999998 13.999999999999998 15.999999999999998 17
leaf_count=11 11 11 19 15 18 15 10 14 18 13 12 10 10 10 16 10 10 18 14 15 10 10 15 11 16 12 10 10 11 10 14 14 16 17
internal_value=4.63619e-10 -0.0490829 -0.0777215 0.0556742 0.170347 0.0948182 -0.00825703 0.0165842 0.167045 -0.0597754 0.245875 0.211359 0.0391399 -0.15237 -0.183455 -0.108436 0.052821 0.26597 -0.0996949 0.0903408 0.0094694 0.0302532 -0.0111951 0.0387616 0.007343 -0.221528 -0.202669 -0.177036 0.0795965 -0.0398365 -0.106318 -0.0939867 -0.116055 -0.174071
internal_weight=0 354 278 76 102 51 144 65 36 69 51 39 75 134 80 40 50 28 25 36 56 46 25 21 29 55 39 20 21 20 54 40 26 27
internal_count=456 354 278 76 102 51 144 65 36 69 51 39 75 134 80 40 50 28 25 36 56 46 25 21 29 55 39 20 21 20 54 40 26 27
is_linear=0
shrinkage=1


Tree=1
num_leaves=34
num_cat=0
split_feature=1 10 10 0 0 1 7 1 7 7 7 4 10 4 7 1 7 8 1 7 1 7 1 4 4 10 1 7 7 1 0 8 7
split_gain=61.6127 25.2645 20.1988 9.84377 12.0651 9.19629 8.49308 6.62113 6.30811 3.67108 3.21505 2.7131 2.59671 2.5346 5.64006 2.15556 2.81842 2.57062 2.06939 1.76434 1.74895 1.60241 1.39723 1.14506 1.15744 0.859425 0.85583 0.674302 0.865268 0.64761 1.0744 0.278329 0.201596
threshold=466855.00000000006 17.000000000000004 8.0000000000000018 6.5000000000000009 7.5000000000000009 674025.00000000012 1.4500000000000002 622197.50000000012 1.0666668335000002 1.2166666665000003 0.48333333350000002 13.950000000000001 8.0000000000000018 14.616666665000002 0.86666683350000007 1010617.5000000001 0.7166666665000001 1.3166666665000002 659715.00000000012 0.7166666665000001 620562.50000000012 0.55000000000000016 952417.50000000012 15.850000000000003 15.183333335000002 3.5000000000000004 24044.500000000004 0.41666650000000011 0.55000000000000016 887062.50000000012 4.5000000000000009 1.0666668335000002 0.48333333350000002
decision_type=2 2 2 2 2 2 2 2 2 2 2 2 2 2 2 2 2 2 2 2 2 2 2 2 2 2 2 2 2 2 2 2 2
left_child=1 2 10 5 18 9 19 11 26 12 -1 -6 -2 14 15 17 -17 -9 -5 27 21 -14 29 24 -15 -25 -3 -4 -29 30 -7 -26 -27
right_child=3 8 6 4 7 22 -8 13 -10 -11 -12 -13 20 23 -16 16 -18 -19 -20 -21 -22 -23 -24 25 31 32 -28 28 -30 -31 -32 -33 -34
leaf_value=0.1137120676040649 0.094928464790185296 0.13674395436590364 -0.060644466343980574 -0.14319412466138598 -0.20760505454880845 -0.017572008998443685 0.12451123257478079 0.12944342700334693 0.33579281007542328 0.14259493385369962 0.2582727760076523 -0.08518510550260544 0.082020723548802438 -0.046904649015735184 -0.10202420457560374 -0.082818630213538788 0.057336884419518445 -0.0054344675084576008 -0.26421019572478077 -0.11081658693460317 -0.075114096701145175 -0.014870169220699204 -0.00029795705699003661 -0.080967983638402075 -0.089629568457603434 -0.031364576174662658 0.21019001449147862 0.03647170083025808 -0.042855850945819507 -0.10426441704233487 -0.090047093687786003 -0.13331640828733468 0.0064068660140037537
leaf_weight=10.000000000000002 14.999999999999998 11.000000000000002 12.999999999999998 10.000000000000002 14.000000000000002 14.999999999999998 14.999999999999998 13.000000000000002 17 12.999999999999998 15.999999999999998 14.999999999999998 11.000000000000002 17 19 12.000000000000002 10.999999999999998 9.9999999999999982 12.999999999999998 12.999999999999998 9.9999999999999982 18 12.999999999999998 11.999999999999998 10.000000000000002 13.000000000000002 14.999999999999998 11.000000000000002 10.999999999999998 18 18 13.999999999999998 9.9999999999999982
leaf_count=10 15 11 13 10 14 15 15 13 17 13 16 15 11 17 19 12 11 10 13 13 10 18 13 12 10 13 15 11 11 18 18 14 10
internal_value=0 0.115178 0.0543588 -0.0469242 -0.0756449 -0.0046105 -0.00685001 -0.0572517 0.241058 0.0471804 0.202673 -0.144284 0.0242102 -0.0393514 -0.0103563 0.0275066 -0.0157877 0.0708009 -0.211595 -0.0479004 -0.00298913 0.0218815 -0.0588291 -0.0641499 -0.0868318 -0.0375796 0.179117 -0.0245315 -0.00319208 -0.0737488 -0.0571039 -0.115114 -0.0149422
internal_weight=0 132 89 324 193 131 63 170 43 67 26 29 54 141 65 46 23 23 23 48 39 29 64 76 41 35 26 35 22 51 33 24 23
internal_count=456 132 89 324 193 131 63 170 43 67 26 29 54 141 65 46 23 23 23 48 39 29 64 76 41 35 26 35 22 51 33 24 23
is_linear=0
shrinkage=0.2


Tree=2
num_leaves=34
num_cat=0
split_feature=1 6 4 6 9 4 9 9 1 5 1 4 5 6 9 1 9 9 6 4 8 1 6 4 6 5 8 9 5 4 4 1 4
split_gain=39.4321 14.2039 13.2862 9.56778 6.26016 5.09912 4.64627 3.39098 3.23764 3.21888 2.85485 2.72366 2.83262 2.25004 1.63297 2.15945 1.54276 2.88206 1.84529 1.37332 1.05504 1.04308 1.02798 1.04031 1.57029 0.967209 0.592556 0.576707 0.545765 0.476087 0.336954 0.332663 0.0531393
threshold=466855.00000000006 76.833333335000006 16.783333335000005 78.166666665000022 7.2068965515000007 15.950000000000001 6.8166666665000006 6.983333333500001 766135.00000000012 45.500000000000007 46036.000000000007 13.916666665000003 14.833335000000002 75.500000000000014 7.983333333500001 607846.00000000012 7.5086206895000007 7.0132183910000014 71.833333335000006 16.216666665000002 1.3500000000000003 287033.00000000006 77.833333335000006 15.65 82.500000000000014 6.6666668335000017 1.0666668335000002 7.2540404040000004 6.6666668335000017 14.550000000000002 15.016666665000001 858192.50000000012 14.250000000000002
decision_type=2 2 2 2 2 2 2 2 2 2 2 2 2 2 2 2 2 2 2 2 2 2 2 2 2 2 2 2 2 2 2 2 2
left_child=2 5 3 4 13 16 8 -8 -3 19 -5 -12 29 -1 -7 -16 17 31 -18 22 26 -14 -9 24 27 -20 -19 -24 -29 -13 32 -2 -27
right_child=1 6 -4 10 -6 14 7 9 -10 -11 11 12 21 -15 15 -17 18 20 25 -21 -22 -23 23 -25 -26 30 -28 28 -30 -31 -32 -33 -34
leaf_value=-0.011467744931578632 -0.084106486737728095 0.12484315155368103 0.30258746716109192 0.1900877419859171 -0.092668264773156914 -0.062803212801615396 -0.12517681077122689 -0.045415257621142603 0.0047013824805617332 -0.11209115929901602 0.15839237555077201 0.082525094002485255 -0.033256381154060349 0.11100779409209888 -0.037552707303654058 0.090861904323101039 -0.14924381808801132 -0.14295242064528996 -0.019974072135108361 0.062691335553924241 -0.099388996246629044 0.05809255245716486 0.081070355623960505 -0.043038846208499029 -0.036159626493851342 -0.083738500051773496 -0.19781411886215211 0.049723878130316736 -0.0019306002433101335 0.14057017346987358 -0.049610633877190675 -0.033704717660492121 -0.10313083440065385
leaf_weight=10.000000000000002 10.000000000000002 19 10.999999999999998 15.999999999999998 18 14.999999999999998 9.9999999999999982 18 17 9.9999999999999982 19 10.000000000000002 10.000000000000002 14.999999999999998 11.000000000000002 9.9999999999999982 10.999999999999998 18 17 14.999999999999998 12.999999999999998 9.9999999999999982 9.9999999999999982 12.999999999999998 14.999999999999998 13.000000000000002 13.999999999999998 18 14.999999999999998 12.999999999999998 10.999999999999998 10.999999999999998 9.9999999999999982
leaf_count=10 10 19 11 16 18 15 10 18 17 10 19 10 10 15 11 10 11 18 17 15 13 10 10 13 15 13 14 18 15 13 11 11 10
internal_value=0 -0.0375394 0.0921421 0.0730107 -0.00273463 -0.0789012 0.00485646 -0.0135073 0.0681095 -0.00371177 0.114768 0.0953303 0.0674657 0.0620176 -0.012403 0.0235971 -0.0976038 -0.118885 -0.0749495 0.00670933 -0.147436 0.0124181 -0.00272584 0.00809683 0.0195583 -0.0589252 -0.166954 0.0389948 0.0262446 0.115333 -0.0784008 -0.0577056 -0.0921699
internal_weight=0 324 132 121 43 164 160 124 36 114 78 62 43 25 36 21 128 66 62 104 45 20 89 71 58 51 32 43 33 23 34 21 23
internal_count=456 324 132 121 43 164 160 124 36 114 78 62 43 25 36 21 128 66 62 104 45 20 89 71 58 51 32 43 33 23 34 21 23
is_linear=0
shrinkage=0.2


Tree=3
num_leaves=35
num_cat=0
split_feature=2 1 2 2 3 1 3 10 10 10 1 2 10 1 6 1 1 3 3 2 5 10 1 2 10 10 10 5 1 2 5 5 1 3
split_gain=65.853 16.9101 9.09807 4.22445 4.13957 3.67818 3.32896 3.87181 1.69687 1.36367 1.33445 1.33163 1.65951 1.28376 1.15973 1.1076 1.04883 1.41359 1.88051 1.26908 0.736783 0.655593 0.648264 0.432433 0.405323 0.391407 0.381627 0.259329 0.217887 0.189958 0.176658 0.173181 0.172422 0.167906
threshold=1999.5000000000002 76185.000000000015 1989.5000000000002 1974.5000000000002 30.766668335000002 573365.00000000012 30.950000000000003 17.000000000000004 17.000000000000004 17.000000000000004 960125.50000000012 2007.5000000000002 6.5000000000000009 543206.00000000012 80.833333335000006 346953.00000000006 651085.00000000012 28.466668335000005 28.716666665000002 1983.5000000000002 11.166665000000002 6.5000000000000009 176453.50000000003 2008.5000000000002 34.500000000000007 5.0000000000000009 8.0000000000000018 20.166666665000005 1232720.0000000002 2003.5000000000002 4.1666666665000003 5.5000000000000009 769760.00000000012 28.583333335000003
decision_type=2 2 2 2 2 2 2 2 2 2 2 2 2 2 2 2 2 2 2 2 2 2 2 2 2 2 2 2 2 2 2 2 2 2
left_child=1 -1 3 8 5 27 7 11 20 25 22 12 -2 -5 29 26 21 28 -19 32 -3 -15 -9 -24 -11 -7 -13 -4 -18 -14 -8 -21 -20 -22
right_child=6 2 4 13 -6 9 30 10 -10 24 -12 15 14 16 -16 -17 17 18 19 31 33 -23 23 -25 -26 -27 -28 -29 -30 -31 -32 -33 -34 -35
leaf_value=0.17837877768809751 -0.0013412620044416853 -0.20369345224820654 -0.079992384513219189 -0.12442841152934468 0.068673859154315384 -0.054576933011412622 0.15519194809290077 0.20291441798210147 -0.081315643970782947 0.056733834790065864 0.077018385599367328 0.10265877941115334 0.06925617069005964 0.0093182726204395269 0.13104132056236267 0.15446556925773622 -0.049060051363300182 -0.16473503397269684 -0.1145739229189025 -0.030821138259489084 -0.16085823655128473 -0.054550708087885549 0.1196158123867852 0.17406998515129091 0.0035833368247205561 -0.010993970360826045 0.052042830162323445 -0.12042202814058825 -0.0082695366535335789 0.031932942220009863 0.18816358951421885 -0.061280239187181 -0.08689147018724018 -0.12420790970325471
leaf_weight=11.999999999999998 18 12.999999999999998 15.000000000000002 17 19 15.999999999999998 13.000000000000002 9.9999999999999982 12.999999999999998 12.000000000000002 9.9999999999999982 11.000000000000002 10.000000000000002 10.000000000000002 9.9999999999999982 9.9999999999999982 11.000000000000002 10.999999999999998 18 16.000000000000004 10.000000000000002 18 14.000000000000002 9.9999999999999982 10.999999999999998 17 12.999999999999998 10.999999999999998 9.9999999999999982 11.999999999999998 12.999999999999998 13.999999999999998 18 9.9999999999999982
leaf_count=12 18 13 15 17 19 16 13 10 13 12 10 11 10 10 10 10 11 11 18 16 10 18 14 10 11 17 13 11 10 12 13 14 18 10
internal_value=0 -0.054274 -0.063901 -0.0897972 -0.0154419 -0.0349321 0.106433 0.0931807 -0.142517 -0.00606974 0.141242 0.0680058 0.0472406 -0.0728384 0.0745678 0.0985429 -0.0658779 -0.0756314 -0.0881756 -0.0754157 -0.166627 -0.0317404 0.160131 0.142305 0.031314 -0.0321251 0.0752418 -0.0970972 -0.029636 0.048898 0.171678 -0.0450354 -0.100733 -0.142533
internal_weight=0 302 290 189 101 82 154 128 46 56 44 84 50 143 32 34 126 98 77 66 33 28 34 24 23 33 24 26 21 22 26 30 36 20
internal_count=456 302 290 189 101 82 154 128 46 56 44 84 50 143 32 34 126 98 77 66 33 28 34 24 23 33 24 26 21 22 26 30 36 20
is_linear=0
shrinkage=0.2


Tree=4
num_leaves=35
num_cat=0
split_feature=2 10 2 2 10 8 4 10 10 2 2 10 10 10 10 10 10 2 10 10 4 2 4 4 5 5 2 6 10 2 2 8 6 8
split_gain=42.1459 9.6671 5.79978 2.71632 1.98623 1.69139 1.40101 2.08051 1.78378 1.35535 1.42931 1.086 0.759693 1.01982 0.687151 0.625603 0.564094 0.845793 0.500732 1.51495 0.674908 0.63299 0.697341 0.484243 0.471541 0.430731 0.448961 0.396603 0.349638 0.211679 0.181252 0.126425 0.120851 0.101944
threshold=1999.5000000000002 50.000000000000007 1989.5000000000002 1974.5000000000002 17.000000000000004 1.3166666665000002 16.466668335000005 17.000000000000004 8.0000000000000018 2002.5000000000002 2008.5000000000002 17.000000000000004 8.0000000000000018 5.0000000000000009 9.5000000000000018 5.0000000000000009 50.000000000000007 2006.5000000000002 17.000000000000004 8.0000000000000018 14.683333335000002 1985.5000000000002 15.616665000000003 14.350000000000003 11.166665000000002 2.5000000000000004 1982.5000000000002 79.119658120000011 12.000000000000002 1994.5000000000002 2006.5000000000002 1.3500000000000003 79.416666665000022 1.2666668335000002
decision_type=2 2 2 2 2 2 2 2 2 2 2 2 2 2 2 2 2 2 2 2 2 2 2 2 2 2 2 2 2 2 2 2 2 2
left_child=1 2 3 11 5 12 7 8 15 -7 -11 24 13 -2 -10 -4 17 32 19 21 28 22 -5 -19 -1 -20 33 -15 -21 -9 -14 -26 -6 -27
right_child=4 -3 6 18 16 9 -8 29 14 10 -12 -13 30 27 -16 -17 -18 23 25 20 -22 -23 -24 -25 31 26 -28 -29 -30 -31 -32 -33 -34 -35
leaf_value=-0.16295476418275101 0.068587167351506648 0.12529507141846877 -0.027458376596730789 -0.083064677840784973 0.094047733247280094 0.086018849164247513 0.048932157915372115 0.046565157609681274 -0.10448116302490235 -0.030751062999479467 0.06686421409249306 -0.065052515268325811 0.042903865399685763 0.10809467367150563 -0.046520783379673962 0.032474758679216557 0.15717424696142024 0.16672404319047923 -0.073299061793547421 -0.043691612631082531 -0.12274453687040431 -0.0032811044094463193 -0.02887821593566945 0.10448302716016769 -0.12992774009704586 -0.035594318136572829 -0.0057394584757275886 0.16180112578652123 -0.093434591476733858 0.009728774342399377 0.077210768737963273 -0.098125179186463352 0.063669063828208236 -0.06349559168923985
leaf_weight=12.999999999999998 15.999999999999998 12.999999999999998 19.000000000000004 19 10.000000000000002 13.999999999999998 12.999999999999998 12.000000000000002 14.999999999999998 15.000000000000002 9.9999999999999982 12.999999999999998 11.000000000000002 11.000000000000002 18 10.999999999999998 10.999999999999998 10.000000000000002 12.999999999999998 10 19 11.999999999999998 19 9.9999999999999982 10.000000000000002 10.000000000000002 15.999999999999998 10.999999999999998 13 12.999999999999998 13.999999999999998 9.9999999999999982 10.999999999999998 10.999999999999998
leaf_count=13 16 13 19 19 10 14 13 12 15 15 10 13 11 11 18 11 11 10 13 10 19 12 19 10 10 10 16 11 13 13 14 10 11 11
internal_value=0 -0.0434192 -0.0510085 -0.0717752 0.0851468 0.0689292 -0.0123535 -0.0214071 -0.040779 0.0361959 0.00829505 -0.114014 0.0891927 0.107007 -0.0728664 -0.00548289 0.116958 0.106168 -0.0580924 -0.0668478 -0.0948503 -0.0433258 -0.0559714 0.135604 -0.133301 -0.0419823 -0.0309791 0.134948 -0.0718072 0.0274102 0.0621157 -0.114026 0.0781351 -0.0502093
internal_weight=0 302 289 188 154 102 101 88 63 39 25 46 63 38 33 30 52 41 142 92 42 50 38 20 33 50 37 22 23 25 25 20 21 21
internal_count=456 302 289 188 154 102 101 88 63 39 25 46 63 38 33 30 52 41 142 92 42 50 38 20 33 50 37 22 23 25 25 20 21 21
is_linear=0
shrinkage=0.2


Tree=5
num_leaves=34
num_cat=0
split_feature=6 4 3 10 3 4 10 3 6 5 10 4 5 10 10 4 4 4 8 3 4 8 5 3 4 4 10 8 8 8 8 4 8
split_gain=9.35829 6.65138 3.23227 4.74889 2.92048 2.61619 2.05674 1.79656 1.57032 1.32942 1.10171 1.78649 1.07309 0.994569 0.959215 0.853284 0.747941 0.774956 0.708142 0.583816 0.562703 0.546348 0.457976 0.423976 0.415897 0.361579 0.348408 0.31214 0.298715 0.330678 0.255069 0.193414 0.0734005
threshold=76.833333335000006 17.233333335000001 30.050000000000004 9.5000000000000018 30.766668335000002 15.416665000000002 5.0000000000000009 29.616666665000004 83.166666665000022 1.1666666665000001 17.000000000000004 15.766668335 21.166666665000005 17.000000000000004 50.000000000000007 14.016666665000001 16.216666665000002 15.183333335000002 1.2666668335000002 29.750000000000004 13.850000000000003 1.5833335000000004 12.666668335000002 29.816665000000004 15.283333335000002 13.416666665000003 34.500000000000007 1.2500000000000002 1.2500000000000002 1.0666668335000002 1.3500000000000003 14.550000000000002 1.5166666665000001
decision_type=2 2 2 2 2 2 2 2 2 2 2 2 2 2 2 2 2 2 2 2 2 2 2 2 2 2 2 2 2 2 2 2 2
left_child=4 2 3 7 10 -6 21 -2 9 -5 11 25 19 18 15 -8 17 30 -11 -13 -15 24 27 -9 -4 -1 -22 -12 29 -27 -17 -30 -24
right_child=1 -3 6 8 5 -7 14 23 -10 13 22 12 -14 20 -16 16 -18 -19 -20 -21 26 -23 32 -25 -26 28 -28 -29 31 -31 -32 -33 -34
leaf_value=-0.10654887954394024 -0.10996805082130082 0.18462339654564858 -0.0060271389782428735 0.087215293518134535 -0.037140641442965715 0.07553684163619491 0.089823709866579837 0.0017718479037284844 -0.049395584179596469 -0.039045191059509904 -0.020236554659075204 0.033906724132024314 -0.064269711130431714 0.067303200263310881 0.11065276813191863 0.065022683915282986 0.086618526577949537 -0.010352437235414983 0.024730034172534943 -0.030370956137776375 0.040110269933938972 -0.035447789304889739 -0.050560487056749731 -0.052587938088585029 0.04190337716291348 -0.067066047506199933 -0.008767959624528884 0.022526740248907696 -0.071710526943206773 -0.11242630749940873 0.023201141096651556 -0.039521317114122212 -0.028728701648387041
leaf_weight=11.999999999999998 17 9.9999999999999982 14.000000000000002 13.999999999999998 15.999999999999998 17 17 12.000000000000002 10.999999999999998 15.000000000000002 18.000000000000004 13.000000000000002 13.999999999999998 17 12.999999999999998 14.000000000000002 9.9999999999999982 14.999999999999998 12.999999999999998 9.9999999999999982 14.000000000000002 9.9999999999999982 14.000000000000002 10.999999999999998 14.999999999999998 18.000000000000004 9.9999999999999982 10.999999999999998 14.000000000000002 9.9999999999999982 9.9999999999999982 15.999999999999998 10.999999999999998
leaf_count=12 17 10 14 14 16 17 17 12 11 15 18 13 14 17 13 14 10 15 13 10 14 10 14 11 15 18 10 11 14 10 10 16 11
internal_value=0 0.0246545 0.0183065 -0.00294902 -0.0332963 0.0209053 0.0424441 -0.0606666 0.0216116 0.0310222 -0.0444059 -0.0561591 -0.0206135 0.0196207 0.0609964 0.0512156 0.037821 0.0253088 -0.00943527 0.00595991 0.0394639 0.00486392 -0.0211172 -0.0242263 0.0187645 -0.0749475 0.0197443 -0.00401599 -0.0684093 -0.0832661 0.047597 -0.0545429 -0.0409545
internal_weight=0 262 252 134 194 33 118 40 94 83 161 107 37 69 79 66 49 39 28 23 41 39 54 23 29 70 24 29 58 28 24 30 25
internal_count=456 262 252 134 194 33 118 40 94 83 161 107 37 69 79 66 49 39 28 23 41 39 54 23 29 70 24 29 58 28 24 30 25
is_linear=0
shrinkage=0.2


Tree=6
num_leaves=36
num_cat=0
split_feature=2 1 2 3 7 10 1 2 1 7 7 10 7 7 10 2 1 3 10 3 1 1 1 1 3 7 8 10 8 1 1 10 7 10 3
split_gain=20.9307 6.34794 2.57222 1.34048 1.2685 1.69059 0.965785 0.833551 1.21237 1.11523 0.57597 0.49253 0.467891 0.989238 0.820171 0.61356 0.457 0.452133 0.398048 0.434473 0.381247 0.337522 0.300409 0.287091 0.272141 0.270636 0.223357 0.196027 0.150056 0.282012 0.133644 0.106193 0.0981934 0.0363329 0.0274859
threshold=1999.5000000000002 248950.00000000003 1974.5000000000002 30.950000000000003 0.85000000000000009 6.5000000000000009 674025.00000000012 1989.5000000000002 579665.00000000012 0.78333333350000012 1.6416666665000001 17.000000000000004 1.0666668335000002 0.91666650000000016 17.000000000000004 1982.5000000000002 325340.00000000006 30.050000000000004 17.000000000000004 30.683333335000004 457895.00000000006 1010617.5000000001 729415.00000000012 688047.50000000012 29.450000000000003 0.55000000000000016 1.2666668335000002 9.5000000000000018 1.3666668335000003 716892.50000000012 917463.00000000012 5.0000000000000009 1.0666668335000002 8.0000000000000018 28.666666665000005
decision_type=2 2 2 2 2 2 2 2 2 2 2 2 2 2 2 2 2 2 2 2 2 2 2 2 2 2 2 2 2 2 2 2 2 2 2
left_child=1 -1 11 4 5 6 -2 12 27 18 -6 28 13 14 22 34 -12 20 19 25 26 -11 24 -14 -4 -10 -7 -9 29 -3 -22 -24 -5 -26 -16
right_child=3 2 7 32 10 17 -8 8 9 21 16 -13 23 -15 15 -17 -18 -19 -20 -21 30 -23 31 -25 33 -27 -28 -29 -30 -31 -32 -33 -34 -35 -36
leaf_value=0.091994901187717915 -0.056498974636197075 -0.12386585474014278 -0.083361946897847317 0.11575866361910643 0.10767303933115567 0.043645681887865051 0.027658172075947125 -0.062789592516663315 -0.02520653879619203 0.062124192782423697 0.037216830253601063 -0.047807942022784405 0.012793438360095021 -0.090249278664123272 -0.028387861698865882 0.016743251425214111 0.088449813310916614 0.07967659815361626 0.016091924397782845 0.0060783969196067621 0.077739242315292334 0.011355692972429096 -0.045664217056972628 -0.033090442232787613 -0.039318476021289815 -0.067148544453084477 0.0013744840398430824 -0.030164464785215946 -0.073316352963447573 -0.079531438784165825 0.046433407006164391 -0.020561309961172253 0.090880637218554827 -0.054686095984652641 -0.043216457515954973
leaf_weight=15.999999999999998 10.000000000000002 12.000000000000002 13.999999999999998 11.000000000000002 17 10.000000000000002 11.999999999999998 17.000000000000004 16.000000000000004 11.000000000000002 15.000000000000002 12.999999999999998 10.000000000000002 15.999999999999998 10.000000000000002 15.999999999999998 12.999999999999998 19 10.999999999999998 10.999999999999998 10.000000000000002 9.9999999999999982 14.000000000000002 11.999999999999998 10.000000000000002 9.9999999999999982 9.9999999999999982 12.999999999999998 9.9999999999999982 10.999999999999998 11.999999999999998 12.999999999999998 14.999999999999998 15.999999999999998 9.9999999999999982
leaf_count=16 10 12 14 11 17 10 12 17 16 11 15 13 10 16 10 16 13 19 11 11 10 10 14 12 10 10 10 13 10 11 12 13 15 16 10
internal_value=0 -0.0305982 -0.0374566 0.0600043 0.0515945 0.0369344 -0.0105951 -0.0291528 -0.0150864 -0.000492659 0.0786343 -0.0807805 -0.0390292 -0.0439829 -0.0367959 -0.0124486 0.0610036 0.0540762 -0.0173108 -0.0272413 0.0424951 0.0379487 -0.049878 -0.0122341 -0.0608807 -0.0413381 0.0225101 -0.048652 -0.0937697 -0.102662 0.0606633 -0.0335776 0.101406 -0.0487755 -0.0358022
internal_weight=0 302 286 154 128 83 22 240 99 69 45 46 141 119 103 36 28 61 48 37 42 21 67 22 40 26 20 30 33 23 22 27 26 26 20
internal_count=456 302 286 154 128 83 22 240 99 69 45 46 141 119 103 36 28 61 48 37 42 21 67 22 40 26 20 30 33 23 22 27 26 26 20
is_linear=0
shrinkage=0.2


Tree=7
num_leaves=36
num_cat=0
split_feature=10 9 5 5 10 10 9 10 6 8 6 8 6 5 4 6 5 4 10 9 4 9 6 4 10 9 4 8 10 9 10 5 6 8 5
split_gain=3.87266 3.07998 2.65687 2.39407 1.3112 1.69582 2.24179 1.38915 1.19912 0.941229 0.911216 0.778767 1.41854 1.03971 0.629035 0.612025 0.518184 0.482623 0.438186 0.427926 0.560269 0.426661 0.347563 0.301746 0.283166 0.232719 0.204965 0.287046 0.19402 0.174732 0.15655 0.112309 0.145911 0.10989 0.0579964
threshold=50.000000000000007 6.8166666665000006 1.0000000180025095e-35 19.500000000000004 6.5000000000000009 5.0000000000000009 7.366666833500001 9.5000000000000018 82.500000000000014 1.4666668335000002 75.500000000000014 1.4500000000000002 76.416666665000022 36.666668335000004 16.316666665000003 78.500000000000014 24.500000000000004 15.516666665000001 17.000000000000004 6.6500000000000012 14.383333335000001 7.3107060755000015 70.833333335000006 15.283333335000002 17.000000000000004 7.495000000000001 13.850000000000003 1.0666668335000002 9.5000000000000018 8.0500000000000025 12.000000000000002 7.5000000000000009 73.500000000000014 1.2500000000000002 8.8333333335000024
decision_type=2 2 2 2 2 2 2 2 2 2 2 2 2 2 2 2 2 2 2 2 2 2 2 2 2 2 2 2 2 2 2 2 2 2 2
left_child=1 11 17 -2 5 14 -7 16 10 -8 22 12 -1 24 15 -4 21 -3 26 20 30 -6 -9 -17 -13 -20 -12 -28 -22 33 -14 -24 -33 -23 -27
right_child=3 2 4 -5 7 6 9 8 -10 -11 18 13 19 -15 -16 23 -18 -19 25 -21 28 29 31 -25 -26 34 27 -29 -30 -31 -32 32 -34 -35 -36
leaf_value=-0.014087233475099006 0.0034560826793313018 0.022222516061738126 -0.045628793770447373 0.13158293244029795 -0.0080709215998649598 -0.030687437698038091 0.028433866260780222 -0.065523237567394976 -0.085004286319017408 0.099057572865142274 -0.037244395166635517 0.0020469265524297952 0.097135169262235796 -0.051659471202980395 -0.066083826186756289 -0.015922769109408059 -0.086434671562165027 0.082930736785585241 0.044723811820149423 0.012349503710865975 0.022408224145571386 -0.059805361181497534 -0.011476232546984273 0.025707842911092134 0.040995081593947755 -0.00063047472100991454 -0.026283366250043558 0.018444950114159534 0.058373012319207197 -0.077359294891357427 0.064716622691888076 -0.051504498422145828 -0.021657836035286128 -0.030155439451336863 0.019628745606169104
leaf_weight=18 10.000000000000002 10.000000000000002 15.999999999999998 13.999999999999998 9.9999999999999982 18 18.000000000000004 9.9999999999999982 9.9999999999999982 12.999999999999998 9.9999999999999982 16.000000000000004 11.000000000000002 10.999999999999998 11.999999999999998 15.000000000000002 15.999999999999998 10.999999999999998 9.9999999999999982 9.9999999999999982 15.000000000000002 10.000000000000005 17 12.999999999999998 13.999999999999998 13.000000000000002 11.000000000000002 11.999999999999998 9.9999999999999982 9.9999999999999982 12.999999999999998 10.000000000000002 19 9.9999999999999982 9.9999999999999982
leaf_count=18 10 10 16 14 10 18 18 10 10 13 10 16 11 11 12 15 16 11 10 10 15 10 17 13 14 13 11 12 10 10 13 10 19 10 10
internal_value=0 -0.00434426 -0.0146966 0.0781967 -0.0196218 -0.00171926 0.0254527 -0.0296206 -0.0184228 0.0580503 -0.0129653 0.0232035 0.0350595 0.000937263 -0.0254948 -0.014425 -0.0560154 0.0540221 0.00295618 0.0500534 0.0577481 -0.0438478 -0.0317299 0.00340573 0.0202227 0.0192524 -0.01334 -0.00294685 0.0367941 -0.0557734 0.0795751 -0.0243835 -0.0319498 -0.0449804 0.00817788
internal_weight=0 432 314 24 293 105 49 188 132 31 122 118 77 41 56 44 56 21 66 59 49 40 56 28 30 33 33 23 25 30 24 46 29 20 23
internal_count=456 432 314 24 293 105 49 188 132 31 122 118 77 41 56 44 56 21 66 59 49 40 56 28 30 33 33 23 25 30 24 46 29 20 23
is_linear=0
shrinkage=0.2


Tree=8
num_leaves=35
num_cat=0
split_feature=2 0 10 0 2 2 7 10 10 7 5 7 10 0 0 10 0 2 10 2 2 10 2 10 8 0 0 10 5 7 7 0 7 10
split_gain=9.85556 2.47995 3.0009 1.30118 2.25424 1.03536 0.681318 0.575221 0.432924 0.42677 0.423479 0.491014 0.636594 0.665157 0.391077 0.410546 0.341816 0.314845 0.304132 0.277056 0.272875 0.266699 0.38768 0.332442 0.272034 0.265821 0.661269 0.512544 0.438009 0.185076 0.111947 0.110108 0.0790679 0.0716683
threshold=1998.5000000000002 3.5000000000000004 50.000000000000007 2.5000000000000004 1981.5000000000002 1974.5000000000002 0.91666650000000016 5.0000000000000009 9.5000000000000018 0.48333333350000002 48.833333330000009 0.91666650000000016 17.000000000000004 12.500000000000002 4.5000000000000009 17.000000000000004 3.5000000000000004 1982.5000000000002 8.0000000000000018 1983.5000000000002 1986.5000000000002 8.0000000000000018 1987.5000000000002 9.5000000000000018 1.2166666665000003 7.5000000000000009 10.000000000000002 12.000000000000002 10.333331665000001 0.36666683350000007 0.65000000000000013 11.500000000000002 1.2666668335000002 34.500000000000007
decision_type=2 2 2 2 2 2 2 2 2 2 2 2 2 2 2 2 2 2 2 2 2 2 2 2 2 2 2 2 2 2 2 2 2 2
left_child=1 3 5 9 -5 8 7 29 -3 -1 11 12 13 21 -8 18 -9 -14 -16 -11 -13 22 -7 24 -23 28 -27 -28 -18 -2 -29 -25 -17 -19
right_child=6 2 -4 4 -6 10 14 16 -10 19 -12 20 17 -15 15 32 25 33 -20 -21 -22 23 -24 31 -26 26 27 30 -30 -31 -32 -33 -34 -35
leaf_value=-0.039220420240114136 0.017483578453009775 -0.088047492974682867 0.066234939917922023 -0.016470544341718771 0.11210269120832284 -0.029781008835293745 0.085161738177495339 0.071279302686452869 -0.044763859767570267 -0.016033258566167202 -0.063807176705449817 -0.03124617457335048 -0.024130776950291227 -0.074876102556784951 0.050862333121208025 0.054729744121432292 -0.010389814927027773 0.024538308568298816 0.0067084750471015772 0.029963448609818113 -0.067080765874946824 -0.075870601274073107 0.013230391889810561 -0.0041795219993218764 -0.033284657994906111 0.086471188366413126 -0.0001785797377427419 0.058493397730801783 0.041527813758987647 -0.020110359610989691 0.030787199642509224 -0.029201628925169216 0.079301903193647216 0.0026799274298051992
leaf_weight=11.999999999999998 11.000000000000002 19 11.999999999999998 10.000000000000002 11.999999999999998 19 13.999999999999998 9.9999999999999982 18 10.000000000000002 13.999999999999998 17 13.999999999999998 11.999999999999998 13.000000000000002 10.000000000000002 13.000000000000002 12 11.999999999999998 10.999999999999998 17 10.000000000000002 14.999999999999998 12.000000000000002 14.999999999999998 9.9999999999999982 14.999999999999998 14.000000000000002 12.999999999999998 9.9999999999999982 9.9999999999999982 17 10.999999999999998 12
leaf_count=12 11 19 12 10 12 19 14 10 18 10 14 17 14 12 13 10 13 12 12 11 17 10 15 12 15 10 15 14 13 10 10 17 11 12
internal_value=0 -0.0222456 -0.031193 0.0159845 0.0536603 -0.0364358 0.0388627 0.0292228 -0.0669906 -0.00913272 -0.0303577 -0.027635 -0.0223309 -0.0307045 0.0558932 0.0469854 0.0365459 -0.000295054 0.0296685 0.00806025 -0.0491635 -0.0246811 -0.0108054 -0.0334177 -0.050319 0.0319148 0.040588 0.0288231 0.015569 -0.000418297 0.0469491 -0.0188477 0.0676009 0.0136091
internal_weight=0 290 235 55 22 223 166 106 37 33 186 172 138 100 60 46 85 38 25 21 34 88 34 54 25 75 49 39 26 21 24 29 21 24
internal_count=456 290 235 55 22 223 166 106 37 33 186 172 138 100 60 46 85 38 25 21 34 88 34 54 25 75 49 39 26 21 24 29 21 24
is_linear=0
shrinkage=0.2


Tree=9
num_leaves=38
num_cat=0
split_feature=2 8 2 3 10 1 10 3 10 1 8 3 5 10 10 1 1 2 2 2 10 2 1 3 8 3 8 3 5 5 2 3 5 10 8 1 3
split_gain=6.36113 2.06749 0.869831 0.830402 1.18431 0.749649 0.554425 0.60842 0.465557 0.574709 0.363304 0.329953 0.294578 0.403534 0.676477 0.391246 0.347947 0.235993 0.23269 0.220595 0.211125 0.183528 0.173506 0.158215 0.206581 0.154648 0.144617 0.137498 0.134445 0.130643 0.22315 0.124348 0.111789 0.108861 0.0942518 0.0806074 0.0767193
threshold=1999.5000000000002 2.3166666665000002 1972.5000000000002 30.683333335000004 6.5000000000000009 296547.50000000006 3.5000000000000004 30.383333335000003 17.000000000000004 325340.00000000006 1.2666668335000002 29.616666665000004 4.1666666665000003 9.5000000000000018 8.0000000000000018 651085.00000000012 1010617.5000000001 1989.5000000000002 2004.5000000000002 2007.5000000000002 17.000000000000004 2003.5000000000002 325340.00000000006 29.750000000000004 1.2166666665000003 29.583333335000003 1.1666668335000001 28.516666665000006 8.8333333335000024 35.500000000000007 1982.5000000000002 29.683333335000004 24.500000000000004 9.5000000000000018 1.4166665000000001 447785.00000000006 30.116666665000004
decision_type=2 2 2 2 2 2 2 2 2 2 2 2 2 2 2 2 2 2 2 2 2 2 2 2 2 2 2 2 2 2 2 2 2 2 2 2 2
left_child=1 2 11 5 -5 -4 -2 8 9 10 -8 33 16 14 15 -14 20 27 25 28 23 -9 -23 -7 -25 -11 -6 -15 -10 30 -17 -19 -16 -1 -29 -24 -32
right_child=6 -3 3 4 26 12 7 21 19 18 -12 -13 13 17 32 29 -18 31 -20 -21 -22 22 35 24 -26 -27 -28 34 -30 -31 36 -33 -34 -35 -36 -37 -38
leaf_value=-0.051348119629546968 -0.010188183527101172 0.064481526023397837 -0.064437438671787584 0.062621038376043242 0.005392575992101971 -0.049870667094364766 0.012903817886343366 0.073240655022008092 0.023148701852187509 0.0019611790776252742 -0.037801915016025311 -0.079717326164245608 0.013776137898950018 0.0066432997894783812 -0.038300960771739473 -0.034517786006132763 -0.064193321242928508 0.00017092127639513745 0.0558695908297192 0.069472228586673734 -0.0014311156593836271 0.030606456415262075 0.071240166425704937 -9.1369617730379082e-05 -0.039013460330897948 0.036326138472015206 -0.024037907677976526 -0.0092887739301659149 0.05271040171384811 -0.041998229995369916 -0.01463460016995668 0.028403897071257234 -0.067518471587787982 -0.021837301626801493 -0.033337955617091873 0.046927192620933061 0.010139459781348706
leaf_weight=10.000000000000005 10.999999999999998 11.999999999999998 14.999999999999998 11.999999999999998 11.000000000000002 11.999999999999998 13.000000000000002 13.999999999999998 16.000000000000004 10.000000000000002 9.9999999999999982 10.999999999999998 17 11.999999999999998 10.000000000000002 14.999999999999998 9.9999999999999982 13.000000000000002 10.999999999999998 9.9999999999999982 12.999999999999998 15.999999999999998 10.000000000000002 10.000000000000002 11.999999999999998 10.999999999999998 17 16.000000000000004 9.9999999999999982 9.9999999999999982 10.000000000000002 11.999999999999998 10.999999999999998 9.9999999999999982 10.999999999999998 11.999999999999998 9.9999999999999982
leaf_count=10 11 12 15 12 11 12 13 14 16 10 10 11 17 12 10 15 10 13 11 10 13 16 10 10 12 11 17 16 10 10 10 12 11 10 11 12 10
internal_value=0 -0.0168683 -0.0202345 -0.016445 0.0100532 -0.0212849 0.0330794 0.0364077 0.0265462 0.0149726 -0.00914215 -0.051895 -0.0181119 -0.0133794 -0.022581 -0.0120727 -0.0303169 -0.00144609 0.0323052 0.0442279 -0.0231091 0.0536654 0.0464535 -0.0313977 -0.0213216 0.0199619 -0.0124759 -0.0111697 0.0345186 -0.0218378 -0.0160777 0.0137227 -0.0536054 -0.0365927 -0.0190866 0.0579785 -0.00224757
internal_weight=0 302 290 259 40 219 154 143 91 55 23 31 204 147 83 62 57 64 32 36 47 52 38 34 22 21 28 39 26 45 35 25 21 20 27 22 20
internal_count=456 302 290 259 40 219 154 143 91 55 23 31 204 147 83 62 57 64 32 36 47 52 38 34 22 21 28 39 26 45 35 25 21 20 27 22 20
is_linear=0
shrinkage=0.2


Tree=10
num_leaves=34
num_cat=0
split_feature=4 7 10 3 7 10 5 10 10 8 7 8 5 8 8 5 10 3 4 7 7 4 8 5 8 10 10 4 4 4 5 3 5
split_gain=2.93092 0.984987 0.708166 0.581176 1.44525 0.502658 0.40794 0.307522 0.462567 0.360796 0.382298 0.355361 0.341398 0.284562 0.256317 0.233625 0.219324 0.327232 0.217458 0.364102 0.212221 0.206733 0.19637 0.180233 0.152282 0.132759 0.122445 0.10257 0.0744925 0.0997642 0.156845 0.142406 0.087865
threshold=17.233333335000001 1.2166666665000003 3.5000000000000004 28.550000000000004 0.86666683350000007 27.000000000000004 0.83333333350000005 8.0000000000000018 9.5000000000000018 1.2500000000000002 0.28333333350000006 1.3666668335000003 7.5000000000000009 1.6666668335000001 1.5166666665000001 35.500000000000007 17.000000000000004 30.283333335000005 15.183333335000002 0.55000000000000016 0.36666683350000007 15.450000000000001 1.0500000000000003 26.333333335000003 0.8833333335000001 36.000000000000007 36.000000000000007 15.250000000000002 13.850000000000003 14.683333335000002 7.1666666665000003 29.583333335000003 6.5000000000000009
decision_type=2 2 2 2 2 2 2 2 2 2 2 2 2 2 2 2 2 2 2 2 2 2 2 2 2 2 2 2 2 2 2 2 2
left_child=1 2 -1 4 5 -4 22 9 13 10 -8 -11 -12 21 -13 18 17 27 20 -20 -10 -9 24 -16 -5 -7 28 -3 32 30 -30 -32 -22
right_child=-2 16 3 6 -6 25 7 8 15 11 12 14 -14 -15 23 -17 -18 -19 19 -21 26 -23 -24 -25 -26 -27 -28 -29 29 -31 31 -33 -34
leaf_value=-0.046573196518618395 0.08694076762534679 0.011286529148928817 -0.036684062651225501 0.013833223919694618 -0.085268168834348526 0.021619455108884723 -0.011057577855311909 -0.024326500226743514 -0.02522030279422844 -0.036758461159964402 0.051605908904845524 0.030214976072311401 0.01020926924641518 -0.0012450786053457043 0.0072300720795550749 0.021693778725770805 0.038786703468251388 0.032688350396023858 0.0055631736665964111 -0.044403786238815107 -0.0066877375170588463 -0.059053206381698455 0.00056226956512546173 -0.023413470547114099 0.046411767894063483 -0.0077562883496284461 0.021037975628860298 -0.016139328929906091 0.0060359545983374122 0.012029706612229348 -0.005942262591062379 -0.035633321727315585 0.017858201398381165
leaf_weight=17 14.999999999999998 10.000000000000002 13.999999999999998 12.000000000000002 11.999999999999998 15.999999999999998 12.999999999999998 16.000000000000004 13.999999999999998 11.999999999999998 14.999999999999998 9.9999999999999982 17 10.999999999999998 17.000000000000004 12.999999999999998 19 18 10.000000000000002 13.999999999999998 10.000000000000002 11.999999999999998 15.999999999999998 13.999999999999998 10.999999999999998 10.000000000000002 10.999999999999998 11.999999999999998 14.999999999999998 9.9999999999999982 14.000000000000002 11.999999999999998 13.999999999999998
leaf_count=17 15 10 14 12 12 16 13 16 14 12 15 10 17 11 17 13 19 18 10 14 10 12 16 14 11 10 11 12 15 10 14 12 14
internal_value=0 -0.00295717 -0.00667184 -0.00481342 -0.0243932 -0.00613071 -0.00156055 -0.00428458 -0.00928434 0.00469458 0.0178644 -0.00648734 0.0296139 -0.0285015 0.0023725 -0.00381377 0.0210937 0.0126896 -0.00648795 -0.0235842 -0.00238484 -0.0392094 0.0175775 -0.00660895 0.0294143 0.0103211 0.00133256 -0.00367303 -0.00155757 -0.00588147 -0.0102501 -0.0196458 0.00763073
internal_weight=0 441 382 365 52 40 313 274 176 98 45 53 32 39 41 137 59 40 124 24 100 28 39 31 23 26 86 22 75 51 41 26 24
internal_count=456 441 382 365 52 40 313 274 176 98 45 53 32 39 41 137 59 40 124 24 100 28 39 31 23 26 86 22 75 51 41 26 24
is_linear=0
shrinkage=0.2


Tree=11
num_leaves=34
num_cat=0
split_feature=2 1 0 1 5 0 9 2 5 0 0 1 2 0 0 2 3 9 1 1 0 0 2 9 1 3 3 3 5 9 5 2 1
split_gain=3.37679 2.23217 1.3132 0.733063 0.706398 0.595488 0.457232 0.433654 0.552421 0.352618 0.644803 0.310639 0.294479 0.366455 0.432764 0.250303 0.211207 0.412286 0.503437 0.393223 0.319544 0.218702 0.148144 0.14762 0.144016 0.116059 0.107183 0.0840906 0.0751905 0.0720482 0.0677411 0.0509774 0.0217756
threshold=1999.5000000000002 76185.000000000015 6.5000000000000009 697845.00000000012 45.000000000000007 12.500000000000002 7.495000000000001 1990.5000000000002 5.1666665000000007 2.5000000000000004 4.5000000000000009 659715.00000000012 1979.5000000000002 1.5000000000000002 3.5000000000000004 1987.5000000000002 28.883333335000003 6.4166666665000012 259637.50000000003 259637.50000000003 8.5000000000000018 10.000000000000002 1993.5000000000002 7.3072578000000012 517350.00000000006 30.183333335000004 29.450000000000003 30.150000000000002 10.333331665000001 7.2068965515000007 7.1666666665000003 1987.5000000000002 734250.00000000012
decision_type=2 2 2 2 2 2 2 2 2 2 2 2 2 2 2 2 2 2 2 2 2 2 2 2 2 2 2 2 2 2 2 2 2
left_child=1 -1 4 5 12 11 7 8 -5 -2 -11 24 32 -14 25 26 -12 19 29 -18 -21 -20 28 -10 -4 -15 -8 31 -16 -19 -23 -26 -3
right_child=9 2 3 6 -6 -7 15 -9 23 10 16 -13 13 14 22 -17 17 18 21 20 -22 30 -24 -25 27 -27 -28 -29 -30 -31 -32 -33 -34
leaf_value=0.072237558787067738 -0.0050314808357506992 -0.026522145234048361 -0.040594196809749857 -0.072559585207356864 0.051805903762578966 -0.080117332132963043 -0.0012425254331901666 -0.0021133042541087456 -0.0057340348139405242 0.061478643458777751 0.042478168602375424 -0.062283620548745006 -0.031256330631334671 0.038962750732898704 0.016221016915515061 0.020399284665472806 -0.025317239974226271 0.04164066512424211 0.034101918985106748 0.043665791153907764 -0.0068945575878024109 0.014651239148030676 -0.024246531073004007 -0.036495773608867937 -0.036468455791473377 0.013144243594545586 -0.027637457652017472 -0.0044718859590251346 -0.0061680494869748755 0.064221172183752062 -0.0043562750269969305 -0.017474686114851815 -0.014962607173418458
leaf_weight=11.999999999999998 14.999999999999998 16.000000000000004 19 12.999999999999998 9.9999999999999982 12.999999999999998 16.000000000000004 19 12.000000000000002 19 17 11.999999999999998 10.999999999999998 15.000000000000002 10.000000000000002 15.999999999999998 13.999999999999998 13.000000000000002 15.999999999999998 10.000000000000002 9.9999999999999982 15.000000000000002 11.999999999999998 12.999999999999998 10.000000000000002 12.999999999999998 9.9999999999999982 10.999999999999998 14.999999999999998 9.9999999999999982 14.999999999999998 12.999999999999998 10.999999999999998
leaf_count=12 15 16 19 13 10 13 16 19 12 19 17 12 11 15 10 16 14 13 16 10 10 15 12 13 10 13 10 11 15 10 15 13 11
internal_value=0 -0.0122901 -0.0157878 -0.0265413 0.00105614 -0.0410419 -0.0151166 -0.0267839 -0.0391192 0.0241014 0.0272452 -0.0332268 -0.00387102 0.002503 0.00821612 0.000717466 0.021825 0.0184162 0.0272985 0.000390323 0.0183856 0.0152186 -0.00598024 -0.0217301 -0.0266478 0.0269756 -0.0113944 -0.0188543 0.00278758 0.0514583 0.00514748 -0.0257328 -0.0218127
internal_weight=0 302 290 177 113 78 99 57 38 154 139 65 103 76 65 42 120 103 69 34 20 46 37 25 53 28 26 34 25 23 30 23 27
internal_count=456 302 290 177 113 78 99 57 38 154 139 65 103 76 65 42 120 103 69 34 20 46 37 25 53 28 26 34 25 23 30 23 27
is_linear=0
shrinkage=0.2


Tree=12
num_leaves=35
num_cat=0
split_feature=2 1 2 10 1 1 7 1 7 7 9 7 2 8 1 7 1 10 2 10 7 7 2 2 10 2 10 9 10 9 2 7 2 1
split_gain=2.19993 1.73932 0.500402 0.352107 1.32545 0.890815 0.479425 0.350027 0.232834 0.225897 0.240929 0.200835 0.183424 0.234535 0.193252 0.179871 0.168017 0.153888 0.146439 0.117886 0.114962 0.11337 0.134276 0.104996 0.0870422 0.0843674 0.0994626 0.0833002 0.0757593 0.0711767 0.101836 0.0848075 0.050977 0.0353837
threshold=1998.5000000000002 76185.000000000015 1974.5000000000002 8.0000000000000018 582772.50000000012 318306.50000000006 0.91666650000000016 607846.00000000012 1.0666668335000002 0.85000000000000009 6.0166666665000008 0.86666683350000007 2006.5000000000002 1.2500000000000002 823962.50000000012 0.78333333350000012 640286.50000000012 9.5000000000000018 1987.5000000000002 27.000000000000004 0.36666683350000007 0.35000000000000003 2003.5000000000002 1982.5000000000002 17.000000000000004 1987.5000000000002 12.000000000000002 7.495000000000001 34.500000000000007 7.2540404040000004 1988.5000000000002 0.55000000000000016 1980.5000000000002 296547.50000000006
decision_type=2 2 2 2 2 2 2 2 2 2 2 2 2 2 2 2 2 2 2 2 2 2 2 2 2 2 2 2 2 2 2 2 2 2
left_child=1 -1 11 4 -4 -5 7 25 -8 12 -11 17 14 -14 16 29 21 -3 -17 33 -16 -2 -23 27 -25 -7 -27 -9 -26 31 32 -6 -31 -12
right_child=9 2 3 5 15 6 8 23 -10 10 19 -13 13 -15 20 18 -18 -19 -20 -21 -22 22 -24 24 28 26 -28 -29 -30 30 -32 -33 -34 -35
leaf_value=0.067495618610304189 0.0025019441498443486 -0.036879745538213417 0.068792069517076018 -0.073395793512463572 -0.01093399070901796 -0.033788861979597379 -0.05084264911711215 -0.016673835180699825 -0.01304378149692308 0.0093529414336540207 0.052223286227407767 -0.049130519955522485 0.016171723773533642 -0.026148409331217412 -0.014827270656824107 -0.007545462144272666 0.038413590261418572 -0.0072257124419723238 0.024142929688096046 0.019741119990552156 0.013696034282195166 0.038272027900585759 0.0095263557508587851 -0.0052476914742818244 0.022106792375837504 -0.025632023445975316 0.00089888814836740498 0.0048797928083401457 0.0018084170917669928 -0.0067592254281043963 0.0074277639389038093 -0.036382389542731368 -0.026489370316267014 0.037969862454031646
leaf_weight=10.999999999999998 15.999999999999998 14.000000000000002 9.9999999999999982 9.9999999999999982 10.000000000000002 13.999999999999998 16.000000000000004 16.000000000000004 10.999999999999998 19 11.000000000000002 18 11.000000000000002 9.9999999999999982 10.000000000000002 14.000000000000002 19 13.999999999999998 9.9999999999999982 11.999999999999998 12.999999999999998 13.000000000000002 12.999999999999998 12.999999999999998 19 13.000000000000002 9.9999999999999982 12.999999999999998 12.000000000000002 10.000000000000005 9.9999999999999982 10.999999999999998 10.999999999999998 19
leaf_count=11 16 14 10 10 10 14 16 16 11 19 11 18 11 10 10 14 19 14 10 12 13 13 13 13 19 13 10 13 12 10 10 11 11 19
internal_value=0 -0.0105101 -0.0135856 -0.00982214 0.00034267 -0.0157689 -0.0115626 -0.00570096 -0.0354431 0.018361 0.0280407 -0.0326484 0.0127376 -0.00398072 0.0169172 -0.00866383 0.0228077 -0.0220527 0.00565803 0.0364947 0.0012946 0.0157479 0.0238992 0.00233104 0.00848887 -0.0215479 -0.0140968 -0.00701186 0.0142494 -0.0152739 -0.0091838 -0.0242641 -0.0170941 0.0431961
internal_weight=0 290 279 233 86 147 137 110 27 166 61 46 105 21 84 76 61 28 24 42 23 42 26 73 44 37 23 29 31 52 31 21 21 30
internal_count=456 290 279 233 86 147 137 110 27 166 61 46 105 21 84 76 61 28 24 42 23 42 26 73 44 37 23 29 31 52 31 21 21 30
is_linear=0
shrinkage=0.2


Tree=13
num_leaves=35
num_cat=0
split_feature=4 7 6 0 4 0 6 0 0 7 5 5 4 4 5 4 6 0 6 6 7 5 3 3 7 4 7 6 7 3 3 3 6 3
split_gain=1.88794 0.336568 0.363931 0.296829 0.660482 0.31776 0.818754 0.752307 0.368091 0.280159 0.279736 0.418282 0.239674 0.299022 0.179619 0.200916 0.140935 0.136685 0.135743 0.15381 0.129998 0.126337 0.114031 0.109608 0.104158 0.11203 0.104088 0.0972276 0.0909248 0.0894449 0.0844864 0.0394117 0.0368483 0.0166202
threshold=17.233333335000001 1.5500000000000003 80.166665000000009 10.000000000000002 16.516665000000003 7.5000000000000009 75.666668335000011 6.5000000000000009 1.5000000000000002 0.58333333350000005 1.1666666665000001 2.5000000000000004 13.983333335000003 15.816666665000001 23.500000000000004 16.383333335000003 77.500000000000014 13.500000000000002 79.416666665000022 74.666668335000011 0.7166666665000001 31.833333335000003 30.483333335000001 29.216666665000002 0.75000000000000011 14.783333335000002 0.58333333350000005 77.500000000000014 1.8833333335000002 29.950000000000003 30.650000000000002 30.050000000000004 79.416666665000022 29.650000000000002
decision_type=2 2 2 2 2 2 2 2 2 2 2 2 2 2 2 2 2 2 2 2 2 2 2 2 2 2 2 2 2 2 2 2 2 2
left_child=1 3 28 5 10 7 -7 8 -1 30 32 -12 17 21 15 18 -16 20 19 23 -13 24 -11 -10 25 -14 -25 -26 -3 -21 -8 -15 -5 -9
right_child=-2 2 -4 4 -6 6 9 33 14 22 11 12 13 31 16 -17 -18 -19 -20 29 -22 -23 -24 26 27 -27 -28 -29 -30 -31 -32 -33 -34 -35
leaf_value=-0.02393023919706282 0.069777575830618541 0.010939302889164535 0.041052120884082152 0.0071777222988506145 -0.046725365643699966 -0.023849397043094918 0.056602098115465842 -0.037742463954012179 -0.0094308882842169105 0.02588954798199913 -0.047050541740926828 0.011139753302559252 -0.0089668657630681964 -0.0003504260629415511 -0.021372353776047626 0.035472417351874438 0.0070789018789163011 0.018703503357736687 -0.011253366406474796 0.034296013178447111 -0.021109038218855861 -0.04025650560855866 -0.0036194919236004356 0.0014281880524423386 -0.017917003186250269 -0.034530664631165567 0.026122435351664371 0.0093312084861099723 -0.01268161406571215 0.01083476463905894 0.031201929152011872 0.017406088113784791 0.023616122826933861 -0.027765316367996014
leaf_weight=19 14.999999999999998 16.000000000000004 13.999999999999998 12.000000000000002 18 17 11.000000000000002 17.000000000000004 17 11.000000000000002 10.999999999999998 10.000000000000002 12.000000000000002 10.000000000000002 15.000000000000002 10.999999999999998 12.999999999999998 19 13.999999999999998 13.000000000000002 9.9999999999999982 9.9999999999999982 9.9999999999999982 18.000000000000004 11.000000000000002 15.999999999999998 10.999999999999998 9.9999999999999982 10.999999999999998 12.999999999999998 9.9999999999999982 9.9999999999999982 9.9999999999999982 10.999999999999998
leaf_count=19 15 16 14 12 18 17 11 17 17 11 11 10 12 10 15 11 13 19 14 13 10 10 10 18 11 16 11 10 11 13 10 10 10 11
internal_value=0 -0.00237339 0.0148844 -0.00414231 -0.010512 0.000517735 0.0131829 -0.00382672 0.00200586 0.0281722 -0.00619513 -0.00975007 -0.0062729 -0.012606 0.00594815 0.0100214 -0.00816284 0.00655574 0.00676607 0.0102698 -0.00498464 -0.0197701 0.0118376 0.0033202 -0.0155891 -0.0235748 0.010795 -0.00494166 0.00131597 0.0225654 0.0445068 0.00852783 0.0146497 -0.0338229
internal_weight=0 441 41 400 169 231 59 172 144 42 151 129 118 79 125 97 28 39 86 72 20 59 21 46 49 28 29 21 27 26 21 20 22 28
internal_count=456 441 41 400 169 231 59 172 144 42 151 129 118 79 125 97 28 39 86 72 20 59 21 46 49 28 29 21 27 26 21 20 22 28
is_linear=0
shrinkage=0.2


Tree=14
num_leaves=38
num_cat=0
split_feature=1 5 2 2 1 0 0 1 2 1 1 1 1 0 1 5 2 2 5 8 2 2 1 5 8 2 1 8 2 5 2 6 5 5 5 1 5
split_gain=1.24275 4.43432 1.96712 1.04315 0.389424 0.307093 0.278462 0.42066 0.270846 0.2118 0.166001 0.256685 0.248032 0.163231 0.134475 0.132607 0.129572 0.115583 0.131084 0.103476 0.0991362 0.0969714 0.080779 0.0788296 0.0698081 0.0547273 0.093075 0.215181 0.0807876 0.0345662 0.0296717 0.0267184 0.0164942 0.0137991 0.00971658 0.00885826 0.00708589
threshold=236715.00000000003 37.666666665000008 1999.5000000000002 1998.5000000000002 296547.50000000006 11.500000000000002 10.000000000000002 823962.50000000012 1974.5000000000002 1355615.0000000002 607846.00000000012 658175.00000000012 688047.50000000012 13.500000000000002 887062.50000000012 0.50000000000000011 1972.5000000000002 1996.5000000000002 3.1666666665000007 1.3666668335000003 2003.5000000000002 1989.5000000000002 543206.00000000012 11.166665000000002 1.1166666665000002 1982.5000000000002 900380.00000000012 1.3166666665000002 1978.5000000000002 9.8333333335000024 1987.5000000000002 79.833333335000006 5.6666668335000017 18.500000000000004 5.1666665000000007 640286.50000000012 12.666668335000002
decision_type=2 2 2 2 2 2 2 2 2 2 2 2 2 2 2 2 2 2 2 2 2 2 2 2 2 2 2 2 2 2 2 2 2 2 2 2 2
left_child=1 2 -1 8 -5 -4 7 15 14 10 17 21 -13 20 16 -6 23 18 -10 29 -8 35 33 -2 -15 28 27 -27 32 -17 -28 -32 -14 -20 -26 -12 -30
right_child=3 -3 5 4 6 -7 13 -9 9 -11 11 12 25 24 -16 19 -18 -19 22 -21 -22 -23 -24 -25 34 26 30 -29 36 -31 31 -33 -34 -35 -36 -37 -38
leaf_value=-0.076834309473633775 -0.035232497413050033 0.14883538067340851 0.0032435483964426172 -0.026861463573295625 0.016023399435768002 0.043243287700940582 0.0039000014914199695 -0.011533699308832487 -0.027999528440145346 -0.036334869628772137 0.00063553508371114696 -0.032265940454921559 -0.0069083034653555243 0.026121944077312938 -0.0083395572645323622 0.051715476524371355 -0.050717344665899881 -0.032225630210282713 -0.017796617746353143 0.0235636006295681 -0.023614359422671524 0.028223384205590597 0.0072647355762975561 -0.011288684708150951 0.010064463429152962 0.0071355282587723598 -0.0030236918106675151 -0.024241051140843947 -0.02275966521352529 0.036075071627274156 0.0045129244914278383 0.017317365245385605 0.0040442105933007873 -0.0072898332029581077 0.0012478527333587407 0.0090537323709577316 -0.015230579003691675
leaf_weight=9.9999999999999982 11.000000000000002 9.9999999999999982 14.000000000000002 9.9999999999999982 19 17 10.000000000000002 11.999999999999998 12.999999999999998 9.9999999999999982 10.000000000000005 13.999999999999998 11.000000000000002 10.000000000000002 13.999999999999998 13.000000000000002 9.9999999999999982 12.999999999999998 10.000000000000002 14.999999999999998 10.999999999999998 10.999999999999998 13.999999999999998 10.999999999999998 10.000000000000002 18 9.9999999999999982 17 10.000000000000002 9.9999999999999982 16.000000000000004 10.999999999999998 10.999999999999998 9.9999999999999982 9.9999999999999982 9.9999999999999982 9.9999999999999982
leaf_count=10 11 10 14 10 19 17 10 12 13 10 10 14 11 10 14 13 10 13 10 15 11 11 14 11 10 18 10 17 10 10 16 11 11 10 10 10 10
internal_value=0 0.0294227 0.000297621 -0.00370508 0.0110578 0.0251789 0.0142178 0.0225007 -0.0106839 -0.0078708 -0.00657107 -0.00318854 -0.00714319 0.00301146 -0.0246883 0.0296658 -0.0318408 -0.0155348 -0.0109181 0.036487 -0.0105123 0.0131403 -0.00438701 -0.0232606 0.0124781 -0.00405794 -0.000711076 -0.00810452 -0.00979542 0.0449153 0.00628273 0.00972955 -0.00143205 -0.0125432 0.00565616 0.00484463 -0.0189951
internal_weight=0 51 41 405 130 31 120 69 275 229 219 159 128 51 46 57 32 60 47 38 21 31 34 22 30 114 72 35 42 23 37 27 22 20 20 20 20
internal_count=456 51 41 405 130 31 120 69 275 229 219 159 128 51 46 57 32 60 47 38 21 31 34 22 30 114 72 35 42 23 37 27 22 20 20 20 20
is_linear=0
shrinkage=0.2


Tree=15
num_leaves=37
num_cat=0
split_feature=8 2 7 7 1 0 1 0 2 6 0 8 6 1 1 1 0 1 6 1 1 1 2 0 2 2 7 7 0 7 7 2 6 1 7 2
split_gain=1.03953 0.915183 0.548809 0.592005 0.405358 0.302134 0.285716 0.202787 0.219035 0.150951 0.147276 0.152118 0.30898 0.290902 0.128882 0.149716 0.128899 0.125571 0.129587 0.233976 0.288995 0.138557 0.123925 0.103215 0.131 0.0902408 0.0881024 0.0798335 0.075305 0.134787 0.0666646 0.0501282 0.0360216 0.0310114 0.0280978 0.0065352
threshold=2.4666665000000005 1991.5000000000002 0.86666683350000007 1.0166666665000001 296547.50000000006 1.5000000000000002 248950.00000000003 3.5000000000000004 1998.5000000000002 77.166665000000009 6.5000000000000009 0.94166666650000008 75.333331665000017 1232720.0000000002 533377.50000000012 620562.50000000012 7.5000000000000009 339971.00000000006 78.166666665000022 659715.00000000012 472240.00000000006 808745.00000000012 1979.5000000000002 10.000000000000002 1982.5000000000002 1986.5000000000002 0.75000000000000011 0.61666666650000013 11.500000000000002 0.58333333350000005 1.7833335000000001 2010.5000000000002 74.666668335000011 960125.50000000012 0.31666666650000003 1984.5000000000002
decision_type=2 2 2 2 2 2 2 2 2 2 2 2 2 2 2 2 2 2 2 2 2 2 2 2 2 2 2 2 2 2 2 2 2 2 2 2
left_child=1 4 5 -4 -1 -3 -7 -8 28 -5 22 12 -12 14 -13 -16 -17 -10 -19 20 -20 -21 26 24 -18 32 -6 34 29 -9 31 -11 -25 -23 -24 -29
right_child=-2 2 3 9 10 6 7 8 17 30 11 13 -14 -15 15 16 23 18 19 21 -22 33 27 25 -26 -27 -28 35 -30 -31 -32 -33 -34 -35 -36 -37
leaf_value=-0.048393672907894314 0.060736454345963226 -0.032949635935947297 0.057098907828330991 -0.004057826672215015 -0.0045306758734544638 -0.020001964800451934 0.027335293916985394 -0.0040129098158917928 0.0295443937859752 0.016445437036454673 -0.0015105436556041235 -0.033147442917106675 -0.048271944889655485 0.019309453386813405 0.011960859373211861 -0.035215284451842313 -0.013137810540917725 0.026166367463090201 0.008278515596281396 0.030067081811527414 -0.03869880445301533 0.010758543196134266 0.0040520563044331281 -0.01822751698394616 0.016833578241057696 -0.033753510490059854 -0.027723101601004604 0.0090291604738343811 0.0044139838276001124 -0.0326993102952838 0.010343750164304909 0.036010648928244009 -0.0019745727255940436 -0.0049923649523407228 -0.0092558894772082571 0.015778113001336656
leaf_weight=10.999999999999998 10.999999999999998 9.9999999999999982 14.999999999999998 15.999999999999998 19.000000000000004 19 15.999999999999998 19.000000000000004 10.999999999999998 10.000000000000002 10.000000000000002 11.999999999999998 12.999999999999998 11.999999999999998 9.9999999999999982 9.9999999999999982 14.000000000000002 10.999999999999998 11.000000000000002 11.999999999999998 9.9999999999999982 10.000000000000002 11.000000000000002 12.000000000000002 9.9999999999999982 9.9999999999999982 9.9999999999999982 11.000000000000002 12.999999999999998 9.9999999999999982 19 10.999999999999998 9.9999999999999982 9.9999999999999982 14.999999999999998 11.999999999999998
leaf_count=11 11 10 15 16 19 19 16 19 11 10 10 12 13 12 10 10 14 11 11 12 10 10 11 12 10 10 10 11 13 10 19 11 10 10 15 12
internal_value=0 -0.00150135 0.0071502 0.0218121 -0.0110099 0.000724291 0.00293968 0.00621706 0.0033291 0.0123603 -0.00896401 -0.0132752 -0.0279409 -0.00990205 -0.0138854 -0.0108441 -0.0142994 0.00980481 0.00641207 0.00231212 -0.0140916 0.0130771 -0.00216566 -0.0105644 -0.000649732 -0.0180003 -0.0125281 0.00396719 -0.00823468 -0.0139048 0.0189276 0.0266939 -0.0108398 0.00288309 -0.0036256 0.0125504
internal_weight=0 445 233 71 212 162 152 133 117 56 201 123 23 100 88 76 66 75 64 53 21 32 78 56 24 32 29 49 42 29 40 21 22 20 26 23
internal_count=456 445 233 71 212 162 152 133 117 56 201 123 23 100 88 76 66 75 64 53 21 32 78 56 24 32 29 49 42 29 40 21 22 20 26 23
is_linear=0
shrinkage=0.2


Tree=16
num_leaves=39
num_cat=0
split_feature=1 5 1 8 5 5 5 6 6 8 0 1 0 6 0 1 8 8 0 6 1 8 1 8 1 1 1 5 6 8 5 8 5 6 1 1 5 5
split_gain=0.805974 2.94493 0.444059 0.239634 0.252505 0.438481 0.228937 0.266764 0.187482 0.656889 0.109874 0.242124 0.219467 0.132604 0.152265 0.157493 0.141762 0.109529 0.0976135 0.143004 0.169389 0.0847418 0.112477 0.0677613 0.066426 0.0588555 0.0802985 0.0505873 0.0475662 0.0403712 0.0391837 0.0283562 0.0434252 0.0188934 0.0182703 0.0176531 0.0120017 0.00854632
threshold=236715.00000000003 37.666666665000008 166655.00000000003 2.2333333335000005 43.500000000000007 52.333333335000006 20.166666665000005 78.500000000000014 83.166666665000022 1.3166666665000002 6.5000000000000009 710290.00000000012 7.5000000000000009 75.500000000000014 10.000000000000002 858192.50000000012 1.3166666665000002 1.4166665000000001 2.5000000000000004 75.666668335000011 622197.50000000012 1.1666668335000001 922170.00000000012 1.0166666665000001 314090.00000000006 654732.50000000012 870000.00000000012 12.351851850000001 73.333331665000017 1.0666668335000002 7.8333333335000015 1.3666668335000003 3.8333333335000002 80.500000000000014 923622.50000000012 668792.50000000012 12.666668335000002 5.6666668335000017
decision_type=2 2 2 2 2 2 2 2 2 2 2 2 2 2 2 2 2 2 2 2 2 2 2 2 2 2 2 2 2 2 2 2 2 2 2 2 2 2
left_child=1 2 6 4 8 -6 7 -1 10 -10 11 18 35 17 25 16 24 21 29 20 28 22 -14 -17 -16 -15 -27 -18 -20 -2 -31 32 -13 -26 -34 -12 -19 -21
right_child=3 -3 -4 -5 5 -7 -8 -9 9 -11 12 31 13 14 15 23 27 36 19 37 -22 -23 -24 -25 33 26 -28 -29 -30 30 -32 -33 34 -35 -36 -37 -38 -39
leaf_value=-0.023388109430670725 -0.0067861037018398448 0.12100849986076355 0.034333002499558708 -0.029698307325060555 -0.049299505663414789 0.001275272815473727 -0.037352250516414644 0.022808353295549751 -0.056133168227970577 0.014692296350205487 -0.026512310095131393 -0.0013275961391627789 0.0048023458632330089 0.0036433552205562582 0.016029835613444451 0.025800935588777059 -0.026033897855533995 0.0082660027872770991 0.0073392481184922712 0.025634217336773863 0.02912023863331838 -0.024453401058802712 -0.022580923847854137 0.0045467085018754006 -0.0074386304579093111 0.035107872784137711 0.0097624923288822177 -0.0080261947431912017 -0.010530435550026597 0.016739984788000577 -0.00096507679671049113 0.0023886073380708695 -0.02078257711096243 0.0033287655757951807 -0.008970784181728959 -0.015134436450898648 -0.00046591404825448992 0.03390286851907149
leaf_weight=10.000000000000005 11.999999999999998 9.9999999999999982 10.999999999999998 12.999999999999998 12.000000000000002 15.999999999999998 9.9999999999999982 9.9999999999999982 10.000000000000002 10.999999999999998 12.000000000000002 15.999999999999998 15.000000000000002 10.000000000000002 9.9999999999999982 10.000000000000002 13.000000000000002 10.000000000000002 13.000000000000002 10.000000000000002 10.999999999999998 17 9.9999999999999982 14.999999999999998 16.000000000000004 10.000000000000002 9.9999999999999982 11.999999999999998 10.999999999999998 10.000000000000002 9.9999999999999982 10.999999999999998 11.000000000000002 10.999999999999998 9.9999999999999982 9.9999999999999982 17 9.9999999999999982
leaf_count=10 12 10 11 13 12 16 10 10 10 11 12 16 15 10 10 10 13 10 13 10 11 17 10 15 16 10 10 12 11 10 10 11 11 11 10 10 17 10
internal_value=0 0.0236947 -4.04156e-05 -0.00298377 -0.00209783 -0.0203996 -0.012644 -0.000289878 -0.000690001 -0.0190341 0.000433108 0.00487631 -0.0024507 -0.000216417 0.00388452 -0.00035228 -0.00575578 -0.00717018 0.0111676 0.0162776 0.00856852 -0.0135591 -0.00615096 0.0130484 0.00210532 0.0161712 0.0224352 -0.0173902 -0.000851024 0.00238487 0.00788745 -0.00652673 -0.00917724 -0.00305191 -0.0151579 -0.0213405 0.00276813 0.0297685
internal_weight=0 51 41 405 392 28 30 20 364 21 343 135 208 186 117 87 62 69 87 55 35 42 25 25 37 30 20 25 24 32 20 48 37 27 21 22 27 20
internal_count=456 51 41 405 392 28 30 20 364 21 343 135 208 186 117 87 62 69 87 55 35 42 25 25 37 30 20 25 24 32 20 48 37 27 21 22 27 20
is_linear=0
shrinkage=0.2


Tree=17
num_leaves=36
num_cat=0
split_feature=7 1 1 3 1 7 9 10 0 0 9 9 0 9 7 7 10 3 3 1 9 0 3 1 9 3 0 1 3 1 3 9 7 3 1
split_gain=0.663041 2.03841 0.73615 0.903673 0.770901 0.539864 0.125683 0.102525 0.100389 0.0955085 0.141102 0.129989 0.178972 0.163694 0.206491 0.117591 0.085937 0.0667434 0.0643608 0.0691984 0.0632443 0.0717712 0.0575032 0.0687746 0.0701078 0.0500994 0.0485617 0.0426825 0.0367184 0.033639 0.0329431 0.0328542 0.0325454 0.0241569 0.0232726
threshold=1.0666668335000002 144907.00000000003 166655.00000000003 30.050000000000004 259637.50000000003 1.0166666665000001 5.5833333335000006 3.5000000000000004 1.5000000000000002 4.5000000000000009 8.2500000000000018 7.635185185000001 8.5000000000000018 6.5416666665000003 0.51666666650000004 0.28333333350000006 9.5000000000000018 29.950000000000003 29.866668335000004 492487.50000000006 6.6500000000000012 7.5000000000000009 30.416665000000005 561685.00000000012 7.303448276000001 29.412962965000002 6.5000000000000009 964720.00000000012 29.650000000000002 688047.50000000012 29.683333335000004 7.635185185000001 0.65000000000000013 30.716666665000002 651085.00000000012
decision_type=2 2 2 2 2 2 2 2 2 2 2 2 2 2 2 2 2 2 2 2 2 2 2 2 2 2 2 2 2 2 2 2 2 2 2
left_child=2 -2 3 -1 -4 7 -3 -6 -9 16 11 13 34 14 -11 28 -10 31 25 -20 -17 26 23 -23 -25 -8 -22 -26 -15 -24 -14 -18 -19 -21 -13
right_child=1 6 4 -5 5 -7 18 8 9 10 -12 12 30 15 -16 20 17 32 19 33 21 22 29 24 27 -27 -28 -29 -30 -31 -32 -33 -34 -35 -36
leaf_value=-0.083387249112129191 0.092281682277098306 0.024270944055169823 0.050819746946746659 -0.005769686698913575 -0.016697195807800574 -0.048760050460696223 0.00037873668345407791 -0.015232780544708172 0.021494425288759746 0.032354796203699972 -0.020517741007109486 -0.010163629393685945 0.014184457405159868 -0.010052614733576772 -0.0063976317443038251 0.010075323991119288 0.017891024454281878 -0.0083613099944260371 0.01427043559961021 0.0035994068486616005 -0.0060547758932583606 -0.010143060516566039 -0.003325474126772446 0.01527781270663528 0.0046683743498043004 -0.017960605397820472 -0.024110483733767812 -0.011474368013441564 -0.026462002684517455 -0.019352933838963512 0.029337131062691865 0.0026428475324064495 0.0058691057562828067 -0.0097103872708976281 0.0025722661754116419
leaf_weight=10.000000000000002 11.999999999999998 9.9999999999999982 10.999999999999998 14.999999999999998 17 9.9999999999999982 13.000000000000002 18 12.999999999999998 11.000000000000002 14.999999999999998 11.000000000000002 12.000000000000002 10.000000000000002 10.999999999999998 12.999999999999998 13.000000000000002 18.000000000000004 18 12.000000000000002 13 15.999999999999998 11.000000000000002 17 19.000000000000004 10.999999999999998 11 9.9999999999999982 11.999999999999998 9.9999999999999982 10.999999999999998 9.9999999999999982 9.9999999999999982 9.9999999999999982 11.999999999999998
leaf_count=10 12 10 11 15 17 10 13 18 13 11 15 11 12 10 11 13 13 18 18 12 13 16 11 17 19 11 11 10 12 10 11 10 10 10 12
internal_value=0 0.0158186 -0.00367677 -0.0368167 -0.00127532 -0.00299103 0.00341923 -0.0015784 -0.000741205 0.000161384 -0.00177772 -0.000439146 0.00895629 -0.00307445 0.0129786 -0.00556154 0.00697854 0.00327842 0.000161153 0.00507392 -0.00309724 -0.00469764 -0.00191229 0.00115144 0.00507996 -0.0080268 -0.0143303 -0.000898089 -0.0190032 -0.0109576 0.0214314 0.0112614 -0.00327902 -0.0024505 -0.00351881
internal_weight=0 86 370 25 345 334 74 324 307 289 225 210 46 164 22 142 64 51 64 40 120 107 83 62 46 24 24 29 22 21 23 23 28 22 23
internal_count=456 86 370 25 345 334 74 324 307 289 225 210 46 164 22 142 64 51 64 40 120 107 83 62 46 24 24 29 22 21 23 23 28 22 23
is_linear=0
shrinkage=0.2


end of trees

feature_importances:
Column_1=107
Column_10=78
Column_2=67
Column_5=59
Column_7=55
Column_3=50
Column_0=47
Column_8=46
Column_4=43
Column_6=38
Column_9=32

parameters:
[boosting: gbdt]
[objective: regression]
[metric: rmse]
[tree_learner: serial]
[device_type: cpu]
[linear_tree: 0]
[data: ]
[valid: ]
[num_iterations: 10000]
[learning_rate: 0.2]
[num_leaves: 63]
[num_threads: 0]
[deterministic: 0]
[force_col_wise: 0]
[force_row_wise: 0]
[histogram_pool_size: -1]
[max_depth: -1]
[min_data_in_leaf: 10]
[min_sum_hessian_in_leaf: 0.001]
[bagging_fraction: 1]
[pos_bagging_fraction: 1]
[neg_bagging_fraction: 1]
[bagging_freq: 0]
[bagging_seed: 21709]
[feature_fraction: 0.5]
[feature_fraction_bynode: 1]
[feature_fraction_seed: 24116]
[extra_trees: 0]
[extra_seed: 15571]
[early_stopping_round: 50]
[first_metric_only: 0]
[max_delta_step: 0]
[lambda_l1: 0]
[lambda_l2: 0]
[linear_lambda: 0]
[min_gain_to_split: 0]
[drop_rate: 0.1]
[max_drop: 50]
[skip_drop: 0.5]
[xgboost_dart_mode: 0]
[uniform_drop: 0]
[drop_seed: 15722]
[top_rate: 0.2]
[other_rate: 0.1]
[min_data_per_group: 100]
[max_cat_threshold: 32]
[cat_l2: 10]
[cat_smooth: 10]
[max_cat_to_onehot: 4]
[top_k: 20]
[monotone_constraints: ]
[monotone_constraints_method: basic]
[monotone_penalty: 0]
[feature_contri: ]
[forcedsplits_filename: ]
[refit_decay_rate: 0.9]
[cegb_tradeoff: 1]
[cegb_penalty_split: 0]
[cegb_penalty_feature_lazy: ]
[cegb_penalty_feature_coupled: ]
[path_smooth: 0]
[interaction_constraints: ]
[verbosity: -1]
[saved_feature_importance_type: 0]
[max_bin: 255]
[max_bin_by_feature: ]
[min_data_in_bin: 3]
[bin_construct_sample_cnt: 200000]
[data_random_seed: 4074]
[is_enable_sparse: 1]
[enable_bundle: 1]
[use_missing: 1]
[zero_as_missing: 0]
[feature_pre_filter: 1]
[pre_partition: 0]
[two_round: 0]
[header: 0]
[label_column: ]
[weight_column: ]
[group_column: ]
[ignore_column: ]
[categorical_feature: ]
[forcedbins_filename: ]
[objective_seed: 10917]
[num_class: 1]
[is_unbalance: 0]
[scale_pos_weight: 1]
[sigmoid: 1]
[boost_from_average: 1]
[reg_sqrt: 0]
[alpha: 0.9]
[fair_c: 1]
[poisson_max_delta_step: 0.7]
[tweedie_variance_power: 1.5]
[lambdarank_truncation_level: 30]
[lambdarank_norm: 1]
[label_gain: ]
[eval_at: ]
[multi_error_top_k: 1]
[auc_mu_weights: ]
[num_machines: 1]
[local_listen_port: 12400]
[time_out: 120]
[machine_list_filename: ]
[machines: ]
[gpu_platform_id: -1]
[gpu_device_id: -1]
[gpu_use_dp: 0]
[num_gpu: 1]

end of parameters

pandas_categorical:null
