tree
version=v3
num_class=1
num_tree_per_iteration=1
label_index=0
max_feature_idx=10
objective=regression
feature_names=Column_0 Column_1 Column_2 Column_3 Column_4 Column_5 Column_6 Column_7 Column_8 Column_9 Column_10
feature_infos=[1:18] [15540:1541410] [1969:2013] [27.300000000000001:32.833333330000002] [11.66666667:18.93333333] [0:90] [66:91.333333330000002] [0.033333333:5.8666669999999996] [0.366666667:3.1000000000000001] [2.3666666670000001:9.6999999999999993] [3:63]
tree_sizes=3421 3464 3529 3538 3461 3551 3606 3488 3504 3615

Tree=0
num_leaves=35
num_cat=0
split_feature=1 6 6 0 0 0 5 5 9 9 3 3 1 6 3 6 9 0 0 1 0 0 9 1 1 1 0 3 9 5 1 9 9 3
split_gain=103.092 23.9184 23.8482 17.0582 16.1094 13.6733 12.4582 8.88773 8.076 7.23965 6.54214 5.00557 4.69793 4.50024 3.83274 3.60594 3.17735 3.05468 2.93051 2.79335 2.39946 2.31628 2.12674 1.8447 1.77594 1.65589 1.49435 1.12704 0.754162 0.64078 0.592691 1.06087 1.25254 0.186733
threshold=466392.00000000006 76.833333335000006 78.166666665000022 3.5000000000000004 17.500000000000004 12.500000000000002 0.50000000000000011 11.833333335000001 6.855172414000001 6.8166666665000006 30.050000000000004 30.116666665000004 859950.00000000012 79.833333335000006 30.183333335000004 82.500000000000014 7.4407407405000008 6.5000000000000009 2.5000000000000004 804138.50000000012 13.500000000000002 10.000000000000002 7.3107060755000015 875955.00000000012 674025.00000000012 543206.00000000012 7.5000000000000009 29.116665000000005 8.4500000000000011 10.833333335000001 1059760.0000000002 7.6166666665000013 7.2373737370000013 29.283333335000005
decision_type=2 2 2 2 2 2 2 2 2 2 2 2 2 2 2 2 2 2 2 2 2 2 2 2 2 2 2 2 2 2 2 2 2 2
left_child=2 3 6 18 5 14 -1 9 -8 -3 13 -10 17 22 -4 20 29 24 28 -12 21 23 -9 -11 -5 -19 -27 -15 -2 -7 31 32 -14 -28
right_child=1 7 4 12 -6 16 8 10 11 15 19 -13 30 27 -16 -17 -18 25 -20 -21 -22 -23 -24 -25 -26 26 33 -29 -30 -31 -32 -33 -34 -35
leaf_value=0.22676483027243452 -0.015143041560149791 0.15026678279928082 0.11022938403571343 -0.060041579181369327 0.011455169651186564 0.3451895127947962 0.12078639329624304 -0.11227920122838182 -0.15271702207566915 0.083269645597123867 0.071868499828461593 0.024906938390426719 -0.066520342329557947 0.005093392649624536 0.23726429194139242 -0.082827014741545371 0.44552084667045255 -0.27641931272985165 0.058693118095460503 -0.044561675328035302 0.099054588651243641 -0.072834033008197796 -0.23971780555885655 -0.019663253267408233 -0.17416239825329802 -0.25392115122608871 -0.18883524375599239 -0.082817231164221752 -0.09103148030680043 0.27523789832821599 -0.14478441131102118 -0.039841794897081124 -0.15457621423558299 -0.15474869788462872
leaf_weight=10.999999999999998 11.000000000000002 18 19 10.000000000000002 12.999999999999998 10.000000000000005 11.999999999999998 11.000000000000002 15.000000000000002 15.000000000000002 15.999999999999998 10.999999999999998 12 10.000000000000002 19 13.999999999999998 9.9999999999999982 11.999999999999998 18 17 14.999999999999998 10.999999999999998 9.9999999999999982 12.999999999999998 11.999999999999998 10.999999999999998 10.000000000000002 13.999999999999998 9.9999999999999982 10.999999999999998 10.999999999999998 10.999999999999998 14 18
leaf_count=11 11 18 19 10 13 10 12 11 15 15 16 11 12 10 19 14 10 12 18 17 15 11 10 13 12 11 10 14 10 11 11 11 14 18
internal_value=1.01883e-09 -0.0605342 0.149718 -0.11555 0.215683 0.254161 0.039328 -0.00686048 -0.0149301 0.0374801 -0.0557488 -0.0775684 -0.152624 -0.10535 0.173747 0.00762483 0.352733 -0.18458 -0.000523388 0.0118893 0.0310753 0.00492944 -0.172964 0.0354794 -0.122289 -0.211451 -0.191461 -0.0461878 -0.0512804 0.308548 -0.104025 -0.0919073 -0.113935 -0.166922
internal_weight=0 324 131 160 82 69 49 164 38 86 78 26 121 45 38 68 31 73 39 33 54 39 21 28 22 51 39 24 21 21 48 37 26 28
internal_count=455 324 131 160 82 69 49 164 38 86 78 26 121 45 38 68 31 73 39 33 54 39 21 28 22 51 39 24 21 21 48 37 26 28
is_linear=0
shrinkage=1


Tree=1
num_leaves=35
num_cat=0
split_feature=1 10 10 7 7 10 10 0 7 1 1 0 1 7 0 7 7 0 1 1 8 1 7 1 1 4 1 7 7 0 8 7 4 4
split_gain=65.9792 29.9548 18.1783 10.3703 8.87891 7.66446 7.27653 9.61346 6.90187 3.87283 3.31678 1.74321 2.78864 6.52685 7.01316 1.53256 1.97609 1.75315 2.02089 1.46648 1.4542 1.26405 1.36664 0.986654 0.913921 0.809516 1.21695 0.850821 0.790033 0.734981 1.65985 0.452626 0.258594 0.222118
threshold=466392.00000000006 17.000000000000004 8.0000000000000018 1.5500000000000003 1.4500000000000002 17.000000000000004 8.0000000000000018 6.5000000000000009 1.0666668335000002 622810.00000000012 325340.00000000006 8.5000000000000018 815355.00000000012 0.65000000000000013 7.5000000000000009 0.96666683350000016 0.7166666665000001 15.500000000000002 915152.50000000012 664297.50000000012 1.1166666665000002 383118.00000000006 0.55000000000000016 651085.00000000012 23965.500000000004 15.766668335 850742.50000000012 0.55000000000000016 0.68333333350000014 4.5000000000000009 1.1166666665000002 0.35000000000000003 13.950000000000001 14.450000000000001
decision_type=2 2 2 2 2 2 2 2 2 2 2 2 2 2 2 2 2 2 2 2 2 2 2 2 2 2 2 2 2 2 2 2 2 2
left_child=1 2 10 5 21 6 11 29 24 20 -1 12 13 -2 -15 16 17 18 -11 28 -7 22 -4 -13 -3 26 -25 31 -9 30 -8 -27 -18 -24
right_child=3 8 4 -5 -6 9 7 19 -10 15 -12 23 -14 14 -16 -17 32 -19 -20 -21 -22 -23 33 25 -26 27 -28 -29 -30 -31 -32 -33 -34 -35
leaf_value=0.13774107038974759 0.13649195595221086 0.14801129644567312 0.028376869026284952 0.12658187145223984 0.13612669972436769 0.010980979149991812 -0.089018483595414574 -0.13593952705462772 0.355682470518 -0.065599395727945695 0.28644173979759219 -0.1282562431693077 -0.09347804328426719 0.050577604273955024 -0.1462455719177212 -0.081800429123502827 0.054158940333873022 -0.11600953735411168 0.033798303181926413 -0.25800153911113738 0.11382064683870836 -0.090606343932449818 -0.075996768213808519 -0.13778579912402408 0.22390907208124797 -0.044639075002991226 -0.05137040057452396 -0.086545015736059716 -0.20710350366739128 -0.089451740769778978 0.020852467595514929 0.010484475506977602 0.011379826842592313 -0.033842931389808657
leaf_weight=15.000000000000002 10.999999999999998 11.000000000000002 12.999999999999998 12.999999999999998 13.999999999999998 11.000000000000002 11.000000000000002 12.000000000000002 17 18 9.9999999999999982 9.9999999999999982 15.999999999999998 15 14 19 10.000000000000002 9.9999999999999982 14.999999999999998 11.999999999999998 10.999999999999998 15.999999999999998 10.000000000000002 11.000000000000002 14.999999999999998 13.000000000000002 15.999999999999998 10.999999999999998 12.999999999999998 17 10.999999999999998 10.999999999999998 12.999999999999998 9.9999999999999982
leaf_count=15 11 11 13 13 14 11 11 12 17 18 10 10 16 15 14 19 10 10 15 12 11 16 10 11 15 13 16 11 13 17 11 11 13 10
internal_value=0 0.119775 0.0529217 -0.0484274 -0.00434009 -0.0557429 -0.0784817 -0.127502 0.25659 -0.0123904 0.197221 -0.0493759 -0.0229109 0.00531594 -0.0444405 -0.0317481 -0.0173391 -0.0426491 -0.0204186 -0.200531 0.0624008 -0.0444735 -0.022106 -0.0699598 0.191798 -0.0605572 -0.0865767 -0.040485 -0.172945 -0.0582181 -0.034083 -0.0193741 0.0299794 -0.0549198
internal_weight=0 131 88 324 63 311 204 76 43 107 25 128 56 40 29 85 66 43 33 37 22 49 33 72 26 62 27 35 25 39 22 24 23 20
internal_count=455 131 88 324 63 311 204 76 43 107 25 128 56 40 29 85 66 43 33 37 22 49 33 72 26 62 27 35 25 39 22 24 23 20
is_linear=0
shrinkage=0.2


Tree=2
num_leaves=35
num_cat=0
split_feature=1 4 6 6 5 4 1 9 1 8 9 6 9 5 1 5 6 1 1 9 9 6 1 6 8 9 9 6 1 8 6 4 1 4
split_gain=42.2267 12.6445 12.3947 11.9245 4.6859 4.51422 3.59594 3.23169 3.90182 2.58183 2.54908 2.3329 2.27989 1.61771 1.81083 1.61715 1.44435 1.31647 1.09533 1.37049 2.57985 1.19551 0.974833 1.83627 0.861936 0.82215 0.772464 0.721967 0.706275 0.695336 0.498176 0.387419 0.17568 0.115951
threshold=466392.00000000006 16.750000000000004 76.833333335000006 76.416666665000022 11.833333335000001 15.950000000000001 651085.00000000012 7.3833333335000004 144907.00000000003 1.3666668335000003 8.0500000000000025 83.166666665000022 7.0833333335000006 13.166666665000003 250562.50000000003 45.500000000000007 78.500000000000014 606337.50000000012 543206.00000000012 7.5086206895000007 7.2068965515000007 72.500000000000014 727657.50000000012 79.833333335000006 1.2166666665000003 6.6500000000000012 8.0500000000000025 81.166666665000022 329885.00000000006 0.98333333350000018 82.500000000000014 15.250000000000002 804138.50000000012 14.350000000000003
decision_type=2 2 2 2 2 2 2 2 2 2 2 2 2 2 2 2 2 2 2 2 2 2 2 2 2 2 2 2 2 2 2 2 2 2
left_child=1 3 5 9 6 18 12 13 -9 -1 -7 16 -4 25 -15 17 -8 -6 -2 20 32 -21 -19 -24 33 28 -26 29 -5 -18 -25 -22 -20 -23
right_child=2 -3 4 7 15 10 11 8 -10 -11 -12 -13 -14 14 -16 -17 27 22 19 21 31 24 23 30 26 -27 -28 -29 -30 -31 -32 -33 -34 -35
leaf_value=-0.11123724144238689 -0.1468210409084956 0.30104893283410505 0.1731579062342643 0.13832644350253617 -0.082540708594024181 -0.064389436417504373 -0.029941672889085919 0.12867663092911238 -0.043937829949639066 0.023934642821550372 0.043958042547455993 -0.066932801486781018 0.041210582581433383 0.1433299838503202 0.04799027986386243 -0.09999569786282686 0.10211588254120818 0.040957113417486354 -0.087684156813404746 -0.11790111235209876 -0.13579282781574872 -0.037350967042148096 -0.076761556346900767 0.03503211737344307 -0.038836123496294006 0.11561467805877329 -0.11563985997980292 0.010672585746007306 0.20201750357945758 0.035353015176951885 -0.021844126775183464 -0.18455084562301638 -0.054850679356604815 -0.0075945081358606177
leaf_weight=13.000000000000002 14.999999999999998 10.999999999999998 10.000000000000002 13.000000000000002 11.999999999999998 19 12.999999999999998 10.000000000000002 10.999999999999998 9.9999999999999982 15.999999999999998 12.999999999999998 10.999999999999998 14.999999999999998 17 12.999999999999998 12.000000000000002 11.999999999999998 11.000000000000002 13.999999999999998 16.000000000000004 10.000000000000002 15.999999999999998 14.000000000000002 10.000000000000002 15.999999999999998 10.999999999999998 13.999999999999998 14.999999999999998 12.999999999999998 10.999999999999998 10.999999999999998 15.999999999999998 10.999999999999998
leaf_count=13 15 11 10 13 12 19 13 10 11 10 16 13 11 15 17 13 12 12 11 14 16 10 16 14 10 16 11 14 15 13 11 11 16 11
internal_value=0 0.0958197 -0.0387419 0.077007 -0.00010393 -0.0783458 0.0320921 0.107707 0.0382595 -0.0524669 -0.0148592 0.00884658 0.104043 0.126896 0.0926808 -0.0356022 0.0277914 -0.0227234 -0.0961221 -0.0892086 -0.111942 -0.0672869 -0.00917991 -0.0238542 -0.0504155 0.15178 -0.0790667 0.0470358 0.172447 0.0673992 0.0100066 -0.155657 -0.0682273 -0.0217643
internal_weight=0 131 324 120 164 160 86 97 21 23 35 65 21 76 32 78 52 65 125 110 54 56 53 41 42 44 21 39 28 25 25 27 27 21
internal_count=455 131 324 120 164 160 86 97 21 23 35 65 21 76 32 78 52 65 125 110 54 56 53 41 42 44 21 39 28 25 25 27 27 21
is_linear=0
shrinkage=0.2


Tree=3
num_leaves=36
num_cat=0
split_feature=2 1 2 1 2 2 10 3 10 10 10 10 2 1 3 2 1 3 3 2 5 10 10 3 10 1 2 5 6 5 5 6 1 6 1
split_gain=72.0563 17.7522 8.12969 3.60474 3.37419 2.89206 2.80239 2.61523 2.20968 1.91643 1.5499 1.16154 0.995612 0.971073 0.883037 1.14074 0.730575 0.919492 2.23107 1.28279 0.662089 0.509789 0.476544 0.47019 0.704869 0.370842 0.282428 0.213089 0.193137 0.184456 0.156219 0.108431 0.107621 0.105466 0.0892786
threshold=1998.5000000000002 70030.000000000015 1974.5000000000002 547711.00000000012 2008.5000000000002 1989.5000000000002 5.0000000000000009 30.516666665000006 9.5000000000000018 17.000000000000004 17.000000000000004 5.0000000000000009 2005.5000000000002 325340.00000000006 29.216666665000002 1993.5000000000002 644915.00000000012 28.466668335000005 28.716666665000002 1987.5000000000002 9.1666666665000012 8.0000000000000018 6.5000000000000009 29.450000000000003 12.000000000000002 648156.50000000012 1982.5000000000002 12.666668335000002 79.416666665000022 11.166665000000002 6.5000000000000009 78.166666665000022 710290.00000000012 77.166666665000022 815355.00000000012
decision_type=2 2 2 2 2 2 2 2 2 2 2 2 2 2 2 2 2 2 2 2 2 2 2 2 2 2 2 2 2 2 2 2 2 2 2
left_child=1 -1 9 23 6 16 34 8 -8 20 13 -7 28 21 -13 -16 22 33 -19 26 -3 -6 -5 -4 -25 -9 29 -17 -10 -20 -30 -28 -31 -18 -2
right_child=4 2 3 5 10 11 7 25 12 -11 -12 14 -14 -15 15 27 17 18 19 -21 -22 -23 -24 24 -26 -27 31 -29 30 32 -32 -33 -34 -35 -36
leaf_value=0.18977714736353268 0.0073667141795158361 -0.20092613657315572 -0.14213679107752714 0.0050516862049698828 0.13224645912647243 -0.052573651447892195 0.025313369380800352 0.18932105356996706 0.10621836185455319 -0.083695128957430531 0.19811214699464685 -0.041489208269525658 0.14148541359524977 0.16784145717437451 0.063284986000508067 0.011608813631094311 -0.043233640547841776 -0.1650409458577633 -0.10130066293127396 0.0022573895007371903 -0.14471722453538524 0.071103569058080518 -0.052112403831311632 -0.12137494543019463 -0.060774410210017629 0.13610561743378641 -0.046764908544719208 -0.028730061976239087 0.056000996855172229 -0.087635822892189005 0.090539995580911636 -0.074032556265592575 -0.058293547332286838 -0.014186635017395019 0.033477320149540905
leaf_weight=10.999999999999998 10.000000000000002 14.999999999999998 10.999999999999998 10 10.000000000000002 17 19 11.000000000000002 10.000000000000002 14.999999999999998 17 10.999999999999998 19 12.999999999999998 15.999999999999998 11.000000000000002 10.000000000000002 9.9999999999999982 17 9.9999999999999982 19 11.999999999999998 14 17 14.000000000000002 9.9999999999999982 14.000000000000002 9.9999999999999982 11.000000000000002 10.000000000000002 9.9999999999999982 9.9999999999999982 9.9999999999999982 9.9999999999999982 10.999999999999998
leaf_count=11 10 15 11 10 10 17 19 11 10 15 17 11 19 13 16 11 10 10 17 10 19 12 14 17 14 10 14 10 11 10 10 10 10 10 11
internal_value=0 -0.0594652 -0.069222 -0.0535881 0.106527 -0.0418669 0.0868313 0.102182 0.0833735 -0.143244 0.148568 -0.00764888 0.105436 0.124504 0.00826198 0.0230529 -0.0596603 -0.0671136 -0.076596 -0.0641389 -0.169515 0.0988958 -0.028294 -0.106612 -0.094007 0.16398 -0.0750236 -0.00760017 0.0833418 -0.0859839 0.0724481 -0.0581264 -0.0729647 -0.0287101 0.0210437
internal_weight=0 292 281 232 163 190 111 90 69 49 52 65 50 35 48 37 125 101 81 71 34 22 24 42 31 21 61 21 31 37 21 24 20 20 21
internal_count=455 292 281 232 163 190 111 90 69 49 52 65 50 35 48 37 125 101 81 71 34 22 24 42 31 21 61 21 31 37 21 24 20 20 21
is_linear=0
shrinkage=0.2


Tree=4
num_leaves=35
num_cat=0
split_feature=2 10 2 10 6 10 10 10 2 10 8 10 10 2 6 10 6 2 4 5 4 5 4 8 4 5 2 10 4 5 5 6 5 2
split_gain=46.157 10.7126 5.78847 2.26328 1.76751 1.74884 4.09643 1.70494 1.46943 1.32955 1.3228 1.27725 1.16209 1.13879 1.34859 1.03811 0.720353 0.712346 0.653824 0.592312 0.502796 0.470441 0.456579 0.423163 0.401181 0.358242 0.342947 0.299493 0.286993 0.598568 0.276412 0.198613 0.141707 0.124324
threshold=1999.5000000000002 50.000000000000007 1976.5000000000002 17.000000000000004 82.166666665000022 17.000000000000004 8.0000000000000018 8.0000000000000018 1989.5000000000002 5.0000000000000009 1.0666668335000002 17.000000000000004 27.000000000000004 1985.5000000000002 77.500000000000014 9.5000000000000018 75.333331665000017 2008.5000000000002 15.65 11.166665000000002 15.616665000000003 9.8333333335000024 15.450000000000001 1.2166666665000003 15.070370370000001 8.8333333335000024 1988.5000000000002 12.000000000000002 13.100000000000001 10.500000000000002 3.8333333335000002 79.333331665000017 1.0000000180025095e-35 1972.5000000000002
decision_type=2 2 2 2 2 2 2 2 2 2 2 2 2 2 2 2 2 2 2 2 2 2 2 2 2 2 2 2 2 2 2 2 2 2
left_child=1 2 11 4 7 6 9 21 28 23 -9 18 -10 20 -15 16 -8 25 19 -1 -11 32 -6 -4 -12 30 27 -17 -7 -30 -5 -25 -2 -13
right_child=3 -3 5 17 22 8 15 10 12 13 24 33 -14 14 -16 26 -18 -19 -20 -21 -22 -23 -24 31 -26 -27 -28 -29 29 -31 -32 -33 -34 -35
leaf_value=-0.16775903366506095 0.1166665296629071 0.14054064434021712 -0.021766833262518048 0.11626127094030377 0.050307553634047486 -0.0095913734287023551 -0.081425846250433684 0.11305172294378281 0.072254104663928329 -0.064601012095808971 0.056896704194300311 -0.079771514205882924 -0.010079586645588279 0.084160994264212502 -0.0057118950959514176 -0.054115311726927753 -0.13902283627539874 0.15848971920854904 -0.09312694322536974 -0.10747105533426458 -0.0011788890883326531 0.14580985883871714 -0.01012945605441928 -0.081861015285054822 0.010223800517045536 0.13444086842310543 -0.041067687608301644 -0.10306373238563536 -0.085368331074714643 -0.022992931422777474 0.070317979339002218 -0.043696912387385968 0.083770794434134266 -0.050335121103985747
leaf_weight=16.000000000000004 10.000000000000002 11.999999999999998 15.999999999999998 10.000000000000002 10.000000000000002 11.999999999999998 19 12.999999999999998 12.000000000000002 10.000000000000002 17.000000000000004 12.000000000000002 15.999999999999998 11.000000000000002 17 10 15.999999999999998 17 17 10.999999999999998 9.9999999999999982 14.999999999999998 9.9999999999999982 12.000000000000002 12.999999999999998 12.999999999999998 19 10 10.000000000000002 15.999999999999998 10.999999999999998 9.9999999999999982 10.999999999999998 10.999999999999998
leaf_count=16 10 12 16 10 10 12 19 13 12 10 17 12 16 11 17 10 16 17 17 11 10 15 10 12 13 13 19 10 10 16 11 10 11 11
internal_value=0 -0.0446723 -0.0522579 0.0908338 0.073201 -0.0369519 -0.0482515 0.0866471 -0.00955895 -0.0185663 0.0597634 -0.103887 0.0252063 0.00355979 0.0295953 -0.0827504 -0.107756 0.125062 -0.123852 -0.143197 -0.03289 0.118758 0.020089 -0.046515 0.0366718 0.108348 -0.0603097 -0.0785895 -0.0351754 -0.0469835 0.0921957 -0.0645137 0.0994354 -0.0656932
internal_weight=0 305 293 150 99 226 160 79 66 86 43 67 28 48 28 74 35 51 44 27 20 36 20 38 30 34 39 20 38 26 21 22 21 23
internal_count=455 305 293 150 99 226 160 79 66 86 43 67 28 48 28 74 35 51 44 27 20 36 20 38 30 34 39 20 38 26 21 22 21 23
is_linear=0
shrinkage=0.2


Tree=5
num_leaves=35
num_cat=0
split_feature=6 10 5 8 5 4 3 6 10 4 4 4 5 6 3 5 3 10 6 3 5 6 3 8 5 4 6 10 4 3 8 5 8 3
split_gain=9.58322 7.43522 3.1192 2.96356 2.33654 1.97008 2.01542 1.64668 1.16674 1.53838 1.13441 0.85815 0.838501 0.712928 0.639118 1.45635 0.637681 1.2589 0.609342 0.723725 0.594833 0.546769 0.523766 0.37762 0.341448 0.248853 0.365327 0.439041 0.207689 0.179278 0.169037 0.165164 0.0951186 0.0687089
threshold=77.833333335000006 50.000000000000007 0.50000000000000011 1.8833333335000002 1.0000000180025095e-35 15.450000000000001 30.150000000000002 83.166666665000022 17.000000000000004 16.116665000000005 13.850000000000003 16.116665000000005 17.162393160000004 82.500000000000014 29.683333335000004 13.500000000000002 30.116666665000004 17.000000000000004 76.166665000000009 30.016665000000003 5.8333333335000015 73.666668335000011 29.816665000000004 1.3666668335000003 16.166665000000005 13.416666665000003 75.333331665000017 6.5000000000000009 14.483333335000003 28.583333335000003 1.1833333335000003 7.8333333335000015 1.2500000000000002 30.050000000000004
decision_type=2 2 2 2 2 2 2 2 2 2 2 2 2 2 2 2 2 2 2 2 2 2 2 2 2 2 2 2 2 2 2 2 2 2
left_child=3 2 13 4 -1 7 12 10 9 18 16 -8 -7 28 15 -12 17 -4 25 -20 -16 -11 24 -22 29 -6 27 -27 -2 -10 -31 -24 -29 -34
right_child=1 -3 5 -5 8 6 11 -9 22 21 14 -13 -14 -15 20 -17 -18 -19 19 -21 23 -23 31 -25 -26 26 -28 32 -30 30 -32 -33 33 -35
leaf_value=0.046532494918658185 0.11007608018815514 0.15620258533779313 -0.0089722881262952608 0.051227970771929802 -0.093733099382370719 -0.025106554797717496 -0.025077862329781049 -0.034506848868396549 -0.042162444740533822 -0.03337013575741473 0.041410874174191398 0.052851971145719295 -0.093163292904694883 0.024755626898258928 -0.0024633740003292379 -0.050047870191435022 0.10223433282226324 0.078920126985758551 -0.061591344640443191 0.0028707194734703414 0.080385798462666552 0.022388978985448681 0.02684855038300156 0.030211459547281268 -0.062971341311931606 -0.022114137289198962 -0.092932162260015813 -0.083266994966702035 0.074127667335172495 0.0090216967463493305 -0.027751866672188041 -0.0095013345777988437 -0.050036308479805773 -0.071023007081105163
leaf_weight=12.999999999999998 10.000000000000002 17 11.000000000000002 17 15.999999999999998 14.000000000000002 10.000000000000002 18 10.000000000000002 17.000000000000004 13.000000000000002 12.999999999999998 14.999999999999998 9.9999999999999982 12.999999999999998 14.999999999999998 9.9999999999999982 15.999999999999998 19.000000000000004 10.999999999999998 10.000000000000002 11.999999999999998 10.000000000000002 14.999999999999998 9.9999999999999982 10.999999999999998 14.999999999999998 10.999999999999998 18 10.000000000000002 9.9999999999999982 9.9999999999999982 12.000000000000002 12.999999999999998
leaf_count=13 10 17 11 17 16 14 10 18 10 17 13 13 15 10 13 15 10 16 19 11 10 12 10 15 10 11 15 11 18 10 10 10 12 13
internal_value=0 0.0289618 0.0187102 -0.0290894 -0.0355913 0.00731348 -0.0252432 0.0213048 -0.0410106 -0.0511965 0.0310582 0.0189694 -0.0603083 0.0705951 0.0153429 -0.00758488 0.0590911 0.0431121 -0.0621787 -0.0379553 0.032237 -0.0102974 -0.0177528 0.0502812 -0.030966 -0.0714954 -0.0657566 -0.0570836 0.0869664 -0.0202975 -0.00936508 0.00867361 -0.0677687 -0.0609494
internal_weight=0 228 211 227 210 173 52 121 197 137 103 23 29 38 66 28 37 27 108 30 38 29 60 25 40 78 62 47 28 30 20 20 36 25
internal_count=455 228 211 227 210 173 52 121 197 137 103 23 29 38 66 28 37 27 108 30 38 29 60 25 40 78 62 47 28 30 20 20 36 25
is_linear=0
shrinkage=0.2


Tree=6
num_leaves=36
num_cat=0
split_feature=2 1 2 7 1 1 2 7 10 10 10 3 8 1 1 10 2 1 7 1 2 7 10 1 1 8 1 8 7 1 2 3 2 3 1
split_gain=23.6004 5.49705 3.2333 2.46119 1.2617 1.37311 1.18089 1.01228 0.72285 0.694023 0.677125 0.580912 0.627973 0.549276 0.506462 0.464144 0.50901 0.379991 0.432849 0.426234 0.789736 0.373807 0.366709 0.34682 0.325635 0.302756 0.217013 0.20371 0.169932 0.470907 0.164416 0.15363 0.0742923 0.0593096 0.093287
threshold=1998.5000000000002 70030.000000000015 1974.5000000000002 0.91666650000000016 447785.00000000006 1355615.0000000002 1990.5000000000002 0.35000000000000003 17.000000000000004 6.5000000000000009 12.000000000000002 30.516666665000006 1.6166666665000002 606337.50000000012 325340.00000000006 9.5000000000000018 2004.5000000000002 543206.00000000012 0.45000000000000001 664297.50000000012 1979.5000000000002 1.7833335000000001 5.0000000000000009 859950.00000000012 859950.00000000012 1.1833333335000003 674025.00000000012 1.3666668335000003 0.58333333350000005 573255.00000000012 2010.5000000000002 28.516666665000006 1982.5000000000002 30.483333335000001 768855.00000000012
decision_type=2 2 2 2 2 2 2 2 2 2 2 2 2 2 2 2 2 2 2 2 2 2 2 2 2 2 2 2 2 2 2 2 2 2 2
left_child=1 -1 8 9 10 6 17 -8 28 26 -4 12 15 -9 21 -11 -17 -6 31 20 -20 30 -15 -21 -24 -25 -2 -16 -3 -30 -5 -19 -27 34 -33
right_child=3 2 4 14 5 -7 7 13 -10 11 -12 -13 -14 22 27 16 -18 18 19 23 -22 -23 24 25 -26 32 -28 -29 29 -31 -32 33 -34 -35 -36
leaf_value=0.10466286645016887 -0.0088820381462573969 -0.083132894833882656 -0.11025755947286431 0.070303572081029372 -0.065194608892003694 -0.097152833940926941 -0.055443983301520353 -0.016029940807493405 -0.04957077736655871 0.0012542561878665136 -0.040082443810322062 0.088414300924965328 0.088616851270198832 -0.0028489294648170473 0.12553504519164563 0.023377069948535219 0.071793229726608843 -0.022297299653291705 -0.039408296747849542 -0.052298211737682947 0.024564804940631516 0.041882766485214239 0.070160222165286515 0.0039959245710633699 0.022155060719412107 -0.046541110575199114 0.027864421979757026 0.093620279617607605 -0.086008861474692805 -0.14477377295494082 0.10573720200495287 -0.068358714133501031 -0.022162051834166051 -0.037556925490498549 -0.043420523071351157
leaf_weight=10.999999999999998 10.000000000000002 11.999999999999998 11 10.000000000000005 11.999999999999998 9.9999999999999982 9.9999999999999982 15.999999999999998 14.999999999999998 12.999999999999998 11 13.999999999999998 9.9999999999999982 9.9999999999999982 15.999999999999998 19 15.999999999999998 9.9999999999999982 12.999999999999998 19 19 9.9999999999999982 10.000000000000002 13.999999999999998 12.999999999999998 10.000000000000002 18 15.999999999999998 12.000000000000002 9.9999999999999982 10.999999999999998 12.000000000000002 9.9999999999999982 9.9999999999999982 11.999999999999998
leaf_count=11 10 12 11 10 12 10 10 16 15 13 11 14 10 10 16 19 16 10 13 19 19 10 10 14 13 10 18 16 12 10 11 12 10 10 12
internal_value=0 -0.0340319 -0.0394613 0.0609652 -0.0296018 -0.024828 -0.0212117 0.00254593 -0.0861429 0.0414587 -0.07517 0.051849 0.0430229 0.0143806 0.0919279 0.0335242 0.0455102 -0.0311529 -0.0279862 -0.019651 -0.00142427 0.0737088 0.0291251 -0.0306557 0.0430269 -0.0185614 0.0147407 0.109578 -0.102278 -0.11272 0.088864 -0.0440885 -0.0343516 -0.0504977 -0.0558896
internal_weight=0 292 281 163 232 210 200 59 49 100 22 72 58 49 63 48 35 141 129 85 32 31 33 53 23 34 28 32 34 22 21 44 20 34 24
internal_count=455 292 281 163 232 210 200 59 49 100 22 72 58 49 63 48 35 141 129 85 32 31 33 53 23 34 28 32 34 22 21 44 20 34 24
is_linear=0
shrinkage=0.2


Tree=7
num_leaves=35
num_cat=0
split_feature=4 9 5 9 10 10 6 4 6 5 5 4 5 4 4 9 9 9 5 6 8 8 9 10 8 6 10 5 5 5 5 9 9 6
split_gain=6.06722 3.66186 2.12307 1.74629 1.26374 1.56509 1.11074 1.01084 1.81542 0.800645 0.805748 0.726008 0.700801 0.89536 0.6595 0.632992 0.56224 0.526642 0.416352 0.794844 0.40959 0.659261 0.35336 0.345594 0.824981 0.276148 0.266332 0.223108 0.212683 0.158856 0.153955 0.161749 0.127998 0.112414
threshold=17.383333335000003 6.8385057470000001 1.0000000180025095e-35 6.983333333500001 17.000000000000004 6.5000000000000009 75.500000000000014 15.050000000000002 77.166666665000022 45.500000000000007 4.6666668335000017 15.516666665000001 7.1666666665000003 15.816666665000001 15.15 5.4166666665000012 8.0833333335000024 7.7500000000000009 11.833333335000001 80.500000000000014 0.98333333350000018 1.4166665000000001 7.6666668335000017 34.500000000000007 1.1166666665000002 78.833333335000006 17.000000000000004 4.5000000000000009 7.5000000000000009 13.500000000000002 20.166666665000005 7.3833333335000004 6.1500000000000012 74.500000000000014
decision_type=2 2 2 2 2 2 2 2 2 2 2 2 2 2 2 2 2 2 2 2 2 2 2 2 2 2 2 2 2 2 2 2 2 2
left_child=1 7 11 -4 5 9 28 8 -1 10 22 -3 -9 -14 -12 -10 20 25 27 -20 -7 30 -5 24 -17 -16 32 -8 -6 -23 31 -22 -26 -30
right_child=-2 2 3 4 6 16 18 12 15 -11 14 -13 13 -15 17 23 -18 -19 19 -21 21 29 -24 -25 26 -27 -28 -29 33 -31 -32 -33 -34 -35
leaf_value=-0.017848167123479974 0.15406326113268734 0.0066251558193471255 -0.091014627539194551 -0.04898750740768653 -0.0046984973164009196 -0.008627789232291674 0.01968959890879117 0.041131209209561349 0.095403528710206353 -0.058228326141834263 -0.023441265638058002 0.0777592400709788 -0.061465925181453863 0.01023360213362857 -0.015284116430716078 0.099854801459745929 -0.074375258123173443 0.052537988636054495 -0.025760786583026246 0.047033184915781026 -0.05873263613565971 -0.037709589079022394 0.00023685157299041748 0.012976518912579527 0.0063540251506492458 0.030637166723608972 0.061098481105132545 0.055486811796824145 -0.051869809031486497 -0.00627012120352851 -0.07233494019019418 -0.027307807058095934 0.03835375264286995 -0.022570732769302347
leaf_weight=18 9.9999999999999982 11.000000000000002 12.999999999999998 14.000000000000002 13.999999999999998 19 13.000000000000002 11.999999999999998 11.999999999999998 9.9999999999999982 12.999999999999998 11.999999999999998 11.000000000000002 19 11.000000000000002 10.999999999999998 17 19 15.000000000000002 9.9999999999999982 19.000000000000004 10.000000000000002 9.9999999999999982 10.999999999999998 10.000000000000005 9.9999999999999982 10.999999999999998 14.999999999999998 10.000000000000002 18 15.999999999999998 9.9999999999999982 9.9999999999999982 10.999999999999998
leaf_count=18 10 11 13 14 14 19 13 12 12 10 13 12 11 19 11 11 17 19 15 10 19 10 10 11 10 10 11 15 10 18 16 10 10 11
internal_value=0 -0.0034621 -0.0148013 -0.0193346 -0.0160535 -0.024993 0.00385718 0.0255661 0.03836 -0.0049886 0.00192565 0.0437386 0.000283042 -0.0160562 0.0156931 0.0539254 -0.0409598 0.0284117 0.0221167 0.0033568 -0.0347853 -0.0415934 -0.0284774 0.0445341 0.0527991 0.00658316 0.036102 0.0388667 -0.023793 -0.0174985 -0.0565857 -0.0478965 0.0223539 -0.0365227
internal_weight=0 445 320 297 284 196 88 125 83 87 77 23 42 30 53 65 109 40 53 25 92 73 24 53 42 21 31 28 35 28 45 29 20 21
internal_count=455 445 320 297 284 196 88 125 83 87 77 23 42 30 53 65 109 40 53 25 92 73 24 53 42 21 31 28 35 28 45 29 20 21
is_linear=0
shrinkage=0.2


Tree=8
num_leaves=35
num_cat=0
split_feature=2 8 2 0 0 7 2 10 0 10 10 0 2 0 0 2 10 5 8 10 0 10 2 0 2 7 5 5 7 8 0 7 2 7
split_gain=11.4206 3.88312 1.95557 1.65262 1.17032 0.903669 0.668748 0.569396 0.550233 0.503118 0.806594 0.729699 0.432588 0.600872 0.954442 0.423733 0.823095 0.708627 1.01297 0.385672 0.376322 0.369474 0.323363 0.289256 0.324606 0.2767 0.276071 0.225806 0.196576 0.195262 0.0840728 0.0562818 0.159866 0.0316497
threshold=1999.5000000000002 2.4666665000000005 1974.5000000000002 4.5000000000000009 1.5000000000000002 0.91666650000000016 1983.5000000000002 17.000000000000004 3.5000000000000004 8.0000000000000018 12.000000000000002 6.5000000000000009 2002.5000000000002 7.5000000000000009 10.000000000000002 1993.5000000000002 34.500000000000007 14.166666665000003 1.0666668335000002 17.000000000000004 4.5000000000000009 9.5000000000000018 2010.5000000000002 12.500000000000002 1990.5000000000002 1.7833335000000001 8.8333333335000024 9.1666666665000012 0.86666683350000007 1.2666668335000002 7.5000000000000009 0.48333333350000002 1983.5000000000002 0.78333333350000012
decision_type=2 2 2 2 2 2 2 2 2 2 2 2 2 2 2 2 2 2 2 2 2 2 2 2 2 2 2 2 2 2 2 2 2 2
left_child=1 2 19 4 -4 7 -6 12 -8 23 11 -11 30 -14 -15 16 17 18 -12 27 -7 25 -23 24 31 -22 -9 -1 -13 -18 -2 -5 -33 -31
right_child=5 -3 3 9 6 20 8 26 -10 10 15 28 13 14 -16 -17 29 -19 -20 -21 21 22 -24 -25 -26 -27 -28 -29 -30 33 -32 32 -34 -35
leaf_value=-0.094070631563663493 0.058574517890810952 0.10034820621833206 -0.048004866222088993 -0.028677289510766663 -0.0041335552734764001 0.095676777077217903 0.066739870208959259 0.03874423238448798 0.0076162906922399966 -0.026958180197021543 -0.12222189791500565 -0.06581863292625971 -0.019038350545965574 0.077298493608832342 -0.0036011176982096264 0.0037595753064926934 0.011256970387573045 -0.016737219082334869 -0.034270884164355024 -0.037319363914430144 0.060184018611907947 0.052586407307535402 0.096017759696890914 -0.043685776740312578 0.012991337625211791 0.014216796647418629 0.078874212084338077 -0.060403801172095185 -0.10253306746482849 -0.028867608932778229 0.032640326917171482 -0.030938896723091594 0.0040009273724122482 -0.013321278684518554
leaf_weight=14.999999999999998 10.000000000000002 9.9999999999999982 10.999999999999998 14.999999999999998 19 11.999999999999998 17 16.000000000000004 10.000000000000002 17 10.000000000000002 14.000000000000002 17 10.000000000000002 13.999999999999998 17 11.999999999999998 12.999999999999998 10.999999999999998 14.999999999999998 10.000000000000002 16.000000000000004 11.999999999999998 10.999999999999998 19 10.999999999999998 11.999999999999998 17 9.9999999999999982 10.000000000000002 9.9999999999999982 10.000000000000002 10.999999999999998 10.999999999999998
leaf_count=15 10 10 11 15 19 12 17 16 10 17 10 14 17 10 14 17 12 13 11 15 10 16 12 11 19 11 12 17 10 10 10 10 11 11
internal_value=0 -0.022221 -0.0263759 -0.019287 0.0105991 0.0451827 0.0246131 0.0323311 0.0448422 -0.0282059 -0.0356646 -0.0586605 0.0214929 0.00972969 0.0301071 -0.0244404 -0.0315957 -0.0534348 -0.0761523 -0.0637812 0.0639335 0.0561596 0.0711998 -0.0140795 -0.00815823 0.0361059 0.0559428 -0.0761851 -0.0811163 -0.00909474 0.0456074 -0.0193205 -0.0126371 -0.0207243
internal_weight=0 305 295 248 57 150 46 89 27 191 125 41 61 41 24 84 67 34 21 47 61 49 28 66 55 21 28 32 24 33 20 36 21 21
internal_count=455 305 295 248 57 150 46 89 27 191 125 41 61 41 24 84 67 34 21 47 61 49 28 66 55 21 28 32 24 33 20 36 21 21
is_linear=0
shrinkage=0.2


Tree=9
num_leaves=36
num_cat=0
split_feature=2 1 2 1 1 2 2 3 10 10 1 1 1 10 1 1 2 10 1 2 1 10 1 2 10 3 8 5 3 2 1 3 8 1 3
split_gain=7.32036 3.00895 1.37676 0.72811 0.622195 0.481047 0.42543 0.601234 0.41893 0.363382 0.332677 0.302944 0.315493 0.220388 0.241663 0.256336 0.205957 0.184651 0.183887 0.178281 0.166052 0.150028 0.288165 0.129142 0.197381 0.385822 0.141663 0.129397 0.113095 0.110706 0.10827 0.0876742 0.0601288 0.0471333 0.046844
threshold=1998.5000000000002 70030.000000000015 1974.5000000000002 1355615.0000000002 447785.00000000006 1990.5000000000002 2009.5000000000002 30.950000000000003 9.5000000000000018 12.000000000000002 939730.00000000012 307352.00000000006 517350.00000000006 5.0000000000000009 606337.50000000012 783808.00000000012 2005.5000000000002 9.5000000000000018 582772.50000000012 1970.5000000000002 543206.00000000012 34.500000000000007 742235.00000000012 1981.5000000000002 9.5000000000000018 30.016665000000003 1.2500000000000002 15.166666665000003 30.383333335000003 1977.5000000000002 910020.00000000012 30.066668335000003 1.1833333335000003 720625.00000000012 29.716665000000003
decision_type=2 2 2 2 2 2 2 2 2 2 2 2 2 2 2 2 2 2 2 2 2 2 2 2 2 2 2 2 2 2 2 2 2 2 2
left_child=1 -1 10 4 9 20 7 8 11 -4 18 -2 -13 -7 -15 -16 21 32 -3 -20 -6 22 -10 27 25 -25 -26 29 -27 -22 -31 -14 -8 -29 -18
right_child=6 2 3 -5 5 13 17 -9 16 -11 -12 12 31 14 15 -17 34 -19 19 -21 23 -23 -24 24 26 28 -28 33 -30 30 -32 -33 -34 -35 -36
leaf_value=0.083659514310685079 -0.019024897009755175 -0.04440548345446587 -0.071787064048376939 -0.069327964782714843 -0.039495412275816009 -0.017398872199867452 0.050656343288719645 0.062018975449932949 0.0095263568374017865 -0.020379112559286029 -0.020887776017189025 0.045847365327856764 -0.0093586980830877992 -0.0074757549254333274 0.048428171006962645 0.0084909555760936603 0.057917606424201601 0.067037345148209068 -0.052238108702003939 -0.087202331423759466 -0.041698546670377257 0.0034430499933660028 0.051762371230870491 -0.039320975252323684 0.017551331520080562 0.015658927746117112 -0.01318007942289114 -0.017744519260965961 -0.012189081204789025 -0.0099191279383376227 -0.036447497159242635 0.015160569548606874 0.029228202524510302 0.001227227170020342 0.039848616874466343
leaf_weight=10.999999999999998 11.999999999999998 14.999999999999998 11 9.9999999999999982 11.999999999999998 13.999999999999998 10.000000000000002 18 12.000000000000002 11 9.9999999999999982 10.999999999999998 10.000000000000002 17 10.000000000000002 18 11.000000000000002 18 10.000000000000002 13.999999999999998 14.999999999999998 9.9999999999999982 13.999999999999998 18 15.000000000000002 10.000000000000002 9.9999999999999982 11.000000000000002 13.999999999999998 16.000000000000004 9.9999999999999982 13.999999999999998 10.999999999999998 9.9999999999999982 11.999999999999998
leaf_count=11 12 15 11 10 12 14 10 18 12 11 10 11 10 17 10 18 11 18 10 14 15 10 14 18 15 10 10 11 14 16 10 14 11 10 12
internal_value=0 -0.0189537 -0.0229705 -0.0165368 -0.0141589 -0.0106472 0.0339538 0.0282236 0.0224847 -0.0460831 -0.0534321 0.00839752 0.0177995 0.00451605 0.011334 0.0227542 0.0337067 0.052173 -0.0617768 -0.0726339 -0.0169921 0.0242617 0.0322688 -0.0148988 -0.00881144 -0.0171866 0.00525877 -0.021477 -0.000585744 -0.0280161 -0.0201223 0.00494421 0.0394321 -0.00871035 0.0484903
internal_weight=0 292 281 232 222 200 163 124 106 22 49 47 35 59 45 28 59 39 39 24 141 36 26 129 67 42 25 62 24 41 26 24 21 21 23
internal_count=455 292 281 232 222 200 163 124 106 22 49 47 35 59 45 28 59 39 39 24 141 36 26 129 67 42 25 62 24 41 26 24 21 21 23
is_linear=0
shrinkage=0.2


end of trees

feature_importances:
Column_1=58
Column_10=47
Column_2=38
Column_5=36
Column_6=30
Column_3=25
Column_4=23
Column_0=22
Column_8=22
Column_9=22
Column_7=20

parameters:
[boosting: gbdt]
[objective: regression]
[metric: rmse]
[tree_learner: serial]
[device_type: cpu]
[linear_tree: 0]
[data: ]
[valid: ]
[num_iterations: 10000]
[learning_rate: 0.2]
[num_leaves: 63]
[num_threads: 0]
[deterministic: 0]
[force_col_wise: 0]
[force_row_wise: 0]
[histogram_pool_size: -1]
[max_depth: -1]
[min_data_in_leaf: 10]
[min_sum_hessian_in_leaf: 0.001]
[bagging_fraction: 1]
[pos_bagging_fraction: 1]
[neg_bagging_fraction: 1]
[bagging_freq: 0]
[bagging_seed: 21709]
[feature_fraction: 0.5]
[feature_fraction_bynode: 1]
[feature_fraction_seed: 24116]
[extra_trees: 0]
[extra_seed: 15571]
[early_stopping_round: 50]
[first_metric_only: 0]
[max_delta_step: 0]
[lambda_l1: 0]
[lambda_l2: 0]
[linear_lambda: 0]
[min_gain_to_split: 0]
[drop_rate: 0.1]
[max_drop: 50]
[skip_drop: 0.5]
[xgboost_dart_mode: 0]
[uniform_drop: 0]
[drop_seed: 15722]
[top_rate: 0.2]
[other_rate: 0.1]
[min_data_per_group: 100]
[max_cat_threshold: 32]
[cat_l2: 10]
[cat_smooth: 10]
[max_cat_to_onehot: 4]
[top_k: 20]
[monotone_constraints: ]
[monotone_constraints_method: basic]
[monotone_penalty: 0]
[feature_contri: ]
[forcedsplits_filename: ]
[refit_decay_rate: 0.9]
[cegb_tradeoff: 1]
[cegb_penalty_split: 0]
[cegb_penalty_feature_lazy: ]
[cegb_penalty_feature_coupled: ]
[path_smooth: 0]
[interaction_constraints: ]
[verbosity: -1]
[saved_feature_importance_type: 0]
[max_bin: 255]
[max_bin_by_feature: ]
[min_data_in_bin: 3]
[bin_construct_sample_cnt: 200000]
[data_random_seed: 4074]
[is_enable_sparse: 1]
[enable_bundle: 1]
[use_missing: 1]
[zero_as_missing: 0]
[feature_pre_filter: 1]
[pre_partition: 0]
[two_round: 0]
[header: 0]
[label_column: ]
[weight_column: ]
[group_column: ]
[ignore_column: ]
[categorical_feature: ]
[forcedbins_filename: ]
[objective_seed: 10917]
[num_class: 1]
[is_unbalance: 0]
[scale_pos_weight: 1]
[sigmoid: 1]
[boost_from_average: 1]
[reg_sqrt: 0]
[alpha: 0.9]
[fair_c: 1]
[poisson_max_delta_step: 0.7]
[tweedie_variance_power: 1.5]
[lambdarank_truncation_level: 30]
[lambdarank_norm: 1]
[label_gain: ]
[eval_at: ]
[multi_error_top_k: 1]
[auc_mu_weights: ]
[num_machines: 1]
[local_listen_port: 12400]
[time_out: 120]
[machine_list_filename: ]
[machines: ]
[gpu_platform_id: -1]
[gpu_device_id: -1]
[gpu_use_dp: 0]
[num_gpu: 1]

end of parameters

pandas_categorical:null
