tree
version=v3
num_class=1
num_tree_per_iteration=1
label_index=0
max_feature_idx=10
objective=regression
feature_names=Column_0 Column_1 Column_2 Column_3 Column_4 Column_5 Column_6 Column_7 Column_8 Column_9 Column_10
feature_infos=[1:18] [15540:1541410] [1969:2013] [26.833333329999999:32.833333330000002] [11.66666667:18.93333333] [0:107.66670000000001] [65:91.333333330000002] [0.033333333:5.2999999999999998] [0.366666667:3.1000000000000001] [2.3666666670000001:9.6999999999999993] [3:63]
tree_sizes=3644 3634 3861 3666 3750 3805 3625 3495 3701 3407 3715 3532 3615 3490 3571 3378 3832 3506 3817 3549 3799 3592 3551 3527 3432 3915 3337 3473 3747 3694 3783 3547 3683 3757 3668 3754 3723 3788 3705 3847 3804 3592 3725 3719 3465 3732 3822 3760 3714 3738 3726 3391 3720 3830 3470 3641 3615 3711 3494 3722 3630 3613 3820 3735 3648 3883 3642 3569 3651 3731 3753 3594 3754 3889 3801 3647 3827 3768 3876 3900 3492 3843 3666 4005 3788 3661 3773 3772 3570 3942 3541 3801 3797 3791 3644 3809 3680 3742 3808 3658 3898 3778 3950 3743 3656 3938 3794 3652 3990 3682 3560 3566 3929 3927 3684 3772 3425 3882 3672 3787 3841 3748 3647 3920 3916 3769 3911 3453 3699 3902 3932 3565 3689 3505 3940 3675 3928 3430 3457 3838 4013 3765 3912 4160 3671 4054 3583

Tree=0
num_leaves=36
num_cat=0
split_feature=2 1 2 7 3 10 0 0 1 1 1 1 4 10 1 2 2 10 10 9 4 2 2 4 5 3 4 10 3 9 7 2 10 4 4
split_gain=169.463 43.6046 15.3114 13.4428 8.72565 7.60887 6.61597 5.70287 6.82296 5.95604 4.49283 4.4041 4.06893 2.21017 1.97151 1.96821 1.79012 2.10006 1.73359 2.14337 1.54035 1.53489 1.1497 1.08201 1.05291 1.01508 0.899553 0.898494 0.779571 0.691694 0.486018 0.356725 0.297132 0.163313 0.130809
threshold=1998.5000000000002 243670.00000000003 1982.5000000000002 0.91666650000000016 30.950000000000003 17.000000000000004 3.5000000000000004 4.5000000000000009 703587.50000000012 797795.00000000012 539196.00000000012 769760.00000000012 14.683333335000002 8.0000000000000018 1329380.0000000002 1975.5000000000002 1988.5000000000002 6.5000000000000009 17.000000000000004 6.1500000000000012 15.016666665000001 2009.5000000000002 1989.5000000000002 16.041666665000005 0.50000000000000011 28.050000000000004 14.516666665000001 8.0000000000000018 29.783333335000005 7.3235632180000012 0.68333333350000014 1976.5000000000002 27.000000000000004 14.483333335000003 14.100000000000001
decision_type=2 2 2 2 2 2 2 2 2 2 2 2 2 2 2 2 2 2 2 2 2 2 2 2 2 2 2 2 2 2 2 2 2 2 2
left_child=1 -1 6 4 5 12 20 9 13 -4 -7 15 -2 -9 16 30 34 -18 19 -5 -3 -20 -15 -21 -14 -13 -24 -17 -26 -30 -8 -27 -19 -11 -10
right_child=3 2 7 18 -6 10 11 8 14 33 -12 25 24 22 -16 27 17 32 21 23 -22 -23 26 -25 28 31 -28 -29 29 -31 -32 -33 -34 -35 -36
leaf_value=0.063068233628419568 0.03437309663751878 -0.029128153247062805 0.019904882101561043 0.036764245378979286 0.071468081643068032 0.070450634691635344 -0.059116062700864419 -0.018966049153951333 -0.01546621147430614 -0.014669045837401603 0.030297687104803513 -0.022682445063920958 0.018784610981005673 -0.05420813752225713 -0.031911069386444252 -0.038367669016238802 -0.016197401139332535 0.015711016860985 0.056244853118036321 0.052706318467739453 -0.0042861056984009917 0.082102267016851152 -0.025843405338063768 0.073939235081159321 0.01149256310848717 -0.043923744489865267 -0.046563737372673317 -0.055401124487436573 -0.013926000128305709 0.0046709655236534696 -0.073346573541677756 -0.03348346653592265 0.0035222420293919659 -0.023705437312639514 -0.023553503359473506
leaf_weight=13.999999999999998 18 13.000000000000002 19 13.999999999999998 10.999999999999998 11.000000000000002 12.000000000000002 12.999999999999998 10.000000000000002 10.000000000000002 19 12.999999999999998 11.999999999999998 13.999999999999998 9.9999999999999982 15.000000000000002 12.999999999999998 10.000000000000002 11.000000000000002 15.000000000000002 11.999999999999998 11.999999999999998 11.000000000000002 9.9999999999999982 11.999999999999998 18 9.9999999999999982 15.999999999999998 10.000000000000002 9.9999999999999982 11.999999999999998 14.999999999999998 9.9999999999999982 9.9999999999999982 9.9999999999999982
leaf_count=14 18 13 19 14 11 11 12 13 10 10 19 13 12 14 10 15 13 10 11 15 12 12 11 10 12 18 10 16 10 10 12 15 10 10 10
internal_value=-4.27283e-10 -0.0230168 -0.0273834 0.0404537 0.0293811 0.024349 -0.0402328 -0.0165899 -0.0223687 -0.000142361 0.0450204 -0.045933 0.0143466 -0.0365706 -0.0115483 -0.0554815 -0.00770624 -0.000552534 0.0588485 0.0524279 -0.017204 0.0697357 -0.0431094 0.0611995 0.00615399 -0.0345163 -0.0357102 -0.0471591 0.00141751 -0.00462752 -0.0662313 -0.0391782 0.00961663 -0.0191872 -0.0195099
internal_weight=0 290 276 165 103 92 126 150 111 39 30 101 62 48 63 55 53 33 62 39 25 23 35 25 44 46 21 31 32 20 24 33 20 20 20
internal_count=455 290 276 165 103 92 126 150 111 39 30 101 62 48 63 55 53 33 62 39 25 23 35 25 44 46 21 31 32 20 24 33 20 20 20
is_linear=0
shrinkage=1


Tree=1
num_leaves=36
num_cat=0
split_feature=2 1 2 7 3 10 0 0 1 1 1 1 4 10 4 1 2 10 9 4 2 4 2 10 4 5 3 4 3 3 9 2 7 2 4
split_gain=152.94 39.3531 13.8186 12.1321 7.8749 6.86701 5.97091 5.14684 6.15772 5.37532 4.05478 3.9747 3.67221 1.99468 1.78668 2.24424 1.78661 1.56456 1.93439 1.39017 1.38523 1.34213 1.0376 1.00693 0.976513 0.950255 0.916113 0.811847 0.703563 0.636146 0.624254 0.500167 0.416924 0.321945 0.14739
threshold=1998.5000000000002 243670.00000000003 1982.5000000000002 0.91666650000000016 30.950000000000003 17.000000000000004 3.5000000000000004 4.5000000000000009 703587.50000000012 797795.00000000012 539196.00000000012 769760.00000000012 14.683333335000002 8.0000000000000018 13.350000000000003 1058670.0000000002 1974.5000000000002 17.000000000000004 6.1500000000000012 15.016666665000001 2009.5000000000002 15.250000000000002 1989.5000000000002 6.5000000000000009 16.041666665000005 0.50000000000000011 28.050000000000004 14.516666665000001 29.783333335000005 30.150000000000002 7.3235632180000012 1991.5000000000002 0.68333333350000014 1976.5000000000002 14.483333335000003
decision_type=2 2 2 2 2 2 2 2 2 2 2 2 2 2 2 2 2 2 2 2 2 2 2 2 2 2 2 2 2 2 2 2 2 2 2
left_child=1 -1 6 4 5 12 19 9 13 -4 -7 16 -2 -9 -10 21 32 18 -5 -3 -19 31 -15 -18 -20 -14 -13 -24 -27 -25 -30 -16 -8 -28 -11
right_child=3 2 7 17 -6 10 11 8 14 34 -12 26 25 22 15 -17 23 20 24 -21 -22 -23 27 29 -26 28 33 -29 30 -31 -32 -33 -34 -35 -36
leaf_value=0.059914821399641896 0.032654442824423313 -0.027671745304877933 0.018909637963301258 0.0349260329668011 0.067894676869565795 0.0669281019405885 -0.057456778938120047 -0.018017745934999909 0.0034606553032062951 -0.013935592677444215 0.028782802918239644 -0.021548322473581023 0.017845381726510824 -0.051497729122638704 -0.0099845180287957153 -0.036900014607235791 -0.032294996790587907 0.053432611037384364 0.050071002542972559 -0.0040717998519539831 0.077997152755657828 -0.021113411197438838 -0.024551235003904857 -0.059319738795359914 0.070242274701595317 0.010917936017115911 -0.041727557281653088 -0.044235549718141559 -0.013229699134826656 -0.043039055665334065 0.004437417555600405 0.0054659140380946079 -0.071563033461570738 -0.031809293627738953 -0.022520165294408798
leaf_weight=13.999999999999998 18 13.000000000000002 19 13.999999999999998 10.999999999999998 11.000000000000002 11.000000000000002 12.999999999999998 15.999999999999998 10.000000000000002 19 12.999999999999998 11.999999999999998 13.999999999999998 10.000000000000002 9.9999999999999982 9.9999999999999982 11.000000000000002 15.000000000000002 11.999999999999998 11.999999999999998 15.999999999999998 11.000000000000002 12.000000000000002 9.9999999999999982 11.999999999999998 18 9.9999999999999982 10.000000000000002 11.999999999999998 9.9999999999999982 10.999999999999998 9.9999999999999982 14.999999999999998 9.9999999999999982
leaf_count=14 18 13 19 14 11 11 11 13 16 10 19 13 12 14 10 10 10 11 15 12 12 16 11 12 10 12 18 10 10 12 10 11 10 15 10
internal_value=0 -0.0218659 -0.0260142 0.038431 0.027912 0.0231315 -0.0382212 -0.0157604 -0.0212503 -0.000135243 0.0427694 -0.0436364 0.0136293 -0.034742 -0.0109709 -0.0158837 -0.0527075 0.0559061 0.0498065 -0.0163438 0.0662489 -0.0102036 -0.0409539 -0.0456252 0.0581395 0.0058463 -0.0327905 -0.0339247 0.00134664 -0.0511794 -0.00439614 -0.00189143 -0.064174 -0.0372193 -0.0182279
internal_weight=0 290 276 165 103 92 126 150 111 39 30 101 62 48 63 47 55 62 39 25 23 37 35 34 25 44 46 21 32 24 20 21 21 33 20
internal_count=455 290 276 165 103 92 126 150 111 39 30 101 62 48 63 47 55 62 39 25 23 37 35 34 25 44 46 21 32 24 20 21 21 33 20
is_linear=0
shrinkage=0.05


Tree=2
num_leaves=38
num_cat=0
split_feature=2 1 2 7 3 10 0 0 1 1 1 1 4 10 1 2 2 10 10 0 8 4 2 2 10 5 3 4 3 3 9 7 9 2 10 4 4
split_gain=138.028 35.5162 12.4713 10.9492 7.10709 6.19747 5.38875 4.64502 5.55735 4.85123 3.65944 3.58717 3.31417 1.80019 1.69043 1.61242 1.54777 1.80644 1.41202 1.81578 1.86133 1.25462 1.25017 0.936438 0.908753 0.857605 0.826792 0.732692 0.634965 0.574121 0.563389 0.376274 0.312149 0.439553 0.251602 0.133019 0.106395
threshold=1998.5000000000002 243670.00000000003 1982.5000000000002 0.91666650000000016 30.950000000000003 17.000000000000004 3.5000000000000004 4.5000000000000009 703587.50000000012 797795.00000000012 539196.00000000012 769760.00000000012 14.683333335000002 8.0000000000000018 1329380.0000000002 1974.5000000000002 1988.5000000000002 6.5000000000000009 17.000000000000004 4.5000000000000009 1.1666668335000001 15.016666665000001 2009.5000000000002 1989.5000000000002 6.5000000000000009 0.50000000000000011 28.050000000000004 14.516666665000001 29.783333335000005 30.150000000000002 7.3235632180000012 0.68333333350000014 7.3072578000000012 1976.5000000000002 27.000000000000004 14.483333335000003 14.100000000000001
decision_type=2 2 2 2 2 2 2 2 2 2 2 2 2 2 2 2 2 2 2 2 2 2 2 2 2 2 2 2 2 2 2 2 2 2 2 2 2
left_child=1 -1 6 4 5 12 21 9 13 -4 -7 15 -2 -9 16 31 36 -18 19 -5 -21 -3 -20 -15 -17 -14 -13 -25 -27 -26 -30 -8 -28 -34 -19 -11 -10
right_child=3 2 7 18 -6 10 11 8 14 35 -12 26 25 23 -16 24 17 34 22 20 -22 -23 -24 27 29 28 32 -29 30 -31 -32 -33 33 -35 -36 -37 -38
leaf_value=0.056919081376067229 0.031021719198260047 -0.026288158389238203 0.017964156055332799 0.064528942379084506 0.064499942010099245 0.063581699945709905 -0.054583936929702738 -0.017116859325995812 -0.014193423003889616 -0.013238813802599904 0.027343663357590378 -0.020470906507510406 0.01695311227813363 -0.048922844231128693 -0.029277727236039938 -0.03068024702370167 -0.014722858111445719 0.014826727751642461 0.050760980356823297 0.055439773574471468 0.02938962478656322 -0.0038682101837669812 0.074097297588984173 -0.023323672332546924 -0.056353752315044386 0.010372037999331951 -0.027983357608318327 -0.042023771703243257 -0.012568214824423191 -0.040887103974819185 0.0042155470140278336 -0.067984883189201359 -0.045784271169792508 -0.031946924577156706 0.0036106153205037114 -0.021394156878814102 -0.021487090438604358
leaf_weight=13.999999999999998 18 13.000000000000002 19 10.999999999999998 10.999999999999998 11.000000000000002 11.000000000000002 12.999999999999998 10.000000000000002 10.000000000000002 19 12.999999999999998 11.999999999999998 13.999999999999998 9.9999999999999982 9.9999999999999982 12.999999999999998 10.000000000000002 11.000000000000002 12.000000000000002 15.999999999999998 11.999999999999998 11.999999999999998 11.000000000000002 12.000000000000002 11.999999999999998 9.9999999999999982 9.9999999999999982 10.000000000000002 11.999999999999998 9.9999999999999982 9.9999999999999982 11.000000000000002 11.999999999999998 9.9999999999999982 9.9999999999999982 9.9999999999999982
leaf_count=14 18 13 19 11 11 11 11 13 10 10 19 13 12 14 10 10 13 10 11 12 16 12 12 11 12 12 10 10 10 12 10 10 11 12 10 10 10
internal_value=0 -0.0207726 -0.0247135 0.0365095 0.0265164 0.0219749 -0.0363101 -0.0149724 -0.0201878 -0.000128481 0.0406309 -0.0414546 0.0129478 -0.0330049 -0.0104223 -0.0500721 -0.0068647 -0.00021284 0.0531108 0.0473161 0.040554 -0.0155266 0.0629365 -0.0389062 -0.0433439 0.00555398 -0.031151 -0.0322285 0.00127931 -0.0486204 -0.00417633 -0.0609653 -0.0353583 -0.0385648 0.00921867 -0.0173165 -0.0178403
internal_weight=0 290 276 165 103 92 126 150 111 39 30 101 62 48 63 55 53 33 62 39 28 25 23 35 34 44 46 21 32 24 20 21 33 23 20 20 20
internal_count=455 290 276 165 103 92 126 150 111 39 30 101 62 48 63 55 53 33 62 39 28 25 23 35 34 44 46 21 32 24 20 21 33 23 20 20 20
is_linear=0
shrinkage=0.05


Tree=3
num_leaves=36
num_cat=0
split_feature=2 1 2 7 10 3 0 1 1 10 2 7 4 10 2 1 9 1 3 2 2 4 3 4 3 0 7 4 10 9 5 7 9 2 7
split_gain=124.897 32.232 13.3771 8.56212 5.45778 7.99216 4.86335 4.30116 3.23742 3.02874 2.36262 2.90279 2.22437 2.01906 1.96895 1.82579 1.64092 1.63416 1.61133 1.4615 1.20782 1.1323 0.957442 0.861263 0.74618 0.691131 0.686569 1.80391 0.675221 0.532363 0.46554 0.353603 0.281715 0.396697 0.247694
threshold=1999.5000000000002 243670.00000000003 1982.5000000000002 0.91666650000000016 5.0000000000000009 30.516666665000006 3.5000000000000004 554897.50000000012 769760.00000000012 17.000000000000004 1989.5000000000002 0.78333333350000012 14.316666665000001 17.000000000000004 1994.5000000000002 881477.50000000012 6.1500000000000012 573365.00000000012 30.250000000000004 1975.5000000000002 1991.5000000000002 15.016666665000001 29.866668335000004 16.041666665000005 28.050000000000004 4.5000000000000009 0.91666650000000016 14.783333335000002 8.0000000000000018 6.1833335000000007 10.833333335000001 0.68333333350000014 7.3072578000000012 1976.5000000000002 0.51666666650000004
decision_type=2 2 2 2 2 2 2 2 2 2 2 2 2 2 2 2 2 2 2 2 2 2 2 2 2 2 2 2 2 2 2 2 2 2 2
left_child=1 -1 6 4 -2 9 21 18 19 22 25 12 15 16 -14 -12 -5 -11 20 31 -4 -3 34 -18 -10 -9 27 -27 -21 -15 -13 -8 -26 -34 -6
right_child=3 2 7 13 5 -7 8 10 24 17 11 30 14 29 -16 -17 23 -19 -20 28 -22 -23 -24 -25 32 26 -28 -29 -30 -31 -32 -33 33 -35 -36
leaf_value=0.052902578910191858 0.002710406171778838 -0.024973749942504439 -0.046515691032012293 0.031245069950819018 0.0025859201580963344 0.062392127017180124 -0.05076266353329021 -0.0069909490644931797 -0.019447360818202683 0.052957484424114215 0.01886482767760753 0.020259295302358538 -0.032418678729579993 0.072529809474945042 -0.0062214606790803378 -0.010654625516723503 0.045047849814097075 0.0264932509112571 -0.011328878510976212 -0.032775680037836229 -0.024517957293070283 -0.0036747997083390752 0.02597283224829219 0.063991444110870363 -0.026584189459681513 -0.0025089017281840951 -0.030219338715753774 -0.027085039950907233 -0.047541865706443788 0.056589848074046045 0.0053532783873379234 -0.062900803983211517 -0.043495057387785467 -0.030349579453468323 0.013458720762282612
leaf_weight=14.999999999999998 18 13.000000000000002 12.000000000000002 13.999999999999998 11.000000000000002 18 12.000000000000002 14.999999999999998 12.999999999999998 10.000000000000002 10.000000000000002 11.000000000000002 13.000000000000002 10.000000000000002 15.999999999999998 10.999999999999998 15.000000000000002 13.999999999999998 9.9999999999999982 15.000000000000002 12.999999999999998 11.999999999999998 10.999999999999998 9.9999999999999982 9.9999999999999982 14.000000000000002 10.999999999999998 15.999999999999998 15.999999999999998 10.999999999999998 9.9999999999999982 11.999999999999998 11.000000000000002 11.999999999999998 9.9999999999999982
leaf_count=15 18 13 12 14 11 18 12 15 13 10 10 11 13 10 16 11 15 14 10 15 13 12 11 10 10 14 11 16 16 11 10 12 11 12 10
internal_value=0 -0.0185542 -0.0222759 0.0369862 0.0274028 0.0334091 -0.0344946 -0.0127724 -0.0393818 0.0240931 -0.0084954 -0.00243879 -0.00899078 0.0516808 -0.017965 0.00340226 0.0449503 0.03752 -0.0282917 -0.0475685 -0.0350769 -0.0147503 0.0140229 0.0526253 -0.0295934 -0.0161743 -0.0195341 -0.0156162 -0.0403969 0.0641803 0.0131612 -0.0568317 -0.0335904 -0.0366365 0.00776344
internal_weight=0 303 288 152 92 74 126 162 101 56 127 71 50 60 29 21 39 24 35 55 25 25 32 25 46 56 41 30 31 21 21 24 33 23 21
internal_count=455 303 288 152 92 74 126 162 101 56 127 71 50 60 29 21 39 24 35 55 25 25 32 25 46 56 41 30 31 21 21 24 33 23 21
is_linear=0
shrinkage=0.05


Tree=4
num_leaves=37
num_cat=0
split_feature=2 1 2 7 10 3 0 1 1 10 6 2 7 4 2 10 1 0 8 1 3 2 2 4 3 10 7 3 3 9 0 6 7 9 2 7
split_gain=112.72 29.0894 12.0728 7.72732 4.92564 7.21292 4.38917 3.8818 2.92177 2.73343 2.23921 2.20543 2.12363 2.05363 2.00696 1.8222 1.77398 1.55263 1.65025 1.51284 1.45423 1.33175 1.09005 1.0219 0.864092 0.77014 0.733909 0.673427 0.492096 0.480458 0.333171 0.703651 0.307981 0.254248 0.358019 0.223544
threshold=1999.5000000000002 243670.00000000003 1982.5000000000002 0.91666650000000016 5.0000000000000009 30.516666665000006 3.5000000000000004 554897.50000000012 769760.00000000012 17.000000000000004 82.833333335000006 1987.5000000000002 0.78333333350000012 14.316666665000001 1994.5000000000002 17.000000000000004 856561.00000000012 4.5000000000000009 1.1666668335000001 961222.50000000012 30.250000000000004 1974.5000000000002 1991.5000000000002 15.016666665000001 29.866668335000004 6.5000000000000009 0.95000000000000007 28.050000000000004 30.150000000000002 6.1833335000000007 6.5000000000000009 77.833333335000006 0.68333333350000014 7.3072578000000012 1976.5000000000002 0.51666666650000004
decision_type=2 2 2 2 2 2 2 2 2 2 2 2 2 2 2 2 2 2 2 2 2 2 2 2 2 2 2 2 2 2 2 2 2 2 2 2
left_child=1 -1 6 4 -2 9 23 20 21 24 11 30 13 16 -15 17 -13 -5 -19 -11 22 32 -4 -3 35 -23 -14 -10 -27 -17 -9 -32 -8 -29 -35 -6
right_child=3 2 7 15 5 -7 8 10 27 19 -12 12 26 14 -16 29 -18 18 -20 -21 -22 25 -24 -25 -26 28 -28 33 -30 -31 31 -33 -34 34 -36 -37
leaf_value=0.05025745034217835 0.0025748860078035961 -0.023725062494094548 -0.04418990636865297 0.058619567751884462 0.0024566241794011807 0.05927252074082693 -0.049316608905792224 -0.010953845708247494 -0.018474992651205797 0.04625354366643087 -0.029630586979064073 0.0199284429103136 0.018333955894091297 -0.028646580763161178 -0.0023239787983974176 0.068903316259384131 -0.0072590422506133723 0.050466154577831414 0.025937556149438025 0.020790671724826099 -0.010762434569187462 -0.02741751563473372 -0.02329205982387066 -0.0034910596907138827 0.024674191283570096 -0.05109250520666439 0.0010755461894653062 -0.025254979431629184 -0.036773283531268436 0.053760353408076549 -0.029852960109710683 -0.011095952279865743 -0.061440597772598277 -0.041320304437117129 -0.028832099338372549 0.012785784909501672
leaf_weight=14.999999999999998 18 13.000000000000002 12.000000000000002 10.999999999999998 11.000000000000002 18 11.000000000000002 17 12.999999999999998 14.000000000000002 10.999999999999998 10.000000000000002 14.000000000000002 15.000000000000002 13.999999999999998 10.000000000000002 14.999999999999998 12.000000000000002 15.999999999999998 9.9999999999999982 9.9999999999999982 9.9999999999999982 12.999999999999998 11.999999999999998 10.999999999999998 12.000000000000002 10.999999999999998 9.9999999999999982 11.999999999999998 10.999999999999998 10.000000000000002 9.9999999999999982 9.9999999999999982 11.000000000000002 11.999999999999998 9.9999999999999982
leaf_count=15 18 13 12 11 11 18 11 17 13 14 11 10 14 15 14 10 15 12 16 10 10 10 13 12 11 12 11 10 12 11 10 10 10 11 12 10
internal_value=0 -0.0176264 -0.0211621 0.0351369 0.0260327 0.0317386 -0.0327699 -0.0121338 -0.0374127 0.0228884 -0.00807063 -0.00602615 -0.00130796 -0.00688584 -0.0159391 0.0490968 0.00361595 0.0427028 0.0364498 0.035644 -0.0268771 -0.0451901 -0.033323 -0.0140127 0.0133218 -0.0390754 0.0107403 -0.0281138 -0.0439329 0.0609713 -0.0161001 -0.0204745 -0.0550899 -0.0319109 -0.0348047 0.00737527
internal_weight=0 303 288 152 92 74 126 162 101 56 127 116 79 54 29 60 25 39 28 24 35 55 25 25 32 34 25 46 24 21 37 20 21 33 23 21
internal_count=455 303 288 152 92 74 126 162 101 56 127 116 79 54 29 60 25 39 28 24 35 55 25 25 32 34 25 46 24 21 37 20 21 33 23 21
is_linear=0
shrinkage=0.05


Tree=5
num_leaves=38
num_cat=0
split_feature=2 1 2 2 3 10 0 0 1 1 10 4 1 1 0 1 0 3 2 2 4 0 4 10 3 9 2 1 2 3 1 7 7 1 0 3 4
split_gain=101.868 26.225 9.08837 8.35797 4.91261 4.54882 3.96123 3.7421 4.21567 4.02449 3.42965 3.20266 2.80475 2.6369 1.65937 1.49316 1.33957 1.50813 1.2019 1.11947 1.48894 0.987995 0.922264 0.695051 0.687035 0.795698 0.631999 0.628763 0.666287 0.444117 0.3022 0.284091 0.277953 0.178402 0.177067 0.132103 0.0670739
threshold=1998.5000000000002 243670.00000000003 1982.5000000000002 2007.5000000000002 30.950000000000003 17.000000000000004 3.5000000000000004 4.5000000000000009 703587.50000000012 797795.00000000012 17.000000000000004 14.683333335000002 539196.00000000012 769760.00000000012 7.5000000000000009 1329380.0000000002 4.5000000000000009 30.683333335000004 1974.5000000000002 1988.5000000000002 15.250000000000002 6.5000000000000009 15.016666665000001 6.5000000000000009 29.783333335000005 7.366666833500001 1988.5000000000002 1140040.0000000002 1975.5000000000002 30.150000000000002 975852.50000000012 1.6583333335000001 0.68333333350000014 905302.50000000012 8.5000000000000018 30.416665000000005 14.100000000000001
decision_type=2 2 2 2 2 2 2 2 2 2 2 2 2 2 2 2 2 2 2 2 2 2 2 2 2 2 2 2 2 2 2 2 2 2 2 2 2
left_child=1 -1 6 4 5 11 22 9 14 -4 16 -2 -7 18 21 19 -5 31 32 36 34 -9 -3 -20 -13 -26 -16 28 -15 -25 -14 -18 -8 -30 -21 -11 -10
right_child=3 2 7 10 -6 12 13 8 15 35 -12 24 30 27 26 -17 17 -19 23 20 -22 -23 -24 29 25 -27 -28 -29 33 -31 -32 -33 -34 -35 -36 -37 -38
leaf_value=0.048915126627045023 0.026661323124749794 -0.022538808905161339 0.016886219588157378 0.053480770913037393 0.051096933277753692 0.0534587327729572 -0.046850776672363266 -0.02864725977182388 -0.012186997830867763 -0.011184261776506898 0.064004540940125795 0.0096802117036921646 0.027886352746281769 -0.040302052145654507 -0.030242006616158914 -0.026812958605587484 0.032316500842571254 0.047846587685247265 -0.026046640742570161 0.011913965865969656 -0.016198190525174141 -0.050873317718505853 -0.0033165067705946665 -0.048537879933913536 -0.014971935428911815 0.00378822241551601 -0.014860947068561526 -0.016868346246580283 -0.020319527238607402 -0.034934620062510177 0.016117390263825655 0.021106871160177086 -0.058368568420410161 -0.02920258320294894 0.0030642122227268723 -0.019311469087260776 -0.01797810710966587
leaf_weight=13.999999999999998 18 13.000000000000002 19 10.999999999999998 12.999999999999998 10.999999999999998 11.000000000000002 10 10.000000000000002 10.000000000000002 18 13.999999999999998 12.000000000000002 10.999999999999998 11.000000000000002 9.9999999999999982 10.000000000000002 11.999999999999998 9.9999999999999982 10.000000000000002 9.9999999999999982 10 11.999999999999998 12.000000000000002 10.000000000000002 12.999999999999998 17 11.999999999999998 10.000000000000002 11.999999999999998 9.9999999999999982 12.999999999999998 9.9999999999999982 12.999999999999998 12.999999999999998 9.9999999999999982 9.9999999999999982
leaf_count=14 18 13 19 11 13 11 11 10 10 10 18 14 12 11 11 10 10 12 10 10 10 10 12 12 10 13 17 12 10 12 10 13 10 13 13 10 10
internal_value=0 -0.0178454 -0.0212318 0.0313646 0.0224066 0.0181683 -0.0311314 -0.0129161 -0.0175972 0.000407202 0.0455013 0.00936281 0.0328441 -0.0355421 -0.0287605 -0.00909187 0.0382609 0.0334775 -0.0429306 -0.00574827 -9.1136e-05 -0.0397603 -0.0133121 -0.0371217 0.000947311 -0.00436837 -0.0209035 -0.0267081 -0.0301809 -0.0417362 0.0225368 0.0259806 -0.0523354 -0.0253404 0.00691193 -0.0152479 -0.0150826
internal_weight=0 290 276 165 101 88 126 150 111 39 64 55 33 101 48 63 46 35 55 53 33 20 25 34 37 23 28 46 34 24 22 23 21 23 23 20 20
internal_count=455 290 276 165 101 88 126 150 111 39 64 55 33 101 48 63 46 35 55 53 33 20 25 34 37 23 28 46 34 24 22 23 21 23 23 20 20
is_linear=0
shrinkage=0.05


Tree=6
num_leaves=36
num_cat=0
split_feature=2 1 2 7 10 3 0 1 1 10 6 3 4 10 9 1 3 2 0 2 8 2 4 4 3 10 1 2 10 1 8 7 2 7 1
split_gain=92.0427 23.6521 9.80099 6.2632 4.09093 6.16705 3.57501 3.22006 2.3798 2.28915 1.92554 1.84893 1.56446 1.44548 1.27519 1.24518 1.21476 1.19605 1.73328 1.08472 0.999734 0.893226 0.832344 0.772991 0.758576 0.627283 0.567458 0.601324 0.424902 0.421861 0.405905 0.250853 0.244341 0.188323 0.161008
threshold=1999.5000000000002 243670.00000000003 1982.5000000000002 0.91666650000000016 5.0000000000000009 30.516666665000006 3.5000000000000004 554897.50000000012 769760.00000000012 17.000000000000004 82.833333335000006 30.766668335000002 13.683333335000002 17.000000000000004 6.0166666665000008 961222.50000000012 30.250000000000004 1996.5000000000002 4.5000000000000009 1974.5000000000002 1.1166666665000002 1991.5000000000002 15.016666665000001 16.041666665000005 29.866668335000004 6.5000000000000009 1140040.0000000002 1975.5000000000002 34.500000000000007 777170.00000000012 1.2500000000000002 0.68333333350000014 1989.5000000000002 0.51666666650000004 905302.50000000012
decision_type=2 2 2 2 2 2 2 2 2 2 2 2 2 2 2 2 2 2 2 2 2 2 2 2 2 2 2 2 2 2 2 2 2 2 2
left_child=1 -1 6 4 -2 9 22 16 19 24 11 12 -9 14 -5 -11 21 18 -14 31 -20 -4 -3 -16 33 -21 27 -10 -15 -22 -27 -8 -31 -6 -29
right_child=3 2 7 13 5 -7 8 10 26 15 -12 -13 17 28 23 -17 -18 -19 20 25 29 -23 -24 -25 -26 30 -28 34 -30 32 -32 -33 -34 -35 -36
leaf_value=0.045283675841540881 0.0021766048286938006 -0.02141186938836024 -0.04013774593671162 0.025838111971433347 0.0017302767204290083 0.054214191767904499 -0.044508239085024041 0.0047915179478494746 -0.038286950100551956 0.041869576275348652 -0.027273776805536318 0.009344240712622803 -0.0010097137407252663 0.062354419529438002 0.0382016215706244 0.018768734596669674 -0.0096811915969010447 0.0033486658319210015 -0.032918177321553235 -0.024744308721274141 -0.021327596576884392 -0.021220483437467082 -0.0031506813713349405 0.055922448337078094 0.02245318457822908 -0.047343235611915578 -0.016024928695211809 -0.019303551018238062 0.048113835535266186 -0.01642962103709578 -0.034153867193630769 -0.055450140535831451 -0.005847097871204218 0.011210865457542241 -0.027742454180350675
leaf_weight=14.999999999999998 18 13.000000000000002 12.000000000000002 12.999999999999998 11.000000000000002 18 11.000000000000002 19 10.999999999999998 14.000000000000002 10.999999999999998 18 19 10.000000000000002 16.000000000000004 9.9999999999999982 9.9999999999999982 11.999999999999998 9.9999999999999982 9.9999999999999982 15.999999999999998 12.999999999999998 11.999999999999998 9.9999999999999982 10.999999999999998 10.000000000000002 11.999999999999998 10.000000000000002 10.999999999999998 10.000000000000002 13.999999999999998 9.9999999999999982 11.999999999999998 9.9999999999999982 12.999999999999998
leaf_count=15 18 13 12 13 11 18 11 19 11 14 11 18 19 10 16 10 10 12 10 10 16 13 12 10 11 10 12 10 11 10 14 10 12 10 13
internal_value=0 -0.0159279 -0.019116 0.0317511 0.0235546 0.0287546 -0.0295748 -0.0109814 -0.033765 0.0205712 -0.0072808 -0.00538491 -0.00809027 0.044319 0.0386243 0.0322442 -0.0244095 -0.0111884 -0.0137921 -0.040784 -0.0188518 -0.0303008 -0.0126465 0.0450173 0.0118165 -0.0352656 -0.0253727 -0.0286719 0.0548951 -0.0151501 -0.0396494 -0.0497187 -0.0106573 0.00624484 -0.0240734
internal_weight=0 303 288 152 92 74 126 162 101 56 127 116 98 60 39 24 35 79 67 55 48 25 25 26 32 34 46 34 21 38 24 21 22 21 23
internal_count=455 303 288 152 92 74 126 162 101 56 127 116 98 60 39 24 35 79 67 55 48 25 25 26 32 34 46 34 21 38 24 21 22 21 23
is_linear=0
shrinkage=0.05


Tree=7
num_leaves=35
num_cat=0
split_feature=2 1 2 7 3 9 10 3 9 1 7 10 1 7 1 0 10 0 8 6 1 4 2 1 6 4 8 9 4 2 8 1 9 9
split_gain=83.0686 21.4593 10.2664 5.65254 4.95239 4.0109 3.69207 5.56576 3.2449 2.40225 2.20243 2.06596 1.6855 1.407 1.38661 1.46466 1.30454 1.20455 1.3957 1.16349 1.1463 1.14186 0.811819 0.750309 0.907568 0.734034 0.706758 0.794196 0.642236 0.630369 0.461678 0.703476 0.388459 0.171777
threshold=1999.5000000000002 76185.000000000015 1989.5000000000002 0.91666650000000016 30.766668335000002 7.495000000000001 5.0000000000000009 30.516666665000006 6.8385057470000001 577210.00000000012 0.78333333350000012 17.000000000000004 539196.00000000012 0.86666683350000007 872825.00000000012 10.000000000000002 17.000000000000004 4.5000000000000009 1.1666668335000001 71.833333335000006 573365.00000000012 14.316666665000001 1993.5000000000002 568955.00000000012 78.833333335000006 15.850000000000003 1.3500000000000003 7.0833333335000006 15.083333335000001 1983.5000000000002 1.4666668335000002 856561.00000000012 6.1833335000000007 7.3072578000000012
decision_type=2 2 2 2 2 2 2 2 2 2 2 2 2 2 2 2 2 2 2 2 2 2 2 2 2 2 2 2 2 2 2 2 2 2
left_child=1 -1 5 6 9 8 -2 11 29 28 21 26 -7 14 15 -10 17 -5 -19 -14 -13 -11 -23 -21 30 -17 27 -8 -4 -3 31 -25 -18 -16
right_child=3 2 4 16 -6 12 7 -9 13 10 -12 20 19 -15 33 25 32 18 -20 23 -22 22 -24 24 -26 -27 -28 -29 -30 -31 -32 -33 -34 -35
leaf_value=0.053425407612865621 0.0020677742186105915 -0.022528881376439869 -0.016306315041147167 0.050712556866082281 0.018396055208224998 -0.034816151003663739 0.026945099625736463 0.051503481301996445 -0.052250340638252402 -0.00063268075532772966 0.01217916867385308 0.043561372756957997 -0.030845380425453185 -0.049656504765152931 -0.018316654251380394 -0.038554392655690502 0.059282609820365886 0.044075454740474612 0.021517811622470618 6.0055106878280647e-05 0.02139675726315805 -0.028407514141872516 -0.0091180484121044479 -0.0084338677756022658 -0.0054151400237491265 -0.021065893210470678 0.0016326284656922024 0.0070177844632416976 -0.032664747312664992 -0.0051836227998137479 -0.025602747599283854 -0.023377952338861571 0.045666408809748565 -0.02737117514014244
leaf_weight=10.999999999999998 18 11.000000000000002 15.000000000000002 10.999999999999998 19 11.999999999999998 10.000000000000002 18 12.999999999999998 17 14.999999999999998 10.000000000000002 9.9999999999999982 15.999999999999998 11.000000000000002 15.000000000000002 10.000000000000002 12.000000000000002 15.999999999999998 9.9999999999999982 13.999999999999998 10.000000000000002 11.999999999999998 18 19 9.9999999999999982 11.999999999999998 9.9999999999999982 9.9999999999999982 9.9999999999999982 14.999999999999998 13.999999999999998 10.999999999999998 9.9999999999999982
leaf_count=11 18 11 15 11 19 12 10 18 13 17 15 10 10 16 11 15 10 12 16 10 14 10 12 18 19 10 12 10 10 10 15 14 11 10
internal_value=0 -0.0151315 -0.0177142 0.0301635 -0.00452323 -0.0243776 0.0223769 0.0273169 -0.0316415 -0.0100355 -0.00410296 0.0195427 -0.017262 -0.0365057 -0.0329394 -0.0386376 0.0421031 0.036693 0.0311854 -0.0148126 0.030632 -0.0103653 -0.017886 -0.012703 -0.0146368 -0.031559 0.0112256 0.0169814 -0.0228497 -0.0142692 -0.0183647 -0.0149719 0.0521503 -0.0226283
internal_weight=0 303 292 152 98 194 92 74 96 79 54 56 98 75 59 38 60 39 28 86 24 39 22 76 66 25 32 20 25 21 47 32 21 21
internal_count=455 303 292 152 98 194 92 74 96 79 54 56 98 75 59 38 60 39 28 86 24 39 22 76 66 25 32 20 25 21 47 32 21 21
is_linear=0
shrinkage=0.05


Tree=8
num_leaves=37
num_cat=0
split_feature=2 1 2 2 3 10 0 1 1 0 10 4 1 1 0 1 0 3 2 4 2 0 4 4 3 10 1 2 2 3 7 7 1 3 0 1
split_gain=75.07 19.7033 6.57448 6.37018 3.68248 3.36992 3.02185 3.44879 3.19599 2.93657 2.60876 2.46759 2.15569 1.98778 1.43116 1.27659 1.04953 1.17182 0.959736 0.888337 1.23518 0.806448 0.721286 0.569275 0.735706 0.543197 0.482351 0.525235 0.47748 0.37407 0.292394 0.206176 0.205487 0.149168 0.145262 0.132149
threshold=1998.5000000000002 243670.00000000003 1982.5000000000002 2007.5000000000002 30.950000000000003 17.000000000000004 4.5000000000000009 797795.00000000012 703587.50000000012 3.5000000000000004 17.000000000000004 14.283333335000002 539196.00000000012 769760.00000000012 7.5000000000000009 1329380.0000000002 4.5000000000000009 30.683333335000004 1974.5000000000002 15.250000000000002 1988.5000000000002 6.5000000000000009 15.016666665000001 14.916666665000003 29.783333335000005 6.5000000000000009 1140040.0000000002 1975.5000000000002 1988.5000000000002 30.150000000000002 1.6583333335000001 0.68333333350000014 975852.50000000012 30.416665000000005 8.5000000000000018 905302.50000000012
decision_type=2 2 2 2 2 2 2 2 2 2 2 2 2 2 2 2 2 2 2 2 2 2 2 2 2 2 2 2 2 2 2 2 2 2 2 2
left_child=1 -1 9 4 5 11 7 -4 14 22 16 -2 -7 18 21 19 -5 30 31 20 -10 -8 -3 -13 -25 -20 27 -15 -16 -27 -18 -11 -14 -9 -22 -29
right_child=3 2 6 10 -6 12 8 33 15 13 -12 23 32 26 28 -17 17 -19 25 -21 34 -23 -24 24 -26 29 -28 35 -30 -31 -32 -33 -34 -35 -36 -37
leaf_value=0.042547673226467207 0.029037322637371046 -0.019491730916958584 0.016045601813024595 0.046423690766096121 0.043944325298070908 0.046139304475350813 -0.025283641442656515 -0.0093833381100557715 -0.012761996865559084 -0.040567550604993639 0.055404251813888555 0.011847821328168114 0.023441592976450914 -0.034830092096870595 -0.025928701866756776 -0.024368575830012562 0.028537329733371725 0.041383903659880164 -0.021905564665794373 -0.014311206516097574 0.011050527393817899 -0.045364073812961571 -0.0024924124503741042 0.008243214682890819 -0.0071932781218109953 -0.042018002271652213 -0.014183866046369077 -0.017224935665726658 -0.012559491231599273 -0.029533505191405615 0.017165086475702432 -0.050487331748008728 0.013736870330758395 -0.018019553059712052 0.0030348991616987266 -0.024870220514444208
leaf_weight=13.999999999999998 10.999999999999998 13.000000000000002 19 10.999999999999998 12.999999999999998 10.999999999999998 10 10.000000000000002 12.999999999999998 11.000000000000002 18 11.999999999999998 12.000000000000002 10.999999999999998 11.000000000000002 9.9999999999999982 10.000000000000002 11.999999999999998 9.9999999999999982 17 10.000000000000002 10 11.999999999999998 12.999999999999998 19 12.000000000000002 11.999999999999998 10.000000000000002 17 11.999999999999998 12.999999999999998 9.9999999999999982 9.9999999999999982 9.9999999999999982 12.999999999999998 12.999999999999998
leaf_count=14 11 13 19 11 13 11 10 10 13 11 18 12 12 11 11 10 10 12 10 17 10 10 12 13 19 12 12 10 17 12 13 10 10 10 13 13
internal_value=0 -0.0153194 -0.0182546 0.0269249 0.0191045 0.0154349 -0.0111819 0.000790706 -0.0153885 -0.0266745 0.0392666 0.00785589 0.0280667 -0.0304722 -0.0251084 -0.00798291 0.0329519 0.0287179 -0.0368871 -0.00489127 -0.000442972 -0.0353239 -0.0113321 0.00256053 -0.000922203 -0.0316963 -0.0228022 -0.0258439 -0.0178117 -0.0357758 0.0221095 -0.0452913 0.0190304 -0.0137014 0.00651995 -0.0215462
internal_weight=0 290 276 165 101 88 150 39 111 126 64 55 33 101 48 63 46 35 55 53 36 20 25 44 32 34 46 34 28 24 23 21 22 20 23 23
internal_count=455 290 276 165 101 88 150 39 111 126 64 55 33 101 48 63 46 35 55 53 36 20 25 44 32 34 46 34 28 24 23 21 22 20 23 23
is_linear=0
shrinkage=0.05


Tree=9
num_leaves=34
num_cat=0
split_feature=2 1 2 7 0 9 1 3 10 0 1 0 7 1 8 4 4 10 9 6 3 6 4 1 6 2 5 2 4 7 8 1 10
split_gain=67.8031 17.7103 8.44918 4.57933 4.40397 3.36759 3.29223 3.12773 3.0057 2.76646 1.91737 1.83655 1.62174 1.51288 1.4699 1.35449 1.055 1.02995 1.00229 0.956187 0.944851 0.897831 0.658059 0.628905 0.809414 0.617036 0.60741 0.870343 0.596239 0.496972 0.377676 0.599612 0.360729
threshold=1999.5000000000002 76185.000000000015 1989.5000000000002 0.91666650000000016 3.5000000000000004 7.495000000000001 644915.00000000012 30.833331665000003 17.000000000000004 6.5000000000000009 539196.00000000012 7.5000000000000009 0.91666650000000016 539196.00000000012 1.0416666665000003 14.283333335000002 14.316666665000001 17.000000000000004 6.0166666665000008 71.833333335000006 30.116666665000004 76.166665000000009 16.041666665000005 568955.00000000012 78.833333335000006 1982.5000000000002 0.50000000000000011 2003.5000000000002 14.883333335000001 0.48333333350000002 1.4666668335000002 856561.00000000012 34.500000000000007
decision_type=2 2 2 2 2 2 2 2 2 2 2 2 2 2 2 2 2 2 2 2 2 2 2 2 2 2 2 2 2 2 2 2 2
left_child=1 -1 5 7 -4 9 28 8 15 25 -10 -11 21 -7 -8 -2 -16 18 -5 -15 -18 29 -20 -21 30 -3 -17 -28 -6 -13 31 -25 -19
right_child=3 2 4 17 6 13 14 -9 10 11 -12 12 -14 19 16 26 20 32 22 23 -22 -23 -24 24 -26 -27 27 -29 -30 -31 -32 -33 -34
leaf_value=0.048610428517515014 0.026645467597991232 -0.020880194846540686 0.019086293876171112 0.021855073569055933 -0.015478283406368322 -0.032172820135019722 0.013812177907675506 0.045259888673370538 0.047839225232601153 -0.052647179907018497 0.020247421523227411 -0.025676453486084935 -0.048743538558483124 -0.027755700051784515 0.0039416957180947064 0.015852985375871261 -0.023466466434977268 0.05379833355545996 0.032570074322575235 0.00037615736946463587 -0.0038842706724868288 -0.017766784152223002 0.048920501917600639 -0.0074950182111933831 -0.0043705182051972337 -0.005047610308974982 0.011440648790448905 -0.0050835404873770832 -0.030070832238665652 -0.038344540496667232 -0.02314632644255956 -0.021291864866257781 0.040677122026681903
leaf_weight=10.999999999999998 9.9999999999999982 16.000000000000004 17 12.999999999999998 14.000000000000002 11.999999999999998 11.999999999999998 10.999999999999998 10.000000000000002 10.999999999999998 17 16.000000000000004 9.9999999999999982 9.9999999999999982 15.999999999999998 11.999999999999998 11.000000000000002 10.000000000000002 16.000000000000004 9.9999999999999982 13.999999999999998 18 9.9999999999999982 18 19 9.9999999999999982 14.999999999999998 17 13.999999999999998 14.999999999999998 14.999999999999998 13.999999999999998 10.999999999999998
leaf_count=11 10 16 17 13 14 12 12 11 10 11 17 16 10 10 16 12 11 10 16 10 14 18 10 18 19 10 15 17 14 15 15 14 11
internal_value=0 -0.0136707 -0.0160169 0.0272514 -0.00405019 -0.0220619 -0.00890599 0.0202428 0.0168454 -0.0287178 0.0304666 -0.0338907 -0.0303937 -0.0155418 -0.0015792 0.0100348 -0.00608399 0.0379979 0.0331908 -0.0132212 -0.0125004 -0.0266488 0.0388587 -0.0113088 -0.0130793 -0.0147907 0.00625967 0.00266217 -0.0227746 -0.0318062 -0.0165998 -0.0135311 0.0469253
internal_weight=0 303 292 152 98 194 81 92 81 96 27 70 59 98 53 54 41 60 39 86 25 49 26 76 66 26 44 32 28 31 47 32 21
internal_count=455 303 292 152 98 194 81 92 81 96 27 70 59 98 53 54 41 60 39 86 25 49 26 76 66 26 44 32 28 31 47 32 21
is_linear=0
shrinkage=0.05


Tree=10
num_leaves=37
num_cat=0
split_feature=2 1 2 2 3 10 0 1 1 0 10 4 1 1 9 0 4 1 0 8 2 1 0 4 4 1 10 1 2 2 6 2 7 7 3 6
split_gain=61.197 16.3624 5.28796 5.27554 3.03817 2.72747 2.42788 3.06668 2.59898 2.39083 2.16395 2.07435 1.7436 1.65986 1.25824 1.25197 1.17051 1.60548 0.896257 1.09531 0.861742 0.814694 0.715336 0.686401 0.63381 0.535027 0.455417 0.415848 0.449942 0.412252 0.335064 0.216216 0.174831 0.164399 0.145303 0.116741
threshold=1998.5000000000002 243670.00000000003 2007.5000000000002 1982.5000000000002 30.950000000000003 17.000000000000004 4.5000000000000009 797795.00000000012 703587.50000000012 3.5000000000000004 17.000000000000004 14.816666665000001 539196.00000000012 769760.00000000012 6.983333333500001 7.5000000000000009 13.350000000000003 1058670.0000000002 4.5000000000000009 1.0666668335000002 1974.5000000000002 236715.00000000003 6.5000000000000009 15.250000000000002 15.016666665000001 657997.50000000012 6.5000000000000009 1140040.0000000002 1975.5000000000002 1988.5000000000002 72.166665000000009 1991.5000000000002 0.58333333350000005 0.68333333350000014 30.416665000000005 74.166665000000009
decision_type=2 2 2 2 2 2 2 2 2 2 2 2 2 2 2 2 2 2 2 2 2 2 2 2 2 2 2 2 2 2 2 2 2 2 2 2
left_child=1 -1 4 9 5 11 7 -5 15 24 18 14 -7 20 -2 22 -10 23 -4 -20 33 -21 -8 31 -3 -13 -22 28 -15 -17 -28 -18 -14 -11 -9 -30
right_child=2 3 10 6 -6 12 8 34 16 13 -12 25 32 27 -16 29 17 -19 19 21 26 -23 -24 -25 -26 -27 30 -29 35 -31 -32 -33 -34 -35 -36 -37
leaf_value=0.03890178916709764 0.032419884465634811 -0.017854141959777241 0.042252708632837643 0.014945810837180993 0.039747193111823155 0.041469427469101823 -0.022805116921663281 -0.0088431535009294727 0.00441768019227311 -0.037082946029576375 0.05025225852926573 -0.0059798923174017356 0.012206247933208939 -0.031608128209005708 0.0073375711205881091 -0.023424150489948007 -0.0058121865568682533 -0.029015345238149165 0.038955875079740181 0.029114760582645727 -0.019453986212611199 0.010690431444284818 -0.041717231273651123 -0.014237532671540976 -0.0019189582128698629 0.0064296355907572439 -0.025731631842526515 -0.012464483359750983 -0.023374683409929268 -0.011001635978327078 -0.037588541553570678 0.0043462603522295305 0.021157842643636592 -0.045940897762775428 -0.017366747073829177 -0.016188901777450856
leaf_weight=13.999999999999998 10.000000000000002 13.000000000000002 10.999999999999998 19 12.999999999999998 10.999999999999998 10 10.000000000000002 15.999999999999998 11.000000000000002 18 19 10.000000000000002 10.999999999999998 9.9999999999999982 11.000000000000002 10.000000000000002 9.9999999999999982 10.999999999999998 12.000000000000002 9.9999999999999982 11.999999999999998 10 15.999999999999998 11.999999999999998 15.999999999999998 11.000000000000002 11.999999999999998 10.000000000000002 17 12.999999999999998 10.999999999999998 11.999999999999998 9.9999999999999982 9.9999999999999982 12.999999999999998
leaf_count=14 10 13 11 19 13 11 10 10 16 11 18 19 10 11 10 11 10 10 11 12 10 12 10 16 12 16 11 12 10 17 13 11 12 10 10 13
internal_value=0 -0.0138316 0.0243101 -0.0165065 0.0171848 0.0138517 -0.0101709 0.000560805 -0.0139415 -0.0240489 0.0355546 0.00703329 0.0252158 -0.0274755 0.0198787 -0.0227066 -0.00726324 -0.0112397 0.0298034 0.0258908 -0.0333375 0.0199026 -0.0322612 -0.0064355 -0.0102053 -0.000306965 -0.0284188 -0.0204666 -0.0232909 -0.0158819 -0.0321541 -0.000491095 0.0170889 -0.041301 -0.013105 -0.0193132
internal_weight=0 290 165 276 101 88 150 39 111 126 64 55 33 101 20 48 63 47 46 35 55 24 20 37 25 35 34 46 34 28 24 21 22 21 20 23
internal_count=455 290 165 276 101 88 150 39 111 126 64 55 33 101 20 48 63 47 46 35 55 24 20 37 25 35 34 46 34 28 24 21 22 21 20 23
is_linear=0
shrinkage=0.05


Tree=11
num_leaves=35
num_cat=0
split_feature=2 1 2 10 2 3 0 0 10 3 1 1 7 9 10 7 4 6 2 4 0 8 8 1 4 2 3 4 5 6 10 7 3 6
split_gain=55.426 14.618 6.99899 4.0569 4.42068 3.91325 2.82783 3.11442 1.98514 2.25826 1.94647 1.65895 1.81014 1.41631 1.39895 1.30923 1.24948 0.966614 0.82905 0.823816 0.808872 0.988513 0.776072 0.735261 0.730885 0.652208 0.533255 0.528611 0.497068 0.482887 0.319665 0.26858 0.246291 0.238974
threshold=1999.5000000000002 76185.000000000015 1989.5000000000002 50.000000000000007 2007.5000000000002 30.766668335000002 6.5000000000000009 7.5000000000000009 5.0000000000000009 30.516666665000006 644915.00000000012 577210.00000000012 0.78333333350000012 7.495000000000001 17.000000000000004 0.61666666650000013 14.916666665000003 79.833333335000006 1975.5000000000002 14.316666665000001 4.5000000000000009 1.0666668335000002 0.94166666650000008 236715.00000000003 15.516666665000001 1993.5000000000002 28.983333335000001 15.083333335000001 8.5000000000000018 76.166665000000009 9.5000000000000018 0.91666650000000016 28.716666665000002 79.583333335000006
decision_type=2 2 2 2 2 2 2 2 2 2 2 2 2 2 2 2 2 2 2 2 2 2 2 2 2 2 2 2 2 2 2 2 2 2
left_child=1 -1 6 4 8 11 15 -8 -2 16 26 27 19 22 20 30 28 31 -17 -13 -6 -22 -12 -23 -20 -21 -9 -4 33 -24 -3 -15 -32 -10
right_child=3 2 5 -5 14 -7 7 10 9 -11 13 12 -14 17 -16 18 -18 -19 24 25 21 23 29 -25 -26 -27 -28 -29 -30 -31 32 -33 -34 -35
leaf_value=0.044223147698424087 -0.0016037786177669966 -0.023285636776372007 -0.013212546569605667 0.055420342981815342 0.04014007201926275 0.01677311757383378 -0.046977750105517253 -0.042203986793756476 0.020695120319724078 0.035600877925753595 -0.036094431132078171 -0.00098064260228591807 0.01119083233177662 -0.0091669666673988067 0.045896992782751722 -0.01753613516688347 0.0024631944430225038 0.0028791687474586068 -0.0074822096402446421 -0.025066163642331954 0.037008080868558453 0.027659022187193228 -0.025944407284259792 0.010155909958605965 0.009968731943517925 -0.0077766088768839838 -0.027939384646321598 -0.02805352855473757 0.027806904602965171 -0.013229026153151477 -0.020227278321981425 -0.019745633651812873 -0.0096026267856359482 0.010414060577750206
leaf_weight=10.999999999999998 14.999999999999998 19 15.000000000000002 9.9999999999999982 10.999999999999998 19 13.999999999999998 10.000000000000002 10.000000000000002 14.999999999999998 9.9999999999999982 17 14.999999999999998 10.000000000000002 14.999999999999998 9.9999999999999982 17 9.9999999999999982 15.000000000000002 10.000000000000002 10.999999999999998 12.000000000000002 16.000000000000004 11.999999999999998 9.9999999999999982 11.999999999999998 19 9.9999999999999982 10.999999999999998 13.999999999999998 10.000000000000002 14.999999999999998 11.999999999999998 12.999999999999998
leaf_count=11 15 19 15 10 11 19 14 10 10 15 10 17 15 10 15 10 17 10 15 10 11 12 16 12 10 12 19 10 11 14 10 15 12 13
internal_value=0 -0.0123601 -0.0144917 0.0246389 0.0224712 -0.00360024 -0.0199935 -0.0248381 0.0148153 0.0185469 -0.0218578 -0.00850016 -0.00357017 -0.0176043 0.0326371 -0.0124716 0.0135311 -0.0102589 -0.00536878 -0.00924748 0.0283132 0.0245962 -0.0240315 0.0189075 -0.000501833 -0.0156355 -0.0328582 -0.0191489 0.019065 -0.0200106 -0.0185349 -0.0155142 -0.014432 0.0148841
internal_weight=0 303 292 152 142 98 194 118 81 66 104 79 54 75 61 76 51 35 35 39 46 35 40 24 25 22 29 25 34 30 41 25 22 23
internal_count=455 303 292 152 142 98 194 118 81 66 104 79 54 75 61 76 51 35 35 39 46 35 40 24 25 22 29 25 34 30 41 25 22 23
is_linear=0
shrinkage=0.05


Tree=12
num_leaves=36
num_cat=0
split_feature=2 1 2 10 2 9 0 1 1 2 10 3 1 4 10 1 4 4 2 0 0 8 1 7 9 3 4 0 10 0 3 6 7 7 10
split_gain=50.022 13.3654 5.30937 3.66135 3.98967 1.99694 1.94301 2.23961 2.08053 1.86471 1.79159 2.03808 1.69342 1.40034 1.26255 1.18675 1.13028 1.04073 0.775958 0.771853 0.730007 0.892133 0.663574 0.636085 0.621553 0.613687 0.470504 0.463452 0.428512 0.336694 0.237947 0.219 0.11419 0.0856 0.0307668
threshold=1999.5000000000002 243670.00000000003 1984.5000000000002 50.000000000000007 2007.5000000000002 7.495000000000001 4.5000000000000009 797795.00000000012 644915.00000000012 1995.5000000000002 5.0000000000000009 30.516666665000006 724942.50000000012 13.350000000000003 17.000000000000004 1045747.5000000001 14.216666665000002 15.616665000000003 1976.5000000000002 6.5000000000000009 4.5000000000000009 1.0666668335000002 236715.00000000003 0.78333333350000012 7.303448276000001 29.016666665000006 14.65 13.500000000000002 9.5000000000000018 7.5000000000000009 29.850000000000005 75.333331665000017 0.61666666650000013 0.48333333350000002 17.000000000000004
decision_type=2 2 2 2 2 2 2 2 2 2 2 2 2 2 2 2 2 2 2 2 2 2 2 2 2 2 2 2 2 2 2 2 2 2 2
left_child=1 -1 5 4 10 12 7 -4 23 13 -2 16 25 -10 20 26 27 28 24 -18 -6 -22 -23 29 -14 -3 -15 -12 33 -8 -28 -30 -27 -7 -20
right_child=3 2 6 -5 14 17 8 -9 9 -11 11 -13 18 15 -16 -17 19 -19 34 -21 21 22 -24 -25 -26 32 30 -29 31 -31 -32 -33 -34 -35 -36
leaf_value=0.034271987959121668 -0.0015235899427595238 -0.042376648102487841 0.015893807651146369 0.052649325728416442 0.038133068721402777 -0.019531736075878138 -0.022533708220968639 -0.0097715373534490099 0.0068958594277501103 0.0087738262325087017 0.014775802381336684 0.033820834457874302 -0.018252750353089396 -0.0014405418497820696 0.04360214273134868 -0.028991995491087438 0.015420839133170931 -0.0015748148819861507 -0.010349113382399081 -0.0009814581950195135 0.035157677416943693 0.026276071245471627 0.0096481142876048889 -0.031053214594721795 -0.03376022192339103 -0.032587694850834924 -0.018988232060589569 0.029350282102823255 -0.016810358403360141 -0.011297145560383796 -0.0091612633889391355 -0.0074853484239429243 -0.025383207608353012 -0.025923491028052845 -0.014271281063556669
leaf_weight=14.999999999999998 14.999999999999998 13.999999999999998 17 9.9999999999999982 10.999999999999998 10.000000000000002 12.000000000000002 17 9.9999999999999982 17 12.000000000000002 14.999999999999998 14.000000000000002 11.999999999999998 14.999999999999998 9.9999999999999982 13.000000000000002 12.999999999999998 10 15.999999999999998 10.999999999999998 12.000000000000002 11.999999999999998 9.9999999999999982 11.999999999999998 11.000000000000002 11.000000000000002 9.9999999999999982 17.000000000000004 14.999999999999998 13.999999999999998 9.9999999999999982 10.999999999999998 10.999999999999998 10
leaf_count=15 15 14 17 10 11 10 12 17 10 17 12 15 14 12 15 10 13 13 10 16 11 12 12 10 12 11 11 10 17 15 14 10 11 11 10
internal_value=0 -0.0117421 -0.0141387 0.0234069 0.0213476 -0.0209748 -0.0073968 0.00306114 -0.0106001 -0.00575974 0.0140746 0.0176196 -0.026071 -0.0100943 0.0310053 -0.0137092 0.0128545 -0.0141242 -0.0197145 0.0063713 0.0268976 0.0233664 0.0179621 -0.0202809 -0.02541 -0.0341931 -0.00957878 0.0214006 -0.017523 -0.0162912 -0.0134851 -0.0133567 -0.0289855 -0.0228798 -0.0123102
internal_weight=0 303 288 152 142 143 145 34 111 74 81 66 82 57 61 47 51 61 46 29 46 35 24 37 26 36 37 22 48 27 25 27 22 21 20
internal_count=455 303 288 152 142 143 145 34 111 74 81 66 82 57 61 47 51 61 46 29 46 35 24 37 26 36 37 22 48 27 25 27 22 21 20
is_linear=0
shrinkage=0.05


Tree=13
num_leaves=35
num_cat=0
split_feature=2 1 2 0 10 2 1 9 9 10 3 1 3 7 8 4 1 4 9 6 9 6 3 5 2 4 1 7 5 2 3 1 6 3
split_gain=45.1449 12.0876 5.82358 3.3604 3.30437 3.60067 2.36507 2.35579 2.00381 1.61691 1.83937 1.27394 1.19191 1.1061 1.08135 1.063 1.00629 0.884104 0.880924 1.43788 0.758556 0.685859 0.676458 0.518619 0.49258 0.513888 0.669406 0.490823 0.463451 0.390593 0.387831 0.269092 0.213284 0.164909
threshold=1999.5000000000002 76185.000000000015 1989.5000000000002 3.5000000000000004 50.000000000000007 2007.5000000000002 644915.00000000012 7.495000000000001 6.8385057470000001 5.0000000000000009 30.516666665000006 546577.50000000012 29.583333335000003 1.0166666665000001 1.0416666665000003 14.916666665000003 724942.50000000012 14.316666665000001 5.9166666670000003 81.833333335000006 7.3072578000000012 71.833333335000006 30.116666665000004 20.166666665000005 1987.5000000000002 16.383333335000003 1140040.0000000002 1.7416666665000002 8.5000000000000018 1983.5000000000002 29.016666665000006 633000.00000000012 79.583333335000006 29.816665000000004
decision_type=2 2 2 2 2 2 2 2 2 2 2 2 2 2 2 2 2 2 2 2 2 2 2 2 2 2 2 2 2 2 2 2 2 2
left_child=1 -1 7 -4 5 9 23 8 29 -2 15 -9 -7 16 -8 28 30 -16 -14 27 -18 -13 -19 -5 25 26 31 -20 32 -3 -10 -23 -11 -33
right_child=4 2 3 6 -6 12 14 11 13 10 -12 21 18 -15 17 -17 20 22 19 -21 -22 24 -24 -25 -26 -27 -28 -29 -30 -31 -32 33 -34 -35
leaf_value=0.040298391421410173 -0.0014474102202802898 -0.016528944603421466 0.017051741699962056 -0.013680933558327307 0.050016859620809553 0.042884980142116551 0.012011176704739531 -0.027235660286476983 -0.03815951106640008 0.018768842518329616 0.032129791888097919 -0.022729288935661316 0.015770851696530978 -0.042147684368220251 0.0041239438753109424 0.002003171207273708 -0.011626335364930771 -0.020206406577066936 0.030273225530982009 0.014555992037639954 -0.026563021496814845 -0.0080769163810394031 -0.0036372684341456209 -0.027614187415350568 0.0015416349470615386 4.7732051461935045e-05 -0.00057276867330074315 0.044895309345288709 0.025757213783535089 -0.0028754046186804773 -0.026687070004203742 -0.020555966084494309 0.0090561033942951601 -0.013591587910538211
leaf_weight=10.999999999999998 14.999999999999998 11.000000000000002 17 17.000000000000004 9.9999999999999982 12.999999999999998 11.999999999999998 12.999999999999998 13.000000000000002 10.000000000000002 14.999999999999998 9.9999999999999982 14.999999999999998 10.999999999999998 15.999999999999998 17 17 11.000000000000002 12.000000000000002 9.9999999999999982 17 10.999999999999998 13.999999999999998 10.999999999999998 9.9999999999999982 9.9999999999999982 9.9999999999999982 10.999999999999998 10.999999999999998 9.9999999999999982 17 17 12.999999999999998 17
leaf_count=11 15 11 17 17 10 13 12 13 13 10 15 10 15 11 16 17 17 11 12 10 17 11 14 11 10 10 10 11 11 10 17 17 13 17
internal_value=0 -0.011155 -0.0130933 -0.00315844 0.0222366 0.0202802 -0.00740009 -0.0181119 -0.0236789 0.0133708 0.0167386 -0.0126586 0.029455 -0.0275013 -0.00119009 0.0122118 -0.024984 -0.00505388 0.0258177 0.0303845 -0.0190947 -0.0104292 -0.0109277 -0.0191547 -0.00878918 -0.0103785 -0.0122742 0.0372664 0.0173161 -0.0100273 -0.0316585 -0.0148745 0.013279 -0.0170738
internal_weight=0 303 292 98 152 142 81 194 96 81 66 98 61 75 53 51 64 41 48 33 34 85 25 28 75 65 55 23 34 21 30 45 23 34
internal_count=455 303 292 98 152 142 81 194 96 81 66 98 61 75 53 51 64 41 48 33 34 85 25 28 75 65 55 23 34 21 30 45 23 34
is_linear=0
shrinkage=0.05


Tree=14
num_leaves=35
num_cat=0
split_feature=2 4 2 10 2 6 4 3 10 0 1 10 10 3 2 6 1 4 9 6 6 3 8 7 9 10 9 2 10 7 4 6 7 3
split_gain=40.7432 11.2415 4.16803 2.98219 3.24961 1.73198 1.52352 1.52131 1.88728 1.44174 1.43779 1.19967 1.0911 1.0757 0.995608 0.91313 0.900938 0.871867 0.795034 1.29769 0.781644 0.820426 0.630337 0.596141 0.502265 0.497819 0.520614 0.449615 0.974665 0.445621 0.371862 0.348417 0.206059 0.150987
threshold=1999.5000000000002 17.150000000000002 1982.5000000000002 50.000000000000007 2007.5000000000002 82.833333335000006 13.950000000000001 30.766668335000002 17.000000000000004 3.5000000000000004 640114.00000000012 8.0000000000000018 27.000000000000004 29.583333335000003 1974.5000000000002 78.166666665000022 787680.00000000012 15.583333335000001 5.9166666670000003 81.833333335000006 79.833333335000006 29.816665000000004 1.0416666665000003 0.58333333350000005 7.0833333335000006 6.5000000000000009 7.495000000000001 1988.5000000000002 5.0000000000000009 1.6666668335000001 15.016666665000001 72.166665000000009 0.58333333350000005 28.416666665000005
decision_type=2 2 2 2 2 2 2 2 2 2 2 2 2 2 2 2 2 2 2 2 2 2 2 2 2 2 2 2 2 2 2 2 2 2
left_child=1 2 9 4 6 7 16 8 10 30 22 -9 14 -6 23 -8 -2 24 -15 29 21 -10 -4 -11 -17 -16 31 -12 -29 -20 -1 -27 -24 -14
right_child=3 -3 5 -5 13 -7 15 11 20 12 27 -13 33 18 25 17 -18 -19 19 -21 -22 -23 32 -25 -26 26 -28 28 -30 -31 -32 -33 -34 -35
leaf_value=-0.01460683662444353 0.035015953853726377 0.03315957955949541 -0.030165186050263321 0.047516016662120825 0.040740732046274042 -0.025191421577563655 0.017540288383239195 0.017604563986374566 -0.011457300980232265 -0.024747847316955972 -0.013263041313944591 -0.0052555300605793796 -0.010026452136942398 0.014982308881978193 -0.012563089126100144 0.017941160491616089 0.014695280549737314 -0.0053020143819351995 0.028133934465321621 0.013828192367218434 0.0087000660554622296 0.0048437729191321598 -0.010256559103727338 -0.040072446564833331 0.003663856802242143 -0.022979876940900625 -0.015692961961030961 -0.012279652462651329 0.0057450079936582675 0.042066456439594432 -0.00211580116301775 -0.035875218808650973 -0.019405959965661169 -0.017646945762233093
leaf_weight=13.000000000000002 10.000000000000002 13.999999999999998 10.999999999999998 9.9999999999999982 12.999999999999998 12.999999999999998 19 11.000000000000002 19 11.000000000000002 18 11.999999999999998 13.000000000000002 14.999999999999998 11.999999999999998 11.000000000000002 11.999999999999998 14.999999999999998 11.000000000000002 9.9999999999999982 15.999999999999998 12.999999999999998 10.000000000000002 14.999999999999998 13.999999999999998 11.000000000000002 10.999999999999998 15.000000000000002 14.999999999999998 11.999999999999998 10.999999999999998 9.9999999999999982 15.999999999999998 12.999999999999998
leaf_count=13 10 14 11 10 13 13 19 11 19 11 18 12 13 15 12 11 12 15 11 10 16 13 10 15 14 11 11 15 15 12 11 10 16 13
internal_value=0 -0.0105972 -0.0127169 0.0211247 0.0192662 -0.00765713 0.0127023 -0.00619594 -0.00824926 -0.0198428 -0.0127251 0.00567756 -0.0225831 0.0279822 -0.0258318 0.00851495 0.023932 0.00422791 0.0245268 0.0288652 -0.000323304 -0.00483499 -0.0201318 -0.033589 0.00994587 -0.021248 -0.0245048 -0.00701572 -0.00326732 0.0354031 -0.00888178 -0.0291205 -0.015887 -0.0138367
internal_weight=0 303 289 152 142 169 81 156 133 120 85 23 96 61 70 59 22 40 48 33 48 32 37 26 25 44 32 48 30 23 24 21 26 26
internal_count=455 303 289 152 142 169 81 156 133 120 85 23 96 61 70 59 22 40 48 33 48 32 37 26 25 44 32 48 30 23 24 21 26 26
is_linear=0
shrinkage=0.05


Tree=15
num_leaves=34
num_cat=0
split_feature=2 1 2 10 2 9 0 1 1 2 4 1 4 1 10 6 1 4 10 9 1 0 8 3 7 4 10 0 3 6 2 7 7
split_gain=36.7708 10.6378 3.8799 2.69143 2.93277 1.54348 1.51101 1.87829 1.49635 1.45238 1.37498 1.31765 1.16292 1.07484 1.00269 0.8241 0.813096 0.805762 0.79457 0.668195 0.634315 0.695442 0.585197 0.509326 0.507008 0.40894 0.326464 0.304095 0.192456 0.18837 0.177268 0.117775 0.0626487
threshold=1999.5000000000002 243670.00000000003 1984.5000000000002 50.000000000000007 2007.5000000000002 7.495000000000001 4.5000000000000009 797795.00000000012 644915.00000000012 1995.5000000000002 13.950000000000001 724942.50000000012 13.350000000000003 1045747.5000000001 17.000000000000004 78.166666665000022 787680.00000000012 15.616665000000003 9.5000000000000018 7.3072578000000012 334722.50000000006 8.5000000000000018 1.3166666665000002 29.016666665000006 0.78333333350000012 14.65 9.5000000000000018 7.5000000000000009 29.850000000000005 74.500000000000014 1975.5000000000002 0.61666666650000013 0.48333333350000002
decision_type=2 2 2 2 2 2 2 2 2 2 2 2 2 2 2 2 2 2 2 2 2 2 2 2 2 2 2 2 2 2 2 2 2
left_child=1 -1 5 4 10 11 7 -4 24 12 16 23 -10 25 20 -12 -2 26 22 30 21 -6 -17 -3 27 -14 32 -8 -27 -28 -13 -25 -7
right_child=3 2 6 -5 14 17 8 -9 9 -11 15 19 13 -15 -16 18 -18 -19 -20 -21 -22 -23 -24 31 -26 28 29 -29 -30 -31 -32 -33 -34
leaf_value=0.030983732881722972 0.033265155851840963 -0.037149504572153096 0.014532164276084482 0.045140214711427692 0.0084188728000630011 -0.016828536372631785 -0.019847631074177717 -0.0089718451175619576 0.0064955278858542442 0.0076643784722203725 0.01666327437238866 -0.016916865399644637 -0.00076375420515735948 -0.026826156545430427 0.037809056242307029 0.0062881182879209506 0.01396051631309092 -0.00098432283848524102 0.012213339985293501 -0.025174278346821666 0.030245456880786354 0.024553488611298451 -0.009677947188417118 -0.028608298301696769 -0.027094419673085214 -0.016941900174556806 -0.015404984434800484 -0.0091688797064125548 -0.008104081262302186 -0.007046607709847965 -0.0091606508830890943 -0.021291599388826979 -0.022296672907065263
leaf_weight=14.999999999999998 10.000000000000002 13.999999999999998 17 9.9999999999999982 11.000000000000002 10.000000000000002 12.000000000000002 17 9.9999999999999982 17 19 13.000000000000002 11.999999999999998 9.9999999999999982 14.999999999999998 11.000000000000002 11.999999999999998 12.999999999999998 17 15.999999999999998 18 17 11.999999999999998 11.000000000000002 9.9999999999999982 11.000000000000002 14.000000000000002 14.999999999999998 13.999999999999998 12.999999999999998 17 10.999999999999998 10.999999999999998
leaf_count=15 10 14 17 10 11 10 12 17 10 17 19 13 12 10 15 11 12 13 17 16 18 17 12 11 10 11 14 15 14 13 17 11 11
internal_value=0 -0.0100674 -0.0122055 0.0200685 0.0183029 -0.0180493 -0.0064422 0.00278016 -0.00926706 -0.00516209 0.0120672 -0.0225296 -0.00898753 -0.0122818 0.0265831 0.0080892 0.0227354 -0.0120266 0.00401652 -0.0169226 0.0229225 0.0182149 -0.002042 -0.0296942 -0.017477 -0.00835089 -0.0150172 -0.013915 -0.0119927 -0.0113806 -0.0125217 -0.0249499 -0.0196928
internal_weight=0 303 288 152 142 143 145 34 111 74 81 82 57 47 61 59 22 61 40 46 46 28 23 36 37 37 48 27 25 27 30 22 21
internal_count=455 303 288 152 142 143 145 34 111 74 81 82 57 47 61 59 22 61 40 46 46 28 23 36 37 37 48 27 25 27 30 22 21
is_linear=0
shrinkage=0.05


Tree=16
num_leaves=38
num_cat=0
split_feature=2 4 2 3 7 10 6 0 1 0 7 0 7 3 9 4 1 6 10 5 2 1 0 7 9 0 0 2 10 9 0 1 6 4 3 7 1
split_gain=33.1856 9.96025 3.36297 2.52902 2.34013 1.73607 1.51443 1.34746 1.53673 1.45513 1.25167 1.19069 1.18658 0.977332 1.10866 0.971591 0.962922 0.941598 0.888249 0.873457 0.872644 0.694751 0.540611 0.520532 0.515705 0.490937 0.539115 0.489171 0.441296 0.432839 0.344257 0.307683 0.299831 0.290852 0.28922 0.254367 0.134569
threshold=1999.5000000000002 17.150000000000002 1982.5000000000002 30.950000000000003 0.91666650000000016 17.000000000000004 82.833333335000006 4.5000000000000009 703587.50000000012 7.5000000000000009 0.75000000000000011 3.5000000000000004 0.7166666665000001 29.583333335000003 5.9166666670000003 14.283333335000002 539196.00000000012 79.833333335000006 27.000000000000004 13.666666665000003 1974.5000000000002 368085.00000000006 6.5000000000000009 0.58333333350000005 7.5416666665000003 12.500000000000002 7.5000000000000009 1988.5000000000002 6.5000000000000009 7.495000000000001 14.500000000000002 568955.00000000012 72.166665000000009 15.783333335000002 30.350000000000005 1.7416666665000002 1140040.0000000002
decision_type=2 2 2 2 2 2 2 2 2 2 2 2 2 2 2 2 2 2 2 2 2 2 2 2 2 2 2 2 2 2 2 2 2 2 2 2 2
left_child=1 2 11 4 5 15 7 10 9 22 34 31 30 -6 -15 -2 -7 19 20 27 23 -5 -9 -13 -21 26 33 -10 -22 32 -11 -1 -30 -17 -4 -16 -20
right_child=3 -3 6 21 13 16 -8 8 17 12 -12 18 -14 14 35 25 -18 -19 36 24 28 -23 -24 -25 -26 -27 -28 -29 29 -31 -32 -33 -34 -35 -36 -37 -38
leaf_value=-0.0013004093617200849 0.019593990255485885 0.031623811327985356 0.0034564309311099339 0.041784870280669274 0.037014769877378756 0.034020050913095463 -0.023410465439351706 -0.016288798365911298 -0.0090351472981274102 -0.0064470537555670095 0.018016703706234694 -0.022382446971129281 -0.020642359364622585 0.0069533625617623331 0.022124011614323532 -0.0037498211953788984 0.014466618226074122 0.0065744584622351755 -0.015889074839651584 -0.022516922466456882 -0.010913134180009366 0.024711386825550685 -0.031964644247835329 -0.036702300508817037 -0.0064591346867382523 -0.0061645373194055128 0.015091761066155 0.0052414524182677266 -0.020668725262988692 -0.014121745662255722 0.0056994949840009209 -0.012783622046533442 -0.032631210312247277 0.0075061565434390853 -0.0076769193301775632 0.032921453267335893 -0.008673436493457606
leaf_weight=10.000000000000002 10.999999999999998 13.999999999999998 10.000000000000002 13.000000000000002 12.999999999999998 10.000000000000002 12.999999999999998 11 10.000000000000002 14 9.9999999999999982 11.000000000000002 11.999999999999998 9.9999999999999982 12.000000000000002 12.000000000000002 17 19 14.000000000000002 10.000000000000002 11.999999999999998 10.999999999999998 11 14.999999999999998 9.9999999999999982 10.999999999999998 10.999999999999998 14.999999999999998 11.000000000000002 10.999999999999998 10 13.999999999999998 9.9999999999999982 10.999999999999998 13.999999999999998 9.9999999999999982 11.999999999999998
leaf_count=10 11 14 10 13 13 10 13 11 10 14 10 11 12 10 12 12 17 19 14 10 12 11 11 15 10 11 11 15 11 11 10 14 10 11 14 10 12
internal_value=0 -0.009564 -0.0115593 0.0190651 0.0162724 0.0112944 -0.0070143 -0.00564796 -0.00810111 -0.0139959 0.00315454 -0.0179601 -0.00780478 0.025454 0.0207574 0.00627327 0.0217086 -0.00275899 -0.0204504 -0.00669978 -0.0233815 0.0339595 -0.0241267 -0.0306439 -0.014488 0.0030171 0.00598762 -0.000469187 -0.0190901 -0.0221565 -0.00138599 -0.00799895 -0.0263651 0.00163347 -0.00303802 0.0270319 -0.0125588
internal_weight=0 303 289 152 128 83 169 156 122 58 34 120 36 45 32 56 27 64 96 45 70 24 22 26 20 45 34 25 44 32 24 24 21 23 24 22 26
internal_count=455 303 289 152 128 83 169 156 122 58 34 120 36 45 32 56 27 64 96 45 70 24 22 26 20 45 34 25 44 32 24 24 21 23 24 22 26
is_linear=0
shrinkage=0.05


Tree=17
num_leaves=35
num_cat=0
split_feature=2 1 0 4 2 1 3 0 4 0 10 10 6 5 2 3 0 10 2 10 4 2 1 0 8 1 8 2 6 4 1 2 1 9
split_gain=29.992 9.63761 4.27242 4.56383 2.58096 2.43807 1.72425 1.6836 1.49594 1.22172 1.18034 1.16913 1.09236 1.24451 0.963426 0.825655 0.762725 1.03633 0.737733 0.683752 0.617307 0.562224 0.666934 0.56197 0.745285 0.615221 0.558989 0.34931 0.331313 0.574547 0.315273 0.269623 0.237967 0.0953386
threshold=1998.5000000000002 76185.000000000015 4.5000000000000009 15.983333335000003 2007.5000000000002 769760.00000000012 30.950000000000003 7.5000000000000009 16.250000000000004 1.5000000000000002 17.000000000000004 8.0000000000000018 79.833333335000006 6.1666666665000003 1975.5000000000002 28.983333335000001 10.000000000000002 17.000000000000004 1987.5000000000002 9.5000000000000018 14.783333335000002 1975.5000000000002 1092122.5000000002 4.5000000000000009 1.0666668335000002 236715.00000000003 1.2500000000000002 1988.5000000000002 76.166665000000009 16.216666665000002 939300.00000000012 1989.5000000000002 633000.00000000012 7.3072578000000012
decision_type=2 2 2 2 2 2 2 2 2 2 2 2 2 2 2 2 2 2 2 2 2 2 2 2 2 2 2 2 2 2 2 2 2 2
left_child=1 -1 3 9 6 11 7 19 16 -3 23 14 21 -14 -4 -13 -9 -18 32 -2 31 -7 27 -6 -25 -26 -22 33 -16 -30 -19 -17 -11 -23
right_child=4 2 5 -5 10 12 -8 8 -10 18 -12 15 13 -15 28 20 17 30 -20 -21 26 22 -24 24 25 -27 -28 -29 29 -31 -32 -33 -34 -35
leaf_value=0.038548942841589454 -0.0053938215304362149 -0.022263619707276427 -0.027524514719843865 0.020848245427219404 0.030484728616746989 -0.023435563445091248 0.029037940631119103 0.031297719925642016 -0.0022692088969051838 -0.0032836272296580394 0.035729286778304316 -0.036140459651748343 -0.014284123978577548 0.0082009935838868852 -0.016255412043000645 -0.020970441204936883 0.0038135316688567402 0.028658377081155768 0.0047274114191532138 0.0086348539392929521 -0.035376051596055419 -0.0083493739366531355 -0.022382005152758212 0.028305814076553693 0.020594385825097556 0.0045836995976666611 -0.019771599786525425 -0.0029082882291588345 0.0011886903472865618 -0.015038881599903107 0.016391708515584469 -0.011625537132987611 -0.012721777408767274 -0.014037496421267004
leaf_weight=9.9999999999999982 19 11.999999999999998 9.9999999999999982 18 10.999999999999998 9.9999999999999982 12.999999999999998 9.9999999999999982 9.9999999999999982 11.000000000000002 18 11.999999999999998 10.000000000000002 15.999999999999998 12.999999999999998 19 11.999999999999998 10.000000000000002 14.999999999999998 15.999999999999998 12.000000000000002 13.000000000000002 9.9999999999999982 10.999999999999998 12.000000000000002 11.999999999999998 10.999999999999998 19 12.000000000000002 9.9999999999999982 10.999999999999998 12.999999999999998 17 17
leaf_count=10 19 12 10 18 11 10 13 10 10 11 18 12 10 16 13 19 12 10 15 16 12 13 10 11 12 12 11 19 12 10 11 13 17 17
internal_value=0 -0.00968299 -0.0114056 -0.00100512 0.0170186 -0.0150734 0.0120407 0.00952972 0.0151498 -0.00815713 0.0248744 -0.0200709 -0.00918145 -0.000447129 -0.0138376 -0.0242576 0.0192007 0.015535 -0.00422044 0.00101929 -0.0216649 -0.0124726 -0.0106145 0.0206268 0.0175286 0.012589 -0.0279131 -0.008213 -0.009927 -0.00618748 0.022233 -0.0171741 -0.00901393 -0.0115726
internal_weight=0 290 280 73 165 207 101 88 53 55 64 112 95 26 45 67 43 33 43 35 55 69 59 46 35 24 23 49 35 22 21 32 28 30
internal_count=455 290 280 73 165 207 101 88 53 55 64 112 95 26 45 67 43 33 43 35 55 69 59 46 35 24 23 49 35 22 21 32 28 30
is_linear=0
shrinkage=0.05


Tree=18
num_leaves=37
num_cat=0
split_feature=2 4 2 10 2 0 0 10 1 1 10 3 2 3 1 8 4 10 10 0 9 6 6 0 9 7 4 8 2 1 0 8 5 8 7 7
split_gain=27.1195 8.93752 2.94085 2.16058 2.17465 1.41827 2.58894 1.58946 1.40489 1.22568 1.06717 1.37702 1.02122 0.939987 3.07805 0.929654 0.897689 0.798625 0.613565 0.591156 0.576405 0.609995 0.574672 0.567043 0.487382 0.472116 0.441719 0.372398 0.342595 0.284227 0.233377 0.218312 0.198175 0.192698 0.125529 0.113878
threshold=1999.5000000000002 17.233333335000001 1976.5000000000002 50.000000000000007 2007.5000000000002 4.5000000000000009 1.5000000000000002 9.5000000000000018 724942.50000000012 76185.000000000015 5.0000000000000009 30.150000000000002 1995.5000000000002 28.466668335000005 1058670.0000000002 1.0416666665000003 13.950000000000001 17.000000000000004 17.000000000000004 4.5000000000000009 6.0166666665000008 81.833333335000006 75.333331665000017 6.5000000000000009 6.9500000000000011 0.55000000000000016 15.083333335000001 1.4666668335000002 1987.5000000000002 961222.50000000012 10.000000000000002 1.1666668335000001 9.1666666665000012 1.5166666665000001 0.81666650000000007 0.58333333350000005
decision_type=2 2 2 2 2 2 2 2 2 2 2 2 2 2 2 2 2 2 2 2 2 2 2 2 2 2 2 2 2 2 2 2 2 2 2 2
left_child=1 2 18 4 10 6 -4 -8 9 -7 -2 17 13 22 31 30 -6 23 19 -1 -18 24 -10 -12 -22 26 -17 -27 -9 -19 -11 -15 -21 -33 -29 -20
right_child=3 -3 5 -5 16 8 7 28 12 15 11 -13 -14 14 -16 25 20 29 35 32 21 -23 -24 -25 -26 27 -28 34 -30 -31 -32 33 -34 -35 -36 -37
leaf_value=-0.013823993216184053 -0.0017553012693921725 0.033641789589698122 -0.021150439248109859 0.039698246270418173 0.034438057845601666 0.0019013391248881815 0.020562765052697312 -0.0066805633924169718 -0.0073823461817069461 -0.031366485804319374 0.010808363912457767 0.024378213992244321 0.006342467113087575 -0.0010993538281127257 -0.036560933452565225 -0.0006757127205756576 0.010636010937965833 0.020563116980095698 -0.017119262028824196 -0.032022519524280833 0.021412466306771547 0.013215515711768109 0.0087797829203984951 -0.0043617064465901684 0.035865080878138549 -0.025304864495992663 -0.014547099079936744 -0.010220173158450051 0.0040296259336173538 0.0091494937147945168 -0.020564242191612722 -0.012826965699115622 -0.023711356474086644 -0.0042179854013598885 -0.017805304042994977 -0.010076115761573117
leaf_weight=10.999999999999998 14.999999999999998 11.999999999999998 11.999999999999998 9.9999999999999982 12.999999999999998 9.9999999999999982 11.999999999999998 14.000000000000002 11.000000000000002 10.000000000000002 11.000000000000002 19 14.999999999999998 15.999999999999998 9.9999999999999982 11.000000000000002 12.999999999999998 12.000000000000002 11.000000000000002 13.000000000000002 14.000000000000002 10.999999999999998 10.999999999999998 13.999999999999998 9.9999999999999982 9.9999999999999982 11.999999999999998 12.000000000000002 15.999999999999998 9.9999999999999982 9.9999999999999982 13.000000000000002 15.999999999999998 12.999999999999998 9.9999999999999982 11.999999999999998
leaf_count=11 15 12 12 10 13 10 12 14 11 10 11 19 15 16 10 11 13 12 11 13 14 11 11 14 10 10 12 12 16 10 10 13 16 13 10 12
internal_value=0 -0.0086458 -0.0103896 0.0172347 0.0156528 -0.00774744 -0.000668629 0.00518332 -0.00994431 -0.0145416 0.0102832 0.0130192 -0.00555365 -0.00796502 -0.0116304 -0.016734 0.0227829 0.00842724 -0.0199518 -0.0236935 0.0196263 0.0229656 0.000698718 0.00231312 0.0274344 -0.0133771 -0.00791296 -0.0173045 -0.000968462 0.0153751 -0.0259654 -0.00569462 -0.0274371 -0.00852248 -0.013668 -0.0134446
internal_weight=0 303 291 152 142 228 54 42 174 85 81 66 89 74 52 75 61 47 63 40 48 35 22 25 24 55 23 32 30 22 20 42 29 26 22 23
internal_count=455 303 291 152 142 228 54 42 174 85 81 66 89 74 52 75 61 47 63 40 48 35 22 25 24 55 23 32 30 22 20 42 29 26 22 23
is_linear=0
shrinkage=0.05


Tree=19
num_leaves=35
num_cat=0
split_feature=2 1 2 10 2 0 0 1 10 4 2 3 1 3 0 2 0 1 6 4 9 6 10 0 6 7 9 4 3 4 2 5 8 7
split_gain=24.4753 8.09473 2.80393 1.94993 1.96262 1.37469 2.3439 1.37996 1.34393 1.02535 0.953113 0.880132 2.71852 0.821187 0.77005 1.04485 0.764741 0.671205 0.608836 0.66731 0.603663 0.971962 0.591294 0.550867 0.518641 0.345934 0.34509 0.310931 0.276349 0.261413 0.355817 0.179897 0.115055 0.102775
threshold=1999.5000000000002 243670.00000000003 1976.5000000000002 50.000000000000007 2007.5000000000002 4.5000000000000009 1.5000000000000002 724942.50000000012 9.5000000000000018 13.950000000000001 1995.5000000000002 28.466668335000005 1058670.0000000002 29.583333335000003 7.5000000000000009 1987.5000000000002 6.5000000000000009 787680.00000000012 78.166666665000022 15.583333335000001 5.9166666670000003 81.833333335000006 17.000000000000004 4.5000000000000009 75.333331665000017 1.7416666665000002 7.0833333335000006 14.250000000000002 29.683333335000004 15.716666665000002 1988.5000000000002 9.1666666665000012 1.4666668335000002 0.58333333350000005
decision_type=2 2 2 2 2 2 2 2 2 2 2 2 2 2 2 2 2 2 2 2 2 2 2 2 2 2 2 2 2 2 2 2 2 2
left_child=1 -1 22 4 9 6 -4 14 -8 17 11 24 29 -6 16 32 -7 -2 -11 26 -15 25 23 -3 -9 -22 -20 -10 -17 30 -13 -25 -16 -24
right_child=3 2 5 -5 13 7 8 10 27 18 -12 12 -14 20 15 28 -18 -19 19 -21 21 -23 33 31 -26 -27 -28 -29 -30 -31 -32 -33 -34 -35
leaf_value=0.027596162923922141 0.028548568040132512 -0.013132793591781098 -0.020092916892220578 0.037713333889842035 0.032791222345370512 -0.012863093055784701 0.018326867801638749 -0.0070132291791113925 0.0053142550944661089 0.013703489330548206 0.0060253438850243896 -0.0085753832278507077 -0.034732886143028739 0.010307854115962982 -0.021352743729948994 -0.0092263328470289681 -0.028829104304313659 0.011009024751062196 0.014462920354509891 -0.0055041087418794639 0.022192263727386786 0.0093913419172167792 -0.016263298690319058 -0.030353905260562891 0.0083407938120548027 0.034467880461703647 0.0026285280074392048 -0.0050762356362409064 0.0018294856310463869 -0.01095057408347202 0.002697482705116272 -0.022700159010641718 -0.014428888618325196 -0.0095723101248343795
leaf_weight=14.999999999999998 10.000000000000002 10.999999999999998 11.999999999999998 9.9999999999999982 12.999999999999998 15 12.999999999999998 11.000000000000002 12.000000000000002 19 14.999999999999998 14.000000000000002 9.9999999999999982 14.999999999999998 12.000000000000002 10.000000000000002 15 11.999999999999998 11.000000000000002 14.999999999999998 12.000000000000002 9.9999999999999982 11.000000000000002 14.000000000000002 10.999999999999998 10.999999999999998 13.999999999999998 18 12.999999999999998 15.999999999999998 13.999999999999998 17 11.999999999999998 11.999999999999998
leaf_count=15 10 11 12 10 13 15 13 11 12 19 15 14 10 15 12 10 15 12 11 15 12 10 11 14 11 11 14 18 13 16 14 17 12 12
internal_value=0 -0.00821351 -0.0100786 0.016373 0.0148701 -0.00741504 -0.000553944 -0.00966124 0.00489879 0.00976901 -0.00549281 -0.00776612 -0.0112005 0.0216438 -0.0145876 -0.0105928 -0.0208461 0.0189815 0.00633383 0.00283325 0.0186247 0.0224051 -0.0192166 -0.0227457 0.000663782 0.0280632 0.00783566 -0.000920039 -0.00297739 -0.00585227 -0.00293895 -0.0261567 -0.0178908 -0.0127723
internal_weight=0 303 288 152 142 223 55 168 43 81 91 76 54 61 77 47 30 22 59 40 48 33 65 42 22 23 25 30 23 44 28 31 24 23
internal_count=455 303 288 152 142 223 55 168 43 81 91 76 54 61 77 47 30 22 59 40 48 33 65 42 22 23 25 30 23 44 28 31 24 23
is_linear=0
shrinkage=0.05


Tree=20
num_leaves=37
num_cat=0
split_feature=2 4 2 3 10 1 0 0 10 1 7 1 1 10 2 3 1 4 4 2 1 10 0 6 6 0 2 6 2 10 4 0 2 1 6 7
split_gain=22.089 7.9033 2.35799 1.87137 1.70161 1.24075 1.19095 2.11177 1.30269 1.21455 1.18542 0.958793 0.862187 0.839955 0.831061 0.764516 2.50889 0.739707 0.691192 0.613284 0.546793 0.499494 0.481242 0.468074 0.412182 0.411869 0.327204 0.307377 0.302463 0.234797 0.218338 0.201061 0.198371 0.165728 0.163367 0.0927543
threshold=1999.5000000000002 17.233333335000001 1976.5000000000002 30.950000000000003 17.000000000000004 435344.50000000006 4.5000000000000009 1.5000000000000002 9.5000000000000018 724942.50000000012 0.91666650000000016 349397.50000000006 76185.000000000015 8.0000000000000018 1995.5000000000002 28.466668335000005 1058670.0000000002 14.283333335000002 14.783333335000002 1985.5000000000002 368085.00000000006 17.000000000000004 4.5000000000000009 75.333331665000017 75.500000000000014 10.000000000000002 1989.5000000000002 79.333331665000017 1987.5000000000002 34.500000000000007 15.783333335000002 12.500000000000002 1989.5000000000002 961222.50000000012 73.666668335000011 0.58333333350000005
decision_type=2 2 2 2 2 2 2 2 2 2 2 2 2 2 2 2 2 2 2 2 2 2 2 2 2 2 2 2 2 2 2 2 2 2 2 2
left_child=1 2 21 4 10 29 7 -4 -9 12 17 27 -8 19 15 23 31 -2 26 -14 -5 22 -1 -11 -20 30 -15 -12 -10 -6 -19 32 -17 -7 -24 -23
right_child=3 -3 6 20 5 33 9 8 28 14 11 -13 13 18 -16 16 -18 25 24 -21 -22 35 34 -25 -26 -27 -28 -29 -30 -31 -32 -33 -34 -35 -36 -37
leaf_value=-0.012476153671741486 0.016449633782560175 0.031962866056710483 -0.019088270864449444 0.035308916637530684 0.035036145421591662 0.017042603479190302 0.00042646375251933935 0.018618283094838262 -0.0062411590013653033 -0.0066625676202503098 0.00462442763149738 0.029784716609865425 -0.016135274171829219 -0.01862198263406753 0.0057240767776966101 -0.0059132467520733659 -0.032996242642402654 0.0013472606030215195 -0.017972851040152209 0.00063041925119856998 0.020162185958840631 -0.015450134060599583 -0.019585783779621117 0.0079237541877029641 -0.030823409414062131 -0.0044544059084728358 -0.0078118645253458206 0.017021542005240916 0.0038221941475057976 0.02445020616054535 0.010029349555926664 -0.0093246393124846848 0.0031782176531851298 0.0081489315535873182 -0.027481196105088059 -0.0090936946566216644
leaf_weight=10.999999999999998 10.999999999999998 11.999999999999998 11.999999999999998 13.000000000000002 11.000000000000002 11.000000000000002 9.9999999999999982 11.999999999999998 14.000000000000002 11.000000000000002 10.000000000000005 9.9999999999999982 10.000000000000002 14.000000000000002 14.999999999999998 15.000000000000002 9.9999999999999982 15.000000000000002 12.000000000000002 11.999999999999998 10.999999999999998 11.000000000000002 10.000000000000002 10.999999999999998 12.999999999999998 15.999999999999998 13.999999999999998 9.9999999999999982 15.999999999999998 9.9999999999999982 13.999999999999998 17 9.9999999999999982 9.9999999999999982 19 11.999999999999998
leaf_count=11 11 12 12 13 11 11 10 12 14 11 10 10 10 14 15 15 10 15 12 12 11 11 10 11 13 16 14 10 16 10 14 17 10 10 19 12
internal_value=0 -0.00780284 -0.00944266 0.0155543 0.013152 0.0214014 -0.00707675 -0.000590018 0.0046952 -0.00908988 0.00912328 0.0171436 -0.0133644 -0.0152032 -0.00500746 -0.00718277 -0.0104884 0.0048267 -0.0186123 -0.00699035 0.0283667 -0.018005 -0.021381 0.000630593 -0.0246551 0.00198554 -0.0132169 0.010823 -0.000874037 0.0299952 0.00553861 -0.00512941 -0.00227666 0.0128075 -0.0247586 -0.0121337
internal_weight=0 303 291 152 128 42 228 54 42 174 86 30 85 75 89 74 52 56 53 22 24 63 40 22 25 45 28 20 30 21 29 42 25 21 29 23
internal_count=455 303 291 152 128 42 228 54 42 174 86 30 85 75 89 74 52 56 53 22 24 63 40 22 25 45 28 20 30 21 29 42 25 21 29 23
is_linear=0
shrinkage=0.05


Tree=21
num_leaves=35
num_cat=0
split_feature=2 4 2 3 0 7 0 0 10 1 1 1 1 8 1 7 1 7 6 0 6 10 0 0 0 4 2 8 6 9 5 8 7 3
split_gain=19.9436 7.61316 1.88014 1.77115 1.63721 1.34435 1.28912 1.92638 1.15469 1.06976 0.991583 0.925726 0.860305 0.833534 0.808854 0.708323 1.63488 0.61977 0.541497 0.514852 0.494636 0.450793 0.434321 0.432488 0.414901 0.368646 0.289903 0.278517 0.306071 0.169716 0.165556 0.107337 0.0837107 0.0816633
threshold=1998.5000000000002 17.233333335000001 1976.5000000000002 30.950000000000003 13.500000000000002 0.81666650000000007 4.5000000000000009 1.5000000000000002 9.5000000000000018 236715.00000000003 724942.50000000012 499487.00000000006 349397.50000000006 1.0416666665000003 1383540.0000000002 0.41666650000000011 823962.50000000012 0.58333333350000005 80.166665000000009 7.5000000000000009 79.833333335000006 17.000000000000004 4.5000000000000009 16.500000000000004 8.5000000000000018 14.216666665000002 1987.5000000000002 1.1666668335000001 75.333331665000017 7.0833333335000006 9.1666666665000012 1.4166665000000001 0.58333333350000005 29.850000000000005
decision_type=2 2 2 2 2 2 2 2 2 2 2 2 2 2 2 2 2 2 2 2 2 2 2 2 2 2 2 2 2 2 2 2 2 2
left_child=1 2 21 4 5 15 7 -4 -9 -6 13 -5 24 33 20 16 -2 19 29 -15 27 22 -1 -11 -7 -19 -10 28 -12 -17 -24 -29 -23 -8
right_child=3 -3 6 11 9 12 10 8 26 23 14 -13 -14 17 -16 18 -18 25 -20 -21 -22 32 30 -25 -26 -27 -28 31 -30 -31 -32 -33 -34 -35
leaf_value=-0.011852346191352066 0.018320982913045503 0.032903882243077866 -0.018133857405822105 0.033314359816722566 0.033279990201646632 0.0025537510588765138 -0.025467355642467729 0.017687368951737881 -0.0059291011587317491 0.020149589350654019 -0.0084724721359088987 0.013921675011515616 0.026277474641728291 -0.012389218637170933 -0.018939493950456382 0.0085779189318418488 -0.0059004705483940521 -0.0094596099707164923 -0.0091209142827070686 0.00074027101945830511 0.0043147440875569978 -0.014677627249197522 -0.027711839973926539 0.0081813537730620438 0.016956891678273679 -0.02041598856996964 0.0040751820337027308 -0.011636933974702569 0.00298060935788921 -0.00042212795445018193 -0.020115413563326003 -0.0059311267337761823 -0.0086390100618397511 -0.019077388867735863
leaf_weight=10.999999999999998 19.000000000000004 10.999999999999998 11.999999999999998 16.000000000000004 10.999999999999998 10.000000000000002 10.000000000000002 11.999999999999998 14.000000000000002 18 10.000000000000002 9.9999999999999982 12.999999999999998 14.000000000000002 9.9999999999999982 10.000000000000002 10.999999999999998 14.000000000000002 12.999999999999998 15.999999999999998 14.999999999999998 11.000000000000002 13.000000000000002 13.000000000000002 9.9999999999999982 17 14.999999999999998 17 13.999999999999998 10.999999999999998 15.999999999999998 15.999999999999998 11.999999999999998 9.9999999999999982
leaf_count=11 19 11 12 16 11 10 10 12 14 18 10 10 13 14 10 10 11 14 13 16 15 11 13 13 10 17 15 17 14 11 16 16 12 10
internal_value=0 -0.00789603 -0.00950462 0.0138779 0.0116374 0.00806671 -0.00728793 -0.000513916 0.00464314 0.019884 -0.00949052 0.0258556 0.016264 -0.0134143 -0.00561458 0.00383996 0.00943978 -0.01051 -0.00110106 -0.00538682 -0.0037639 -0.0171047 -0.0203119 0.0151307 0.00975532 -0.0154679 -0.000754472 -0.00588986 -0.00179151 0.00386361 -0.0235207 -0.00887048 -0.011527 -0.0222724
internal_weight=0 290 279 165 139 97 216 53 41 42 163 26 33 81 82 64 30 61 34 30 72 63 40 31 20 31 29 57 24 21 29 33 23 20
internal_count=455 290 279 165 139 97 216 53 41 42 163 26 33 81 82 64 30 61 34 30 72 63 40 31 20 31 29 57 24 21 29 33 23 20
is_linear=0
shrinkage=0.05


Tree=22
num_leaves=35
num_cat=0
split_feature=2 1 2 7 10 3 10 9 9 4 1 7 1 1 7 9 7 4 2 3 1 5 6 1 0 1 6 2 10 4 7 7 1 5
split_gain=18.0484 6.9834 2.88874 2.53371 3.12552 1.51971 1.40595 1.3343 1.18128 1.11953 1.05207 0.974398 0.848724 0.790345 0.749114 0.725683 0.646891 0.646869 0.633647 0.578738 0.568951 0.463766 0.456321 0.446297 0.347355 0.3052 0.274763 0.236521 0.207543 0.190639 0.160068 0.153748 0.135283 0.125588
threshold=1999.5000000000002 76185.000000000015 1989.5000000000002 0.78333333350000012 8.0000000000000018 30.950000000000003 17.000000000000004 7.495000000000001 6.8385057470000001 14.316666665000001 435344.50000000006 0.91666650000000016 546577.50000000012 349397.50000000006 1.0166666665000001 7.3072578000000012 0.58333333350000005 14.283333335000002 1993.5000000000002 29.683333335000004 724942.50000000012 24.333331665000003 79.333331665000017 368085.00000000006 10.000000000000002 633000.00000000012 79.333331665000017 1983.5000000000002 34.500000000000007 15.783333335000002 0.75000000000000011 0.51666666650000004 961222.50000000012 13.666666665000003
decision_type=2 2 2 2 2 2 2 2 2 2 2 2 2 2 2 2 2 2 2 2 2 2 2 2 2 2 2 2 2 2 2 2 2 2
left_child=1 -1 7 9 -5 6 11 8 27 18 28 17 -9 26 15 20 21 -2 -4 -17 -10 -11 25 -7 29 30 -13 -3 -8 -19 -14 -27 -12 -33
right_child=5 2 3 4 -6 23 10 12 14 16 32 13 22 -15 -16 19 -18 24 -20 -21 -22 -23 -24 -25 -26 31 -28 -29 -30 -31 -32 33 -34 -35
leaf_value=0.032055872600440953 0.015206704220988534 -0.010828414525498041 0.010439960082823578 0.033497892580926412 -0.0010366469621658325 0.031877753253166489 0.03204643565484068 -0.019855097803072291 -0.018364128191024065 -0.00079758645567510787 0.015306448462334541 0.0039054401963949173 -0.0077252669249322573 0.026981606949120763 -0.031238906356421389 -0.028933318090789452 -0.019758037565043199 0.0010271781174621233 -0.0051490809186361735 -0.014214630018581044 -0.0057732081068131852 -0.01419286233916258 0.00093072534331844917 0.018193547834049573 -0.0042334226658567791 -0.0070856632346189335 0.015626422986388205 -0.00020368008845252918 0.022093807123601438 0.009139878076634236 0.00062498028273694217 -0.017050639675422145 0.0072711087763309484 -0.009911358542740346
leaf_weight=10.999999999999998 10.999999999999998 11.000000000000002 11.000000000000002 10.000000000000002 19 13.000000000000002 11.000000000000002 12.999999999999998 19 14.000000000000002 11.000000000000002 10.000000000000005 11.000000000000002 9.9999999999999982 10.999999999999998 17.000000000000004 15.999999999999998 15.000000000000002 15.999999999999998 10.999999999999998 17 11.999999999999998 18 10.999999999999998 15.999999999999998 19 9.9999999999999982 9.9999999999999982 9.9999999999999982 13.999999999999998 11.999999999999998 11.000000000000002 9.9999999999999982 13.999999999999998
leaf_count=11 11 11 11 10 19 13 11 13 19 14 11 10 11 10 11 17 16 15 16 11 17 12 18 11 16 19 10 10 10 14 12 11 10 14
internal_value=0 -0.00705317 -0.00852646 -0.00152931 0.0108718 0.0140599 0.0118951 -0.0120611 -0.0162507 -0.00674138 0.0193936 0.00823302 -0.00795699 0.0155045 -0.0191856 -0.0171139 -0.0118478 0.00433759 0.00120201 -0.023151 -0.0124184 -0.00698002 -0.00613728 0.0256058 0.00168069 -0.00803615 0.00976593 -0.00576902 0.0273071 0.00494365 -0.00336862 -0.010476 0.0114801 -0.0130526
internal_weight=0 303 292 98 29 152 128 194 96 69 42 86 98 30 75 64 42 56 27 28 36 26 85 24 45 67 20 21 21 29 23 44 21 25
internal_count=455 303 292 98 29 152 128 194 96 69 42 86 98 30 75 64 42 56 27 28 36 26 85 24 45 67 20 21 21 29 23 44 21 25
is_linear=0
shrinkage=0.05


Tree=23
num_leaves=35
num_cat=0
split_feature=2 4 2 3 0 0 0 7 10 3 0 6 1 1 1 0 0 4 10 8 0 10 4 0 0 6 2 6 5 1 1 8 9 1
split_gain=16.3041 6.8889 1.52883 1.45188 1.38544 1.22082 1.65971 1.10797 0.983642 0.889915 1.59654 1.11186 0.884313 0.767299 0.70625 0.632698 1.35935 0.593638 0.432025 0.42023 0.396668 0.382432 0.554906 0.374443 0.361855 0.320415 0.299596 0.284885 0.263501 0.233473 0.219723 0.187761 0.109035 0.0924772
threshold=1998.5000000000002 17.233333335000001 1975.5000000000002 30.950000000000003 13.500000000000002 4.5000000000000009 1.5000000000000002 0.81666650000000007 9.5000000000000018 28.466668335000005 15.500000000000002 76.166665000000009 236715.00000000003 499487.00000000006 349397.50000000006 11.500000000000002 7.5000000000000009 14.483333335000003 17.000000000000004 1.2833335000000001 15.500000000000002 9.5000000000000018 15.783333335000002 8.5000000000000018 16.500000000000004 73.666668335000011 1987.5000000000002 75.333331665000017 37.500000000000007 608262.50000000012 515632.50000000006 1.2166666665000003 7.366666833500001 684617.00000000012
decision_type=2 2 2 2 2 2 2 2 2 2 2 2 2 2 2 2 2 2 2 2 2 2 2 2 2 2 2 2 2 2 2 2 2 2
left_child=1 2 18 4 7 6 -4 15 -8 20 11 19 -6 -5 23 16 21 31 27 25 -7 22 -2 -9 -14 -11 -10 -1 29 -19 -21 -13 -31 -32
right_child=3 -3 5 13 12 9 8 14 26 10 -12 17 24 -15 -16 -17 -18 28 -20 30 -22 -23 -24 -25 -26 -27 -28 -29 -30 32 33 -33 -34 -35
leaf_value=-0.015653141712148985 -0.012801946476101873 0.03167139996181835 -0.016989599711572132 0.030183043703436847 0.030285060558129441 -0.0062017924401776064 0.015532776054281456 0.001937862634658813 -0.0056121243032976045 -0.013382683163799808 -0.024042211325937198 0.0076750675030052631 0.018374508818508023 0.012527582831680775 0.02374923351005866 -0.0081549767032265668 0.017240317154894859 -0.015583805426616561 -0.010264263162389398 -0.0034953202214092018 0.006186612206511199 0.0059832391722011383 0.0034720061177557168 0.015620750319212676 0.0074271335338170694 -0.024617639302530074 0.0042237629617253945 -0.024983111073573431 -0.00038433342473581439 -0.010026945978064425 -0.014573886501602826 -0.0014380117591757042 -0.002813116861507297 -0.0084445419348776335
leaf_weight=18 10.000000000000002 10.999999999999998 11.999999999999998 16.000000000000004 10.999999999999998 14 12.999999999999998 10.000000000000002 16.000000000000004 15.000000000000002 19 10.000000000000002 18 9.9999999999999982 12.999999999999998 9.9999999999999982 17 10.999999999999998 18 9.9999999999999982 12 15.999999999999998 10.999999999999998 9.9999999999999982 13.000000000000002 10.999999999999998 14.999999999999998 14.999999999999998 9.9999999999999982 11.000000000000002 16.000000000000004 12.999999999999998 9.9999999999999982 9.9999999999999982
leaf_count=18 10 11 12 16 11 14 13 10 16 15 19 10 18 10 13 10 17 11 18 10 12 16 11 10 13 11 15 15 10 11 16 13 10 10
internal_value=0 -0.00713931 -0.00866948 0.0125479 0.0105194 -0.00691897 -0.000506905 0.0072347 0.00398838 -0.00900662 -0.0105243 -0.00850198 0.0181055 0.0233925 0.0146766 0.0033975 0.00553685 -0.00393287 -0.0164953 -0.0132922 -0.000484067 0.000159579 -0.0042775 0.00877931 0.0137837 -0.0181359 -0.000852824 -0.019894 -0.00746888 -0.00968279 -0.00979391 0.0025242 -0.00659179 -0.0122164
internal_weight=0 290 279 165 139 228 56 97 44 172 146 127 42 26 33 64 54 65 51 62 26 37 21 20 31 26 31 33 42 32 36 23 21 26
internal_count=455 290 279 165 139 228 56 97 44 172 146 127 42 26 33 64 54 65 51 62 26 37 21 20 31 26 31 33 42 32 36 23 21 26
is_linear=0
shrinkage=0.05


Tree=24
num_leaves=34
num_cat=0
split_feature=2 1 2 7 10 10 6 4 9 0 3 4 3 5 1 2 3 3 7 1 9 1 5 6 3 10 1 1 2 9 7 3 8
split_gain=14.7605 6.21152 2.4409 2.27797 2.66318 1.26608 1.32855 1.2689 1.16898 1.06669 1.04377 0.98075 0.890624 0.856852 0.710156 0.657224 0.611539 1.34754 0.566794 0.562837 0.437495 0.762707 0.421367 0.388261 0.286875 0.282455 0.242639 0.216105 0.20492 0.138539 0.119984 0.11427 0.0902972
threshold=1999.5000000000002 76185.000000000015 1989.5000000000002 0.78333333350000012 8.0000000000000018 50.000000000000007 83.166666665000022 13.916666665000003 7.495000000000001 6.5000000000000009 30.833331665000003 14.316666665000001 30.083333335000003 20.166666665000005 546577.50000000012 2007.5000000000002 29.050000000000004 28.283333330000001 0.58333333350000005 856561.00000000012 6.716666666500001 675030.00000000012 24.333331665000003 79.333331665000017 29.050000000000004 8.0000000000000018 633000.00000000012 344048.00000000006 1981.5000000000002 7.8166666665000006 0.75000000000000011 30.250000000000004 1.3500000000000003
decision_type=2 2 2 2 2 2 2 2 2 2 2 2 2 2 2 2 2 2 2 2 2 2 2 2 2 2 2 2 2 2 2 2 2
left_child=1 -1 8 11 -5 6 7 12 9 28 13 19 24 15 -10 20 17 -11 22 -4 -9 -22 -13 26 -2 31 30 -17 -3 -28 -16 -18 -31
right_child=5 2 3 4 -6 -7 -8 10 14 16 -12 18 -14 -15 23 27 25 -19 -20 -21 21 -23 -24 -25 -26 -27 29 -29 -30 32 -32 -33 -34
leaf_value=0.030505957606841216 0.022049419246613966 -0.010400123761168546 0.0081131761727322414 0.031308295556809744 -0.00056981740788997789 0.029910712949931625 -0.0025685268764694532 0.014612937202169139 -0.018059166864706919 -0.010568468317796939 0.02125248277766837 -0.00060797114191310736 0.034336379021406176 -0.0024219854502007367 -0.006872753062370146 0.013023460627300663 -0.0063554378482513114 -0.032199388432006044 -0.018461836333153771 -0.0063348137701933205 -0.0040525495394831516 0.013549999073147773 -0.013376249186694623 0.0010085929133411911 0.010072874501347542 -0.018748402222990991 -0.0042647356400266293 0.022393231615424156 -0.0014959481622402867 -0.013692634121980518 0.00035674628646423424 -0.013592401534939805 -0.0085302483393914167
leaf_weight=10.999999999999998 10.000000000000005 14.000000000000002 14.000000000000002 10.000000000000002 19 9.9999999999999982 14.999999999999998 10.999999999999998 12.999999999999998 12.000000000000002 18 14.000000000000002 9.9999999999999982 15.999999999999998 11.000000000000002 16.000000000000004 10.000000000000002 18 15.999999999999998 12.999999999999998 16.000000000000004 9.9999999999999982 11.999999999999998 18 9.9999999999999982 18 9.9999999999999982 9.9999999999999982 11.999999999999998 15.999999999999998 11.999999999999998 11.999999999999998 18
leaf_count=11 10 14 14 10 19 10 15 11 13 12 18 14 10 16 11 16 10 18 16 13 16 10 12 18 10 18 10 10 12 16 12 12 18
internal_value=0 -0.00637844 -0.00776792 -0.001336 0.0104226 0.0127149 0.011504 0.0131661 -0.011017 -0.0149385 0.0103866 -0.00627803 0.0221529 0.00791085 -0.00717559 0.0105351 -0.0181506 -0.023547 -0.0110575 0.00115674 0.00625409 0.00271766 -0.00650102 -0.00551104 0.0160611 -0.0141034 -0.00726259 0.0166272 -0.0062905 -0.00943804 -0.00310084 -0.0103029 -0.0109596
internal_weight=0 303 292 98 29 152 142 127 194 96 97 69 30 79 98 63 70 30 42 27 37 26 26 85 20 40 67 26 26 44 23 22 34
internal_count=455 303 292 98 29 152 142 127 194 96 97 69 30 79 98 63 70 30 42 27 37 26 26 85 20 40 67 26 26 44 23 22 34
is_linear=0
shrinkage=0.05


Tree=25
num_leaves=38
num_cat=0
split_feature=2 8 2 7 8 10 3 10 1 0 0 4 7 1 2 1 9 7 1 2 5 9 4 4 0 5 3 1 5 7 10 6 1 1 5 4 9
split_gain=13.3213 6.07913 1.80322 1.84277 1.35238 1.17024 1.37024 1.13638 0.866521 0.766789 1.16871 0.700538 0.767275 0.660915 0.589381 0.572843 0.547833 0.616249 0.55523 0.511908 0.82219 0.664613 0.505125 0.346573 0.332992 0.323235 0.313687 0.302737 0.653525 0.267035 0.225592 0.198908 0.183227 0.150805 0.141598 0.0949051 0.0774302
threshold=1999.5000000000002 2.4666665000000005 1989.5000000000002 0.78333333350000012 1.4166665000000001 3.5000000000000004 30.383333335000003 17.000000000000004 409817.00000000006 6.5000000000000009 7.5000000000000009 14.316666665000001 0.58333333350000005 856561.00000000012 1972.5000000000002 656590.00000000012 7.495000000000001 0.86666683350000007 1140040.0000000002 2010.5000000000002 20.166666665000005 6.716666666500001 15.516666665000001 15.716666665000002 14.500000000000002 11.500000000000002 29.850000000000005 329885.00000000006 6.5000000000000009 0.61666666650000013 9.5000000000000018 77.166665000000009 695692.50000000012 961222.50000000012 7.8333333335000015 14.216666665000002 7.8833333335000004
decision_type=2 2 2 2 2 2 2 2 2 2 2 2 2 2 2 2 2 2 2 2 2 2 2 2 2 2 2 2 2 2 2 2 2 2 2 2 2
left_child=1 2 9 11 -5 -2 7 19 -9 14 -11 13 23 -4 -1 27 17 24 26 20 21 -7 -23 -13 25 -12 -18 28 -8 34 -31 -29 -27 -10 -16 -32 -36
right_child=5 -3 3 4 -6 6 15 8 33 10 16 12 -14 -15 29 -17 18 -19 -20 -21 -22 22 -24 -25 -26 32 -28 31 -30 30 35 -33 -34 -35 36 -37 -38
leaf_value=-0.015834723699551363 -0.0044529796019196514 0.032276150826364758 0.0084492642468271314 -0.00070442546391859642 0.021815377598007522 0.015788274933584034 0.0087752894661389264 0.026188460857208287 0.01416932256384329 -0.026174477594239371 -0.019486497392257055 -0.00061528594780932444 -0.019515756168402731 -0.0078231004299595952 -0.0027070703831585975 0.0089500513672828678 -0.014371838027404417 -0.024633344499902291 0.0031065159011632207 0.014675594375214793 -0.0099866379238665107 -0.0057561566218888999 0.0094594769924879075 -0.01123859491199255 -0.0038785333152521746 -0.01449882859596982 -0.0049009269103407862 0.021105165220797056 0.026851869001984597 0.0053953677415847761 -0.0003580058272927998 0.030653271762033304 -0.0057612935546785598 0.0056855109427124267 -0.006815002113580701 -0.0072465857630595572 -0.012894090488553049
leaf_weight=12.999999999999998 9.9999999999999982 9.9999999999999982 13.000000000000002 15.000000000000002 11.999999999999998 11.999999999999998 10.000000000000002 13.999999999999998 11.000000000000002 13.999999999999998 14.999999999999998 17.000000000000004 13.999999999999998 11.999999999999998 10.999999999999998 9.9999999999999982 18 10.999999999999998 10.999999999999998 10.999999999999998 9.9999999999999982 12.000000000000002 9.9999999999999982 13.999999999999998 10.999999999999998 12.000000000000002 17 10.000000000000002 9.9999999999999982 10.000000000000002 10.000000000000002 11.999999999999998 11.999999999999998 9.9999999999999982 11.000000000000002 9.9999999999999982 9.9999999999999982
leaf_count=13 10 10 13 15 12 12 10 14 11 14 15 17 14 12 11 10 18 11 11 11 10 12 10 14 11 12 17 10 10 10 10 12 12 10 11 10 10
internal_value=0 -0.00605952 -0.00736791 -0.00179216 0.00930438 0.0120792 0.0132434 0.00951002 0.016553 -0.0101273 -0.0125895 -0.00607225 -0.00980046 0.000638529 -0.00615503 0.0197051 -0.010812 -0.0139188 -0.00669211 0.0050281 0.00261622 0.00632295 0.00116004 -0.00541291 -0.0115617 -0.0137287 -0.00977168 0.0222658 0.0178136 -0.00412542 -0.000736408 0.0263132 -0.0101301 0.0101294 -0.00730262 -0.0038023 -0.00970981
internal_weight=0 303 293 97 27 152 142 90 35 196 121 70 45 25 75 52 107 61 46 55 44 34 22 31 50 39 35 42 20 62 30 22 24 21 32 20 21
internal_count=455 303 293 97 27 152 142 90 35 196 121 70 45 25 75 52 107 61 46 55 44 34 22 31 50 39 35 42 20 62 30 22 24 21 32 20 21
is_linear=0
shrinkage=0.05


Tree=26
num_leaves=33
num_cat=0
split_feature=2 4 2 1 10 3 0 0 0 3 0 6 10 7 4 5 2 5 9 6 10 7 0 8 2 7 0 6 3 2 9 2
split_gain=12.0814 6.21503 1.13008 1.115 1.20201 1.24881 0.995938 1.40228 0.966756 0.751367 1.44327 0.827032 0.698629 0.622995 0.561364 0.502607 0.435838 0.528125 0.626913 0.416272 0.351092 0.330447 0.309644 0.307098 0.255996 0.247159 0.246635 0.225466 0.222225 0.1933 0.104384 0.0484083
threshold=1998.5000000000002 17.233333335000001 1975.5000000000002 806740.00000000012 17.000000000000004 30.350000000000005 4.5000000000000009 1.5000000000000002 10.000000000000002 28.466668335000005 15.500000000000002 76.416666665000022 9.5000000000000018 0.51666666650000004 15.183333335000002 4.8333333335000015 2010.5000000000002 19.833333335000003 6.716666666500001 78.500000000000014 17.000000000000004 0.7166666665000001 15.500000000000002 1.2833335000000001 1987.5000000000002 0.58333333350000005 8.5000000000000018 75.333331665000017 29.983333335000001 2008.5000000000002 7.2540404040000004 1983.5000000000002
decision_type=2 2 2 2 2 2 2 2 2 2 2 2 2 2 2 2 2 2 2 2 2 2 2 2 2 2 2 2 2 2 2 2
left_child=1 2 20 4 5 16 7 -4 15 22 11 23 -9 -5 21 -7 17 18 -2 -6 27 -13 -8 26 -14 -16 -11 -1 -20 -21 -25 -32
right_child=3 -3 6 13 19 8 9 12 -10 10 -12 14 24 -15 25 -17 -18 -19 28 29 -22 -23 -24 30 -26 -27 -28 -29 -30 -31 31 -33
leaf_value=-0.013618418346676563 0.014998861693311483 0.030718041177500377 -0.015453092722843091 -0.0050646897529562302 0.01192212506197393 0.013928703830710477 -0.0052002728351258805 0.013558612706569526 0.0036908359526106244 -0.019449843165154256 -0.022226820248914394 0.0072287818416953073 -0.0046499238698743282 0.0091189398081041873 -0.0040424789092503481 0.02672182759817909 0.013941814602268014 -0.0072944228351116179 -0.0034095283884268534 0.020517731498694042 -0.0087101569567393095 -0.0031444331240730694 0.0057451739790849382 -0.011210704804398119 0.0044421217481916157 -0.013669762213248761 -0.010525575216161088 -0.021918561722462378 0.0065047043532831597 0.029379348568618298 -0.0084722617641091319 -0.0037619388293630134
leaf_weight=18 11.999999999999998 10.999999999999998 11.999999999999998 15.000000000000002 9.9999999999999982 14.000000000000002 14 12.999999999999998 10.999999999999998 15.000000000000002 19 14.000000000000002 16.000000000000004 15.999999999999998 15.000000000000002 17 10.999999999999998 9.9999999999999982 13.000000000000002 16.000000000000004 18 17 12 15.999999999999998 14.999999999999998 11.999999999999998 15.999999999999998 14.999999999999998 9.9999999999999982 9.9999999999999982 10.000000000000002 11.999999999999998
leaf_count=18 12 11 12 15 10 14 14 13 11 15 19 14 16 16 15 17 11 10 13 16 18 17 12 16 15 12 16 15 10 10 10 12
internal_value=0 -0.00614562 -0.00759902 0.0108014 0.0127783 0.00990814 -0.00609401 -0.000302538 0.0164255 -0.00797961 -0.00937418 -0.00745134 0.00382943 0.00225589 -0.00305046 0.0209443 0.00502009 0.00283923 0.00573456 0.0205916 -0.0143273 0.00154024 -0.000148528 -0.0111506 -0.000250547 -0.00832127 -0.0148438 -0.0173912 0.000901008 0.023926 -0.00813782 -0.00590299
internal_weight=0 290 279 165 134 98 228 56 42 172 146 127 44 31 58 31 56 45 35 36 51 31 26 69 31 27 31 33 23 26 38 22
internal_count=455 290 279 165 134 98 228 56 42 172 146 127 44 31 58 31 56 45 35 36 51 31 26 69 31 27 31 33 23 26 38 22
is_linear=0
shrinkage=0.05


Tree=27
num_leaves=34
num_cat=0
split_feature=2 1 0 4 1 3 0 1 9 9 4 0 10 3 0 8 0 0 6 1 2 3 2 9 10 4 3 1 2 1 5 5 4
split_gain=10.9034 5.93212 2.21997 2.16897 1.26065 1.04631 1.0214 0.773724 0.739673 1.3493 0.711278 0.832027 1.06527 0.660526 0.637422 0.635196 0.620996 0.615009 0.61215 0.610525 0.4376 0.392963 0.335774 0.282164 0.23212 0.420761 0.228732 0.179041 0.158646 0.141073 0.138659 0.0677719 0.0458611
