tree
version=v3
num_class=1
num_tree_per_iteration=1
label_index=0
max_feature_idx=10
objective=regression
feature_names=Column_0 Column_1 Column_2 Column_3 Column_4 Column_5 Column_6 Column_7 Column_8 Column_9 Column_10
feature_infos=[1:18] [15540:1541410] [1969:2013] [27.300000000000001:32.833333330000002] [11.66666667:18.93333333] [0:90] [66:91.333333330000002] [0.033333333:5.8666669999999996] [0.366666667:3.1000000000000001] [2.3666666670000001:9.6999999999999993] [3:63]
tree_sizes=3644 3535 3535 3718 3533 3606 3514 3631 3612 3291 3518 3649 3529 3608 3508 3563 3570 3574 3913 3684 3528 3696 3789 3827 3331 3391 3900 3788 3795 3447 3693 3434 3727 3793 3796 3797 3808 4086 4051 3690 3952 3819

Tree=0
num_leaves=36
num_cat=0
split_feature=2 1 7 0 2 1 10 1 0 2 10 4 2 7 6 10 9 8 3 2 7 4 7 2 4 0 4 8 8 6 6 2 2 7 5
split_gain=181.033 44.5118 17.6523 16.7942 12.7343 8.20188 8.04542 4.95114 4.79266 5.89223 4.35342 4.34845 3.34811 2.20225 2.59857 2.08539 2.0806 2.26008 1.96165 1.83855 1.65983 2.17967 1.47626 1.3718 1.33973 1.13011 1.24138 0.908594 0.768135 0.71775 0.65502 0.637836 0.577951 0.47984 0.161781
threshold=1998.5000000000002 70030.000000000015 0.91666650000000016 3.5000000000000004 1976.5000000000002 713855.00000000012 17.000000000000004 537167.50000000012 1.5000000000000002 1985.5000000000002 27.000000000000004 14.816666665000001 1989.5000000000002 0.86666683350000007 76.833333335000006 17.000000000000004 7.1833333335000011 1.1166666665000002 30.416666665000005 2009.5000000000002 0.7166666665000001 14.283333335000002 0.86666683350000007 1975.5000000000002 13.100000000000001 8.5000000000000018 15.766668335 0.98333333350000018 1.3166666665000002 80.833333335000006 78.166666665000022 1973.5000000000002 1984.5000000000002 0.58333333350000005 13.500000000000002
decision_type=2 2 2 2 2 2 2 2 2 2 2 2 2 2 2 2 2 2 2 2 2 2 2 2 2 2 2 2 2 2 2 2 2 2 2
left_child=1 -1 6 8 10 13 11 -8 -3 23 22 18 24 14 28 16 17 -4 -2 -17 21 -14 31 -10 -7 26 -13 -26 -6 -27 34 -5 -30 -16 -29
right_child=2 3 15 4 5 12 7 -9 9 -11 -12 25 20 -15 33 19 -18 -19 -20 -21 -22 -23 -24 -25 27 29 -28 30 32 -31 -32 -33 -34 -35 -36
leaf_value=0.075103434719951012 0.024363161028011428 -0.033251841837581203 0.066262704556766916 -0.062393599670911445 -0.049330883356244311 -0.0096574319117180597 0.073823878500139786 0.033329442706952948 -0.023200392627113535 0.028066981455540742 -0.030534106911067942 -0.0069191477425232673 0.00095658663407841417 -0.055884834899918447 -0.013294550570446277 0.061130828684154918 0.072785597195807877 0.035961619868076916 0.054348019772488439 0.088271184291028773 0.0075984946892497848 -0.029856995151673147 -0.078526244445152216 4.6265333073875519e-05 -0.04024197177282593 0.029216712837997861 0.01538210338350017 -0.034103568965610065 -0.044782460207160507 0.011079222895396914 -0.01485697253161168 -0.046792799556668804 -0.028793954174290155 -0.028063059595369779 -0.025316426256712484
leaf_weight=10.999999999999998 12.000000000000002 9.9999999999999982 10.000000000000002 19.000000000000004 19 11.999999999999998 13.000000000000002 18 11.000000000000002 17 13.999999999999998 13.000000000000002 12.000000000000002 14.999999999999998 11.000000000000002 13.000000000000002 11.999999999999998 15.999999999999998 9.9999999999999982 11.999999999999998 14.999999999999998 10.999999999999998 10.999999999999998 14.999999999999998 11.999999999999998 10.000000000000002 11.999999999999998 10.000000000000002 10.000000000000002 11.999999999999998 11.999999999999998 9.9999999999999982 12.999999999999998 10.999999999999998 10.999999999999998
leaf_count=11 12 10 10 19 19 12 13 18 11 17 14 13 12 15 11 13 12 16 10 12 15 11 11 15 12 10 12 10 10 12 12 10 13 11 11
internal_value=1.01883e-09 -0.0235638 0.0422124 -0.0274262 -0.0333196 -0.0267368 0.0291523 0.050311 -0.0020734 0.0051774 -0.054531 0.0196463 -0.0168375 -0.038641 -0.0345995 0.0629428 0.0555642 0.0476159 0.0379926 0.0741582 -0.00534133 -0.0137803 -0.0629299 -0.00978886 -0.0245016 0.0110586 0.00378545 -0.0284601 -0.0418913 0.0193235 -0.0241758 -0.057014 -0.0357455 -0.0206788 -0.0295008
internal_weight=0 292 163 281 228 174 100 31 53 43 54 69 95 79 64 63 38 26 22 25 38 23 40 26 57 47 25 45 42 22 33 29 23 22 21
internal_count=455 292 163 281 228 174 100 31 53 43 54 69 95 79 64 63 38 26 22 25 38 23 40 26 57 47 25 45 42 22 33 29 23 22 21
is_linear=0
shrinkage=1


Tree=1
num_leaves=35
num_cat=0
split_feature=2 1 7 0 2 1 10 1 0 2 10 4 2 7 10 9 8 1 4 3 2 2 2 7 2 0 4 0 6 2 6 9 4 6
split_gain=163.382 40.1719 15.9312 15.1568 11.4927 7.41204 7.26099 4.4684 4.32537 5.31774 3.92896 3.92448 3.30874 1.91779 1.88207 1.87774 2.03972 1.83154 1.8837 1.77039 1.72972 1.65929 1.49985 1.33232 1.23805 1.01992 1.12034 1.01857 0.647769 0.575648 0.56773 0.462093 0.289338 0.279532
threshold=1998.5000000000002 70030.000000000015 0.91666650000000016 3.5000000000000004 1976.5000000000002 703587.50000000012 17.000000000000004 537167.50000000012 1.5000000000000002 1985.5000000000002 27.000000000000004 14.816666665000001 1982.5000000000002 0.91666650000000016 17.000000000000004 7.1833333335000011 1.1166666665000002 1355615.0000000002 15.250000000000002 30.416666665000005 1985.5000000000002 2009.5000000000002 1988.5000000000002 0.86666683350000007 1975.5000000000002 8.5000000000000018 15.766668335 7.5000000000000009 80.833333335000006 1973.5000000000002 74.500000000000014 7.5833333335000006 14.483333335000003 72.166665000000009
decision_type=2 2 2 2 2 2 2 2 2 2 2 2 2 2 2 2 2 2 2 2 2 2 2 2 2 2 2 2 2 2 2 2 2 2
left_child=1 -1 6 8 10 13 11 -8 -3 24 23 19 30 20 15 16 -4 18 22 -2 33 -16 -14 29 -10 26 -13 -22 -27 -5 -7 -29 -24 -6
right_child=2 3 14 4 5 12 7 -9 9 -11 -12 25 17 -15 21 -17 -18 -19 -20 -21 27 -23 32 -25 -26 28 -28 31 -30 -31 -32 -33 -34 -35
leaf_value=0.071348262104121124 0.023145002002517377 -0.031589251086115842 0.06294956758618353 -0.059273922757098543 -0.039535425305366502 -0.037004426121711724 0.070132681498160709 0.031662969498170747 -0.022040374001318752 0.02666363099261242 -0.029007403126784733 -0.0065731914557265823 -0.016339589830871169 -0.053833003980772835 0.058074284975345308 0.069146315505107248 0.034163537516724317 -0.030312532428652051 -0.020732634638746583 0.051630618870258327 -0.038027734359105433 0.083857626219590517 0.008312057091021223 -0.074599932540546768 4.3951281889652218e-05 0.027755876183509817 0.014612996849852303 -0.015926855479677517 0.010525260283611716 -0.044453161209821707 -0.02261745668947697 -0.029090626848240694 -0.0018776174465363676 -0.051357696950435641
leaf_weight=10.999999999999998 12.000000000000002 9.9999999999999982 10.000000000000002 19.000000000000004 10.000000000000002 16.000000000000004 13.000000000000002 18 11.000000000000002 17 13.999999999999998 13.000000000000002 11.999999999999998 13.999999999999998 13.000000000000002 11.999999999999998 15.999999999999998 9.9999999999999982 18 9.9999999999999982 14.999999999999998 11.999999999999998 19.000000000000004 10.999999999999998 14.999999999999998 10.000000000000002 11.999999999999998 15.000000000000002 11.999999999999998 9.9999999999999982 11.999999999999998 11.999999999999998 10.999999999999998 9.9999999999999982
leaf_count=11 12 10 10 19 10 16 13 18 11 17 14 13 12 14 13 12 16 10 18 10 15 12 19 11 15 10 12 15 12 10 12 12 11 10
internal_value=0 -0.0223856 0.0401018 -0.0260549 -0.0316536 -0.0254 0.0276947 0.0477954 -0.00196973 0.00491853 -0.0518044 0.018664 -0.0163122 -0.0371184 0.0597956 0.052786 0.0452351 -0.0105016 -0.00719979 0.036093 -0.0333442 0.0704503 -0.00139999 -0.0597834 -0.00929942 0.0105057 0.00359618 -0.0275811 0.0183574 -0.0541633 -0.0308386 -0.0217774 0.00457584 -0.0454466
internal_weight=0 292 163 281 228 174 100 31 53 43 54 69 98 76 63 38 26 70 60 22 62 25 42 40 26 47 25 42 22 29 28 27 30 20
internal_count=455 292 163 281 228 174 100 31 53 43 54 69 98 76 63 38 26 70 60 22 62 25 42 40 26 47 25 42 22 29 28 27 30 20
is_linear=0
shrinkage=0.05


Tree=2
num_leaves=35
num_cat=0
split_feature=2 1 2 7 0 1 10 0 1 1 2 1 2 7 4 10 4 8 10 9 8 4 2 4 3 6 3 7 2 1 4 5 6 10
split_gain=147.779 36.5787 14.3856 12.5426 7.30283 9.08919 6.16359 5.89838 3.6817 3.58145 3.39507 3.40761 3.18208 2.7806 2.56129 2.54797 1.90283 2.21743 1.75335 1.69466 1.84085 1.47273 1.22729 1.10922 1.08273 1.07743 1.42197 0.739452 0.713726 0.675519 0.662749 0.522024 0.2186 0.194301
threshold=1999.5000000000002 70030.000000000015 1982.5000000000002 0.91666650000000016 3.5000000000000004 703587.50000000012 17.000000000000004 3.5000000000000004 668792.50000000012 537167.50000000012 1974.5000000000002 939730.00000000012 1995.5000000000002 0.91666650000000016 14.050000000000002 17.000000000000004 13.350000000000003 1.1166666665000002 8.0000000000000018 7.1833333335000011 1.1166666665000002 15.016666665000001 1988.5000000000002 15.283333335000002 28.200000000000006 82.166666665000022 29.950000000000003 0.75000000000000011 2009.5000000000002 768855.00000000012 14.416666665000003 11.166665000000002 78.500000000000014 17.000000000000004
decision_type=2 2 2 2 2 2 2 2 2 2 2 2 2 2 2 2 2 2 2 2 2 2 2 2 2 2 2 2 2 2 2 2 2 2
left_child=1 -1 7 6 8 13 14 21 -4 -8 11 27 16 18 -2 19 -7 -18 -6 20 -5 -3 -20 32 -12 26 -16 -9 -17 31 -24 -26 -19 -31
right_child=3 2 4 15 5 12 9 10 -10 -11 24 -13 -14 -15 25 28 17 23 22 -21 -22 -23 30 -25 29 -27 -28 -29 -30 33 -32 -33 -34 -35
leaf_value=0.065578003413975239 0.041591691564429892 -0.026268422030485589 0.021816521677139558 0.059802089929580672 -0.012573120628411955 0.0018488307483494283 0.068732662995656321 -0.05572153412633471 -0.015664917379617692 0.032597660180181266 -0.019352062493562701 -0.028115352019667628 0.011052511988155959 -0.057258424460887913 0.0099533176372966006 0.062032293189655634 -0.038983567468822006 -0.010228832997381684 -0.047072578966617588 0.065689001542826503 0.032455361308529974 -0.0019777475487596048 -0.018419415808536784 -0.025258120149374008 -0.050131747250755615 0.0037309558968991042 0.030117856667322276 -0.072176286307248205 0.079664742946624761 -0.025252861082553858 -0.034577477673689523 -0.036811002853669617 -0.00039579649150255135 -0.035109356343746186
leaf_weight=11.999999999999998 10.999999999999998 13.000000000000002 19.000000000000004 10.000000000000002 12.999999999999998 15.999999999999998 12.000000000000002 18.000000000000004 9.9999999999999982 15.999999999999998 9.9999999999999982 9.9999999999999982 18 9.9999999999999982 18 11.000000000000002 9.9999999999999982 13.000000000000002 11.999999999999998 11.999999999999998 15.999999999999998 11.999999999999998 11.000000000000002 10.999999999999998 12.000000000000002 14.999999999999998 17 10.999999999999998 11.999999999999998 10.000000000000002 14.999999999999998 19 9.9999999999999982 9.9999999999999982
leaf_count=12 11 13 19 10 13 16 12 18 10 16 10 10 18 10 18 11 10 13 12 12 16 12 11 11 12 15 17 11 12 10 15 19 10 10
internal_value=0 -0.0199833 -0.0234875 0.0406327 -0.0139309 -0.0186925 0.0286628 -0.0363315 0.00889189 0.0480841 -0.0417621 -0.0532841 -0.00738566 -0.0331505 0.0197481 0.0580968 -0.0129171 -0.0182865 -0.0284235 0.0501467 0.0429733 -0.0146089 -0.033846 -0.0121992 -0.0343956 0.0149426 0.0197475 -0.061963 0.0712318 -0.0373453 -0.0277414 -0.0419674 -0.0059536 -0.0301811
internal_weight=0 305 293 150 168 139 89 125 29 28 100 39 78 61 61 61 60 44 51 38 26 25 38 34 61 50 35 29 23 51 26 31 23 20
internal_count=455 305 293 150 168 139 89 125 29 28 100 39 78 61 61 61 60 44 51 38 26 25 38 34 61 50 35 29 23 51 26 31 23 20
is_linear=0
shrinkage=0.05


Tree=3
num_leaves=37
num_cat=0
split_feature=2 1 2 7 0 1 10 0 7 1 2 1 2 0 4 10 0 4 8 9 8 4 4 3 6 3 2 5 7 2 1 9 10 7 6 10
split_gain=133.371 33.0123 12.983 11.3197 6.59081 8.20299 5.56264 5.32329 3.39284 3.23523 3.06405 3.07537 2.87183 2.55487 2.31157 2.29954 2.06041 1.71731 2.00123 1.52943 1.66136 1.32914 1.00108 0.977165 0.972378 1.30947 0.895895 0.796985 0.688173 0.644138 0.609656 0.479353 0.719633 0.315985 0.197287 0.175357
threshold=1999.5000000000002 70030.000000000015 1982.5000000000002 0.91666650000000016 3.5000000000000004 703587.50000000012 17.000000000000004 3.5000000000000004 0.51666666650000004 441986.00000000006 1974.5000000000002 939730.00000000012 1995.5000000000002 7.5000000000000009 14.050000000000002 17.000000000000004 6.5000000000000009 13.350000000000003 1.1166666665000002 7.1833333335000011 1.1166666665000002 15.016666665000001 15.283333335000002 28.200000000000006 82.166666665000022 30.416666665000005 1988.5000000000002 7.1666666665000003 0.58333333350000005 2009.5000000000002 768855.00000000012 7.495000000000001 8.0000000000000018 0.58333333350000005 78.500000000000014 17.000000000000004
decision_type=2 2 2 2 2 2 2 2 2 2 2 2 2 2 2 2 2 2 2 2 2 2 2 2 2 2 2 2 2 2 2 2 2 2 2 2
left_child=1 -1 7 6 8 13 14 21 -4 -8 11 28 17 16 -2 19 -6 -7 -19 20 -5 -3 34 -12 25 27 -15 -16 -9 -17 31 32 -25 -28 -20 -32
right_child=3 2 4 15 5 12 9 10 -10 -11 23 -13 -14 26 24 29 -18 18 22 -21 -22 -23 -24 30 -26 -27 33 -29 -30 -31 35 -33 -34 -35 -36 -37
leaf_value=0.062299101923902839 0.039512105353853924 -0.024955000900305228 -0.010525938696586168 0.056811986565589889 -0.02803238727725469 0.0017563892994076015 0.066808545318516807 -0.049012037027965881 0.023863043206802104 0.032008397272404503 -0.018384459484368561 -0.02670958437025547 0.010499886463447992 -0.032965677852431936 0.020556802774912539 0.058930677175521834 -0.055228631695111587 -0.037034388668835162 -0.0097173915316279089 0.062404552474617958 0.030832591932266951 -0.0018788600854653245 -0.023995214226570999 -0.034451932162046409 0.003544408002247413 0.034051750302314762 -0.0094070512056350676 0.002572034705768932 -0.064885999924606752 0.075681507587432861 -0.023990218043327325 -0.030859014242887495 -0.0529846421696923 -0.021687572483312004 -0.00037600665404170287 -0.033353888541460035
leaf_weight=11.999999999999998 10.999999999999998 13.000000000000002 13.000000000000002 10.000000000000002 13 15.999999999999998 11.000000000000002 11.000000000000002 15.999999999999998 17 9.9999999999999982 9.9999999999999982 18 11.999999999999998 14.000000000000002 11.000000000000002 15 9.9999999999999982 13.000000000000002 11.999999999999998 15.999999999999998 11.999999999999998 10.999999999999998 10.000000000000005 14.999999999999998 9.9999999999999982 10.000000000000002 10.999999999999998 18 11.999999999999998 10.000000000000002 9.9999999999999982 10.999999999999998 10.999999999999998 9.9999999999999982 9.9999999999999982
leaf_count=12 11 13 13 10 13 16 11 11 16 17 10 10 18 12 14 11 15 10 13 12 16 12 11 10 15 10 10 11 18 12 10 10 11 11 10 10
internal_value=0 -0.0189841 -0.0223131 0.038601 -0.0132344 -0.0177579 0.0272297 -0.0345149 0.00844729 0.0456799 -0.039674 -0.0506199 -0.00701637 -0.031493 0.0187607 0.055192 -0.0426018 -0.0122713 -0.0173722 0.0476394 0.0408247 -0.0138785 -0.0115892 -0.0326758 0.0141954 0.0187601 -0.0220673 0.0126435 -0.0588648 0.0676702 -0.0354781 -0.039869 -0.0441595 -0.0158397 -0.00565592 -0.0286721
internal_weight=0 305 293 150 168 139 89 125 29 28 100 39 78 61 61 61 28 60 44 38 26 25 34 61 50 35 33 25 29 23 51 31 21 21 23 20
internal_count=455 305 293 150 168 139 89 125 29 28 100 39 78 61 61 61 28 60 44 38 26 25 34 61 50 35 33 25 29 23 51 31 21 21 23 20
is_linear=0
shrinkage=0.05


Tree=4
num_leaves=35
num_cat=0
split_feature=2 1 2 0 2 1 10 0 2 0 10 1 0 0 2 1 6 7 4 1 1 1 2 2 7 2 5 0 4 6 2 9 6 4
split_gain=120.367 29.7038 12.2688 11.1642 8.50586 5.46818 5.08731 3.49534 4.13621 3.04955 3.01345 2.6871 2.64629 2.59462 2.38938 1.69111 1.45479 1.42392 1.39546 1.38775 2.56851 1.33119 1.29532 1.2657 1.00808 0.992566 0.785752 0.764355 0.619255 0.438985 0.434011 0.361156 0.24205 0.211584
threshold=1998.5000000000002 70030.000000000015 2005.5000000000002 3.5000000000000004 1976.5000000000002 703587.50000000012 17.000000000000004 1.5000000000000002 1985.5000000000002 13.500000000000002 27.000000000000004 325340.00000000006 15.500000000000002 8.5000000000000018 1982.5000000000002 1355615.0000000002 79.833333335000006 0.91666650000000016 15.250000000000002 804138.50000000012 644915.00000000012 237845.50000000003 1985.5000000000002 1988.5000000000002 0.86666683350000007 1975.5000000000002 3.1666666665000007 7.5000000000000009 15.070370370000001 74.500000000000014 1973.5000000000002 7.5833333335000006 72.166665000000009 14.483333335000003
decision_type=2 2 2 2 2 2 2 2 2 2 2 2 2 2 2 2 2 2 2 2 2 2 2 2 2 2 2 2 2 2 2 2 2 2
left_child=1 -1 9 7 10 17 11 -3 25 19 24 13 -11 -4 29 18 -13 22 23 20 28 -8 32 -16 30 -9 -23 -24 -2 -7 -5 -29 -6 -25
right_child=2 3 6 4 5 14 21 8 -10 12 -12 16 -14 -15 15 -17 -18 -19 -20 -21 -22 26 27 33 -26 -27 -28 31 -30 -31 -32 -33 -34 -35
leaf_value=0.061386993358081038 0.015871230177581307 -0.028324757330119611 0.015027831960469485 -0.051046769556246298 -0.033579878807067857 -0.03175493776798248 0.078802587389945958 -0.019453702426769512 0.02367152725620305 0.052776405215263347 -0.024544968908386575 0.063900130304197458 0.018094138462435117 0.042355590509740935 -0.014610345692684254 -0.028087258078303423 0.038078097812831405 -0.046262131418500635 -0.017525999144547517 0.0020152305356330343 0.033950505859684198 0.066370446979999526 -0.032669866631428401 0.0077982224033851357 -0.064385970885103394 0.00032028922035048408 0.046549348533153539 -0.013420456337432064 -0.0017250044457614421 -0.019103981678684556 -0.038177835196256643 -0.025058053744335968 -0.04458101779222489 -0.00091541207141496931
leaf_weight=10.999999999999998 10.000000000000002 9.9999999999999982 15.999999999999998 19.000000000000004 10.000000000000002 16.000000000000004 10.000000000000002 11.000000000000002 17 11.000000000000002 13.999999999999998 12.000000000000002 10.999999999999998 19 11.999999999999998 9.9999999999999982 9.9999999999999982 13.999999999999998 18 18 15.999999999999998 10.000000000000002 14.999999999999998 19.000000000000004 10.999999999999998 14.999999999999998 9.9999999999999982 15.000000000000002 9.9999999999999982 11.999999999999998 9.9999999999999982 11.999999999999998 9.9999999999999982 10.999999999999998
leaf_count=11 10 10 16 19 10 16 10 11 17 11 14 12 11 19 12 10 10 14 18 18 16 10 15 19 11 15 10 15 10 12 10 12 10 11
internal_value=0 -0.0192141 0.0344204 -0.0223693 -0.0271744 -0.0217944 0.0472415 -0.00169845 0.00449371 0.0197437 -0.04451 0.0384699 0.0354353 0.0298629 -0.0139887 -0.00905097 0.0521628 -0.0318596 -0.00587826 0.0133508 0.0190186 0.0639075 -0.0286074 -0.000886368 -0.0514978 -0.00804563 0.0564599 -0.0236203 0.00707311 -0.0263331 -0.0466092 -0.0185927 -0.0390804 0.00460322
internal_weight=0 292 163 281 228 174 87 53 43 76 54 57 22 35 98 70 22 76 60 54 36 30 62 42 40 26 20 42 20 28 29 27 20 30
internal_count=455 292 163 281 228 174 87 53 43 76 54 57 22 35 98 70 22 76 60 54 36 30 62 42 40 26 20 42 20 28 29 27 20 30
is_linear=0
shrinkage=0.05


Tree=5
num_leaves=36
num_cat=0
split_feature=2 1 2 7 0 1 0 10 2 1 0 10 4 10 2 7 2 2 4 1 6 9 8 2 10 6 3 4 5 10 2 4 2 8 7
split_gain=108.853 26.847 10.5145 9.3435 6.29943 6.44827 4.76814 4.68786 3.53578 2.68269 2.3985 2.38374 1.97653 1.83793 1.64833 1.43036 1.42695 1.39181 1.3718 1.9371 1.45034 1.3424 1.40312 0.962489 0.887523 0.868318 1.11294 0.780562 0.67854 0.631984 0.559398 0.43537 0.17974 0.0766375 0.0587667
threshold=1999.5000000000002 70030.000000000015 1977.5000000000002 0.91666650000000016 3.5000000000000004 703587.50000000012 1.5000000000000002 17.000000000000004 1995.5000000000002 418047.50000000006 3.5000000000000004 27.000000000000004 14.050000000000002 17.000000000000004 1988.5000000000002 0.86666683350000007 1985.5000000000002 1974.5000000000002 13.350000000000003 1066992.5000000002 76.833333335000006 7.1833333335000011 1.1166666665000002 1988.5000000000002 8.0000000000000018 82.166666665000022 30.416666665000005 13.950000000000001 7.1666666665000003 6.5000000000000009 2009.5000000000002 14.050000000000002 1981.5000000000002 1.2500000000000002 0.55000000000000016
decision_type=2 2 2 2 2 2 2 2 2 2 2 2 2 2 2 2 2 2 2 2 2 2 2 2 2 2 2 2 2 2 2 2 2 2 2
left_child=1 -1 10 7 6 15 -4 12 18 -9 -3 17 -2 21 -8 16 -6 27 20 23 -7 22 -5 32 -18 26 28 -12 -14 -25 -15 -26 -20 -33 -29
right_child=3 2 4 13 5 8 14 9 -10 -11 11 -13 25 30 -16 -17 24 -19 19 -21 -22 -23 -24 29 31 -27 -28 34 -30 -31 -32 33 -34 -35 -36
leaf_value=0.056150676084992794 0.035955827209082518 -0.016774115854730973 -0.025096208669922571 0.051501935422420486 -0.038071144455009039 -0.016224808923222797 0.0031387802418869205 0.062243240475654583 0.0097535785145333245 0.029943598434329033 -0.063816843926906563 -0.023041067048907279 0.018521833712501181 0.052957512980157662 0.026790178452546783 -0.043418257633845013 -0.0103940992974318 -0.03450392574236235 -0.025152459740638729 -0.03651771882238488 0.010085024619475007 0.057027021919687594 0.027626914530992509 -0.014282083765349602 -0.017371807452291246 0.0024806564735869569 0.030956697314977646 -0.043997729718685138 0.0019272117113525219 0.0030853746179491282 0.068567667901515958 -0.032927416874603786 -0.016949879553388149 -0.026879526525735855 -0.049418369233608248
leaf_weight=11.999999999999998 10.999999999999998 12.999999999999998 10.999999999999998 10.000000000000002 18 11.000000000000002 17.000000000000004 10.000000000000002 18 18 10.000000000000002 14.999999999999998 14.000000000000002 11.000000000000002 12.999999999999998 14.999999999999998 12.999999999999998 17 11.000000000000002 11.999999999999998 9.9999999999999982 11.999999999999998 15.999999999999998 11.000000000000002 10.000000000000002 14.999999999999998 9.9999999999999982 10.000000000000002 10.999999999999998 9.9999999999999982 11.999999999999998 11.000000000000002 17 9.9999999999999982 9.9999999999999982
leaf_count=12 11 13 11 10 18 11 17 10 18 18 10 15 14 11 13 15 13 17 11 12 10 12 16 11 10 15 10 10 11 10 12 11 17 10 10
internal_value=0 -0.0171506 -0.0201527 0.0348729 -0.0145971 -0.0186878 0.00306276 0.0245417 -0.0103135 0.0414792 -0.036301 -0.0403954 0.0167671 0.0499462 0.0133877 -0.0295635 -0.0262116 -0.045934 -0.0147184 -0.0185129 -0.00369632 0.0431941 0.0368096 -0.0141036 -0.02136 0.0125456 0.0168592 -0.052411 0.0112202 -0.00601187 0.0611019 -0.0259585 -0.0201723 -0.0300475 -0.046708
internal_weight=0 305 293 150 218 177 41 89 100 28 75 62 61 61 30 77 62 47 82 61 21 38 26 49 44 50 35 30 25 21 23 31 28 21 20
internal_count=455 305 293 150 218 177 41 89 100 28 75 62 61 61 30 77 62 47 82 61 21 38 26 49 44 50 35 30 25 21 23 31 28 21 20
is_linear=0
shrinkage=0.05


Tree=6
num_leaves=35
num_cat=0
split_feature=2 1 2 7 0 1 0 10 2 1 0 10 4 10 2 10 7 7 4 8 6 9 8 4 2 4 6 3 6 5 6 8 4 3
split_gain=98.2394 24.2295 9.48929 8.43251 5.68523 5.81956 4.30325 4.2308 3.19104 2.42112 2.16464 2.15133 1.78382 1.65874 1.48762 1.33957 1.38362 1.2585 1.23805 1.83273 1.30893 1.21152 1.26631 1.02399 0.924971 0.876576 0.783657 1.00443 0.667163 0.612382 0.560755 0.53321 0.5049 0.275637
threshold=1999.5000000000002 70030.000000000015 1977.5000000000002 0.91666650000000016 3.5000000000000004 703587.50000000012 1.5000000000000002 17.000000000000004 1995.5000000000002 418047.50000000006 3.5000000000000004 27.000000000000004 14.050000000000002 17.000000000000004 1988.5000000000002 8.0000000000000018 0.86666683350000007 0.86666683350000007 13.350000000000003 1.0666668335000002 76.833333335000006 7.1833333335000011 1.1166666665000002 14.65 1988.5000000000002 15.741666665000002 82.166666665000022 30.416666665000005 76.166665000000009 7.1666666665000003 73.666668335000011 1.4500000000000002 14.416666665000003 30.150000000000002
decision_type=2 2 2 2 2 2 2 2 2 2 2 2 2 2 2 2 2 2 2 2 2 2 2 2 2 2 2 2 2 2 2 2 2 2
left_child=1 -1 10 7 6 15 -4 12 18 -9 -3 17 -2 21 -8 28 24 25 20 -20 -7 22 -5 -21 -17 30 27 29 -6 -14 -12 -15 -26 -25
right_child=3 2 4 13 5 8 14 9 -10 -11 11 -13 26 31 -16 16 -18 -19 19 23 -22 -23 -24 33 32 -27 -28 -29 -30 -31 -32 -33 -34 -35
leaf_value=0.053343141094471018 0.034158035537058658 -0.015935410458881121 -0.023841397159478882 0.048926837071776377 -0.027196108475327482 -0.015413568372076204 0.002981841278960928 0.05913107872009276 0.0092658995469618172 0.028446419089515174 -0.035118641853332508 -0.021889013598362608 0.017595742004258289 0.066726988404989224 0.025450670446913976 -0.036903561416425201 -0.049079323410987856 -0.058438654650341385 -0.03098254485262765 -0.0019567344745155426 0.0095807731989771133 0.054175669769756497 0.026245569018647077 -0.023567807581275694 -0.014253447831354356 -0.027352453573522246 0.0023566235726078352 0.029408862292766569 -0.0097094615610937296 0.0018308508463881234 -0.050404186050097145 0.05136981308460236 -0.028356640723844369 -0.013401013681044181
leaf_weight=11.999999999999998 10.999999999999998 12.999999999999998 10.999999999999998 10.000000000000002 10.000000000000002 11.000000000000002 17.000000000000004 10.000000000000002 18 18 10.000000000000002 14.999999999999998 14.000000000000002 10.000000000000002 12.999999999999998 19 9.9999999999999982 10.999999999999998 18 15.999999999999998 9.9999999999999982 11.999999999999998 15.999999999999998 12.000000000000002 11.000000000000002 10.999999999999998 14.999999999999998 9.9999999999999982 11.999999999999998 10.999999999999998 14.999999999999998 12.999999999999998 14.999999999999998 14.999999999999998
leaf_count=12 11 13 11 10 10 11 17 10 18 18 10 15 14 10 13 19 10 11 18 16 10 12 16 12 11 11 15 10 12 11 15 13 15 15
internal_value=0 -0.0162931 -0.0191451 0.0331292 -0.0138672 -0.0177534 0.00290963 0.0233146 -0.00979778 0.0394052 -0.034486 -0.0383756 0.0159288 0.0474489 0.0127183 -0.0280854 -0.0322563 -0.0436373 -0.0139825 -0.0175873 -0.0035115 0.0410344 0.0349691 -0.0119799 -0.0285179 -0.0391146 0.0119184 0.0160162 -0.0176579 0.0106592 -0.04429 0.0580468 -0.0223899 -0.0179196
internal_weight=0 305 293 150 218 177 41 89 100 28 75 62 61 61 30 77 55 47 82 61 21 38 26 43 45 36 50 35 22 25 25 23 26 27
internal_count=455 305 293 150 218 177 41 89 100 28 75 62 61 61 30 77 55 47 82 61 21 38 26 43 45 36 50 35 22 25 25 23 26 27
is_linear=0
shrinkage=0.05


Tree=7
num_leaves=36
num_cat=0
split_feature=2 1 2 0 2 1 10 0 0 10 8 0 2 2 1 3 1 1 1 4 1 7 9 2 2 7 5 0 1 5 4 4 9 6 2
split_gain=88.7077 21.9821 9.52589 8.20375 6.31842 4.03602 3.73024 2.7566 2.31355 2.23605 2.14144 2.044 1.85833 1.69712 1.47938 1.42411 1.40379 1.1423 2.15944 1.13844 1.09468 1.05148 1.00195 0.947039 0.939545 0.765117 0.705177 0.584383 0.462341 0.426778 0.380779 0.345171 0.276242 0.215267 0.155259
threshold=1998.5000000000002 70030.000000000015 2005.5000000000002 3.5000000000000004 1976.5000000000002 703587.50000000012 17.000000000000004 2.5000000000000004 13.500000000000002 27.000000000000004 1.3166666665000002 15.500000000000002 1981.5000000000002 1982.5000000000002 1355615.0000000002 30.483333335000001 633000.00000000012 804138.50000000012 644915.00000000012 15.250000000000002 237845.50000000003 0.91666650000000016 6.5000000000000009 1988.5000000000002 1985.5000000000002 0.86666683350000007 3.1666666665000007 7.5000000000000009 334722.50000000006 10.333331665000001 15.070370370000001 15.583333335000001 7.5833333335000006 72.166665000000009 1993.5000000000002
decision_type=2 2 2 2 2 2 2 2 2 2 2 2 2 2 2 2 2 2 2 2 2 2 2 2 2 2 2 2 2 2 2 2 2 2 2
left_child=1 -1 8 7 9 21 10 16 17 25 15 -10 -9 29 19 22 -3 18 30 23 -8 24 -4 -15 33 31 -22 -26 -17 -7 -2 -5 -29 -6 -25
right_child=2 3 6 4 5 13 20 12 11 -11 -12 -13 -14 14 -16 28 -18 -19 -20 -21 26 -23 -24 34 27 -27 -28 32 -30 -31 -32 -33 -34 -35 -36
leaf_value=0.052842953293160959 0.012136537767946716 -0.00095277838408946991 0.02138532610344035 -0.044612720959326793 -0.028275984525680531 -0.030062734403393479 0.068624653220176676 -0.0020832609932404005 0.045524483919143661 -0.02107121694300856 0.014567984299113355 0.015043459172275933 0.028398971483111379 -0.012218794932899376 -0.02562848712317646 0.040067724362015715 -0.021663552646835647 0.00076387661716176411 0.029881752771325411 -0.01537680346518755 0.057752371132373796 -0.039714917966297697 0.042107478827238087 0.0075465226052876776 -0.028209170090655485 -0.055516721985556863 0.038975030928850178 -0.011376829864457247 0.054922440512613815 -0.017423247918486595 -0.0016616287827491761 -0.033537024756272633 -0.021554788822929064 -0.038650639951229096 0.00028776583584168785
leaf_weight=10.999999999999998 10.000000000000002 18 14.000000000000002 17.000000000000004 10.000000000000002 11.000000000000002 10.000000000000002 10.000000000000002 11.000000000000002 13.999999999999998 11.999999999999998 10.999999999999998 9.9999999999999982 11.999999999999998 9.9999999999999982 10.000000000000002 14.999999999999998 18 15.999999999999998 18 10.000000000000002 13.999999999999998 9.9999999999999982 17.000000000000004 14.999999999999998 10.999999999999998 9.9999999999999982 15.000000000000002 10.999999999999998 17 9.9999999999999982 11.999999999999998 11.999999999999998 9.9999999999999982 12.999999999999998
leaf_count=11 10 18 14 17 10 11 10 10 11 14 12 11 10 12 10 10 15 18 16 18 10 14 10 17 15 11 10 15 11 17 10 12 12 10 13
internal_value=0 -0.0164948 0.029549 -0.0192091 -0.0233281 -0.0186912 0.0408463 -0.00148955 0.0166165 -0.0382693 0.0333353 0.030284 0.0131579 -0.0119852 -0.00782373 0.0383399 -0.0103668 0.0110483 0.0161905 -0.00485627 0.0551174 -0.0273385 0.0300196 -0.000347469 -0.0245438 -0.0442886 0.0483637 -0.0202964 0.0478488 -0.0223888 0.00523745 -0.0400297 -0.0159004 -0.0334633 0.00440106
internal_weight=0 292 163 281 228 174 87 53 76 54 57 22 20 98 70 45 33 54 36 60 30 76 24 42 62 40 20 42 21 28 20 29 27 20 30
internal_count=455 292 163 281 228 174 87 53 76 54 57 22 20 98 70 45 33 54 36 60 30 76 24 42 62 40 20 42 21 28 20 29 27 20 30
is_linear=0
shrinkage=0.05


Tree=8
num_leaves=36
num_cat=0
split_feature=2 1 2 7 0 1 0 10 2 1 0 10 4 9 10 2 10 7 2 4 1 6 9 8 2 2 4 9 2 1 9 2 4 2 4
split_gain=80.1698 19.695 7.82518 6.98221 4.71767 4.77148 3.59587 3.58437 2.69797 2.03602 1.6744 1.7545 1.5419 1.37779 1.31423 1.27697 1.15557 1.16908 1.13234 1.08121 1.63701 1.12138 1.07232 1.04446 0.77165 0.72454 0.608598 0.556257 0.523823 0.511625 0.557859 0.480068 0.443936 0.121529 0.0595079
threshold=1999.5000000000002 70030.000000000015 1977.5000000000002 0.91666650000000016 3.5000000000000004 703587.50000000012 1.5000000000000002 17.000000000000004 1995.5000000000002 915152.50000000012 3.5000000000000004 27.000000000000004 14.816666665000001 6.983333333500001 17.000000000000004 1988.5000000000002 8.0000000000000018 0.86666683350000007 1974.5000000000002 13.350000000000003 1066992.5000000002 76.833333335000006 7.1833333335000011 1.1166666665000002 1988.5000000000002 1988.5000000000002 13.950000000000001 7.3833333335000004 1987.5000000000002 550557.50000000012 6.5000000000000009 2009.5000000000002 14.416666665000003 1981.5000000000002 15.616665000000003
decision_type=2 2 2 2 2 2 2 2 2 2 2 2 2 2 2 2 2 2 2 2 2 2 2 2 2 2 2 2 2 2 2 2 2 2 2
left_child=1 -1 10 7 6 16 -4 12 19 -9 -3 18 13 -2 22 -8 28 24 26 21 25 -7 23 -5 -18 33 -12 -27 -6 30 -14 -16 -26 -21 -28
right_child=3 2 4 14 5 8 15 9 -10 -11 11 -13 29 -15 31 -17 17 -19 -20 20 -22 -23 -24 -25 32 27 34 -29 -30 -31 -32 -33 -34 -35 -36
leaf_value=0.048064330716927846 0.038602160140871991 -0.014905599146508254 -0.021668093312870375 0.04421829315833746 -0.022750809229910369 -0.013912458578124638 0.0027311154165277803 0.046652952976086549 0.0086956149225847594 0.019045965271917258 -0.055307003259658795 -0.019753162271032732 0.0060475221073085592 0.012958769978616724 0.044846464016220777 0.023548427539376113 -0.033489374032146052 -0.044730411469936372 -0.029083779300836957 -0.021357072347944428 -0.032601578168881436 0.0092220336524769658 0.049611595366150146 0.023619462922215465 -0.012603611714968625 -0.012734956141899928 -0.037472549974918355 0.0035587922157719735 -0.0072561092302203178 0.0024938839732816347 0.022364721968770027 0.059307458003362026 -0.025827985523889464 -0.01461229391176911 -0.042927268743515018
leaf_weight=11.999999999999998 10.000000000000002 12.999999999999998 10.999999999999998 10.000000000000002 12.000000000000002 11.000000000000002 17.000000000000004 17.000000000000004 18 10.999999999999998 10.000000000000002 14.999999999999998 11.000000000000002 10.999999999999998 11.000000000000002 12.999999999999998 19 9.9999999999999982 17 11.000000000000002 11.999999999999998 9.9999999999999982 11.999999999999998 15.999999999999998 11.000000000000002 11.000000000000002 10.000000000000002 9.9999999999999982 9.9999999999999982 19 9.9999999999999982 11.999999999999998 14.999999999999998 17 9.9999999999999982
leaf_count=12 10 13 11 10 12 11 17 17 18 11 10 15 11 11 11 13 19 10 17 11 12 10 12 16 11 11 10 10 10 19 10 12 15 17 10
internal_value=0 -0.0147186 -0.0172899 0.0299277 -0.0124971 -0.0160372 0.0027856 0.0209969 -0.00883348 0.0358074 -0.0312208 -0.0346418 0.0141987 0.0251699 0.0429579 0.011752 -0.0253926 -0.0292666 -0.0393935 -0.0126813 -0.01605 -0.00289603 0.0372482 0.0315421 -0.0258302 -0.0119966 -0.0452356 -0.00497603 -0.0157078 0.00843884 0.0138176 0.0523913 -0.0202331 -0.017262 -0.0401999
internal_weight=0 305 293 150 218 177 41 89 100 28 75 62 61 21 61 30 77 55 47 82 61 21 38 26 45 49 30 21 22 40 21 23 26 28 20
internal_count=455 305 293 150 218 177 41 89 100 28 75 62 61 21 61 30 77 55 47 82 61 21 38 26 45 49 30 21 22 40 21 23 26 28 20
is_linear=0
shrinkage=0.05


Tree=9
num_leaves=33
num_cat=0
split_feature=2 1 2 2 0 1 0 10 10 2 1 3 0 1 2 2 10 7 4 8 6 4 9 4 2 10 6 4 1 9 3 8
split_gain=72.3532 17.7747 7.06223 6.32796 4.2577 4.30627 3.24527 3.06373 2.64111 2.43492 1.80361 1.71386 1.51115 1.6322 1.24083 1.15246 1.04291 1.0551 0.975795 1.51858 1.01205 0.89056 0.815713 1.1117 0.696414 0.586823 0.485288 0.400653 0.390037 0.377669 0.235775 0.174432
threshold=1999.5000000000002 70030.000000000015 1977.5000000000002 2007.5000000000002 3.5000000000000004 703587.50000000012 1.5000000000000002 17.000000000000004 17.000000000000004 1995.5000000000002 915152.50000000012 30.516666665000006 3.5000000000000004 939730.00000000012 1974.5000000000002 1988.5000000000002 8.0000000000000018 0.86666683350000007 13.350000000000003 1.0666668335000002 76.833333335000006 14.65 7.1833333335000011 15.183333335000002 1988.5000000000002 9.5000000000000018 76.166665000000009 14.416666665000003 710290.00000000012 7.3833333335000004 30.150000000000002 1.4666668335000002
decision_type=2 2 2 2 2 2 2 2 2 2 2 2 2 2 2 2 2 2 2 2 2 2 2 2 2 2 2 2 2 2 2 2
left_child=1 -1 12 7 6 16 -4 11 22 18 -9 25 -3 14 28 -8 26 24 20 -20 -7 -21 23 -5 -18 29 -6 -26 -14 -2 -23 -10
right_child=3 2 4 8 5 9 15 10 31 -11 -12 -13 13 -15 -16 -17 17 -19 19 21 -22 30 -24 -25 27 -27 -28 -29 -30 -31 -32 -33
leaf_value=0.045661114466687046 -0.0043115424995238951 -0.014160318858921529 -0.02058468886905096 0.037660240715271548 -0.023057213276624675 -0.013216835810718209 0.0025945595958653616 0.042228713134924566 0.059962750375270824 0.0082608340721991337 0.017787972422173389 0.025399753007599536 -0.050065223446914123 -0.019710618600605384 -0.026718134270049633 0.022371006207182433 -0.031814905099178614 -0.04249389082193375 -0.027440850779465922 -0.00079599284217692914 0.0087609320133924494 -0.020906400913372633 0.045291201499375433 0.019451482494672143 -0.01197343096613291 0.014291497586028918 -0.0081433441955596209 -0.024536586087197068 -0.038461107412974038 0.0086130806058645256 -0.011503446521237493 0.050623812079429634
leaf_weight=11.999999999999998 13.000000000000002 12.999999999999998 10.999999999999998 19 10.000000000000002 11.000000000000002 17.000000000000004 18.000000000000004 10.000000000000002 18 12.999999999999998 17 14.000000000000002 17 15.999999999999998 12.999999999999998 19 9.9999999999999982 18 15.999999999999998 9.9999999999999982 12.000000000000002 10.999999999999998 14.999999999999998 11.000000000000002 13.999999999999998 11.999999999999998 14.999999999999998 14.999999999999998 9.9999999999999982 14.999999999999998 9.9999999999999982
leaf_count=12 13 13 11 19 10 11 17 18 10 18 13 17 14 17 16 13 19 10 18 16 10 12 11 15 11 14 12 15 15 10 15 10
internal_value=0 -0.0139826 -0.0164254 0.0284314 -0.0118723 -0.0152353 0.00264632 0.0194508 0.0401752 -0.00839181 0.0319794 0.0122585 -0.0296598 -0.0329097 -0.037896 0.0111644 -0.024123 -0.0278032 -0.0120473 -0.0152475 -0.00275123 -0.0101434 0.033456 0.029627 -0.0245387 0.00622059 -0.0149224 -0.0192214 -0.0440631 0.00130786 -0.0156825 0.0552933
internal_weight=0 305 293 150 218 177 41 85 65 100 31 54 75 62 45 30 77 55 82 61 21 43 45 34 45 37 22 26 29 23 27 20
internal_count=455 305 293 150 218 177 41 85 65 100 31 54 75 62 45 30 77 55 82 61 21 43 45 34 45 37 22 26 29 23 27 20
is_linear=0
shrinkage=0.05


Tree=10
num_leaves=35
num_cat=0
split_feature=2 1 2 0 2 1 10 0 0 1 1 0 0 2 2 1 6 1 1 1 1 4 0 0 2 2 5 7 1 2 5 5 2 1
split_gain=65.3626 16.2814 7.09734 6.02581 4.66954 2.97753 2.69933 2.32405 1.79282 1.7632 1.75943 2.05244 1.6529 1.42669 1.20168 1.29464 1.0127 1.00782 0.969785 1.86774 0.950773 0.928118 0.783314 1.80723 0.826818 0.705653 0.602367 0.582502 0.491302 0.409734 0.391896 0.264544 0.13285 0.109498
threshold=1998.5000000000002 70030.000000000015 2005.5000000000002 3.5000000000000004 1976.5000000000002 703587.50000000012 17.000000000000004 2.5000000000000004 13.500000000000002 939730.00000000012 325340.00000000006 8.5000000000000018 15.500000000000002 1981.5000000000002 1982.5000000000002 1355615.0000000002 79.833333335000006 633000.00000000012 804138.50000000012 644915.00000000012 237845.50000000003 15.250000000000002 7.5000000000000009 6.5000000000000009 1988.5000000000002 1988.5000000000002 3.1666666665000007 0.86666683350000007 543206.00000000012 1973.5000000000002 10.333331665000001 2.1666665000000003 1993.5000000000002 373445.00000000006
decision_type=2 2 2 2 2 2 2 2 2 2 2 2 2 2 2 2 2 2 2 2 2 2 2 2 2 2 2 2 2 2 2 2 2 2
left_child=1 -1 8 7 9 22 10 17 18 27 11 -4 -10 -9 30 21 -12 -3 19 31 -8 25 23 -6 28 -16 -22 29 -24 -5 -7 -2 -27 -26
right_child=2 3 6 4 5 14 20 13 12 -11 16 -13 -14 -15 15 -17 -18 -19 -20 -21 26 -23 24 -25 33 32 -28 -29 -30 -31 -32 -33 -34 -35
leaf_value=0.045514533871954144 0.009601991642266508 -0.0014830852160230279 0.008567641535773874 -0.039150996340645679 -0.018272374628577382 -0.026386919617652882 0.05984409928321837 -0.0012136338814161714 0.039938138560815281 -0.018301246321449676 0.049599442320565373 0.03287303097742169 0.012527952004562727 0.025494926571846013 -0.01017750813625753 -0.023433214416727424 0.028055231124162673 -0.019031433078149956 -0.00017607751198940808 0.026770984288305044 0.049639151394367198 -0.01350037135804693 -0.033272246745499688 -0.042871125255312226 -0.015423389421775933 0.0070783991914461627 0.032284516543149948 -0.048222012953324754 -0.019360263372461002 -0.02652796216309071 -0.014274980807129077 -0.0018989543756470087 0.00036386276837080145 -0.0080241199024021631
leaf_weight=10.999999999999998 10.000000000000002 18 15.999999999999998 18.000000000000004 15.999999999999998 11.000000000000002 10.000000000000002 10.000000000000002 11.000000000000002 14.999999999999998 12.000000000000002 19 10.999999999999998 9.9999999999999982 11.999999999999998 9.9999999999999982 9.9999999999999982 14.999999999999998 18 15.999999999999998 10.000000000000002 18 11.000000000000002 14.000000000000002 10.000000000000002 17.000000000000004 9.9999999999999982 10.999999999999998 14.999999999999998 9.9999999999999982 17 9.9999999999999982 12.999999999999998 9.9999999999999982
leaf_count=11 10 18 16 18 16 11 10 10 11 15 12 19 11 10 12 10 10 15 18 16 10 18 11 14 10 17 10 11 15 10 17 10 13 10
internal_value=0 -0.014159 0.0253645 -0.0164949 -0.0200251 -0.0160389 0.035116 -0.00130857 0.0142016 -0.0328696 0.0287266 0.021762 0.026233 0.0121406 -0.0102789 -0.00677723 0.0398066 -0.00945961 0.00929994 0.0140379 0.0472559 -0.00400123 -0.0234662 -0.0297518 -0.0193668 6.98311e-05 0.0409618 -0.0384728 -0.0252461 -0.0346428 -0.0190332 0.00385152 0.00416877 -0.0117238
internal_weight=0 292 163 281 228 174 87 53 76 54 57 35 22 20 98 70 22 33 54 36 30 60 76 30 46 42 20 39 26 28 28 20 30 20
internal_count=455 292 163 281 228 174 87 53 76 54 57 35 22 20 98 70 22 33 54 36 30 60 76 30 46 42 20 39 26 28 28 20 30 20
is_linear=0
shrinkage=0.05


Tree=11
num_leaves=36
num_cat=0
split_feature=2 1 2 2 0 1 0 10 10 2 4 1 0 10 2 5 8 4 1 6 10 7 2 9 6 2 0 2 9 9 6 4 6 8 2
split_gain=59.0407 14.4389 5.83993 5.21591 3.53366 3.52652 2.70877 2.58387 2.14604 2.06331 1.5636 1.511 1.16653 1.38606 0.990131 0.942132 0.889039 0.852023 1.38412 0.869081 0.844566 0.859462 0.806075 0.745423 1.12879 0.579299 0.562114 0.54357 0.541318 0.480097 0.409625 0.352085 0.333924 0.141374 0.0801477
threshold=1999.5000000000002 70030.000000000015 1977.5000000000002 2007.5000000000002 3.5000000000000004 703587.50000000012 1.5000000000000002 17.000000000000004 17.000000000000004 1995.5000000000002 14.050000000000002 915152.50000000012 3.5000000000000004 27.000000000000004 1988.5000000000002 9.1666666665000012 1.6833335 13.350000000000003 1066992.5000000002 76.833333335000006 8.0000000000000018 0.86666683350000007 1974.5000000000002 5.983333333500001 81.500000000000014 1988.5000000000002 7.5000000000000009 1988.5000000000002 7.0300000000000002 7.3833333335000004 76.166665000000009 14.416666665000003 73.666668335000011 1.4666668335000002 1981.5000000000002
decision_type=2 2 2 2 2 2 2 2 2 2 2 2 2 2 2 2 2 2 2 2 2 2 2 2 2 2 2 2 2 2 2 2 2 2 2
left_child=1 -1 12 7 6 20 -4 10 23 17 -2 -9 -3 15 -8 32 26 19 27 -7 30 25 -17 -5 28 -22 -12 34 -25 -29 -6 -27 -14 -10 -19
right_child=3 2 4 8 5 9 14 11 33 -11 16 -13 13 -15 -16 22 -18 18 -20 -21 21 -23 -24 24 -26 31 -28 29 -30 -31 -32 -33 -34 -35 -36
leaf_value=0.041125567197256414 0.027746292201548142 -0.013249379589867133 -0.01868958871134303 0.020712287933565679 -0.020993019863963121 -0.011939716406843876 0.0023732659516527369 0.038416403490636075 0.054176504611968983 0.0077663767668935992 -0.0042208660626783965 0.016045927886779495 -0.035811416940255587 -0.016489410822590193 0.020704040676355364 -0.034544046409428118 0.018883561309088359 -0.018077391250566996 -0.029137832128132386 0.0084266396681778131 -0.028800553789264279 -0.038369623124599461 -0.016447971425950527 0.033542774617671946 0.020786581337451936 -0.010520193810490042 0.0090328413411043581 -0.011318458904596889 0.049616233706474305 0.0038188216747948901 -0.0072910149736950805 -0.022297293146451316 -0.048435713648796085 0.045768933892250063 -0.012600000892930173
leaf_weight=11.999999999999998 10.999999999999998 12.999999999999998 10.999999999999998 13.999999999999998 10.000000000000002 11.000000000000002 17.000000000000004 18.000000000000004 10.000000000000002 18 15.999999999999998 12.999999999999998 11.000000000000002 14.999999999999998 12.999999999999998 16.000000000000004 10.999999999999998 11.000000000000002 11.999999999999998 9.9999999999999982 19 9.9999999999999982 9.9999999999999982 11.000000000000005 9.9999999999999982 11.000000000000002 15.999999999999998 11.000000000000002 9.9999999999999982 9.9999999999999982 11.999999999999998 14.999999999999998 9.9999999999999982 9.9999999999999982 17
leaf_count=12 11 13 11 14 10 11 17 18 10 18 16 13 11 15 13 16 11 11 12 10 19 10 10 11 10 11 16 11 10 10 12 15 10 10 17
internal_value=0 -0.0126309 -0.0148326 0.0256829 -0.0106922 -0.013756 0.00253445 0.0175296 0.036345 -0.00756296 0.0109244 0.0290352 -0.0268673 -0.0297227 0.0103166 -0.0339461 0.00662118 -0.0109279 -0.0139184 -0.00224145 -0.0217988 -0.0251107 -0.027584 0.0302882 0.0346129 -0.0221643 0.00240599 -0.0101911 0.0411968 -0.00411023 -0.0135192 -0.0173147 -0.041823 0.0499727 -0.0147518
internal_weight=0 305 293 150 218 177 41 85 65 100 54 31 75 62 30 47 43 82 61 21 77 55 26 45 31 45 32 49 21 21 22 26 21 20 28
internal_count=455 305 293 150 218 177 41 85 65 100 54 31 75 62 30 47 43 82 61 21 77 55 26 45 31 45 32 49 21 21 22 26 21 20 28
is_linear=0
shrinkage=0.05


Tree=12
num_leaves=35
num_cat=0
split_feature=2 1 2 0 2 1 10 0 10 1 4 1 2 2 4 8 8 1 9 6 9 0 0 2 0 2 7 9 9 1 9 9 8 1
split_gain=53.299 13.317 5.84234 4.90547 3.8005 2.43291 2.20028 2.03033 1.9368 1.75163 1.6264 1.49595 1.18629 1.02483 1.01565 1.04254 0.990272 0.80929 0.672744 1.01873 0.646289 0.644247 1.58385 0.68549 0.62738 0.568683 0.509857 0.488539 0.425718 0.395526 0.394966 0.347665 0.127591 0.0906695
threshold=1998.5000000000002 70030.000000000015 2007.5000000000002 3.5000000000000004 1976.5000000000002 703587.50000000012 17.000000000000004 2.5000000000000004 17.000000000000004 928142.50000000012 14.683333335000002 939730.00000000012 1981.5000000000002 1994.5000000000002 14.283333335000002 0.95000000000000007 1.6833335 633000.00000000012 5.983333333500001 81.500000000000014 7.3833333335000004 7.5000000000000009 6.5000000000000009 1988.5000000000002 8.5000000000000018 1987.5000000000002 0.86666683350000007 7.0300000000000002 6.7666668335000013 543206.00000000012 7.9166666665000012 7.3107060755000015 1.4666668335000002 373445.00000000006
decision_type=2 2 2 2 2 2 2 2 2 2 2 2 2 2 2 2 2 2 2 2 2 2 2 2 2 2 2 2 2 2 2 2 2 2
left_child=1 -1 6 7 11 21 10 17 18 28 -2 26 -9 14 15 -7 24 -3 -4 27 -16 22 -6 29 -12 -17 31 -20 -8 -23 -22 -5 -10 -25
right_child=2 3 8 4 5 13 9 12 32 -11 16 -13 -14 -15 20 25 -18 -19 19 -21 30 23 -24 33 -26 -27 -28 -29 -30 -31 -32 -33 -34 -35
leaf_value=0.041182528080588039 0.021669139487570838 -0.001667044814934747 0.01967667361688135 -0.025677684747747006 -0.016154917050153018 -0.018526562159373004 0.027597101330757129 -0.00080293598352000096 0.05146768122911452 0.012696331451297739 -0.0063670439956088863 -0.01625235330934326 0.023551593497395516 0.0022945213415368928 -0.023661680068624649 -0.0067557185950378566 0.01788714721798897 -0.01739227831363678 0.031865634836933811 0.019747252501547338 -0.0062964610879619898 -0.030038119039752259 -0.039183280191251203 -0.013890668284147973 0.0074785147607326508 0.0078475698751086995 -0.043953490799123592 0.047135420590639118 0.04218678772449494 -0.017555592982098463 -0.019124906808137894 -0.036820673091070996 0.043480487763881685 -0.0071575612016022208
leaf_weight=10.999999999999998 19 18 13.999999999999998 14.000000000000002 15.999999999999998 10.999999999999998 10.000000000000002 10.000000000000002 10.000000000000002 15.999999999999998 18 14.999999999999998 9.9999999999999982 15.999999999999998 19 15.000000000000002 9.9999999999999982 14.999999999999998 11.000000000000005 9.9999999999999982 15.000000000000002 11.000000000000002 14.000000000000002 10.000000000000002 14.999999999999998 11.999999999999998 10.999999999999998 9.9999999999999982 9.9999999999999982 14.999999999999998 9.9999999999999982 13.999999999999998 9.9999999999999982 9.9999999999999982
leaf_count=11 19 18 14 14 16 11 10 10 10 16 18 15 10 16 19 15 10 15 11 10 15 11 14 10 15 12 11 10 10 15 10 14 10 10
internal_value=0 -0.0127858 0.0229045 -0.0148984 -0.0180835 -0.0144873 0.0151953 -0.00119631 0.0345278 0.0250272 0.00948639 -0.0296713 0.0113743 -0.00928074 -0.0115393 -0.0055515 0.00410331 -0.00881488 0.0287738 0.0328822 -0.0167106 -0.0212011 -0.0269015 -0.0174834 -7.36082e-05 -0.000265368 -0.0348324 0.039137 0.0348919 -0.0228367 -0.0114278 -0.0312492 0.0474741 -0.0105241
internal_weight=0 292 163 281 228 174 98 53 65 36 62 54 20 98 82 38 43 33 45 31 44 76 30 46 33 27 39 21 20 26 25 28 20 20
internal_count=455 292 163 281 228 174 98 53 65 36 62 54 20 98 82 38 43 33 45 31 44 76 30 46 33 27 39 21 20 26 25 28 20 20
is_linear=0
shrinkage=0.05


Tree=13
num_leaves=36
num_cat=0
split_feature=2 1 2 7 0 1 10 0 2 1 9 6 3 0 10 2 5 9 10 8 4 1 6 2 10 7 2 2 9 6 10 3 6 5 5
split_gain=48.1416 11.7104 4.8214 4.24215 2.93813 2.87495 2.29633 2.25618 1.70076 1.47898 1.16029 1.07255 1.01255 0.893901 1.16707 0.851624 0.805292 0.779813 1.34876 1.02745 0.730758 1.25694 0.771634 0.694291 0.687575 0.699188 0.484014 0.458364 0.402507 0.349765 0.31024 0.306482 0.299474 0.286033 0.0660537
threshold=1999.5000000000002 70030.000000000015 1977.5000000000002 0.91666650000000016 3.5000000000000004 703587.50000000012 17.000000000000004 1.5000000000000002 1995.5000000000002 418047.50000000006 6.1500000000000012 82.166666665000022 30.016665000000003 3.5000000000000004 27.000000000000004 1988.5000000000002 9.1666666665000012 7.495000000000001 17.000000000000004 1.1416666665000001 13.350000000000003 1066992.5000000002 76.833333335000006 1974.5000000000002 8.0000000000000018 0.86666683350000007 1988.5000000000002 1988.5000000000002 7.3833333335000004 76.166665000000009 9.5000000000000018 29.983333335000001 73.666668335000011 4.6666668335000017 12.351851850000001
decision_type=2 2 2 2 2 2 2 2 2 2 2 2 2 2 2 2 2 2 2 2 2 2 2 2 2 2 2 2 2 2 2 2 2 2 2
left_child=1 -1 13 6 7 24 10 -4 20 -8 -2 12 33 -3 16 -9 32 18 19 -5 22 27 -7 -18 29 26 -26 34 -29 -6 -28 -20 -15 -12 -22
right_child=3 2 4 17 5 8 9 15 -10 -11 11 -13 -14 14 -16 -17 23 -19 31 -21 21 -23 -24 -25 25 -27 30 28 -30 -31 -32 -33 -34 -35 -36
leaf_value=0.037005977208415669 0.025490887395360252 -0.012402535969606387 -0.016935609805990348 0.034344324522784769 -0.019117579385638232 -0.010977190199562092 0.043501928523182853 0.0021698509753846069 0.0070891977249023814 0.019519430398941041 0.010239165737716986 -0.0047999954280944978 0.021371263079345226 -0.032287759537046594 -0.014679932651730877 0.019170222119786418 -0.03127587735652923 0.046114971786737444 0.047157487124204617 0.016053116590003757 -0.015897659484583593 -0.02715627371023099 0.0082134281843900675 -0.014481360949575901 -0.026078699764452484 -0.03462915480136871 -0.0210416021828468 -0.010117105741731143 0.0037431187089532617 -0.0064562693800932422 -0.010118092797123468 0.034778425395488741 -0.044243127107620239 -0.001444826126098633 -0.011028207012762628
leaf_weight=11.999999999999998 10.999999999999998 12.999999999999998 10.999999999999998 14.000000000000002 10.000000000000002 11.000000000000002 10.000000000000002 17.000000000000004 18 18 11.000000000000002 12.999999999999998 15.999999999999998 11.000000000000002 14.999999999999998 12.999999999999998 16.000000000000004 9.9999999999999982 10.000000000000002 17 13.000000000000002 11.999999999999998 9.9999999999999982 9.9999999999999982 19 9.9999999999999982 13 11.000000000000002 9.9999999999999982 11.999999999999998 13 9.9999999999999982 9.9999999999999982 9.9999999999999982 14.999999999999998
leaf_count=12 11 13 11 14 10 11 10 17 18 18 11 13 16 11 15 13 16 10 10 17 13 12 10 10 19 10 13 11 10 12 13 10 10 10 15
internal_value=0 -0.0114057 -0.0133884 0.0231915 -0.00962633 -0.01242 0.0162302 0.00243436 -0.00682834 0.0280846 0.0107889 0.00755446 0.0118952 -0.0243234 -0.026823 0.00953668 -0.0306984 0.0333481 0.0308448 0.0243137 -0.00988341 -0.0126529 -0.0018388 -0.0248164 -0.019682 -0.0226702 -0.0200127 -0.00910101 -0.003517 -0.0122114 -0.0155798 0.040968 -0.0379808 0.00467536 -0.013289
internal_weight=0 305 293 150 218 177 89 41 100 28 61 50 37 75 62 30 47 61 51 31 82 61 21 26 77 55 45 49 21 22 26 20 21 21 28
internal_count=455 305 293 150 218 177 89 41 100 28 61 50 37 75 62 30 47 61 51 31 82 61 21 26 77 55 45 49 21 22 26 20 21 21 28
is_linear=0
shrinkage=0.05


Tree=14
num_leaves=35
num_cat=0
split_feature=2 1 2 0 2 1 0 10 10 1 1 4 10 2 6 2 8 1 2 9 6 8 0 1 7 8 9 2 0 1 2 9 8 5
split_gain=43.4637 10.897 4.88537 3.99319 3.10526 1.9637 1.77547 1.74664 1.59596 1.47683 1.43624 1.41399 1.39883 0.984759 0.939093 0.905797 0.826616 0.776613 0.752677 0.600243 0.830176 0.546478 0.542895 0.507222 0.444158 0.395443 0.374588 0.307559 0.298824 0.845575 0.195166 0.118916 0.115905 0.0914536
threshold=1998.5000000000002 70030.000000000015 2007.5000000000002 3.5000000000000004 1975.5000000000002 768855.00000000012 2.5000000000000004 17.000000000000004 17.000000000000004 928142.50000000012 939730.00000000012 14.683333335000002 8.0000000000000018 1981.5000000000002 79.833333335000006 1990.5000000000002 1.6833335 668792.50000000012 1983.5000000000002 5.983333333500001 81.500000000000014 1.1833333335000003 8.5000000000000018 1049442.5000000002 1.7416666665000002 1.1833333335000003 6.7666668335000013 1989.5000000000002 6.5000000000000009 383118.00000000006 1982.5000000000002 7.4783333335000011 1.4666668335000002 15.833333335000001
decision_type=2 2 2 2 2 2 2 2 2 2 2 2 2 2 2 2 2 2 2 2 2 2 2 2 2 2 2 2 2 2 2 2 2 2
left_child=1 -1 7 6 10 12 18 11 19 26 25 -2 21 -8 23 -16 22 28 -3 -4 24 -6 -13 27 -21 -5 -9 31 -14 -30 -23 -7 -10 -31
right_child=2 3 8 4 5 14 13 9 32 -11 -12 16 17 -15 15 -17 -18 -19 -20 20 -22 30 -24 -25 -26 -27 -28 -29 29 33 -32 -33 -34 -35
leaf_value=0.0372731030325998 0.019906813222424768 -0.016490851615866026 0.017496142762580089 -0.028560178726911547 -0.00049950301123317335 -0.0092239908537723962 -0.0004341103509068488 0.024609034880995743 0.046870723813772192 0.011071441341482569 -0.014580256066152028 -0.0061423751383295495 -0.014144839000489032 0.021755510494112968 -0.010154560719489711 0.0093404282099352441 0.016121644712984561 -0.035019827295433396 -0.0013256100420322684 0.028682958537882011 0.018112583588808778 -0.019746479615569107 0.0067372464885314303 -0.020963011021641168 0.043242645412683495 -0.039698420862356823 0.038294568583369257 -0.0040693938609604775 -0.013814199641346931 -0.032899616211652744 -0.010600838903337718 -0.01514824505429715 0.039258064627647402 -0.026137455552816394
leaf_weight=10.999999999999998 19 14.999999999999998 13.999999999999998 17 9.9999999999999982 18 10.000000000000002 10.000000000000002 10.000000000000002 15.999999999999998 13.999999999999998 18 13.999999999999998 9.9999999999999982 11.000000000000002 12.999999999999998 9.9999999999999982 10.999999999999998 18 11.000000000000005 9.9999999999999982 10.000000000000002 14.999999999999998 10.999999999999998 9.9999999999999982 14.999999999999998 9.9999999999999982 19 14.999999999999998 10.000000000000002 13.999999999999998 15.999999999999998 9.9999999999999982 9.9999999999999982
leaf_count=11 19 15 14 17 10 18 10 10 10 16 14 18 14 10 11 13 10 11 18 11 10 10 15 11 10 15 10 19 15 10 14 16 10 10
internal_value=0 -0.011546 0.0206836 -0.013457 -0.0163308 -0.0133972 -0.00109452 0.0136339 0.0313123 0.0223939 -0.0279375 0.00854745 -0.0184224 0.0106607 -0.00802943 0.000405225 0.0035282 -0.0230138 -0.0082189 0.0260891 0.0299698 -0.0103198 -0.000288002 -0.0111924 0.0356161 -0.0337812 0.0314518 -0.00916457 -0.0203186 -0.0227881 -0.0144115 -0.0120119 0.0430644 -0.0295185
internal_weight=0 292 163 281 228 182 53 98 65 36 46 62 94 20 88 24 43 60 33 45 31 34 33 64 21 32 20 53 49 35 24 34 20 20
internal_count=455 292 163 281 228 182 53 98 65 36 46 62 94 20 88 24 43 60 33 45 31 34 33 64 21 32 20 53 49 35 24 34 20 20
is_linear=0
shrinkage=0.05


Tree=15
num_leaves=35
num_cat=0
split_feature=2 1 2 2 0 1 0 10 2 10 3 1 4 7 10 0 6 1 9 4 5 8 10 7 0 1 6 2 2 9 6 4 9 8
split_gain=39.251 9.49244 3.9647 3.55786 2.66514 2.10808 2.02689 1.72712 1.62627 1.44035 1.33049 1.07597 0.972693 0.882997 0.851478 0.761505 0.742479 0.707394 0.654375 1.00277 0.622018 0.593518 0.58026 0.58619 0.574545 1.37047 0.448611 0.422249 0.393935 0.357469 0.302627 0.291285 0.22178 0.104604
threshold=1999.5000000000002 70030.000000000015 1975.5000000000002 2007.5000000000002 3.5000000000000004 703587.50000000012 2.5000000000000004 17.000000000000004 1994.5000000000002 17.000000000000004 30.516666665000006 915152.50000000012 14.283333335000002 0.86666683350000007 17.000000000000004 6.5000000000000009 76.416666665000022 815355.00000000012 7.3833333335000004 15.741666665000002 12.351851850000001 1.1833333335000003 8.0000000000000018 0.86666683350000007 10.000000000000002 176453.50000000003 80.833333335000006 1988.5000000000002 1982.5000000000002 7.9500000000000011 78.500000000000014 14.416666665000003 7.716666666500001 1.4666668335000002
decision_type=2 2 2 2 2 2 2 2 2 2 2 2 2 2 2 2 2 2 2 2 2 2 2 2 2 2 2 2 2 2 2 2 2 2
left_child=1 -1 14 7 6 22 17 10 12 24 26 -9 13 16 15 -3 -7 -4 19 -14 -10 -17 28 27 25 -5 30 32 -6 -20 -2 -29 -24 -11
right_child=3 2 4 9 5 8 -8 11 20 33 -12 -13 18 -15 -16 21 -18 -19 29 -21 -22 -23 23 -25 -26 -27 -28 31 -30 -31 -32 -33 -34 -35
leaf_value=0.033287768174583718 0.0020737795757928062 -0.017150648253631186 0.0004788183744120246 0.013998716175556179 -0.018543054976246569 -0.0088100318963240283 0.016862872752050558 0.031530013618369893 0.013804958760738367 0.044527187943458543 0.02038538118495661 0.012652551268155759 -0.033322029865812501 -0.0175570868793875 -0.015276248900121765 -0.026127109924952187 0.0069569564831908799 -0.015793856053972957 -0.0053609850745488068 -0.01144526152109558 -0.0025222975644282998 -0.041045864298939708 -0.028432460738853967 -0.03159142300486565 0.017178523924667389 0.036866670592050808 -0.0049774824048985141 -0.0078207182105291938 -0.005898836547774928 -0.01741178296506405 0.012894496717975322 -0.018532788380980492 -0.018144147507846358 0.037295162081718451
leaf_weight=11.999999999999998 14.000000000000002 10.999999999999998 17.000000000000004 10.000000000000002 11.000000000000002 14.000000000000002 14.999999999999998 18.000000000000004 10.000000000000002 10.000000000000002 17 12.999999999999998 10.000000000000002 9.9999999999999982 19 15.000000000000002 15.999999999999998 10.999999999999998 16.000000000000004 10.999999999999998 13.999999999999998 11.999999999999998 11.000000000000002 9.9999999999999982 15.999999999999998 19 10.999999999999998 11.000000000000002 13.999999999999998 9.9999999999999982 11.999999999999998 14.999999999999998 9.9999999999999982 9.9999999999999982
leaf_count=12 14 11 17 10 11 14 15 18 10 10 17 13 10 10 19 15 16 11 16 11 14 12 11 10 16 19 11 11 14 10 12 15 10 10
internal_value=0 -0.0102988 -0.0120839 0.0209408 -0.00922548 -0.0117335 0.00203141 0.0142069 -0.00724211 0.0297467 0.00880678 0.0236137 -0.0104208 -0.00469 -0.0239186 -0.0282398 -0.000400971 -0.00591402 -0.0152981 -0.0218628 0.00428073 -0.0327577 -0.0178133 -0.0205988 0.0247847 0.0289812 0.00348688 -0.01826 -0.0114623 -0.00999591 0.00706796 -0.0140008 -0.0235333 0.0409112
internal_weight=0 305 293 150 236 193 43 85 111 65 54 31 87 40 57 38 30 28 47 21 24 27 82 57 45 29 37 47 25 26 26 26 21 20
internal_count=455 305 293 150 236 193 43 85 111 65 54 31 87 40 57 38 30 28 47 21 24 27 82 57 45 29 37 47 25 26 26 26 21 20
is_linear=0
shrinkage=0.05


Tree=16
num_leaves=35
num_cat=0
split_feature=2 1 2 0 2 4 1 5 0 3 1 0 9 5 10 2 2 6 9 2 1 1 9 7 3 1 6 8 9 7 9 4 8 5
split_gain=35.4314 8.92027 4.01104 3.26813 2.54878 2.11479 1.64001 1.49583 1.46537 1.43561 1.06258 0.967076 0.910924 1.32418 1.84444 0.920841 0.81849 0.706906 1.40858 0.664155 0.639202 0.82911 0.574823 0.445543 0.44174 0.435098 0.42934 0.417511 0.434443 0.416505 0.256678 0.244587 0.156916 0.156657
threshold=1998.5000000000002 70030.000000000015 2005.5000000000002 3.5000000000000004 1976.5000000000002 13.950000000000001 703587.50000000012 24.166665000000005 2.5000000000000004 30.950000000000003 939730.00000000012 13.500000000000002 7.495000000000001 14.833335000000002 34.500000000000007 1988.5000000000002 1981.5000000000002 81.833333335000006 6.9500000000000011 1983.5000000000002 804138.50000000012 648156.50000000012 7.9166666665000012 0.91666650000000016 29.583333335000003 329885.00000000006 76.833333335000006 1.2500000000000002 7.2540404040000004 0.86666683350000007 7.3107060755000015 14.983333335000003 1.2166666665000003 2.1666665000000003
decision_type=2 2 2 2 2 2 2 2 2 2 2 2 2 2 2 2 2 2 2 2 2 2 2 2 2 2 2 2 2 2 2 2 2 2
left_child=1 -1 9 8 10 25 23 17 19 11 29 20 13 14 -8 22 -10 18 31 -3 21 33 -14 26 -15 -4 27 -6 -29 30 -5 -7 -28 -2
right_child=2 3 5 4 6 7 12 -9 16 -11 -12 -13 15 24 -16 -17 -18 -19 -20 -21 -22 -23 -24 -25 -26 -27 32 28 -30 -31 -32 -33 -34 -35
leaf_value=0.033745059032331819 0.0059972393140196763 -0.015212422038118047 0.03227723818272351 -0.020566933029996494 -0.024843499716371301 0.015982791998734074 -0.02898883229742448 0.0047768060795285484 -0.00040521035902202118 0.026987751463258811 -0.012933596670627595 0.01694554675027336 0.00067100488619568433 0.0041610490435480384 -0.0036820756969973435 0.0079654914722777897 0.019824591316282753 0.014785878406837583 0.040413264632225041 -0.00096685751858684762 -0.0049367640788356461 0.018662203171036462 -0.014010909932355087 -0.025377018696495463 -0.0090305665077175939 0.046687672084028076 -0.0056683349846438913 -0.02237595327198505 -0.0087308089514928199 -0.036836691607128491 -0.030141408156071393 0.025559852570295333 -0.014113783768632197 -0.0028531023859977725
leaf_weight=10.999999999999998 10.000000000000005 14.999999999999998 10.000000000000002 14.000000000000002 15.999999999999998 12.000000000000002 18 10.999999999999998 10.000000000000002 10.999999999999998 14.999999999999998 19 12.000000000000002 11.000000000000002 12.000000000000002 14.999999999999998 9.9999999999999982 12.999999999999998 14.999999999999998 18 14.999999999999998 10.999999999999998 14.999999999999998 13.999999999999998 14.999999999999998 10.999999999999998 11.000000000000002 10.000000000000002 13.999999999999998 10.999999999999998 13.999999999999998 14.999999999999998 10.999999999999998 9.9999999999999982
leaf_count=11 10 15 10 14 16 12 18 11 10 11 15 19 12 11 12 15 10 13 15 18 15 11 15 14 15 11 11 10 14 11 14 15 11 10
internal_value=0 -0.0104246 0.0186748 -0.0121537 -0.0147535 0.0260056 -0.0118084 0.0216084 -0.000969735 0.010283 -0.024243 0.00745599 -0.00753367 -0.0117084 -0.0188661 -0.00196736 0.00970969 0.0249747 0.0281283 -0.00744211 0.00353639 0.00763631 -0.00748561 -0.0173206 -0.0034495 0.0398256 -0.0155015 -0.0185872 -0.0144163 -0.0285928 -0.0253542 0.0213034 -0.00989106 0.00157207
internal_weight=0 292 163 281 228 87 174 66 53 76 54 65 98 56 30 42 20 55 42 33 46 31 27 76 26 21 62 40 24 39 28 27 22 20
internal_count=455 292 163 281 228 87 174 66 53 76 54 65 98 56 30 42 20 55 42 33 46 31 27 76 26 21 62 40 24 39 28 27 22 20
is_linear=0
shrinkage=0.05


Tree=17
num_leaves=35
num_cat=0
split_feature=2 1 2 2 0 1 0 10 2 10 3 1 4 8 10 1 0 9 4 5 9 0 8 10 0 1 2 6 2 9 6 2 4 8
split_gain=32.0683 7.72308 3.26286 2.88313 2.17777 1.71972 1.68327 1.50815 1.30949 1.24098 1.11143 0.929136 0.794127 0.824648 0.716644 0.653728 0.623204 0.54618 0.847378 0.525698 0.521817 0.704148 0.514944 0.509874 0.509462 0.984022 0.440415 0.395046 0.321552 0.301296 0.251712 0.186626 0.138979 0.0959379
threshold=1999.5000000000002 70030.000000000015 1975.5000000000002 2007.5000000000002 3.5000000000000004 703587.50000000012 2.5000000000000004 17.000000000000004 1994.5000000000002 17.000000000000004 30.516666665000006 915152.50000000012 14.283333335000002 0.95000000000000007 17.000000000000004 815355.00000000012 6.5000000000000009 7.3833333335000004 15.741666665000002 12.351851850000001 5.983333333500001 10.000000000000002 1.1833333335000003 8.0000000000000018 6.5000000000000009 388835.00000000006 1987.5000000000002 80.833333335000006 1982.5000000000002 7.9500000000000011 78.500000000000014 2009.5000000000002 14.516666665000001 1.4666668335000002
decision_type=2 2 2 2 2 2 2 2 2 2 2 2 2 2 2 2 2 2 2 2 2 2 2 2 2 2 2 2 2 2 2 2 2 2
left_child=1 -1 14 7 6 23 15 10 12 20 27 -9 13 -7 16 -4 -3 18 -14 -10 -5 31 -18 28 -25 -26 -15 30 -6 -19 -2 -22 -27 -11
right_child=3 2 4 9 5 8 -8 11 19 33 -12 -13 17 26 -16 -17 22 29 -20 -21 21 -23 -24 24 25 32 -28 -29 -30 -31 -32 -33 -34 -35
leaf_value=0.030006124688467636 0.001763534798685993 -0.015587869760665028 0.00075461278012131931 0.014237328086580551 -0.016528295590118924 -0.015177055415309346 0.015365663046638171 0.029012816875345172 0.012559161707758899 0.040681091248989096 0.018402589156347165 0.011470673398043101 -0.030327256880700579 -0.0049414790497394265 -0.013726696734757802 -0.014888629126785832 -0.023530621776978171 -0.0046964825989562076 -0.010216797583482484 -0.002450807153114251 0.02612413129769264 0.014947420400567353 -0.037426803261041641 -0.011444589276524152 -0.012172380468109624 -0.023678384423255913 0.0077300692607726283 -0.0049852095883000987 -0.005104628132124033 -0.015759995877742766 0.01163210520365586 0.035561888868158517 -0.03139606746179717 0.033755127638578415
leaf_weight=11.999999999999998 14.000000000000002 10.999999999999998 17.000000000000004 13.999999999999998 11.000000000000002 11.999999999999998 14.999999999999998 18.000000000000004 10.000000000000002 10.000000000000002 17 12.999999999999998 10.000000000000002 16.000000000000004 19 10.999999999999998 15.000000000000002 16.000000000000004 10.999999999999998 13.999999999999998 10.000000000000005 9.9999999999999982 11.999999999999998 17 15.999999999999998 10.000000000000002 11.999999999999998 10.999999999999998 13.999999999999998 9.9999999999999982 11.999999999999998 10.999999999999998 13.999999999999998 9.9999999999999982
leaf_count=12 14 11 17 14 11 12 15 18 10 10 17 13 10 16 19 11 15 16 11 14 10 10 12 17 16 10 12 11 14 10 12 11 14 10
internal_value=0 -0.00930889 -0.0109191 0.0189281 -0.00832598 -0.0105931 0.00184973 0.0128662 -0.00653647 0.0268551 0.00782003 0.0216564 -0.00938883 -0.00421069 -0.0216553 -0.00539095 -0.0256197 -0.0137958 -0.0197932 0.00380335 0.0222493 0.0258676 -0.0297067 -0.0160844 -0.0186955 -0.0217772 0.000489185 0.00295777 -0.010131 -0.00895168 0.00631826 0.0310677 -0.0281804 0.0372181
internal_weight=0 305 293 150 236 193 43 85 111 65 54 31 87 40 57 28 38 47 21 24 45 31 27 82 57 40 28 37 25 26 26 21 24 20
internal_count=455 305 293 150 236 193 43 85 111 65 54 31 87 40 57 28 38 47 21 24 45 31 27 82 57 40 28 37 25 26 26 21 24 20
is_linear=0
shrinkage=0.05


Tree=18
num_leaves=38
num_cat=0
split_feature=2 8 2 2 0 10 3 4 3 10 7 1 1 8 10 10 7 8 3 2 9 6 9 7 7 2 0 10 6 8 6 6 3 0 1 2 8
split_gain=28.9416 7.34285 2.78332 2.60203 1.51022 1.44724 1.91837 1.25351 1.67588 1.11998 1.08457 1.03835 0.99789 0.957787 1.23007 0.924914 0.828852 0.804347 0.607758 0.549557 0.47094 0.680723 0.434989 0.401467 0.381992 0.378097 0.3319 0.307627 0.379536 0.280099 0.223035 0.169651 0.13303 0.129913 0.214062 0.112587 0.086584
threshold=1999.5000000000002 2.3166666665000002 1982.5000000000002 2007.5000000000002 3.5000000000000004 5.0000000000000009 30.050000000000004 13.350000000000003 30.116666665000004 17.000000000000004 0.38333333350000004 533377.50000000012 668792.50000000012 0.98333333350000018 17.000000000000004 9.5000000000000018 1.1500001665000001 1.1416666665000001 28.050000000000004 2005.5000000000002 5.983333333500001 81.500000000000014 7.4574074075000008 1.7416666665000002 0.58333333350000005 1976.5000000000002 7.5000000000000009 9.5000000000000018 74.166665000000009 1.4500000000000002 79.416666665000022 75.333331665000017 28.916666665000005 5.5000000000000009 742235.00000000012 1989.5000000000002 1.4666668335000002
decision_type=2 2 2 2 2 2 2 2 2 2 2 2 2 2 2 2 2 2 2 2 2 2 2 2 2 2 2 2 2 2 2 2 2 2 2 2 2
left_child=1 2 11 5 12 -2 15 30 13 20 -8 -1 -4 -9 24 -7 18 -10 -13 32 -5 23 -16 -22 -15 27 -26 28 -20 -19 -6 -29 -17 -27 -35 -31 -11
right_child=3 -3 4 9 7 6 10 8 17 36 -12 16 -14 14 22 19 -18 29 25 -21 21 -23 -24 -25 26 33 -28 31 -30 35 -32 -33 -34 34 -36 -37 -38
leaf_value=-0.03152316674590111 -0.0018710460638006528 0.031264436143365777 0.012005838981884365 0.013525461724826269 -0.002301548882810906 -0.0036758208478038963 0.037935955551537587 -0.027883309622605643 0.0066427650737265745 0.038647036999464028 0.017265806819001833 -0.0050189618105915467 -0.0078994675423018634 -0.010913345515727998 -0.0096188909234479047 0.012762289866805072 -0.0016737715087153694 -0.013835771635852076 -0.016530441939830772 0.022190679101781411 0.023095539889552361 0.013837215541861953 0.0051287959143519399 0.036937839090824126 -0.027062903158366677 -0.010769598703417513 -0.015906624334553879 -0.019999723494626004 -0.028947620978578927 -0.0079822229617275264 0.0077671954588202589 -0.011337282955646516 0.0049538417952135205 -0.021522315388376057 -0.012045168776351672 -0.00079873755069759993 0.032067371159791948
leaf_weight=9.9999999999999982 14.999999999999998 10.999999999999998 17.000000000000004 13.999999999999998 11.000000000000002 10.999999999999998 11.000000000000002 11.999999999999998 14.999999999999998 10.000000000000002 14.999999999999998 10.999999999999998 9.9999999999999982 14.999999999999998 10.000000000000002 10.000000000000002 10.999999999999998 10.999999999999998 10.000000000000002 10.999999999999998 11.000000000000005 9.9999999999999982 9.9999999999999982 9.9999999999999982 12.000000000000002 18 14.999999999999998 13.000000000000002 15.999999999999998 10.000000000000002 10.999999999999998 9.9999999999999982 11.999999999999998 11.000000000000002 12.999999999999998 11.999999999999998 9.9999999999999982
leaf_count=10 15 11 17 14 11 11 11 12 15 10 15 11 10 15 10 10 11 11 10 11 11 10 10 10 12 18 15 13 16 10 11 10 12 11 13 12 10
internal_value=0 -0.00884345 -0.0103441 0.0179817 -0.00621806 0.0122229 0.0152431 -0.00825272 -0.0102337 0.0255123 0.0260109 -0.0160803 0.0046335 -0.0149534 -0.0124509 0.00888028 -0.0147136 -0.00295748 -0.0161199 0.0130657 0.0211368 0.0245742 -0.00224505 0.0296871 -0.0173108 -0.0174618 -0.020865 -0.0204456 -0.0241718 -0.00732123 0.00273282 -0.0162334 0.00850314 -0.0139806 -0.0163889 -0.00406396 0.0353572
internal_weight=0 305 294 150 171 85 70 144 122 65 26 123 27 74 62 44 113 48 102 33 45 31 20 21 42 91 27 49 26 33 22 23 22 42 24 22 20
internal_count=455 305 294 150 171 85 70 144 122 65 26 123 27 74 62 44 113 48 102 33 45 31 20 21 42 91 27 49 26 33 22 23 22 42 24 22 20
is_linear=0
shrinkage=0.05


Tree=19
num_leaves=36
num_cat=0
split_feature=2 1 2 0 2 4 3 5 0 1 10 1 0 1 2 1 2 6 9 1 1 1 10 6 4 1 1 4 0 1 1 0 0 5 2
split_gain=26.2039 7.22026 2.90484 2.4648 1.96286 1.88324 1.18534 1.17767 1.17458 1.16719 1.00921 0.897043 0.803024 0.695189 0.794052 0.640422 0.637688 0.549415 1.18186 0.534357 0.685583 0.52942 0.373322 0.369093 0.682862 0.365487 0.24524 0.200452 0.193668 0.490989 0.155075 0.138845 0.130029 0.103835 0.0794001
threshold=1998.5000000000002 70030.000000000015 2005.5000000000002 3.5000000000000004 1974.5000000000002 13.950000000000001 30.950000000000003 24.166665000000005 2.5000000000000004 768855.00000000012 8.0000000000000018 939730.00000000012 13.500000000000002 1355615.0000000002 1987.5000000000002 668792.50000000012 1981.5000000000002 81.833333335000006 6.9500000000000011 804138.50000000012 648156.50000000012 633000.00000000012 6.5000000000000009 76.166665000000009 16.150000000000002 329885.00000000006 710290.00000000012 14.983333335000003 6.5000000000000009 383118.00000000006 533377.50000000012 7.5000000000000009 13.500000000000002 15.833333335000001 1983.5000000000002
decision_type=2 2 2 2 2 2 2 2 2 2 2 2 2 2 2 2 2 2 2 2 2 2 2 2 2 2 2 2 2 2 2 2 2 2 2
left_child=1 -1 6 8 11 25 12 17 21 10 23 26 19 14 32 28 -10 18 27 20 30 -3 -16 -6 -25 -4 -5 -7 -12 -30 -2 -24 34 -31 -11
right_child=2 3 5 4 9 7 -8 -9 16 13 15 -13 -14 -15 22 -17 -18 -19 -20 -21 -22 -23 31 24 -26 -27 -28 -29 29 33 -32 -33 -34 -35 -36
leaf_value=0.030773534779225221 0.0054149655438959568 -0.00082140193424291093 0.028421781063079826 -0.032203456972326544 -0.013638535387193163 0.01284789486477772 0.024097509229217065 0.0032143648205833 -0.00017478100955486292 -0.0097814007248315533 -0.010849976499697992 -0.010077691935002804 0.014996989537030459 -0.019082469819113615 -0.0066966024299080556 -0.028702419189115366 0.017681424096226691 0.012153539691980068 0.035169102450211841 -0.004969148400705308 0.016552864218300042 -0.013540182306120793 -0.00045402784916487592 0.0059759351960383339 -0.012501909863203764 0.04162924086505717 -0.023002025336027146 0.021517924219369891 -0.010871489231164258 -0.026403056308627122 -0.0033905706368386745 0.0070525872392214048 -0.013470351497332257 -0.019363326579332353 -0.0043894380839033563
leaf_weight=10.999999999999998 10.000000000000005 18 10.000000000000002 14.000000000000002 14.999999999999998 12.000000000000002 10.999999999999998 10.999999999999998 10.000000000000002 18.000000000000004 13.999999999999998 9.9999999999999982 19 9.9999999999999982 12.999999999999998 11.999999999999998 9.9999999999999982 12.999999999999998 14.999999999999998 14.999999999999998 10.999999999999998 14.999999999999998 11.000000000000002 10.000000000000002 9.9999999999999982 10.999999999999998 14.999999999999998 14.999999999999998 14.999999999999998 10.000000000000002 9.9999999999999982 13.999999999999998 14.999999999999998 10.999999999999998 10.999999999999998
leaf_count=11 10 18 10 14 15 12 11 11 10 18 14 10 19 10 13 12 10 13 15 15 11 15 11 10 10 11 15 15 15 10 10 14 15 11 11
internal_value=0 -0.00896499 0.01606 -0.0105206 -0.0127784 0.0222985 0.00891847 0.018149 -0.000807954 -0.0106709 -0.0144976 -0.0229912 0.00634971 -0.00663634 -0.00511851 -0.0183295 0.00875332 0.0211359 0.0239162 0.002778 0.00652663 -0.00660267 0.00017595 -0.00770965 -0.00326299 0.03534 -0.0274441 0.0176646 -0.01584 -0.0177805 0.0010122 0.00374968 -0.00969101 -0.0227156 -0.00773617
internal_weight=0 292 163 281 228 87 76 66 53 189 97 39 65 92 82 62 20 55 42 46 31 33 38 35 20 21 29 27 50 36 20 25 44 21 29
internal_count=455 292 163 281 228 87 76 66 53 189 97 39 65 92 82 62 20 55 42 46 31 33 38 35 20 21 29 27 50 36 20 25 44 21 29
is_linear=0
shrinkage=0.05


Tree=20
num_leaves=35
num_cat=0
split_feature=2 8 2 1 3 10 6 0 0 10 2 4 3 1 1 0 0 1 1 2 10 1 4 4 1 2 3 2 5 9 2 6 2 9
split_gain=23.6512 6.48018 2.27925 2.11575 1.8875 1.88579 1.62102 1.42471 1.24613 1.1877 1.0306 1.0293 0.95178 1.52069 0.950535 0.846815 1.12701 0.78822 0.765121 0.684186 0.531918 0.487494 0.485149 0.401777 0.399047 0.384411 0.588355 0.268771 0.245878 0.29114 0.237671 0.19705 0.121565 0.073167
threshold=1999.5000000000002 2.3166666665000002 1975.5000000000002 483497.50000000006 30.850001665000004 17.000000000000004 83.166666665000022 3.5000000000000004 1.5000000000000002 8.0000000000000018 1997.5000000000002 14.583333335000001 28.466668335000005 1059760.0000000002 768855.00000000012 7.5000000000000009 6.5000000000000009 654732.50000000012 237845.50000000003 1989.5000000000002 17.000000000000004 644915.00000000012 14.450000000000001 15.616665000000003 1020730.0000000001 1982.5000000000002 29.983333335000001 1988.5000000000002 15.500000000000002 6.6500000000000012 1993.5000000000002 75.333331665000017 1990.5000000000002 7.4783333335000011
decision_type=2 2 2 2 2 2 2 2 2 2 2 2 2 2 2 2 2 2 2 2 2 2 2 2 2 2 2 2 2 2 2 2 2 2
left_child=1 2 20 4 5 9 11 8 -4 -2 12 -5 24 14 15 16 -14 -12 -7 23 22 -13 -1 -10 -9 -17 32 33 29 -11 -29 -24 -27 -16
right_child=3 -3 7 6 -6 18 -8 10 19 28 17 21 13 -15 27 25 -18 -19 -20 -21 -22 -23 31 -25 -26 26 -28 30 -30 -31 -32 -33 -34 -35
leaf_value=-0.03036219161003828 0.022784104622486565 0.029683850231495775 -0.013204157097392123 0.021870405957298847 0.035965274712618664 0.039016269418326283 -0.0076581064146012071 -0.007563764899969099 -0.0059564659744501076 0.01539221983402967 -0.0092134317243471719 -0.0014348840171640566 -0.010386550240218638 -0.030536270253360271 -0.0053642586059868321 -0.015882116295152196 -0.029463549377396703 0.0097936073706174909 0.020760005083866419 0.017148087853565815 -0.011812950401125771 0.01242308276395003 -0.014220196008682249 0.0082170510292053217 0.0062367453144609253 -0.014859702305069989 0.0010192157218365796 0.0022231659648241473 0.0011773180526991687 0.0041306807405569338 -0.0070854724346039195 -0.023409864753484728 -0.0080015530964980524 -0.010754211055224434
leaf_weight=11.999999999999998 18 10.999999999999998 10.999999999999998 19 17 11.000000000000002 11.999999999999998 10.000000000000002 10.000000000000005 12.000000000000002 10.000000000000002 11.000000000000002 15.000000000000002 9.9999999999999982 10.000000000000002 19 15.999999999999998 11.999999999999998 11.999999999999998 9.9999999999999982 19 14.999999999999998 14.000000000000002 9.9999999999999982 10.999999999999998 14.000000000000002 13.999999999999998 16.000000000000004 11.999999999999998 10.999999999999998 11.999999999999998 9.9999999999999982 11.999999999999998 17
leaf_count=12 18 11 11 19 17 11 12 10 10 12 10 11 15 10 10 19 16 12 12 10 19 15 14 10 11 14 14 16 12 11 12 10 12 17
internal_value=0 -0.00799442 -0.00940415 0.0162553 0.0209042 0.0175353 0.00867023 -0.00729224 0.00119124 0.0123469 -0.00904892 0.0130244 -0.0103243 -0.0116777 -0.0103771 -0.0135418 -0.0202327 0.00115404 0.0294913 0.00646956 -0.0185813 0.0065601 -0.0221535 0.00113029 -0.000334926 -0.0100262 -0.00724464 -0.00519853 0.0069792 0.0100063 -0.00176625 -0.0180492 -0.0116944 -0.00875793
internal_weight=0 305 294 150 93 76 57 239 41 53 198 45 176 155 145 90 31 22 23 30 55 26 36 20 21 59 40 55 35 23 28 24 26 27
internal_count=455 305 294 150 93 76 57 239 41 53 198 45 176 155 145 90 31 22 23 30 55 26 36 20 21 59 40 55 35 23 28 24 26 27
is_linear=0
shrinkage=0.05


Tree=21
num_leaves=36
num_cat=0
split_feature=2 1 2 2 0 0 10 3 1 9 1 2 7 10 4 10 10 6 1 2 5 0 8 0 1 10 6 2 4 6 8 8 3 3 7
split_gain=21.3452 6.11609 2.24165 1.97304 1.48761 1.25052 1.18048 1.55282 1.16685 0.978079 1.29491 0.939244 0.876172 0.864776 0.734569 0.728567 0.512392 0.454822 0.444866 0.430164 0.422734 0.419434 0.439792 0.419033 1.05733 0.413857 0.408993 0.404877 0.339423 0.259877 0.222096 0.215179 0.10339 0.0734014 0.0573424
threshold=1999.5000000000002 70030.000000000015 1975.5000000000002 2007.5000000000002 3.5000000000000004 2.5000000000000004 5.0000000000000009 30.050000000000004 688047.50000000012 7.495000000000001 1032585.0000000001 1988.5000000000002 0.38333333350000004 17.000000000000004 14.716666665000002 9.5000000000000018 17.000000000000004 78.166666665000022 815355.00000000012 2005.5000000000002 12.351851850000001 6.5000000000000009 1.1833333335000003 10.000000000000002 176453.50000000003 8.0000000000000018 76.166665000000009 1988.5000000000002 14.416666665000003 74.666668335000011 1.1166666665000002 1.5416666665000003 28.916666665000005 30.116666665000004 0.65000000000000013
decision_type=2 2 2 2 2 2 2 2 2 2 2 2 2 2 2 2 2 2 2 2 2 2 2 2 2 2 2 2 2 2 2 2 2 2 2
left_child=1 -1 16 6 5 18 -2 15 25 10 14 17 -9 23 26 -8 21 -11 -4 32 -16 -3 -23 24 -5 31 -10 29 -29 -27 -13 -6 -17 -15 -30
right_child=3 2 4 13 8 -7 7 12 9 11 -12 30 -14 33 20 19 -18 -19 -20 -21 -22 22 -24 -25 -26 27 -28 28 34 -31 -32 -33 -34 -35 -36
leaf_value=0.027391765639185908 -0.0023010669648647307 -0.013048724576153539 0.00036059341886464282 0.0085792616754770245 -0.0032103112185723143 0.013181549459695817 -0.0037129466845230623 0.033561601963910184 -0.0060231245006434611 -0.01091478319140151 -0.025230707973241808 0.013369316086173054 0.014983158726245166 0.033680006936192504 -0.02052551738917827 0.01086387537885457 -0.011222302735979229 0.00165201491327025 -0.012543949233316776 0.019218843315849717 -0.007420728105353192 -0.018923928911487257 -0.031766125435630482 0.011659626802429558 0.028665464351836006 -0.016306171659380194 0.0061880247977872697 -0.0049985557498241004 -0.013256057202816005 -0.026859656125307087 0.0028313917072955519 -0.012891898744485595 0.0039800411788746713 0.027621895372867585 -0.018610607944428922
leaf_weight=11.999999999999998 14.999999999999998 10.999999999999998 17.000000000000004 10.000000000000002 12.000000000000002 14.999999999999998 10.999999999999998 11.000000000000002 16.000000000000004 18.000000000000004 10.999999999999998 10.000000000000002 14.999999999999998 10.000000000000002 10.000000000000002 10.000000000000002 19 11.999999999999998 10.999999999999998 10.999999999999998 15.999999999999998 15.000000000000002 11.999999999999998 15.999999999999998 19 14.000000000000002 11.999999999999998 11.000000000000002 10.000000000000002 9.9999999999999982 9.9999999999999982 10.999999999999998 11.999999999999998 9.9999999999999982 9.9999999999999982
leaf_count=12 15 11 17 10 12 15 11 11 16 18 11 10 15 10 10 10 19 12 11 11 16 15 12 16 19 14 12 11 10 10 10 11 12 10 10
internal_value=0 -0.0075947 -0.00902759 0.0154426 -0.00687827 0.00153186 0.0104279 0.0131556 -0.00875203 -0.0055502 -0.00959444 -0.000292697 0.0228433 0.0220001 -0.00640927 0.007431 -0.0179265 -0.00588806 -0.00470905 0.0111457 -0.012461 -0.0212786 -0.0246316 0.0181553 0.0217392 -0.0134727 -0.000789775 -0.0158279 -0.0120533 -0.0207035 0.00810035 -0.00784064 0.00710906 0.030651 -0.0159333
internal_weight=0 305 293 150 236 43 85 70 193 115 65 50 26 65 54 44 57 30 28 33 26 38 27 45 29 78 28 55 31 24 20 23 22 20 20
internal_count=455 305 293 150 236 43 85 70 193 115 65 50 26 65 54 44 57 30 28 33 26 38 27 45 29 78 28 55 31 24 20 23 22 20 20
is_linear=0
shrinkage=0.05


Tree=22
num_leaves=37
num_cat=0
split_feature=2 8 2 2 0 0 3 10 10 3 3 1 2 0 0 1 5 1 4 2 6 0 2 1 0 7 3 0 0 9 5 8 7 5 8 9
split_gain=19.3038 6.0032 2.18973 1.6286 1.32298 1.08299 1.03359 1.0281 0.780461 0.758832 1.5116 0.711396 0.622691 0.615791 0.82025 0.595625 0.45744 0.438195 0.438173 0.416932 0.548864 0.40318 0.360721 0.351191 0.328899 0.313012 0.288479 0.302784 0.277214 0.223228 0.173972 0.130636 0.104236 0.110627 0.0731344 0.0555911
threshold=1998.5000000000002 2.4666665000000005 2007.5000000000002 1975.5000000000002 3.5000000000000004 1.5000000000000002 30.950000000000003 17.000000000000004 17.000000000000004 28.466668335000005 28.916666665000005 768855.00000000012 1989.5000000000002 7.5000000000000009 6.5000000000000009 961222.50000000012 37.500000000000007 939730.00000000012 14.683333335000002 2010.5000000000002 79.333331665000017 3.5000000000000004 1988.5000000000002 1020730.0000000001 2.5000000000000004 0.68333333350000014 29.783333335000005 8.5000000000000018 8.5000000000000018 7.0300000000000002 11.166665000000002 1.2500000000000002 0.7166666665000001 7.8333333335000015 1.4666668335000002 7.6666668335000017
decision_type=2 2 2 2 2 2 2 2 2 2 2 2 2 2 2 2 2 2 2 2 2 2 2 2 2 2 2 2 2 2 2 2 2 2 2 2
left_child=1 3 6 17 5 -5 7 18 19 23 -11 13 24 14 -12 31 29 21 -2 28 -21 -1 35 -6 -7 -24 -20 -28 -4 -15 -23 -9 33 -31 -10 -13
right_child=2 -3 8 4 9 12 -8 15 34 10 11 22 -14 16 -16 -17 -18 -19 26 20 -22 30 25 -25 -26 -27 27 -29 -30 32 -32 -33 -34 -35 -36 -37
leaf_value=-0.010642132945358755 0.0096970505663193773 0.030376364588737489 0.01760990992188453 -0.013171027079224587 -0.0067662616819143279 -0.0056766722351312615 0.022194686746941167 0.015376246272935526 0.032141943573951712 -0.024681606941157952 -0.0093301665585707218 -0.0064116295061207229 0.016016234569251536 -0.015316612794995308 -0.025371782730023069 0.0053267512470483785 0.0015012455906253308 -0.0091266119852662086 0.0054528029901640754 0.014345439076423641 0.030911430101841688 -0.025814828835427756 -0.0052684215376810999 0.006180321205068718 0.0071471210941672324 0.0046411604372163613 -0.0086820660416448755 0.0028904815018177036 0.0070030471140688118 -0.0030139724885185171 -0.018319602310657501 0.023458216516301037 -0.011803872790187598 -0.010009058052673936 0.026094863116741182 -0.011049350622730951
leaf_weight=9.9999999999999982 15.999999999999998 9.9999999999999982 14.000000000000002 9.9999999999999982 10.000000000000002 10.000000000000004 12.999999999999998 10.000000000000002 10.000000000000002 15.999999999999998 17 14.000000000000002 9.9999999999999982 14.999999999999998 14.999999999999998 11.999999999999998 9.9999999999999982 13.999999999999998 13.999999999999998 10.000000000000002 9.9999999999999982 16.000000000000004 17 10.999999999999998 10 14.999999999999998 13.000000000000002 9.9999999999999982 10.999999999999998 13.000000000000002 14.999999999999998 9.9999999999999982 11.999999999999998 9.9999999999999982 9.9999999999999982 11.999999999999998
leaf_count=10 16 10 14 10 10 10 13 10 10 16 17 14 10 15 15 12 10 14 14 10 10 16 17 11 10 15 13 10 11 13 15 10 12 10 10 12
internal_value=0 -0.00769464 0.0137843 -0.00904468 -0.00717433 0.00107891 0.00906456 0.00705642 0.0209001 -0.00893974 -0.0100726 -0.00851431 0.00582889 -0.0112483 -0.0168497 0.0141333 -0.00826092 -0.0167641 0.00278359 0.0172476 0.0226284 -0.019372 -0.0041776 1.52817e-05 0.000735224 -0.000623305 -0.000206022 -0.00365052 0.0129429 -0.0102134 -0.0221881 0.0194172 -0.00802625 -0.00605531 0.0291184 -0.00855212
internal_weight=0 292 163 282 227 40 98 85 65 187 166 150 30 92 32 32 60 55 53 45 20 41 58 21 20 32 37 23 25 50 31 20 35 23 20 26
internal_count=455 292 163 282 227 40 98 85 65 187 166 150 30 92 32 32 60 55 53 45 20 41 58 21 20 32 37 23 25 50 31 20 35 23 20 26
is_linear=0
shrinkage=0.05


Tree=23
num_leaves=37
num_cat=0
split_feature=2 1 2 0 2 3 10 7 1 10 10 1 1 1 2 1 2 2 4 9 0 8 10 3 0 7 2 0 1 8 0 2 5 2 2 3
split_gain=17.4217 5.75683 1.97623 1.64839 1.35848 0.932815 0.927864 0.824108 0.780767 0.757523 0.704366 0.682106 0.604381 0.537551 0.526509 0.466258 0.457623 0.421118 0.395451 0.385459 0.5589 0.33048 0.278849 0.260352 0.273263 0.212229 0.15611 0.135362 0.309173 0.117899 0.0971398 0.0950947 0.0827764 0.0763802 0.0752851 0.0662448
threshold=1998.5000000000002 70030.000000000015 2007.5000000000002 3.5000000000000004 1974.5000000000002 30.950000000000003 17.000000000000004 0.81666650000000007 768855.00000000012 8.0000000000000018 17.000000000000004 939730.00000000012 1355615.0000000002 961222.50000000012 1987.5000000000002 668792.50000000012 1981.5000000000002 1983.5000000000002 14.683333335000002 5.983333333500001 10.000000000000002 1.1833333335000003 6.5000000000000009 29.783333335000005 8.5000000000000018 0.75000000000000011 2009.5000000000002 6.5000000000000009 388835.00000000006 1.2500000000000002 12.500000000000002 1993.5000000000002 15.833333335000001 1983.5000000000002 1982.5000000000002 30.116666665000004
decision_type=2 2 2 2 2 2 2 2 2 2 2 2 2 2 2 2 2 2 2 2 2 2 2 2 2 2 2 2 2 2 2 2 2 2 2 2
left_child=1 -1 5 7 11 6 18 17 9 21 19 25 14 29 30 27 -9 -3 -2 -4 26 -6 -16 -20 -25 -5 -21 -11 -29 -8 33 -24 -30 -10 -23 -12
right_child=2 3 10 4 8 -7 13 16 12 15 35 -13 -14 -15 22 -17 -18 -19 23 20 -22 34 31 24 -26 -27 -28 28 32 -31 -32 -33 -34 -35 -36 -37
leaf_value=0.028173647329888564 0.0092121979687362909 -0.011797259611388049 0.0094991561025381099 -0.019580799196329379 0.0011356393154445951 0.021084952429653362 0.014607434133067724 -0.00031057290732860554 -0.0079709286672166643 -0.008945758733898402 0.030540085583925236 -0.0077809363603591926 -0.017097099167294801 0.005060413697113594 -0.0057054929972554635 -0.024092501091460387 0.014815942123532294 -0.0004537622444331646 0.0051801625639200212 0.019606459736824025 0.0097660758625715965 -0.012643691897392268 0.0062855449146949315 -0.0082479627874608216 0.0027459574490785602 -0.02839612811803818 0.028238213739611884 -0.0095593527657911181 -0.022100993692874903 0.022285305410623554 -0.01090824785642326 0.00011311795096844435 -0.015667627193033697 -0.0025208464637398722 -0.0069634575795914453 0.02478488013148308
leaf_weight=10.999999999999998 15.999999999999998 14.999999999999998 13.999999999999998 18.000000000000004 10.999999999999998 12.999999999999998 10.000000000000002 10.000000000000002 18.000000000000004 13.999999999999998 10.000000000000002 9.9999999999999982 9.9999999999999982 11.999999999999998 12.999999999999998 11.999999999999998 9.9999999999999982 18 13.999999999999998 10.000000000000005 9.9999999999999982 10.000000000000002 13.000000000000002 13.000000000000002 9.9999999999999982 10.999999999999998 10.999999999999998 15.999999999999998 10.000000000000002 9.9999999999999982 15.999999999999998 11.999999999999998 9.9999999999999982 9.9999999999999982 13.999999999999998 9.9999999999999982
leaf_count=11 16 15 14 18 11 13 10 10 18 14 10 10 10 12 13 12 10 18 14 10 10 10 13 13 10 11 11 16 10 10 16 12 10 10 14 10
internal_value=0 -0.00730991 0.0130951 -0.00869895 -0.0105453 0.00861133 0.0067036 -0.000756093 -0.00879212 -0.0119219 0.0198551 -0.0190416 -0.00549228 0.0134266 -0.00407706 -0.0152417 0.00725268 -0.0056099 0.00264441 0.0163852 0.019495 -0.00604095 0.00023416 -0.000195721 -0.003468 -0.0229245 0.0241279 -0.0131175 -0.0147399 0.0184464 -0.00780039 0.00332278 -0.0188843 -0.00602447 -0.00933022 0.0276625
internal_weight=0 292 163 281 228 98 85 53 189 97 65 39 92 32 82 62 20 33 53 45 31 35 38 37 23 29 21 50 36 20 44 25 20 28 24 20
internal_count=455 292 163 281 228 98 85 53 189 97 65 39 92 32 82 62 20 33 53 45 31 35 38 37 23 29 21 50 36 20 44 25 20 28 24 20
is_linear=0
shrinkage=0.05


Tree=24
num_leaves=33
num_cat=0
split_feature=2 8 10 2 4 2 5 6 2 1 7 0 1 4 10 8 3 4 1 10 4 4 5 2 0 10 0 1 0 1 5 6
split_gain=15.7473 5.19746 1.59421 1.76431 1.78844 1.50218 1.01148 0.997146 0.992181 0.984367 0.995603 0.849652 1.07566 0.517119 0.518847 0.452275 0.424672 0.412294 0.397741 0.347441 0.537894 0.346527 0.328813 0.301831 0.294314 0.555272 0.290941 0.278931 0.266634 0.231306 0.188161 0.123816
threshold=1999.5000000000002 2.4666665000000005 50.000000000000007 2005.5000000000002 13.950000000000001 1976.5000000000002 24.166665000000005 82.833333335000006 1988.5000000000002 567340.00000000012 0.61666666650000013 10.000000000000002 859950.00000000012 15.883333335000001 17.000000000000004 1.6166666665000002 29.783333335000005 14.483333335000003 441986.00000000006 17.000000000000004 15.741666665000002 14.916666665000003 11.166665000000002 1983.5000000000002 6.5000000000000009 8.0000000000000018 10.000000000000002 329885.00000000006 7.5000000000000009 554897.50000000012 15.500000000000002 75.333331665000017
decision_type=2 2 2 2 2 2 2 2 2 2 2 2 2 2 2 2 2 2 2 2 2 2 2 2 2 2 2 2 2 2 2 2
left_child=1 5 3 15 27 19 16 8 13 26 11 12 -11 14 24 21 -6 -12 28 20 22 29 -1 -16 -7 -26 -10 -5 -18 -2 -15 -21
right_child=2 -3 -4 4 6 7 -8 -9 9 10 17 -13 -14 30 23 -17 18 -19 -20 31 -22 -23 -24 -25 25 -27 -28 -29 -30 -31 -32 -33
leaf_value=-0.025934359896928067 0.00012464164523407815 0.028927592895925048 0.032550783455371858 0.02314828641712665 0.024363925475627185 -0.0079422753610599202 -0.0022657743468880655 -0.021269965539686381 -0.013317804422010394 0.015129160834476347 0.015438731200993056 -0.012765850021193426 -0.0053234933907838752 -0.006948399698982634 -0.009178792892230881 0.013856909889727832 0.011179254128364844 0.0034508939716033638 0.0042012759763747449 -0.013009104738011954 -0.0095502159534953529 -0.0027108829578056056 -0.014704615131697872 0.00081947219486419977 -0.0095197483431547891 -0.021607937938288638 -0.0039239175526745388 0.034686307338151062 0.020458285659551621 0.0095194039278124511 0.0014516266087108913 -0.0056650506417182363
leaf_weight=16.000000000000004 10.000000000000002 9.9999999999999982 9.9999999999999982 10.000000000000002 9.9999999999999982 19 9.9999999999999982 9.9999999999999982 17 10.000000000000002 13.000000000000002 14.999999999999998 18 12.000000000000002 18.000000000000004 11.999999999999998 16.000000000000004 15.999999999999998 9.9999999999999982 12.000000000000002 14.999999999999998 17 10.999999999999998 12.999999999999998 19 19 15.999999999999998 10.999999999999998 14.999999999999998 19 14.999999999999998 10.999999999999998
leaf_count=16 10 10 10 10 10 19 10 10 17 10 13 15 18 12 18 12 16 16 10 12 15 17 11 13 19 19 16 11 15 19 15 11
internal_value=0 -0.00652324 0.0132639 0.0118863 0.0166069 -0.00772497 0.0122744 -0.0058282 -0.00512631 -0.00161225 0.00166526 -0.00316323 0.00198103 -0.00833479 -0.010192 0.00521229 0.0151254 0.00882475 0.0128721 -0.0144366 -0.0171418 0.00295718 -0.0213593 -0.00498597 -0.0130233 -0.0155638 -0.00876319 0.029192 0.0156691 0.00627983 -0.00228172 -0.00949673
internal_weight=0 305 150 140 82 295 61 230 220 105 72 43 28 115 88 58 51 29 41 65 42 46 27 31 57 38 33 21 31 29 27 23
internal_count=455 305 150 140 82 295 61 230 220 105 72 43 28 115 88 58 51 29 41 65 42 46 27 31 57 38 33 21 31 29 27 23
is_linear=0
shrinkage=0.05


Tree=25
num_leaves=34
num_cat=0
split_feature=2 1 1 3 0 4 10 2 10 1 4 3 1 1 0 0 0 1 1 1 0 2 2 2 6 3 0 6 8 10 9 1 9
split_gain=14.2443 5.09323 1.62566 1.49699 1.40289 1.14252 1.13108 1.02932 0.93797 0.833729 0.805953 0.761595 1.50437 0.920247 0.606716 0.745253 0.538811 0.518331 0.499298 0.439047 0.404756 0.342015 0.325715 0.453008 0.284229 0.345462 0.240898 0.209528 0.170735 0.168962 0.138093 0.101956 0.0540336
threshold=1998.5000000000002 70030.000000000015 483497.50000000006 30.850001665000004 4.5000000000000009 14.583333335000001 17.000000000000004 1974.5000000000002 8.0000000000000018 783808.00000000012 15.950000000000001 28.466668335000005 1066992.5000000002 768855.00000000012 7.5000000000000009 6.5000000000000009 12.500000000000002 710290.00000000012 237845.50000000003 644915.00000000012 15.500000000000002 1989.5000000000002 1983.5000000000002 1992.5000000000002 74.166665000000009 30.150000000000002 10.000000000000002 79.333331665000017 1.5833335000000004 6.5000000000000009 7.2540404040000004 633000.00000000012 7.6666668335000017
decision_type=2 2 2 2 2 2 2 2 2 2 2 2 2 2 2 2 2 2 2 2 2 2 2 2 2 2 2 2 2 2 2 2 2
left_child=1 -1 3 6 10 9 8 17 -2 -4 22 20 13 14 15 -13 19 -6 -8 -7 -9 32 31 -24 30 28 -19 -10 -26 -23 -16 -3 -15
right_child=2 4 5 -5 7 16 18 11 27 -11 -12 12 -14 21 24 -17 -18 26 -20 -21 -22 29 23 -25 25 -27 -28 -29 -30 -31 -32 -33 -34
leaf_value=0.026766028289090506 0.018440522496692008 -0.0051409341767430297 0.024521910534663627 0.029509796487057913 -0.025171746393399582 -0.003503279472616585 0.029378593806177369 -0.0057051626929583458 0.00085342698485443467 0.0066402425174601383 0.0073362295981496579 -0.0089717880920301574 -0.028394674770534041 -0.0051694622309046917 -0.016048798834284141 -0.023569852113723755 -0.0082311161599742874 -0.018096908435902805 0.01495496751740575 0.0091759161609742384 0.0076749203354120237 -0.0036041267300871275 0.0046614033123478288 -0.0083723247672120738 -0.004701347831481446 0.0021299431460316885 -0.0076327338984066798 0.0084942594184266289 -0.013547442890703679 0.004554357094069322 -0.0084633788637196016 -0.011658731562395892 -0.0099816617183387281
leaf_weight=10.999999999999998 18 10.000000000000002 11.000000000000002 17 13.999999999999998 11.000000000000002 12.000000000000002 13 19 15.999999999999998 18 17 9.9999999999999982 14.000000000000002 12.000000000000002 18 11.999999999999998 11.000000000000002 11.999999999999998 18 10 11.000000000000002 15.000000000000002 11.999999999999998 12.000000000000002 10.999999999999998 10.999999999999998 17 9.9999999999999982 14.999999999999998 11.999999999999998 14.999999999999998 9.9999999999999982
leaf_count=11 18 10 11 17 14 11 12 13 19 16 18 17 10 14 12 18 12 11 12 18 10 11 15 12 12 11 11 17 10 15 12 15 10
internal_value=0 -0.00660979 0.0118408 0.0160654 -0.00791631 0.00593885 0.0131353 -0.00995118 0.00912124 0.0139254 -0.00178264 -0.00836725 -0.00965034 -0.00833031 -0.0112977 -0.0164794 0.00067944 -0.0176508 0.0221668 0.00436657 0.000112265 -0.00287038 -0.00493918 -0.00113136 -0.00811592 -0.00510489 -0.0128648 0.0044616 -0.0087223 0.00110269 -0.0122561 -0.00905161 -0.00717455
internal_weight=0 292 163 95 281 68 78 211 54 27 70 175 152 142 92 35 41 36 24 29 23 50 52 27 57 33 22 36 22 26 24 25 24
internal_count=455 292 163 95 281 68 78 211 54 27 70 175 152 142 92 35 41 36 24 29 23 50 52 27 57 33 22 36 22 26 24 25 24
is_linear=0
shrinkage=0.05


Tree=26
num_leaves=38
num_cat=0
split_feature=2 8 10 2 2 0 6 2 0 4 0 3 4 1 0 0 2 3 1 9 0 10 2 5 4 0 6 3 2 6 2 9 6 4 4 9 1
split_gain=12.8631 4.65076 1.30708 1.48409 1.26151 0.978757 0.786572 0.780818 0.770647 0.662536 0.661622 0.659934 0.564107 0.560671 0.663661 0.906041 0.542762 0.538918 2.33156 0.483903 0.6254 0.455204 0.332847 0.302983 0.25058 0.24005 0.232843 0.341134 0.230356 0.156109 0.149723 0.132704 0.116174 0.0806394 0.0717074 0.0567698 0.0108975
threshold=1999.5000000000002 2.4666665000000005 50.000000000000007 2007.5000000000002 1972.5000000000002 3.5000000000000004 82.166666665000022 1995.5000000000002 1.5000000000000002 13.950000000000001 7.5000000000000009 30.416666665000005 15.183333335000002 768855.00000000012 7.5000000000000009 6.5000000000000009 1989.5000000000002 28.466668335000005 1059760.0000000002 5.983333333500001 10.000000000000002 17.000000000000004 1982.5000000000002 14.666668335000002 15.616665000000003 6.5000000000000009 74.166665000000009 29.983333335000001 1989.5000000000002 79.333331665000017 2009.5000000000002 7.2540404040000004 78.833333335000006 14.65 14.583333335000001 7.6666668335000017 921347.50000000012
decision_type=2 2 2 2 2 2 2 2 2 2 2 2 2 2 2 2 2 2 2 2 2 2 2 2 2 2 2 2 2 2 2 2 2 2 2 2 2
left_child=1 4 3 6 23 8 11 13 -6 -5 -9 21 -12 14 15 -7 24 22 28 -11 30 25 -15 34 -10 -2 31 32 35 -23 -21 -16 -28 -30 -1 36 -19
right_child=2 -3 -4 9 5 7 -8 10 16 19 12 -13 -14 17 26 -17 -18 18 -20 20 -22 29 -24 -25 -26 -27 27 -29 33 -31 -32 -33 -34 -35 -36 -37 -38
leaf_value=-0.022464986687356771 0.00809130363166332 0.027638916671276093 0.029451690092682836 0.025724132731556895 -0.010614214160225609 -0.0083068573265336464 -0.0040887230820953841 -0.0093017769822229934 -0.0041662898631050034 0.0044756894084540281 0.013946065710624676 0.017808770149325331 -0.0028483877168037001 -0.0047976531088352193 -0.015234536018509126 -0.024884255142772899 0.014397963434457779 -0.0034105717268010424 -0.028714672916314823 0.017117557749152176 0.0078035714176411808 0.016043499857187265 0.0081028742436319596 -0.010375099678834279 0.0060874251733449378 -0.0014793734289828297 -0.0054205583059228945 0.0014256594081719718 0.0035888039041310537 0.0072086412087082859 0.025401451500753566 -0.0083325484829644362 -0.012377998597609501 -0.0026149831838847607 -0.016614858219400046 -0.0088076417025149574 -0.005691162897273898
leaf_weight=11.000000000000002 10.000000000000002 9.9999999999999982 9.9999999999999982 14.999999999999998 10.999999999999998 15.999999999999998 14.999999999999998 11.999999999999998 13.000000000000002 10.999999999999998 10.000000000000002 14.999999999999998 9.9999999999999982 10.000000000000002 13.000000000000002 17 9.9999999999999982 11.000000000000002 10.999999999999998 10.000000000000002 12.999999999999998 10.000000000000002 9.9999999999999982 14.999999999999998 10.999999999999998 19 12.000000000000002 11.999999999999998 11.000000000000002 9.9999999999999982 11.999999999999998 14.999999999999998 11.999999999999998 9.9999999999999982 9.9999999999999982 11.999999999999998 9.9999999999999982
leaf_count=11 10 10 10 15 11 16 15 12 13 11 10 15 10 10 13 17 10 11 11 10 13 10 10 15 11 19 12 12 11 10 12 15 12 10 10 12 10
internal_value=0 -0.00589567 0.0119879 0.0107404 -0.00703243 -0.00581343 0.0062168 -0.0072229 0.000889404 0.0165989 -2.0142e-05 0.00863215 0.00554884 -0.00848932 -0.0110872 -0.0168467 0.00461116 -0.00552473 -0.00773314 0.0136233 0.0164983 0.00582299 0.00165261 -0.0158025 0.00053333 0.00182086 -0.00811737 -0.00545763 -0.00345912 0.0116261 0.021636 -0.011537 -0.00889928 0.00063462 -0.0196792 -0.00606423 -0.00449657
internal_weight=0 305 150 140 295 259 79 214 45 61 32 64 20 182 97 33 34 85 65 46 35 49 20 36 24 29 64 36 54 20 22 28 24 21 21 33 21
internal_count=455 305 150 140 295 259 79 214 45 61 32 64 20 182 97 33 34 85 65 46 35 49 20 36 24 29 64 36 54 20 22 28 24 21 21 33 21
is_linear=0
shrinkage=0.05


Tree=27
num_leaves=37
num_cat=0
split_feature=2 4 2 2 3 0 4 10 6 4 8 6 3 3 6 3 1 1 10 5 0 0 0 8 0 2 8 6 2 4 7 8 7 7 1 5
split_gain=11.628 4.6746 1.3609 1.11521 1.03138 0.892422 0.946902 0.829083 0.706233 0.628766 1.01948 0.815065 0.63046 0.589752 0.542348 0.6721 0.527009 0.485423 0.426566 0.425598 0.360434 0.353003 0.346438 0.323633 0.275067 0.246512 0.238114 0.224717 0.196469 0.138429 0.130544 0.168086 0.276685 0.0890734 0.0308048 0.0278698
threshold=1998.5000000000002 17.116666665000004 2010.5000000000002 1974.5000000000002 30.950000000000003 4.5000000000000009 15.950000000000001 17.000000000000004 78.833333335000006 13.350000000000003 0.95000000000000007 76.833333335000006 28.466668335000005 28.916666665000005 82.500000000000014 30.283333335000005 329885.00000000006 503102.50000000006 17.000000000000004 7.1666666665000003 6.5000000000000009 7.5000000000000009 6.5000000000000009 1.1833333335000003 1.5000000000000002 2004.5000000000002 1.1416666665000001 79.416666665000022 1983.5000000000002 14.283333335000002 0.55000000000000016 1.8500000000000003 0.61666666650000013 0.48333333350000002 893300.00000000012 21.166666665000005
decision_type=2 2 2 2 2 2 2 2 2 2 2 2 2 2 2 2 2 2 2 2 2 2 2 2 2 2 2 2 2 2 2 2 2 2 2 2
left_child=1 3 4 18 7 6 24 14 -4 11 -11 -7 -12 -14 15 19 -9 -6 20 33 -1 22 -15 -22 -5 -18 -23 -21 -26 -30 -28 32 -32 -2 35 -34
right_child=2 -3 8 5 17 9 -8 16 -10 10 12 -13 13 21 -16 -17 25 -19 -20 27 23 26 -24 -25 28 -27 30 -29 29 -31 31 -33 34 -35 -36 -37
