tree
version=v3
num_class=1
num_tree_per_iteration=1
label_index=0
max_feature_idx=10
objective=regression
feature_names=Column_0 Column_1 Column_2 Column_3 Column_4 Column_5 Column_6 Column_7 Column_8 Column_9 Column_10
feature_infos=[1:18] [15540:1541410] [1969:2013] [26.833333329999999:32.833333330000002] [11.66666667:18.93333333] [0:107.66670000000001] [65:91.333333330000002] [0.033333333:5.2999999999999998] [0.366666667:3.1000000000000001] [2.3666666670000001:9.6999999999999993] [3:63]
tree_sizes=3644 3513 3745 3670 3749 3690 3640 3628 3715 3514 3606 3629 3494 3280 3490 3559 3437 3564 3780 3761 3427 3572 3626 3669 3794 3658 3329 3650 3624 3697 3836 3685 3413 3490 3810 3476 3603 3816 3642 3826 3805 3565 3511 3958 3499 3837 3584 3706 3698 3801 3490 3476 3733 3870 3525 3738 3775 3639 3652 3755 3359 3659 3516 3784 3641 3648 3846 3458 3731 3459 3718 3552 3848 3597 3543 3533 3612 3689 3747 3985 3854 4032 3849 3896 3537 3792 3999 3635 3864 3483 3889 4026

Tree=0
num_leaves=36
num_cat=0
split_feature=2 1 2 7 3 10 0 0 1 1 1 1 4 10 1 2 2 10 10 9 4 2 2 4 5 3 4 10 3 9 7 2 10 4 4
split_gain=169.463 43.6046 15.3114 13.4428 8.72565 7.60887 6.61597 5.70287 6.82296 5.95604 4.49283 4.4041 4.06893 2.21017 1.97151 1.96821 1.79012 2.10006 1.73359 2.14337 1.54035 1.53489 1.1497 1.08201 1.05291 1.01508 0.899553 0.898494 0.779571 0.691694 0.486018 0.356725 0.297132 0.163313 0.130809
threshold=1998.5000000000002 243670.00000000003 1982.5000000000002 0.91666650000000016 30.950000000000003 17.000000000000004 3.5000000000000004 4.5000000000000009 703587.50000000012 797795.00000000012 539196.00000000012 769760.00000000012 14.683333335000002 8.0000000000000018 1329380.0000000002 1975.5000000000002 1988.5000000000002 6.5000000000000009 17.000000000000004 6.1500000000000012 15.016666665000001 2009.5000000000002 1989.5000000000002 16.041666665000005 0.50000000000000011 28.050000000000004 14.516666665000001 8.0000000000000018 29.783333335000005 7.3235632180000012 0.68333333350000014 1976.5000000000002 27.000000000000004 14.483333335000003 14.100000000000001
decision_type=2 2 2 2 2 2 2 2 2 2 2 2 2 2 2 2 2 2 2 2 2 2 2 2 2 2 2 2 2 2 2 2 2 2 2
left_child=1 -1 6 4 5 12 20 9 13 -4 -7 15 -2 -9 16 30 34 -18 19 -5 -3 -20 -15 -21 -14 -13 -24 -17 -26 -30 -8 -27 -19 -11 -10
right_child=3 2 7 18 -6 10 11 8 14 33 -12 25 24 22 -16 27 17 32 21 23 -22 -23 26 -25 28 31 -28 -29 29 -31 -32 -33 -34 -35 -36
leaf_value=0.063068233628419568 0.03437309663751878 -0.029128153247062805 0.019904882101561043 0.036764245378979286 0.071468081643068032 0.070450634691635344 -0.059116062700864419 -0.018966049153951333 -0.01546621147430614 -0.014669045837401603 0.030297687104803513 -0.022682445063920958 0.018784610981005673 -0.05420813752225713 -0.031911069386444252 -0.038367669016238802 -0.016197401139332535 0.015711016860985 0.056244853118036321 0.052706318467739453 -0.0042861056984009917 0.082102267016851152 -0.025843405338063768 0.073939235081159321 0.01149256310848717 -0.043923744489865267 -0.046563737372673317 -0.055401124487436573 -0.013926000128305709 0.0046709655236534696 -0.073346573541677756 -0.03348346653592265 0.0035222420293919659 -0.023705437312639514 -0.023553503359473506
leaf_weight=13.999999999999998 18 13.000000000000002 19 13.999999999999998 10.999999999999998 11.000000000000002 12.000000000000002 12.999999999999998 10.000000000000002 10.000000000000002 19 12.999999999999998 11.999999999999998 13.999999999999998 9.9999999999999982 15.000000000000002 12.999999999999998 10.000000000000002 11.000000000000002 15.000000000000002 11.999999999999998 11.999999999999998 11.000000000000002 9.9999999999999982 11.999999999999998 18 9.9999999999999982 15.999999999999998 10.000000000000002 9.9999999999999982 11.999999999999998 14.999999999999998 9.9999999999999982 9.9999999999999982 9.9999999999999982
leaf_count=14 18 13 19 14 11 11 12 13 10 10 19 13 12 14 10 15 13 10 11 15 12 12 11 10 12 18 10 16 10 10 12 15 10 10 10
internal_value=-4.27283e-10 -0.0230168 -0.0273834 0.0404537 0.0293811 0.024349 -0.0402328 -0.0165899 -0.0223687 -0.000142361 0.0450204 -0.045933 0.0143466 -0.0365706 -0.0115483 -0.0554815 -0.00770624 -0.000552534 0.0588485 0.0524279 -0.017204 0.0697357 -0.0431094 0.0611995 0.00615399 -0.0345163 -0.0357102 -0.0471591 0.00141751 -0.00462752 -0.0662313 -0.0391782 0.00961663 -0.0191872 -0.0195099
internal_weight=0 290 276 165 103 92 126 150 111 39 30 101 62 48 63 55 53 33 62 39 25 23 35 25 44 46 21 31 32 20 24 33 20 20 20
internal_count=455 290 276 165 103 92 126 150 111 39 30 101 62 48 63 55 53 33 62 39 25 23 35 25 44 46 21 31 32 20 24 33 20 20 20
is_linear=0
shrinkage=1


Tree=1
num_leaves=35
num_cat=0
split_feature=2 1 2 7 3 10 0 0 1 1 1 1 4 10 4 1 2 10 9 4 2 4 2 10 4 3 4 8 2 3 2 7 2 4
split_gain=152.94 39.3531 13.8186 12.1321 7.8749 6.86701 5.97091 5.14684 6.15772 5.37532 4.05478 3.9747 3.67221 1.99468 1.78668 2.24424 1.78661 1.56456 1.93439 1.39017 1.38523 1.34213 1.0376 1.00693 0.976513 0.916113 0.811847 0.75752 1.0923 0.636146 0.500167 0.416924 0.321945 0.14739
threshold=1998.5000000000002 243670.00000000003 1982.5000000000002 0.91666650000000016 30.950000000000003 17.000000000000004 3.5000000000000004 4.5000000000000009 703587.50000000012 797795.00000000012 539196.00000000012 769760.00000000012 14.683333335000002 8.0000000000000018 13.350000000000003 1058670.0000000002 1974.5000000000002 17.000000000000004 6.1500000000000012 15.016666665000001 2009.5000000000002 15.250000000000002 1989.5000000000002 6.5000000000000009 16.041666665000005 28.050000000000004 14.516666665000001 1.3166666665000002 2004.5000000000002 30.150000000000002 1991.5000000000002 0.68333333350000014 1976.5000000000002 14.483333335000003
decision_type=2 2 2 2 2 2 2 2 2 2 2 2 2 2 2 2 2 2 2 2 2 2 2 2 2 2 2 2 2 2 2 2 2 2
left_child=1 -1 6 4 5 12 19 9 13 -4 -7 16 -2 -9 -10 21 31 18 -5 -3 -19 30 -15 -18 -20 -13 -24 28 -14 -25 -16 -8 -27 -11
right_child=3 2 7 17 -6 10 11 8 14 33 -12 25 27 22 15 -17 23 20 24 -21 -22 -23 26 29 -26 32 -28 -29 -30 -31 -32 -33 -34 -35
leaf_value=0.059914821399641896 0.032654442824423313 -0.027671745304877933 0.018909637963301258 0.0349260329668011 0.067894676869565795 0.0669281019405885 -0.057456778938120047 -0.018017745934999909 0.0034606553032062951 -0.013935592677444215 0.028782802918239644 -0.021548322473581023 0.0033388555049896234 -0.051497729122638704 -0.0099845180287957153 -0.036900014607235791 -0.032294996790587907 0.053432611037384364 0.050071002542972559 -0.0040717998519539831 0.077997152755657828 -0.021113411197438838 -0.024551235003904857 -0.059319738795359914 0.070242274701595317 -0.041727557281653088 -0.044235549718141559 -0.002421659795457826 0.024164467006921771 -0.043039055665334065 0.0054659140380946079 -0.071563033461570738 -0.031809293627738953 -0.022520165294408798
leaf_weight=13.999999999999998 18 13.000000000000002 19 13.999999999999998 10.999999999999998 11.000000000000002 11.000000000000002 12.999999999999998 15.999999999999998 10.000000000000002 19 12.999999999999998 17.000000000000004 13.999999999999998 10.000000000000002 9.9999999999999982 9.9999999999999982 11.000000000000002 15.000000000000002 11.999999999999998 11.999999999999998 15.999999999999998 11.000000000000002 12.000000000000002 9.9999999999999982 18 9.9999999999999982 17 9.9999999999999982 11.999999999999998 10.999999999999998 9.9999999999999982 14.999999999999998 9.9999999999999982
leaf_count=14 18 13 19 14 11 11 11 13 16 10 19 13 17 14 10 10 10 11 15 12 12 16 11 12 10 18 10 17 10 12 11 10 15 10
internal_value=0 -0.0218659 -0.0260142 0.038431 0.027912 0.0231315 -0.0382212 -0.0157604 -0.0212503 -0.000135243 0.0427694 -0.0436364 0.0136293 -0.034742 -0.0109709 -0.0158837 -0.0527075 0.0559061 0.0498065 -0.0163438 0.0662489 -0.0102036 -0.0409539 -0.0456252 0.0581395 -0.0327905 -0.0339247 0.0058463 0.011052 -0.0511794 -0.00189143 -0.064174 -0.0372193 -0.0182279
internal_weight=0 290 276 165 103 92 126 150 111 39 30 101 62 48 63 47 55 62 39 25 23 37 35 34 25 46 21 44 27 24 21 21 33 20
internal_count=455 290 276 165 103 92 126 150 111 39 30 101 62 48 63 47 55 62 39 25 23 37 35 34 25 46 21 44 27 24 21 21 33 20
is_linear=0
shrinkage=0.05


Tree=2
num_leaves=37
num_cat=0
split_feature=2 1 2 7 3 10 0 0 1 1 1 1 4 10 1 2 2 10 10 0 8 4 2 2 10 3 4 8 2 3 7 9 2 10 4 4
split_gain=138.028 35.5162 12.4713 10.9492 7.10709 6.19747 5.38875 4.64502 5.55735 4.85123 3.65944 3.58717 3.31417 1.80019 1.69043 1.61242 1.54777 1.80644 1.41202 1.81578 1.86133 1.25462 1.25017 0.936438 0.908753 0.826792 0.732692 0.683662 0.985798 0.574121 0.376274 0.312149 0.439553 0.251602 0.133019 0.106395
threshold=1998.5000000000002 243670.00000000003 1982.5000000000002 0.91666650000000016 30.950000000000003 17.000000000000004 3.5000000000000004 4.5000000000000009 703587.50000000012 797795.00000000012 539196.00000000012 769760.00000000012 14.683333335000002 8.0000000000000018 1329380.0000000002 1974.5000000000002 1988.5000000000002 6.5000000000000009 17.000000000000004 4.5000000000000009 1.1666668335000001 15.016666665000001 2009.5000000000002 1989.5000000000002 6.5000000000000009 28.050000000000004 14.516666665000001 1.3166666665000002 2004.5000000000002 30.150000000000002 0.68333333350000014 7.3072578000000012 1976.5000000000002 27.000000000000004 14.483333335000003 14.100000000000001
decision_type=2 2 2 2 2 2 2 2 2 2 2 2 2 2 2 2 2 2 2 2 2 2 2 2 2 2 2 2 2 2 2 2 2 2 2 2
left_child=1 -1 6 4 5 12 21 9 13 -4 -7 15 -2 -9 16 30 35 -18 19 -5 -21 -3 -20 -15 -17 -13 -25 28 -14 -26 -8 -27 -33 -19 -11 -10
right_child=3 2 7 18 -6 10 11 8 14 34 -12 25 27 23 -16 24 17 33 22 20 -22 -23 -24 26 29 31 -28 -29 -30 -31 -32 32 -34 -35 -36 -37
leaf_value=0.056919081376067229 0.031021719198260047 -0.026288158389238203 0.017964156055332799 0.064528942379084506 0.064499942010099245 0.063581699945709905 -0.054583936929702738 -0.017116859325995812 -0.014193423003889616 -0.013238813802599904 0.027343663357590378 -0.020470906507510406 0.0031719127231661006 -0.048922844231128693 -0.029277727236039938 -0.03068024702370167 -0.014722858111445719 0.014826727751642461 0.050760980356823297 0.055439773574471468 0.02938962478656322 -0.0038682101837669812 0.074097297588984173 -0.023323672332546924 -0.056353752315044386 -0.027983357608318327 -0.042023771703243257 -0.0023005776216878612 0.022956242561340334 -0.040887103974819185 -0.067984883189201359 -0.045784271169792508 -0.031946924577156706 0.0036106153205037114 -0.021394156878814102 -0.021487090438604358
leaf_weight=13.999999999999998 18 13.000000000000002 19 10.999999999999998 10.999999999999998 11.000000000000002 11.000000000000002 12.999999999999998 10.000000000000002 10.000000000000002 19 12.999999999999998 17.000000000000004 13.999999999999998 9.9999999999999982 9.9999999999999982 12.999999999999998 10.000000000000002 11.000000000000002 12.000000000000002 15.999999999999998 11.999999999999998 11.999999999999998 11.000000000000002 12.000000000000002 9.9999999999999982 9.9999999999999982 17 9.9999999999999982 11.999999999999998 9.9999999999999982 11.000000000000002 11.999999999999998 9.9999999999999982 9.9999999999999982 9.9999999999999982
leaf_count=14 18 13 19 11 11 11 11 13 10 10 19 13 17 14 10 10 13 10 11 12 16 12 12 11 12 10 10 17 10 12 10 11 12 10 10 10
internal_value=0 -0.0207726 -0.0247135 0.0365095 0.0265164 0.0219749 -0.0363101 -0.0149724 -0.0201878 -0.000128481 0.0406309 -0.0414546 0.0129478 -0.0330049 -0.0104223 -0.0500721 -0.0068647 -0.00021284 0.0531108 0.0473161 0.040554 -0.0155266 0.0629365 -0.0389062 -0.0433439 -0.031151 -0.0322285 0.00555398 0.0104994 -0.0486204 -0.0609653 -0.0353583 -0.0385648 0.00921867 -0.0173165 -0.0178403
internal_weight=0 290 276 165 103 92 126 150 111 39 30 101 62 48 63 55 53 33 62 39 28 25 23 35 34 46 21 44 27 24 21 33 23 20 20 20
internal_count=455 290 276 165 103 92 126 150 111 39 30 101 62 48 63 55 53 33 62 39 28 25 23 35 34 46 21 44 27 24 21 33 23 20 20 20
is_linear=0
shrinkage=0.05


Tree=3
num_leaves=36
num_cat=0
split_feature=2 1 2 7 10 3 0 1 1 10 2 7 10 10 9 1 3 2 1 2 7 3 3 0 7 10 10 0 9 5 7 9 2 8 7
split_gain=124.994 32.2385 13.3606 8.54549 5.56464 7.95021 4.86335 4.30592 3.23742 2.98084 2.35584 2.91014 2.01906 1.69244 1.64092 1.63416 1.58493 1.4615 1.31455 1.21497 1.03474 0.856071 0.74618 0.691131 0.686569 1.07931 0.675221 0.591595 0.532363 0.46554 0.353603 0.281715 0.396697 0.238097 0.226599
threshold=1999.5000000000002 243670.00000000003 1982.5000000000002 0.91666650000000016 5.0000000000000009 30.516666665000006 3.5000000000000004 554897.50000000012 769760.00000000012 17.000000000000004 1989.5000000000002 0.78333333350000012 17.000000000000004 6.5000000000000009 6.1500000000000012 573365.00000000012 30.250000000000004 1975.5000000000002 797795.00000000012 1991.5000000000002 0.75000000000000011 29.866668335000004 28.050000000000004 4.5000000000000009 0.91666650000000016 27.000000000000004 8.0000000000000018 6.5000000000000009 6.1833335000000007 10.833333335000001 0.68333333350000014 7.3072578000000012 1976.5000000000002 1.3500000000000003 0.51666666650000004
decision_type=2 2 2 2 2 2 2 2 2 2 2 2 2 2 2 2 2 2 2 2 2 2 2 2 2 2 2 2 2 2 2 2 2 2 2
left_child=1 -1 6 4 -2 9 20 16 17 21 23 13 14 33 -5 -11 19 30 -15 -4 -3 34 -10 -9 25 -25 -19 -16 -14 -13 -8 -24 -33 -12 -6
right_child=3 2 7 12 5 -7 8 10 22 15 11 29 28 18 27 -17 -18 26 -20 -21 -22 -23 31 24 -26 -27 -28 -29 -30 -31 -32 32 -34 -35 -36
leaf_value=0.052902578910191858 0.0024934380134153701 -0.024523419800859227 -0.046515691032012293 0.031245069950819018 0.0033384693193842054 0.062398077547550203 -0.05076266353329021 -0.0069909490644931797 -0.019447360818202683 0.052957484424114215 -0.01424506232142448 0.020259295302358538 0.072529809474945042 0.010619149328424379 0.06130249513821167 0.0264932509112571 -0.0114904218504671 -0.032775680037836229 -0.010786356299649925 -0.02445287509606435 -0.0041626573617880545 0.025509049658748235 -0.026584189459681513 -0.022832269613680081 -0.030219338715753774 -0.0031520127953792161 -0.047541865706443788 0.045807481557130818 0.056589848074046045 0.0053532783873379234 -0.062900803983211517 -0.043495057387785467 -0.030349579453468323 -0.024905148114670407 0.013737966660410168
leaf_weight=14.999999999999998 18 13.000000000000002 12.000000000000002 13.999999999999998 11.000000000000002 18 12.000000000000002 14.999999999999998 12.999999999999998 10.000000000000002 10.000000000000002 11.000000000000002 10.000000000000002 13.000000000000002 11.000000000000002 13.999999999999998 9.9999999999999982 15.000000000000002 15.999999999999998 12.999999999999998 11.999999999999998 10.999999999999998 9.9999999999999982 19.000000000000004 10.999999999999998 10.999999999999998 15.999999999999998 13.999999999999998 10.999999999999998 9.9999999999999982 11.999999999999998 11.000000000000002 11.999999999999998 10.999999999999998 9.9999999999999982
leaf_count=15 18 13 12 14 11 18 12 15 13 10 10 11 10 13 11 14 10 15 16 13 12 11 10 19 11 11 16 14 11 10 12 11 12 11 10
internal_value=0 -0.0185613 -0.0222834 0.0370005 0.0274264 0.0334912 -0.0344946 -0.0127858 -0.0393818 0.0241997 -0.00850643 -0.00245852 0.0516808 -0.0090188 0.0449503 0.03752 -0.0283137 -0.0475685 -0.00119078 -0.035043 -0.0147503 0.0142094 -0.0295934 -0.0161743 -0.0195341 -0.0156162 -0.0403969 0.0526253 0.0641803 0.0131612 -0.0568317 -0.0335904 -0.0366365 -0.0198289 0.00829061
internal_weight=0 303 288 152 92 74 126 162 101 56 127 71 60 50 39 24 35 55 29 25 25 32 46 56 41 30 31 25 21 21 24 33 23 21 21
internal_count=455 303 288 152 92 74 126 162 101 56 127 71 60 50 39 24 35 55 29 25 25 32 46 56 41 30 31 25 21 21 24 33 23 21 21
is_linear=0
shrinkage=0.05


Tree=4
num_leaves=37
num_cat=0
split_feature=2 1 2 7 10 3 0 1 1 10 6 2 7 4 2 10 1 1 9 3 2 2 4 4 3 10 7 3 3 9 0 6 7 9 2 7
split_gain=112.807 29.0952 12.0579 7.71231 5.02208 7.17507 4.38917 3.8861 2.92177 2.69021 2.2303 2.2171 2.12437 2.21395 2.11838 1.8222 1.80323 1.51284 1.48093 1.4304 1.33175 1.09651 1.04323 0.854233 0.772604 0.77014 0.733909 0.673427 0.492096 0.480458 0.334868 0.711781 0.307981 0.254248 0.358019 0.204506
threshold=1999.5000000000002 243670.00000000003 1982.5000000000002 0.91666650000000016 5.0000000000000009 30.516666665000006 3.5000000000000004 554897.50000000012 769760.00000000012 17.000000000000004 82.833333335000006 1987.5000000000002 0.78333333350000012 14.316666665000001 1994.5000000000002 17.000000000000004 856561.00000000012 961222.50000000012 6.1500000000000012 30.250000000000004 1974.5000000000002 1991.5000000000002 15.016666665000001 16.041666665000005 29.866668335000004 6.5000000000000009 0.95000000000000007 28.050000000000004 30.150000000000002 6.1833335000000007 6.5000000000000009 77.833333335000006 0.68333333350000014 7.3072578000000012 1976.5000000000002 0.51666666650000004
decision_type=2 2 2 2 2 2 2 2 2 2 2 2 2 2 2 2 2 2 2 2 2 2 2 2 2 2 2 2 2 2 2 2 2 2 2 2
left_child=1 -1 6 4 -2 9 22 19 20 24 11 30 13 16 -15 18 -13 -11 -5 21 32 -4 -3 -20 35 -22 -14 -10 -27 -17 -9 -32 -8 -29 -35 -6
right_child=3 2 7 15 5 -7 8 10 27 17 -12 12 26 14 -16 29 -18 -19 23 -21 25 -23 -24 -25 -26 28 -28 33 -30 -31 31 -33 -34 34 -36 -37
leaf_value=0.05025745034217835 0.0023687660176720886 -0.023825889596572284 -0.04418990636865297 0.029682815181357521 0.0031715457158332512 0.059278173413541579 -0.049316608905792224 -0.010981912878068056 -0.018474992651205797 0.04625354366643087 -0.02959815037267452 0.020461503639817233 0.018333955894091297 -0.029344323215385271 -0.0023009308023444778 0.068903316259384131 -0.0069491786758104955 0.020790671724826099 0.042447575926780695 -0.010915901106782259 -0.02741751563473372 -0.023230231782564753 -0.0033818300774631407 0.061313693523406987 0.024233598075807095 -0.05109250520666439 0.0010755461894653062 -0.025254979431629184 -0.036773283531268436 0.053760353408076549 -0.029959278255701056 -0.011094223372638226 -0.061440597772598277 -0.041320304437117129 -0.028832099338372549 0.013051068615168332
leaf_weight=14.999999999999998 18 13.000000000000002 12.000000000000002 13.999999999999998 11.000000000000002 18 11.000000000000002 17 12.999999999999998 14.000000000000002 10.999999999999998 10.000000000000002 14.000000000000002 15.000000000000002 13.999999999999998 10.000000000000002 14.999999999999998 9.9999999999999982 15.000000000000002 9.9999999999999982 9.9999999999999982 12.999999999999998 11.999999999999998 9.9999999999999982 10.999999999999998 12.000000000000002 10.999999999999998 9.9999999999999982 11.999999999999998 10.999999999999998 10.000000000000002 9.9999999999999982 9.9999999999999982 11.000000000000002 11.999999999999998 9.9999999999999982
leaf_count=15 18 13 12 14 11 18 11 17 13 14 11 10 14 15 14 10 15 10 15 10 10 13 12 10 11 12 11 10 12 11 10 10 10 11 12 10
internal_value=0 -0.0176333 -0.0211692 0.0351505 0.0260551 0.0318166 -0.0327699 -0.0121465 -0.0374127 0.0229897 -0.00808111 -0.0060407 -0.00131005 -0.0068889 -0.0162889 0.0490968 0.00401509 0.035644 0.0427028 -0.026898 -0.0451901 -0.0332909 -0.0140127 0.049994 0.013499 -0.0390754 0.0107403 -0.0281138 -0.0439329 0.0609713 -0.0161413 -0.0205268 -0.0550899 -0.0319109 -0.0348047 0.00787608
internal_weight=0 303 288 152 92 74 126 162 101 56 127 116 79 54 29 60 25 24 39 35 55 25 25 25 32 34 25 46 24 21 37 20 21 33 23 21
internal_count=455 303 288 152 92 74 126 162 101 56 127 116 79 54 29 60 25 24 39 35 55 25 25 25 32 34 25 46 24 21 37 20 21 33 23 21
is_linear=0
shrinkage=0.05


Tree=5
num_leaves=37
num_cat=0
split_feature=2 1 2 2 10 0 0 1 1 10 1 10 1 0 1 10 0 8 2 2 4 0 4 1 2 10 1 2 2 8 7 0 0 1 4 4
split_gain=101.939 26.23 9.07625 8.21173 4.1421 3.96123 3.76086 4.27277 3.98036 3.47174 2.87447 2.98228 2.6369 1.67656 1.51407 1.42663 1.35741 1.37712 1.2019 1.13346 1.51415 1.00556 0.941512 0.901389 0.762304 0.695051 0.628763 0.666287 0.61967 0.420386 0.277953 0.277378 0.195108 0.178402 0.112106 0.0727838
threshold=1998.5000000000002 243670.00000000003 1982.5000000000002 2007.5000000000002 5.0000000000000009 3.5000000000000004 4.5000000000000009 703587.50000000012 797795.00000000012 17.000000000000004 236715.00000000003 8.0000000000000018 769760.00000000012 7.5000000000000009 1329380.0000000002 9.5000000000000018 4.5000000000000009 1.0666668335000002 1974.5000000000002 1988.5000000000002 15.250000000000002 6.5000000000000009 15.016666665000001 236715.00000000003 2004.5000000000002 6.5000000000000009 1140040.0000000002 1975.5000000000002 1988.5000000000002 1.2500000000000002 0.68333333350000014 13.500000000000002 8.5000000000000018 905302.50000000012 14.483333335000003 14.100000000000001
decision_type=2 2 2 2 2 2 2 2 2 2 2 2 2 2 2 2 2 2 2 2 2 2 2 2 2 2 2 2 2 2 2 2 2 2 2 2
left_child=1 -1 5 4 -2 22 8 13 -4 16 -6 -12 18 21 19 -13 -5 -18 30 35 32 -8 -3 -19 31 -20 27 -14 -15 -27 -7 -17 -21 -29 -10 -9
right_child=3 2 6 9 10 12 7 14 34 -11 11 15 26 28 -16 24 17 23 25 20 -22 -23 -24 -25 -26 29 -28 33 -30 -31 -32 -33 -34 -35 -36 -37
leaf_value=0.048915126627045023 -1.1486154707039104e-05 -0.022634595345992305 0.01681683053213515 0.053424337099898946 0.050878846171227371 -0.046850776672363266 -0.028704964891076087 -0.012067547142505642 -0.011397139802575108 0.064004540940125795 0.040498526747289459 0.0013983362185006794 -0.040302052145654507 -0.030209092050790778 -0.026903110500425098 0.012054866262977674 0.047938063334334979 0.036263762228190888 -0.026046640742570161 0.012313761450350281 -0.016241847798228265 -0.051127751767635336 -0.0032127383863553407 0.016883905914922556 0.031690202313117109 -0.049566080570220931 -0.016868346246580283 -0.020319527238607402 -0.01497878961484222 -0.036143513875348227 -0.058368568420410161 0.021691875958640597 0.0030240974747217618 -0.02920258320294894 -0.018884004971478137 -0.018100118637084963
leaf_weight=13.999999999999998 17 13.000000000000002 19 10.999999999999998 10.999999999999998 11.000000000000002 10 10.000000000000002 10.000000000000002 18 19 10.999999999999998 10.999999999999998 11.000000000000002 9.9999999999999982 14.000000000000002 10.999999999999998 12.000000000000002 9.9999999999999982 10.000000000000002 9.9999999999999982 10 11.999999999999998 11.999999999999998 12.999999999999998 10.000000000000002 11.999999999999998 10.000000000000002 17 13.999999999999998 9.9999999999999982 15.999999999999998 12.999999999999998 12.999999999999998 9.9999999999999982 9.9999999999999982
leaf_count=14 17 13 19 11 11 11 10 10 10 18 19 11 11 11 10 14 11 12 10 10 10 10 12 12 13 10 12 10 17 14 10 16 13 13 10 10
internal_value=0 -0.0178516 -0.0212384 0.0313756 0.0224964 -0.0311314 -0.0129282 -0.0176211 0.000428419 0.0453881 0.0270516 0.0234612 -0.0355421 -0.0288597 -0.00905834 0.0174665 0.0381034 0.0332883 -0.0429306 -0.0056914 9.8193e-07 -0.0399164 -0.0133121 0.0265738 0.021577 -0.0371217 -0.0267081 -0.0301809 -0.0209621 -0.0417362 -0.0523354 0.0171946 0.00706308 -0.0253404 -0.0151406 -0.0150838
internal_weight=0 290 276 165 101 126 150 111 39 64 84 73 101 48 63 54 46 35 55 53 33 20 25 24 43 34 46 34 28 24 21 30 23 23 20 20
internal_count=455 290 276 165 101 126 150 111 39 64 84 73 101 48 63 54 46 35 55 53 33 20 25 24 43 34 46 34 28 24 21 30 23 23 20 20
is_linear=0
shrinkage=0.05


Tree=6
num_leaves=36
num_cat=0
split_feature=2 1 2 7 10 3 0 1 1 10 6 3 4 10 1 0 8 3 0 2 2 2 8 4 8 10 3 1 2 1 3 10 2 7 1
split_gain=92.157 23.6663 9.78067 6.33062 4.17942 6.14657 3.57501 3.23602 2.3798 2.37332 1.91093 1.92541 1.61382 1.46518 1.2763 1.271 1.54935 1.1866 1.1784 1.56704 1.08472 0.895459 0.869794 0.849715 0.684034 0.627283 0.582344 0.567458 0.601324 0.522242 0.42963 0.410443 0.376821 0.250853 0.161008
threshold=1999.5000000000002 243670.00000000003 1982.5000000000002 0.91666650000000016 5.0000000000000009 30.516666665000006 3.5000000000000004 554897.50000000012 769760.00000000012 17.000000000000004 82.833333335000006 30.766668335000002 13.683333335000002 17.000000000000004 961222.50000000012 4.5000000000000009 1.1666668335000001 30.250000000000004 3.5000000000000004 1996.5000000000002 1974.5000000000002 1991.5000000000002 1.0666668335000002 15.016666665000001 1.3500000000000003 6.5000000000000009 29.866668335000004 1140040.0000000002 1975.5000000000002 777170.00000000012 30.150000000000002 34.500000000000007 1989.5000000000002 0.68333333350000014 905302.50000000012
decision_type=2 2 2 2 2 2 2 2 2 2 2 2 2 2 2 2 2 2 2 2 2 2 2 2 2 2 2 2 2 2 2 2 2 2 2
left_child=1 -1 6 4 -2 9 23 17 20 24 11 12 -9 15 -11 -5 -17 21 -14 22 33 -4 -20 -3 26 -22 -6 28 -10 -24 -27 -15 -31 -8 -30
right_child=3 2 7 13 5 -7 8 10 27 14 -12 -13 18 31 -16 16 -18 -19 19 -21 25 -23 29 -25 -26 30 -28 -29 34 32 -32 -33 -34 -35 -36
leaf_value=0.045292275401006922 0.0019223444629460574 -0.021502864991243063 -0.040133847296237937 0.053073753416538243 0.0088328389287926235 0.054203511940108411 -0.044508239085024041 0.0049204369908884956 -0.038286950100551956 0.042247025455747322 -0.027207894593646583 0.0096284800002144448 0.0013042011857032777 0.062385391891002631 0.018859284410718831 0.046596331056207412 0.022829362051561476 -0.0099054627656005329 -0.030346432074227117 0.0029076178642836485 -0.024744308721274141 -0.021192948871220536 -0.021659670583903792 -0.003052102025443067 0.0022646705231939754 -0.046339212854703257 0.025896596796810629 -0.016024928695211809 -0.019303551018238062 -0.016680221554512775 -0.032959661260247235 0.048389208316802983 -0.0046057152362274272 -0.055450140535831451 -0.027742454180350675
leaf_weight=14.999999999999998 18 13.000000000000002 12.000000000000002 10.999999999999998 10.000000000000002 18 11.000000000000002 19 10.999999999999998 14.000000000000002 10.999999999999998 18 14.999999999999998 10.000000000000002 9.9999999999999982 12.000000000000002 15.999999999999998 9.9999999999999982 10.999999999999998 10.999999999999998 9.9999999999999982 12.999999999999998 15.999999999999998 11.999999999999998 11.999999999999998 12.000000000000002 9.9999999999999982 11.999999999999998 10.000000000000002 12.000000000000002 11.999999999999998 10.999999999999998 13.999999999999998 9.9999999999999982 12.999999999999998
leaf_count=15 18 13 12 11 10 18 11 19 11 14 11 18 15 10 10 12 16 10 11 11 10 13 16 12 12 12 10 12 10 12 12 11 14 10 13
internal_value=0 -0.0159378 -0.0191269 0.0317708 0.0235303 0.0287863 -0.0295748 -0.0110007 -0.033765 0.0206165 -0.00729092 -0.00540224 -0.00816299 0.0444062 0.0325021 0.0386727 0.0330152 -0.024462 -0.0113096 -0.014266 -0.040784 -0.0302846 -0.0178303 -0.0126465 0.0117022 -0.0352656 0.0173647 -0.0253727 -0.0286719 -0.0145523 -0.0396494 0.0550541 -0.0101786 -0.0497187 -0.0240734
internal_weight=0 303 288 152 92 74 126 162 101 56 127 116 98 60 24 39 28 35 79 64 55 25 53 25 32 34 20 46 34 42 24 21 26 21 23
internal_count=455 303 288 152 92 74 126 162 101 56 127 116 98 60 24 39 28 35 79 64 55 25 53 25 32 34 20 46 34 42 24 21 26 21 23
is_linear=0
shrinkage=0.05


Tree=7
num_leaves=36
num_cat=0
split_feature=2 1 2 7 3 9 3 10 9 1 1 7 1 7 1 0 10 9 6 10 3 9 8 1 6 2 5 1 8 1 0 5 9 9 7
split_gain=83.1717 21.4722 10.2212 5.71339 5.108 4.00578 3.79854 3.75284 3.23389 2.4124 2.30559 2.21225 1.68441 1.39509 1.39576 1.46668 1.32232 1.1961 1.16651 1.03552 1.70945 0.906983 0.848776 0.74905 0.905157 0.626968 0.604341 0.46788 0.465633 0.709743 0.427778 0.418745 0.371755 0.1689 0.0964428
threshold=1999.5000000000002 76185.000000000015 1989.5000000000002 0.91666650000000016 30.766668335000002 7.495000000000001 30.833331665000003 17.000000000000004 6.8385057470000001 577210.00000000012 539196.00000000012 0.78333333350000012 539196.00000000012 0.86666683350000007 872825.00000000012 10.000000000000002 17.000000000000004 6.0166666665000008 71.833333335000006 6.5000000000000009 29.866668335000004 6.855172414000001 1.0166666665000001 568955.00000000012 78.833333335000006 1983.5000000000002 13.666666665000003 695692.50000000012 1.4666668335000002 856561.00000000012 6.5000000000000009 20.166666665000005 6.1833335000000007 7.3072578000000012 0.51666666650000004
decision_type=2 2 2 2 2 2 2 2 2 2 2 2 2 2 2 2 2 2 2 2 2 2 2 2 2 2 2 2 2 2 2 2 2 2 2
left_child=1 -1 5 6 9 8 7 19 25 31 -9 21 -7 14 15 -10 17 -5 -14 22 34 -11 -2 -20 28 -3 -23 -17 29 -25 -19 -4 -18 -16 -21
right_child=3 2 4 16 -6 12 -8 10 13 11 -12 -13 18 -15 33 27 32 30 23 20 -22 26 -24 24 -26 -27 -28 -29 -30 -31 -32 -33 -34 -35 -36
leaf_value=0.053436704928224735 0.012470041012222113 -0.022526892613280898 -0.017265958411319709 0.024355818789738876 0.018714080201952081 -0.034810484270565212 0.049923396110534674 0.052880415469408019 -0.05227620240587455 0.00029139750852034643 0.022623937856405974 0.012102732832233112 -0.030866990238428118 -0.049583328608423474 -0.018316654251380394 -0.037633739092520296 0.059278616607189166 0.050420065901496183 5.1277466118335726e-05 0.0043169755022972808 0.031659905829777318 -0.009355648271739481 -0.0071719305251132367 -0.0083817926267834592 -0.0054238459585528621 -0.0052284958213567739 -0.024785284003750845 -0.023853807862509381 -0.025625177323818207 -0.023392300241227664 0.037438590203722318 -0.030302266810428014 0.04595839191566814 -0.02729503601789475 0.011261137407273055
leaf_weight=10.999999999999998 11.000000000000002 11.000000000000002 14.000000000000002 12.999999999999998 19 11.999999999999998 10.999999999999998 10.000000000000002 12.999999999999998 12.999999999999998 17 14.999999999999998 9.9999999999999982 15.999999999999998 11.000000000000002 14.000000000000002 10.000000000000002 11.000000000000002 9.9999999999999982 10.000000000000002 11.999999999999998 15.000000000000002 10.999999999999998 18 19 9.9999999999999982 10.999999999999998 10.999999999999998 14.999999999999998 13.999999999999998 14.999999999999998 10.999999999999998 10.999999999999998 9.9999999999999982 9.9999999999999982
leaf_count=11 11 11 14 13 19 12 11 10 13 13 17 15 10 16 11 14 10 11 10 10 12 15 11 18 19 10 11 11 15 14 15 11 11 10 10
internal_value=0 -0.0151409 -0.0177243 0.0301822 -0.0045625 -0.0243731 0.0223538 0.0186098 -0.0316323 -0.0101607 0.03383 -0.00421562 -0.017262 -0.0364883 -0.0329371 -0.0386541 0.0421859 0.0367391 -0.0148134 0.0109996 0.0167406 -0.0104919 0.00264906 -0.0127011 -0.0146333 -0.0142896 -0.0158836 -0.0315706 -0.0183562 -0.0149489 0.0429308 -0.0230019 0.0523014 -0.0225921 0.00778906
internal_weight=0 303 292 152 98 194 92 81 96 79 27 54 98 75 59 38 60 39 86 54 32 39 22 76 66 21 26 25 47 32 26 25 21 21 20
internal_count=455 303 292 152 98 194 92 81 96 79 27 54 98 75 59 38 60 39 86 54 32 39 22 76 66 21 26 25 47 32 26 25 21 21 20
is_linear=0
shrinkage=0.05


Tree=8
num_leaves=37
num_cat=0
split_feature=2 1 2 2 3 10 0 1 1 0 10 4 1 1 0 4 1 0 3 2 4 0 4 4 3 10 1 2 2 3 7 2 1 7 3 1
split_gain=75.0959 19.7383 6.57826 6.27765 3.9003 3.51334 3.06777 3.36726 3.24088 2.93933 2.62363 2.48125 2.14885 1.99394 1.44402 1.28604 1.70688 0.997681 1.32271 0.962388 0.843134 0.820931 0.73666 0.591596 0.957977 0.543028 0.482121 0.525725 0.465205 0.374088 0.264685 0.252769 0.238839 0.204578 0.142621 0.132689
threshold=1998.5000000000002 243670.00000000003 1982.5000000000002 2007.5000000000002 30.950000000000003 17.000000000000004 4.5000000000000009 797795.00000000012 703587.50000000012 3.5000000000000004 17.000000000000004 14.283333335000002 539196.00000000012 769760.00000000012 7.5000000000000009 13.350000000000003 1058670.0000000002 4.5000000000000009 30.683333335000004 1974.5000000000002 15.250000000000002 6.5000000000000009 15.016666665000001 14.916666665000003 29.783333335000005 6.5000000000000009 1140040.0000000002 1975.5000000000002 1988.5000000000002 30.150000000000002 1.6583333335000001 1991.5000000000002 975852.50000000012 0.68333333350000014 30.416665000000005 905302.50000000012
decision_type=2 2 2 2 2 2 2 2 2 2 2 2 2 2 2 2 2 2 2 2 2 2 2 2 2 2 2 2 2 2 2 2 2 2 2 2
left_child=1 -1 9 4 5 11 7 -4 14 22 17 -2 -7 19 21 -10 20 -5 30 33 31 -8 -3 -13 -25 -21 27 -15 -16 -27 -19 -17 -14 -11 -9 -29
right_child=3 2 6 10 -6 12 8 34 15 13 -12 23 32 26 28 16 -18 18 -20 25 -22 -23 -24 24 -26 29 -28 35 -30 -31 -32 -33 -34 -35 -36 -37
leaf_value=0.042596416787377432 0.0288909529843791 -0.019578677415847776 0.015951622404942387 0.045983435755426239 0.04473005154958138 0.046331276947801765 -0.02534276932477951 -0.0092194383824244115 0.0042776481132023036 -0.040616876157847308 0.055364858110745756 0.011808585072867573 0.024021145173658921 -0.034831134907223962 -0.025894023376432325 -0.0063457344379276017 -0.030462588444352151 0.027815209627151477 0.042177306255325675 -0.021919308342039586 -0.015827666968107224 -0.045602713227272024 -0.0023991472650474561 0.0092493195659839184 -0.0083653358399475887 -0.042029736191034311 -0.014183499609741072 -0.017210953831672662 -0.012697782718083439 -0.029544951642553014 0.016995226620481568 0.0046378679488870232 0.013558449363335967 -0.050498154163360599 -0.017663983404636385 -0.024871857464313508
leaf_weight=13.999999999999998 10.999999999999998 13.000000000000002 19 10.999999999999998 12.999999999999998 10.999999999999998 10 10.000000000000002 15.999999999999998 11.000000000000002 18 11.999999999999998 12.000000000000002 10.999999999999998 11.000000000000002 10.000000000000002 9.9999999999999982 10.000000000000002 11.999999999999998 9.9999999999999982 15.999999999999998 10 11.999999999999998 12.999999999999998 19 12.000000000000002 11.999999999999998 10.000000000000002 17 11.999999999999998 12.999999999999998 10.999999999999998 9.9999999999999982 9.9999999999999982 9.9999999999999982 12.999999999999998
leaf_count=14 11 13 19 11 13 11 10 10 16 11 18 12 12 11 11 10 10 10 12 10 16 10 12 13 19 12 12 10 17 12 13 11 10 10 10 13
internal_value=0 -0.015322 -0.0182599 0.0269296 0.0191661 0.0153896 -0.0111851 0.000878118 -0.0154236 -0.0266822 0.0391813 0.00765097 0.0282873 -0.0304816 -0.0252115 -0.00796614 -0.0121342 0.0328486 0.0287205 -0.0369065 -0.00718063 -0.0354727 -0.0113325 0.00234097 -0.00120938 -0.0317085 -0.0227997 -0.0258408 -0.017882 -0.0357873 0.0216996 -0.000592419 0.0192654 -0.0453222 -0.0134417 -0.021541
internal_weight=0 290 276 165 101 88 150 39 111 126 64 55 33 101 48 63 47 46 35 55 37 20 25 44 32 34 46 34 28 24 23 21 22 21 20 23
internal_count=455 290 276 165 101 88 150 39 111 126 64 55 33 101 48 63 47 46 35 55 37 20 25 44 32 34 46 34 28 24 23 21 22 21 20 23
is_linear=0
shrinkage=0.05


Tree=9
num_leaves=35
num_cat=0
split_feature=2 1 2 7 3 0 10 3 1 1 7 10 3 2 4 10 10 7 9 1 7 2 4 8 4 2 6 8 9 1 10 1 9 1
split_gain=67.8837 17.7192 8.492 4.63153 4.4256 3.36899 3.20854 4.89171 2.88554 2.04171 1.90883 1.80867 1.78878 1.47993 1.10823 1.08575 1.04437 1.02143 0.992193 0.981132 0.879735 0.800245 0.737854 0.65023 0.63076 0.544053 0.540627 0.528387 0.690531 0.493176 0.348865 0.317779 0.168044 0.0970535
threshold=1999.5000000000002 76185.000000000015 1989.5000000000002 0.91666650000000016 30.766668335000002 4.5000000000000009 5.0000000000000009 30.516666665000006 724942.50000000012 577210.00000000012 0.78333333350000012 17.000000000000004 29.016666665000006 1976.5000000000002 14.316666665000001 27.000000000000004 17.000000000000004 1.2666668335000002 6.0166666665000008 961222.50000000012 0.96666683350000016 1993.5000000000002 16.041666665000005 1.0666668335000002 15.083333335000001 1981.5000000000002 75.333331665000017 1.3500000000000003 7.0833333335000006 1063117.5000000002 34.500000000000007 633000.00000000012 7.495000000000001 872825.00000000012
decision_type=2 2 2 2 2 2 2 2 2 2 2 2 2 2 2 2 2 2 2 2 2 2 2 2 2 2 2 2 2 2 2 2 2 2
left_child=1 -1 5 6 9 17 -2 11 12 24 14 27 -7 15 -11 -10 18 25 -5 -13 29 -16 -20 -14 -4 31 32 28 -8 33 -18 -3 -25 -15
right_child=3 2 4 16 -6 8 7 -9 13 10 -12 19 23 20 21 -17 30 -19 22 -21 -22 -23 -24 26 -26 -27 -28 -29 -30 -31 -32 -33 -34 -35
leaf_value=0.048618072271347047 0.0012865673155627319 -0.014112367781732849 -0.014568326560159521 0.021956088350942503 0.017637436709513791 -0.046579478288951676 0.024021564573049537 0.047499110715256802 -0.038628283409135676 -1.1966771939221551e-05 0.011387847737253955 0.036455991970641262 -0.037428587621876168 -0.011416630726307629 -0.027455600341781967 -0.018561335767690951 0.05382387191057203 0.0035050121555104856 0.032214817874773864 0.015950260646641255 -0.024293133709579709 -0.0083041276782751094 0.04952820241451264 -0.033661657124757757 -0.030779953710734845 -0.0076887336230891598 -0.014863196760416031 0.0014595416529724996 0.0054402398690581322 -0.00076590406242758044 0.040920234742489736 -0.026180875524878501 -0.025040325293174161 -0.017695801183581352
leaf_weight=10.999999999999998 18 12.000000000000002 15.000000000000002 12.999999999999998 19 19 10.000000000000002 18 14.000000000000002 17 14.999999999999998 14.000000000000002 13.999999999999998 16.000000000000004 10.000000000000002 12.999999999999998 10.000000000000002 9.9999999999999982 16.000000000000004 9.9999999999999982 15.999999999999998 11.999999999999998 9.9999999999999982 10.000000000000002 9.9999999999999982 17 9.9999999999999982 11.999999999999998 9.9999999999999982 9.9999999999999982 10.999999999999998 9.9999999999999982 12.999999999999998 9.9999999999999982
leaf_count=11 18 12 15 13 19 19 10 18 14 17 15 14 14 16 10 13 10 10 16 10 16 12 10 10 10 17 10 12 10 10 11 10 13 10
internal_value=0 -0.0136788 -0.0160256 0.0272676 -0.00402862 -0.0220859 0.0202191 0.0248244 -0.0259162 -0.00923944 -0.00377021 0.0175361 -0.0336331 -0.0194692 -0.00960023 -0.0289664 0.0380752 -0.0107513 0.0332346 0.0279119 -0.0145379 -0.0170093 0.0388738 -0.0283994 -0.021053 -0.0144068 -0.0245689 0.00975414 0.0147309 -0.0102023 0.0470648 -0.0195981 -0.0287887 -0.0138317
internal_weight=0 303 292 152 98 194 92 74 145 79 54 56 66 79 39 27 60 49 39 24 52 22 26 47 25 39 33 32 20 36 21 22 23 26
internal_count=455 303 292 152 98 194 92 74 145 79 54 56 66 79 39 27 60 49 39 24 52 22 26 47 25 39 33 32 20 36 21 22 23 26
is_linear=0
shrinkage=0.05


Tree=10
num_leaves=36
num_cat=0
split_feature=2 1 2 7 3 9 0 1 1 0 2 1 0 4 4 4 5 1 5 9 7 8 3 4 4 3 1 0 6 0 5 3 2 5 2
split_gain=61.265 16.2051 6.54965 4.17996 2.91288 2.43249 2.3793 2.63897 2.47927 2.19422 2.18036 1.9648 1.76246 1.64275 1.22898 1.21468 1.25291 1.21375 0.953332 0.892674 0.72514 0.712328 0.696343 0.686826 0.606733 0.54577 0.504126 0.857505 0.415702 0.41503 0.355318 0.344051 0.217189 0.187482 0.128188
threshold=1999.5000000000002 243670.00000000003 1984.5000000000002 0.91666650000000016 30.833331665000003 7.495000000000001 4.5000000000000009 644915.00000000012 797795.00000000012 13.500000000000002 1995.5000000000002 724942.50000000012 15.500000000000002 13.350000000000003 15.616665000000003 14.916666665000003 9.1666666665000012 1045747.5000000001 22.833333335000003 7.3072578000000012 0.78333333350000012 1.4166665000000001 29.016666665000006 14.350000000000003 14.65 29.983333335000001 287033.00000000006 7.5000000000000009 71.833333335000006 7.5000000000000009 6.6666668335000017 29.850000000000005 1974.5000000000002 13.666666665000003 1979.5000000000002
decision_type=2 2 2 2 2 2 2 2 2 2 2 2 2 2 2 2 2 2 2 2 2 2 2 2 2 2 2 2 2 2 2 2 2 2 2
left_child=1 -1 5 4 9 11 8 20 -4 15 13 22 -11 -9 28 16 -2 24 23 32 29 25 -3 -5 -15 -17 -25 -28 -7 -8 -30 -26 -13 -32 -24
right_child=3 2 6 18 -6 14 7 10 -10 12 -12 19 -14 17 -16 21 -18 -19 -20 -21 -22 -23 34 26 31 -27 27 -29 30 -31 33 -33 -34 -35 -36
leaf_value=0.03767210935552915 0.0099213031306862806 -0.046317040707383843 0.016928738059804722 0.050291933119297028 0.043350767615166583 -0.02842960894107819 -0.025264285908391072 0.0074759148992598057 -0.010074887238442898 0.044778912365436546 0.0094765385284143345 -0.022127828545247509 0.016858513194781082 -0.0014227238483726979 -0.0020284050054704913 0.002112321555614471 0.032769596483558421 -0.030297116413712501 0.023566296141749869 -0.031541687715798621 -0.034095079302787781 -0.0046622596824398409 -0.035869155959649505 0.045651587545871737 -0.02171757139942862 0.018631559014320374 0.042472021530071881 0.024539808010061583 -0.0088817913981620224 -0.012788856700062752 -0.025350684206932775 -0.0099010123380659423 -0.013443776220083237 -0.016811965602553554 -0.028235869177363138
leaf_weight=14.999999999999998 15.000000000000002 13.999999999999998 17 10.999999999999998 10.999999999999998 9.9999999999999982 12.000000000000002 9.9999999999999982 17 10.000000000000002 17 12.000000000000002 12.999999999999998 11.999999999999998 12.999999999999998 10.000000000000002 9.9999999999999982 9.9999999999999982 11.999999999999998 15.999999999999998 9.9999999999999982 12.999999999999998 11.000000000000002 9.9999999999999982 11.000000000000002 9.9999999999999982 12.000000000000002 14.999999999999998 9.9999999999999982 14.999999999999998 10.000000000000002 13.999999999999998 18 18 10.999999999999998
leaf_count=15 15 14 17 11 11 10 12 10 17 10 17 12 13 12 13 10 10 10 12 16 10 13 11 10 11 10 12 15 10 15 10 14 18 18 11
internal_value=0 -0.0129948 -0.0156337 0.0259042 0.0192082 -0.0232265 -0.00814573 -0.0116905 0.00342693 0.0159296 -0.00623907 -0.028851 0.0289978 -0.0109262 -0.0156657 0.0107473 0.0190606 -0.0148415 0.0361714 -0.0220041 -0.0225934 0.00444938 -0.0375998 0.0393227 -0.0106643 0.0103719 0.0360615 0.0325097 -0.0193591 -0.0183335 -0.0169721 -0.0151003 -0.0169174 -0.0198615 -0.0320525
internal_weight=0 303 288 152 92 143 145 111 34 81 74 82 23 57 61 58 25 47 60 46 37 33 36 48 37 20 37 27 48 27 38 25 30 28 22
internal_count=455 303 288 152 92 143 145 111 34 81 74 82 23 57 61 58 25 47 60 46 37 33 36 48 37 20 37 27 48 27 38 25 30 28 22
is_linear=0
shrinkage=0.05


Tree=11
num_leaves=36
num_cat=0
split_feature=2 1 0 0 1 2 2 3 10 10 2 10 1 2 0 3 9 7 6 5 0 3 8 9 2 2 1 2 1 7 0 1 1 7 6
split_gain=55.3269 14.9944 6.66689 5.51694 5.10338 5.08775 4.7465 2.95942 2.58386 2.12353 2.03045 1.76276 1.69564 1.41314 1.35657 1.31463 1.31082 1.28665 1.57374 0.878989 0.818797 1.05454 0.683271 0.579223 0.577103 0.505402 0.388213 0.40139 0.280979 0.255271 0.189191 0.174212 0.153522 0.149075 0.111362
threshold=1998.5000000000002 76185.000000000015 3.5000000000000004 2.5000000000000004 769760.00000000012 1981.5000000000002 2007.5000000000002 30.950000000000003 17.000000000000004 17.000000000000004 1982.5000000000002 8.0000000000000018 539196.00000000012 1983.5000000000002 1.5000000000000002 29.116665000000005 6.716666666500001 1.0500000000000003 80.166665000000009 13.666666665000003 4.5000000000000009 30.683333335000004 1.1666668335000001 7.366666833500001 1982.5000000000002 1975.5000000000002 1140040.0000000002 1975.5000000000002 885187.50000000012 1.6583333335000001 11.500000000000002 492487.50000000006 975852.50000000012 0.45000000000000001 74.166665000000009
decision_type=2 2 2 2 2 2 2 2 2 2 2 2 2 2 2 2 2 2 2 2 2 2 2 2 2 2 2 2 2 2 2 2 2 2 2
left_child=1 -1 3 14 11 -5 7 8 16 20 26 13 -10 25 -3 -13 -2 18 19 28 -8 29 30 -18 -16 -4 27 -6 -12 -22 -17 -24 -14 -25 -29
right_child=6 2 4 5 10 -7 9 -9 12 -11 17 15 32 -15 24 22 23 -19 -20 -21 21 -23 31 33 -26 -27 -28 34 -30 -31 -32 -33 -34 -35 -36
leaf_value=0.047009377032518389 0.017978636994410088 -0.02530226955811183 -0.035185394287109366 -0.0038297869637608515 -0.030171357806433333 0.046607053503394127 0.039970016005364338 0.03863221338162056 0.040163938227024951 0.048327781342797811 -0.0067957029119133927 -0.044074221886694437 0.019933959096670145 -0.0084282397145503448 -0.012131165408275342 -0.039876615703105911 -0.0063688116986304532 -0.020066262563117422 0.010609546338673682 -0.016099381285150434 0.024068058729171747 0.036346581554971634 -0.019556867971550675 0.010114382300525901 0.0044650805881246928 -0.020856417529284955 -0.011855189061801261 -0.022525534629821771 0.0050571132823824883 0.013442218228458211 -0.030150582194328309 -0.026825986101346858 0.01154562570154667 0.0020559791136871685 -0.015507257557832277
leaf_weight=9.9999999999999982 17 11.999999999999998 10.000000000000002 10.000000000000002 10.999999999999998 9.9999999999999982 10.999999999999998 12.999999999999998 10.999999999999998 18 10.000000000000002 15.999999999999998 12.000000000000002 19 11.000000000000002 10.000000000000002 14.999999999999998 12.999999999999998 15.999999999999998 18 10.000000000000002 11.999999999999998 15.999999999999998 12.000000000000002 9.9999999999999982 15.999999999999998 11.999999999999998 10.000000000000002 9.9999999999999982 12.999999999999998 9.9999999999999982 17 9.9999999999999982 10.999999999999998 12.999999999999998
leaf_count=10 17 12 10 10 11 10 11 13 11 18 10 16 12 19 11 10 15 13 16 18 10 12 16 12 10 16 12 10 10 13 10 17 10 11 13
internal_value=0 -0.0131515 -0.0153001 0.000667046 -0.0190281 0.0213886 0.0231148 0.0163641 0.0130745 0.0337681 -0.0114981 -0.0264921 0.0241354 -0.0187932 -0.0118915 -0.0315132 0.00643805 -0.00594453 -0.00254485 -0.00808355 0.0280708 0.0243311 -0.0277212 0.00127516 -0.00422819 -0.0263676 -0.0195869 -0.0223157 -0.000869295 0.0180621 -0.0350136 -0.0233016 0.0161211 0.00626036 -0.0185587
internal_weight=0 290 280 53 227 20 165 101 88 64 113 114 33 45 33 69 55 67 54 38 46 35 53 38 21 26 46 34 20 23 20 33 22 23 23
internal_count=455 290 280 53 227 20 165 101 88 64 113 114 33 45 33 69 55 67 54 38 46 35 53 38 21 26 46 34 20 23 20 33 22 23 23
is_linear=0
shrinkage=0.05


Tree=12
num_leaves=35
num_cat=0
split_feature=2 1 2 10 2 0 1 1 10 3 0 0 2 1 4 10 4 1 1 0 8 1 6 0 5 4 2 7 3 2 6 3 6 5
split_gain=50.033 13.3504 5.35702 3.81756 3.99405 1.93148 2.11642 1.97854 1.92231 2.07824 1.90663 2.35291 1.81247 1.40298 1.39112 1.38506 1.16978 1.14952 1.10451 0.738964 0.958997 0.717153 0.643023 0.620237 0.543619 0.539743 0.380466 0.374346 0.301847 0.252838 0.203762 0.143366 0.136359 0.0749938
threshold=1999.5000000000002 243670.00000000003 1984.5000000000002 50.000000000000007 2007.5000000000002 4.5000000000000009 644915.00000000012 797795.00000000012 5.0000000000000009 30.516666665000006 6.5000000000000009 7.5000000000000009 1995.5000000000002 724942.50000000012 13.350000000000003 17.000000000000004 14.916666665000003 633000.00000000012 1045747.5000000001 4.5000000000000009 1.0666668335000002 236715.00000000003 75.500000000000014 7.5000000000000009 8.5000000000000018 14.65 1974.5000000000002 0.48333333350000002 29.850000000000005 1975.5000000000002 79.583333335000006 29.450000000000003 74.166665000000009 19.833333335000003
decision_type=2 2 2 2 2 2 2 2 2 2 2 2 2 2 2 2 2 2 2 2 2 2 2 2 2 2 2 2 2 2 2 2 2 2
left_child=1 -1 10 4 8 7 23 -4 -2 16 17 -12 14 26 -8 19 24 32 25 -6 -21 -22 27 -7 30 -16 -13 -15 -27 -19 -10 -31 -3 -28
right_child=3 2 5 -5 15 6 12 -9 9 -11 11 13 -14 22 18 -17 -18 29 -20 20 21 -23 -24 -25 -26 28 33 -29 -30 31 -32 -33 -34 -35
leaf_value=0.03424489222156505 -0.0021275073414047559 -0.00018490238115191453 0.015121834996320747 0.053269197344779973 0.037971515056084509 -0.026975305233564641 0.0069823597744107253 -0.0090012508061002288 0.019238046035170549 0.034061812261740369 -0.046292436867952348 -0.037625653906302022 0.0086501324439750005 -0.014893452069637445 -0.00085355878497163449 0.044163537522157036 0.0021808845484081437 -0.025512513061138716 -0.028298588227480648 0.035339684149419723 0.026154467836022374 0.0088682372200613226 -0.0087319068555884501 -0.014023315769277121 0.027386571606621148 -0.019952116330916227 -0.028901778285702062 -0.027663232386112215 -0.0088840134042714319 -0.013260726705193515 0.0097445957362651825 -0.020592993870377541 -0.0084419942740350962 -0.023039001524448394
leaf_weight=14.999999999999998 14.999999999999998 10.000000000000002 17 9.9999999999999982 10.999999999999998 18 9.9999999999999982 17 10.000000000000002 14.999999999999998 11.999999999999998 10.999999999999998 17 11.000000000000002 11.999999999999998 14.999999999999998 17 10.999999999999998 9.9999999999999982 10.999999999999998 12.000000000000002 11.999999999999998 17 19 10.999999999999998 11.000000000000002 12.000000000000002 11.999999999999998 13.999999999999998 15.000000000000002 12.999999999999998 11.999999999999998 9.9999999999999982 9.9999999999999982
leaf_count=15 15 10 17 10 11 18 10 17 10 15 12 11 17 11 12 15 17 11 10 11 12 12 17 19 11 11 12 12 14 15 13 12 10 10
internal_value=0 -0.0117434 -0.0141386 0.0234095 0.0213067 -0.00736656 -0.0105604 0.00306029 0.0140297 0.0177017 -0.0210054 -0.0257745 -0.00567841 -0.0224017 -0.00995183 0.0309697 0.01289 -0.0140161 -0.0135549 0.0266673 0.0231145 0.0175114 -0.0161057 -0.0203243 0.0182445 -0.00957006 -0.0300331 -0.0215559 -0.013754 -0.0191227 0.0138722 -0.0165195 -0.00431345 -0.0262369
internal_weight=0 303 288 152 142 145 111 34 81 66 143 85 74 73 57 61 51 58 47 46 35 24 40 37 34 37 33 23 25 38 23 27 20 22
internal_count=455 303 288 152 142 145 111 34 81 66 143 85 74 73 57 61 51 58 47 46 35 24 40 37 34 37 33 23 25 38 23 27 20 22
is_linear=0
shrinkage=0.05


Tree=13
num_leaves=33
num_cat=0
split_feature=2 1 2 10 2 3 9 9 10 3 1 7 1 10 7 4 1 9 2 4 1 1 4 9 10 5 9 2 1 8 2 6
split_gain=45.1548 12.0758 5.98196 3.44535 3.60463 3.35322 2.42859 1.90514 1.73488 1.87561 1.38481 1.39301 1.3536 1.25002 1.12129 1.05572 0.95829 0.750724 0.716534 0.671213 0.772742 0.646836 0.645507 0.632999 0.621217 0.490616 0.387012 0.361297 0.221026 0.239798 0.185249 0.183895
threshold=1999.5000000000002 76185.000000000015 1989.5000000000002 50.000000000000007 2007.5000000000002 30.766668335000002 7.495000000000001 6.8385057470000001 5.0000000000000009 30.516666665000006 600230.00000000012 0.78333333350000012 546577.50000000012 17.000000000000004 1.0166666665000001 14.916666665000003 724942.50000000012 7.3072578000000012 1987.5000000000002 16.383333335000003 1140040.0000000002 334722.50000000006 15.083333335000001 7.0500000000000007 8.0000000000000018 8.5000000000000018 7.3107060755000015 1983.5000000000002 660140.00000000012 1.1666668335000001 1983.5000000000002 79.583333335000006
decision_type=2 2 2 2 2 2 2 2 2 2 2 2 2 2 2 2 2 2 2 2 2 2 2 2 2 2 2 2 2 2 2 2
left_child=1 -1 6 4 8 10 7 27 -2 15 22 23 -8 21 16 25 26 -18 19 20 28 24 -4 -12 -6 31 -9 -3 29 -14 -30 -10
right_child=3 2 5 -5 13 -7 12 14 9 -11 11 -13 18 -15 -16 -17 17 -19 -20 -21 -22 -23 -24 -25 -26 -27 -28 -29 30 -31 -32 -33
leaf_value=0.040271965448151939 -0.0020211319935818516 -0.016774123026566067 -0.010421135607692929 0.050605736672878265 0.028580019415284569 0.015834734064379807 -0.027668954886030408 -0.027217186556050651 0.018276143427938218 0.032358720873792969 -0.0014475620248251492 0.010229496707518895 -0.0066008065082132795 0.041955361862977353 -0.042306008799509576 0.0020718402284033159 -0.011848059795139467 -0.026707435223986123 0.0022271649353206159 3.8146255537867549e-05 -0.0010912402160465717 0.03272880750656542 -0.025795140828598628 -0.014901358973892297 0.013646805807948113 0.026017242898656562 -0.039001919464631517 -0.003642580360174179 -0.022004894637747817 -0.017084471012155215 -0.014424979806478536 0.0092573659207958441
leaf_weight=10.999999999999998 14.999999999999998 11.000000000000002 18.000000000000004 9.9999999999999982 13.000000000000002 19 12.999999999999998 19.000000000000004 10.000000000000002 14.999999999999998 18 14.999999999999998 10.000000000000002 14.999999999999998 10.999999999999998 17 17 17 9.9999999999999982 9.9999999999999982 9.9999999999999982 18 10.999999999999998 17 14.999999999999998 10.999999999999998 10.999999999999998 9.9999999999999982 19 11.999999999999998 13.999999999999998 12.999999999999998
leaf_count=11 15 11 18 10 13 19 13 19 10 15 18 15 10 15 11 17 17 17 10 10 10 18 11 17 15 11 11 10 19 12 14 13
internal_value=0 -0.0111562 -0.0130936 0.022239 0.0202414 -0.00302453 -0.01818 -0.0238323 0.0133282 0.0168167 -0.0075603 -0.00251874 -0.0126431 0.0294212 -0.0275594 0.0122455 -0.0250249 -0.0192777 -0.010345 -0.0120213 -0.0138766 0.0253339 -0.0162527 -0.00798226 0.0205801 0.0173323 -0.0315383 -0.010521 -0.0162012 -0.0123192 -0.0187892 0.0131786
internal_weight=0 303 292 152 142 98 194 96 81 66 79 50 98 61 75 51 64 34 85 75 65 46 29 35 28 34 30 21 55 22 33 23
internal_count=455 303 292 152 142 98 194 96 81 66 79 50 98 61 75 51 64 34 85 75 65 46 29 35 28 34 30 21 55 22 33 23
is_linear=0
shrinkage=0.05


Tree=14
num_leaves=35
num_cat=0
split_feature=2 4 2 2 3 10 0 1 4 8 4 10 0 0 1 0 7 7 10 1 1 2 1 0 3 2 4 3 7 2 3 7 3 3
split_gain=40.7951 11.6095 3.56045 3.47076 2.2319 1.94659 1.66598 1.92241 1.75202 2.56942 1.59467 1.56503 1.44623 1.52196 1.22909 0.890668 1.11162 1.25111 1.06046 0.913936 0.761918 0.844427 0.740967 0.628586 0.858824 0.525696 0.439431 0.290738 0.205023 0.191626 0.155361 0.155231 0.0697986 0.0621846
threshold=1998.5000000000002 17.150000000000002 1982.5000000000002 2007.5000000000002 30.950000000000003 17.000000000000004 4.5000000000000009 797795.00000000012 13.350000000000003 1.0166666665000001 14.283333335000002 17.000000000000004 6.5000000000000009 7.5000000000000009 539196.00000000012 7.5000000000000009 0.58333333350000005 0.65000000000000013 6.5000000000000009 885187.50000000012 1140040.0000000002 1974.5000000000002 633000.00000000012 4.5000000000000009 30.683333335000004 2003.5000000000002 15.450000000000001 29.783333335000005 1.6583333335000001 1975.5000000000002 30.416665000000005 0.58333333350000005 29.116665000000005 29.916666665000005
decision_type=2 2 2 2 2 2 2 2 2 2 2 2 2 2 2 2 2 2 2 2 2 2 2 2 2 2 2 2 2 2 2 2 2 2
left_child=1 2 12 4 5 10 7 -4 -8 -10 -2 23 22 -14 -7 -11 18 -18 -17 -19 21 -15 -1 -5 28 27 33 -12 -25 -24 -9 -16 -31 -23
right_child=3 -3 6 11 -6 14 8 30 9 15 25 -13 13 20 31 16 17 19 -20 -21 -22 26 29 24 -26 -27 -28 -29 -30 32 -32 -33 -34 -35
leaf_value=-0.0052679613297287797 0.022486381046473981 0.034886078944859594 0.012464618481398147 0.034493073738518766 0.033414046767239386 0.034465925937349144 0.0025034626847819279 -0.0056519632786512361 -0.034793072681014357 -0.021227103406015566 0.012570223864167923 0.04145748052332137 -0.042584676146507267 -0.033732164278626443 0.0093953588791191554 -0.011702333092689511 -0.028567560203373435 -0.016708520996487803 0.009955242738270989 -0.00098623376045572139 -0.010248424489206326 -0.020575450733304017 -0.023322803699623113 0.020515601933002465 0.031633843357364341 -0.0050672087132146489 -0.010984976068139078 0.0015638198703527451 0.010992836479384167 -0.01215289760380983 -0.014465606771409512 0.017830267160510026 -0.018060461506247523 -0.0258199454500125
leaf_weight=18 10.999999999999998 12.999999999999998 18 10.999999999999998 12.999999999999998 10.999999999999998 19 10.000000000000002 12.999999999999998 17 10.000000000000002 18 9.9999999999999982 15.999999999999998 10.000000000000002 10.000000000000002 9.9999999999999982 18 12.999999999999998 19 11.999999999999998 10.000000000000002 11.000000000000002 10.000000000000002 11.999999999999998 19 9.9999999999999982 14.999999999999998 12.999999999999998 10.000000000000002 9.9999999999999982 11.999999999999998 9.9999999999999982 12.999999999999998
leaf_count=18 11 13 18 11 13 11 19 10 13 17 10 18 10 16 10 10 10 18 13 19 12 10 11 10 12 19 10 15 13 10 10 12 10 13
internal_value=0 -0.0112931 -0.0134603 0.0198484 0.0140758 0.011219 -0.0085044 0.000610196 -0.0114149 -0.0140594 0.00545878 0.0289582 -0.0199443 -0.0245043 0.0208195 -0.0109613 -0.00846818 -0.0128759 0.000538905 -0.00863491 -0.0215403 -0.0243057 -0.0133369 0.0240672 0.0207905 0.00120188 -0.0197353 0.00596638 0.0151332 -0.0180221 -0.0100588 0.0139962 -0.0151067 -0.0235397
internal_weight=0 290 277 165 101 88 157 38 119 100 55 64 120 71 33 87 70 47 23 37 61 49 49 46 35 44 33 25 23 31 20 22 20 23
internal_count=455 290 277 165 101 88 157 38 119 100 55 64 120 71 33 87 70 47 23 37 61 49 49 46 35 44 33 25 23 31 20 22 20 23
is_linear=0
shrinkage=0.05


Tree=15
num_leaves=35
num_cat=0
split_feature=2 4 2 10 7 6 6 8 0 0 0 2 3 0 0 3 8 7 3 7 10 5 8 0 2 3 2 9 4 5 3 10 2 3
split_gain=36.9247 10.1699 3.84309 2.92732 2.93424 1.78027 1.53455 1.59852 1.52468 1.57128 1.67864 1.52585 1.43201 1.30523 1.37357 1.04185 1.0504 1.0418 0.915416 0.684264 0.653542 0.631729 1.17769 0.610922 0.817432 0.557006 0.530225 0.451982 0.434934 0.316008 0.303173 0.288461 0.148145 0.0982698
threshold=1999.5000000000002 17.150000000000002 1982.5000000000002 50.000000000000007 0.91666650000000016 82.833333335000006 83.166666665000022 1.4166665000000001 4.5000000000000009 7.5000000000000009 6.5000000000000009 1997.5000000000002 30.199998335000004 6.5000000000000009 7.5000000000000009 29.583333335000003 1.2833335000000001 0.75000000000000011 30.383333335000003 0.58333333350000005 17.000000000000004 10.333331665000001 1.3666668335000003 15.500000000000002 1974.5000000000002 29.950000000000003 1972.5000000000002 8.2166665000000005 15.083333335000001 1.1666666665000001 30.483333335000001 6.5000000000000009 1989.5000000000002 29.050000000000004
decision_type=2 2 2 2 2 2 2 2 2 2 2 2 2 2 2 2 2 2 2 2 2 2 2 2 2 2 2 2 2 2 2 2 2 2
left_child=1 2 13 4 6 8 7 12 17 10 25 19 20 26 -15 -6 18 30 -17 31 29 -21 -23 24 -16 -10 -1 33 -26 -2 -4 -11 -24 -28
right_child=3 -3 5 -5 15 -7 -8 -9 9 11 -12 -13 -14 14 23 16 -18 -19 -20 21 -22 22 32 -25 28 -27 27 -29 -30 -31 -32 -33 -34 -35
leaf_value=-0.020893837830850057 0.014581865614110769 0.031530625745654108 0.0035689946419248972 0.046257800012826922 0.03948236606442012 -0.025023071482204475 -0.0050415208647874273 0.00098198904306627814 -0.0024560443746546902 -0.0073410444808277193 -0.033640802177515902 0.010234151368162463 0.030545107461512091 -0.040455441772937778 -0.033049510022004451 0.017082293331623071 0.013152019126573579 0.017157914424315097 0.035950121480143732 -0.0040924707623688798 0.021390489744953813 -0.029754404956474891 -0.013042599409818646 -0.012413226743228735 -0.023816766984322488 -0.018433973733335735 -0.010406560730189083 -0.00198897368055231 -0.011384064176430305 0.0030670594280728931 -0.0076703191734850407 0.0033189724152907735 -0.0044360488653182985 -0.017089980315755714
leaf_weight=13.999999999999998 11.000000000000002 13.999999999999998 12.000000000000002 9.9999999999999982 12.999999999999998 12.999999999999998 10.999999999999998 15.999999999999998 12.000000000000002 11.000000000000002 10.999999999999998 13.999999999999998 18 9.9999999999999982 14.999999999999998 10.000000000000002 15.999999999999998 9.9999999999999982 18 19 15.999999999999998 10.000000000000002 10.000000000000002 17 17.000000000000004 9.9999999999999982 11.000000000000002 12.999999999999998 11.999999999999998 12.999999999999998 11.999999999999998 14.999999999999998 9.9999999999999982 10.999999999999998
leaf_count=14 11 14 12 10 13 13 11 16 12 11 11 14 18 10 15 10 16 10 18 19 16 10 10 17 17 10 11 13 12 13 12 15 10 11
internal_value=0 -0.0100884 -0.0121046 0.0201105 0.0182691 -0.007246 0.0123834 0.0149736 -0.00576458 -0.00837408 -0.0176928 -0.00491883 0.0188333 -0.0189471 -0.0232791 0.0270461 0.0233718 0.00359892 0.0292116 -0.00774739 0.013563 -0.0112263 -0.0157444 -0.0204633 -0.0235736 -0.00971874 -0.01267 -0.00938053 -0.0186722 0.00834468 -0.00205066 -0.00119103 -0.00873932 -0.0137483
internal_weight=0 303 289 152 142 169 85 74 156 122 33 89 58 120 71 57 44 34 28 75 40 49 30 61 44 22 49 35 29 24 24 26 20 22
internal_count=455 303 289 152 142 169 85 74 156 122 33 89 58 120 71 57 44 34 28 75 40 49 30 61 44 22 49 35 29 24 24 26 20 22
is_linear=0
shrinkage=0.05


Tree=16
num_leaves=34
num_cat=0
split_feature=2 1 2 10 2 9 0 1 1 10 3 2 1 4 3 1 4 0 9 6 4 9 3 4 0 0 1 10 3 6 2 2 3
split_gain=33.3246 10.2062 3.65184 2.6419 2.64862 1.46906 1.45251 1.49184 1.46547 1.35982 1.48374 1.2742 1.19803 1.07522 1.0681 0.883545 0.861669 0.845434 0.754564 1.39258 0.742356 0.623199 0.482405 0.42197 0.419082 0.363529 0.331585 0.282752 0.237837 0.202536 0.132565 0.0814162 0.0514293
threshold=1999.5000000000002 243670.00000000003 1984.5000000000002 50.000000000000007 2007.5000000000002 7.495000000000001 4.5000000000000009 644915.00000000012 797795.00000000012 5.0000000000000009 30.516666665000006 1995.5000000000002 724942.50000000012 13.350000000000003 29.583333335000003 1045747.5000000001 14.216666665000002 6.5000000000000009 5.9166666670000003 81.833333335000006 15.616665000000003 7.3072578000000012 29.016666665000006 14.550000000000002 7.5000000000000009 13.500000000000002 349397.50000000006 9.5000000000000018 29.850000000000005 74.500000000000014 1976.5000000000002 1979.5000000000002 30.250000000000004
decision_type=2 2 2 2 2 2 2 2 2 2 2 2 2 2 2 2 2 2 2 2 2 2 2 2 2 2 2 2 2 2 2 2 2
left_child=1 -1 5 4 9 12 8 24 -4 -2 16 13 22 -9 -6 23 25 -18 -16 26 27 30 -3 -15 -8 -11 -20 32 -25 -29 -14 -24 -7
right_child=3 2 6 -5 14 20 7 11 -10 10 -12 -13 21 15 18 -17 17 -19 19 -21 -22 -23 31 28 -26 -27 -28 29 -30 -31 -32 -33 -34
leaf_value=0.030625764420256021 -0.0021595214152087768 -0.035805974687848775 0.013335633496514194 0.043944908678531652 0.037937894463539124 -0.021289067193865769 -0.022521286382753816 0.0065468873456120489 -0.0074253871927366551 0.012046958024923997 0.028341625259878735 0.0072561592301901654 -0.01502862576230922 0.00026462095027620145 0.012482946515083313 -0.024695251137018204 0.014262863678427841 -0.0029034546983893964 0.02703266957153876 0.01043078113347292 -0.00087314513153754754 -0.024341287603601814 -0.026974896341562263 -0.016582996312839285 -0.011874779055238163 0.024954991936683657 0.039050999825650995 -0.015131157876125401 -0.0069902785654578888 -0.0064641935715021998 -0.0083213003782125622 -0.020891528034752069 -0.016334696097130126
leaf_weight=14.999999999999998 14.999999999999998 13.999999999999998 17 9.9999999999999982 12.999999999999998 10.000000000000002 18 9.9999999999999982 17 12.000000000000002 14.999999999999998 17 17.000000000000004 10.999999999999998 14.999999999999998 9.9999999999999982 13.000000000000002 15.999999999999998 12.000000000000002 9.9999999999999982 12.999999999999998 15.999999999999998 11.000000000000002 12.000000000000002 19 9.9999999999999982 10.999999999999998 14.000000000000002 13.999999999999998 12.999999999999998 12.999999999999998 10.999999999999998 10.999999999999998
leaf_count=15 15 14 17 10 13 10 18 10 17 12 15 17 17 11 15 10 13 16 12 10 13 16 11 12 19 10 11 14 14 13 13 11 11
internal_value=0 -0.00958401 -0.0116783 0.019105 0.0173557 -0.0173478 -0.00608695 -0.00885659 0.00295512 0.0114297 0.0145182 -0.00475781 -0.0217188 -0.00834092 0.0252246 -0.0115085 0.0104525 0.00479179 0.0217814 0.0260079 -0.011472 -0.0163723 -0.0285504 -0.00794457 -0.0170542 0.0179142 0.0327806 -0.0143426 -0.0114177 -0.0109582 -0.0121221 -0.0239332 -0.0186939
internal_weight=0 303 288 152 142 143 145 111 34 81 66 74 82 57 61 47 51 29 48 33 61 46 36 37 37 22 23 48 26 27 30 22 21
internal_count=455 303 288 152 142 143 145 111 34 81 66 74 82 57 61 47 51 29 48 33 61 46 36 37 37 22 23 48 26 27 30 22 21
is_linear=0
shrinkage=0.05


Tree=17
num_leaves=35
num_cat=0
split_feature=2 1 2 0 10 2 9 1 0 4 1 4 8 4 6 4 0 7 1 2 9 6 9 4 2 1 4 9 6 7 2 1 2 9
split_gain=30.0754 9.23072 4.30671 2.81326 2.38432 2.39038 1.81619 1.76226 1.50528 1.23603 1.15177 0.963762 0.90288 1.00275 0.867202 0.882471 0.864043 1.21649 0.831853 0.583924 0.54721 0.735177 0.534998 0.52185 0.47363 0.473447 0.637948 0.457755 0.440917 0.320545 0.305024 0.165123 0.141947 0.110058
threshold=1999.5000000000002 76185.000000000015 1989.5000000000002 3.5000000000000004 50.000000000000007 2007.5000000000002 7.495000000000001 644915.00000000012 6.5000000000000009 13.950000000000001 546577.50000000012 14.350000000000003 1.0416666665000003 14.316666665000001 78.166666665000022 15.583333335000001 7.5000000000000009 0.91666650000000016 787680.00000000012 1987.5000000000002 6.0166666665000008 81.833333335000006 6.9500000000000011 14.883333335000001 1993.5000000000002 1140040.0000000002 16.383333335000003 7.0833333335000006 76.166665000000009 0.55000000000000016 1981.5000000000002 633000.00000000012 1983.5000000000002 8.1166665000000027
decision_type=2 2 2 2 2 2 2 2 2 2 2 2 2 2 2 2 2 2 2 2 2 2 2 2 2 2 2 2 2 2 2 2 2 2
left_child=1 -1 6 -4 5 9 8 23 30 18 -8 -7 -9 -14 -11 27 -10 28 -2 25 -13 22 -22 -5 -15 26 31 -16 29 -18 -3 -12 33 -33
right_child=4 2 3 7 -6 11 10 12 16 14 19 20 13 24 15 -17 17 -19 -20 -21 21 -23 -24 -25 -26 -27 -28 -29 -30 -31 -32 32 -34 -35
leaf_value=0.035858853737061679 0.03162359666079282 -0.014743143413215873 0.016236746650846564 -0.0094567189259188496 0.041747664213180546 0.034969165399670599 -0.024186710945258923 0.011287211487069727 -0.036683434518900791 0.015882043697332083 -0.0087016461417078975 0.011685792585978141 0.0054681200534105303 -0.017724809865467244 0.016294209879230366 -0.0066789287887513635 -0.01746947144468625 -0.037312252297997471 0.012097558709016692 0.003142881023231894 0.021956584788858886 0.013243106312372469 0.037615680843591695 -0.02310864826930421 -0.0039496317362556098 0.00040852160658687352 0.00033896991983056068 0.0026641934577907836 -0.011951810975248616 -0.027773038011330825 -0.0038796630299960579 -0.013972434516136459 -0.011117591255654893 -0.02047858089208603
leaf_weight=10.999999999999998 10.000000000000002 14.000000000000002 17 14.000000000000002 9.9999999999999982 14.999999999999998 12.999999999999998 11.999999999999998 10.999999999999998 19 13.999999999999998 12.999999999999998 15.999999999999998 12.000000000000002 11.000000000000002 14.999999999999998 18.000000000000004 9.9999999999999982 11.999999999999998 9.9999999999999982 12.000000000000002 10.999999999999998 9.9999999999999982 13.999999999999998 12.999999999999998 9.9999999999999982 9.9999999999999982 13.999999999999998 18 12.999999999999998 11.999999999999998 13.000000000000002 14.999999999999998 12.999999999999998
leaf_count=11 10 14 17 14 10 15 13 12 11 19 14 13 16 12 11 15 18 10 12 10 12 11 10 14 13 10 10 14 18 13 12 13 15 13
internal_value=0 -0.00910481 -0.0107986 -0.00225507 0.0181497 0.0164879 -0.0151145 -0.00613607 -0.0200024 0.0108582 -0.0103263 0.0239633 -0.000775594 -0.00430617 0.00708661 0.00290878 -0.0238182 -0.0214196 0.020973 -0.00820643 0.0203745 0.0237973 0.0290744 -0.0162827 -0.0105617 -0.00971967 -0.0112779 0.0086614 -0.0181762 -0.0217903 -0.00972923 -0.01339 -0.0149909 -0.0172255
internal_weight=0 303 292 98 152 142 194 81 96 81 98 61 53 41 59 40 70 59 22 85 46 33 22 28 25 75 65 25 49 31 26 55 41 26
internal_count=455 303 292 98 152 142 194 81 96 81 98 61 53 41 59 40 70 59 22 85 46 33 22 28 25 75 65 25 49 31 26 55 41 26
is_linear=0
shrinkage=0.05


Tree=18
num_leaves=37
num_cat=0
split_feature=2 4 2 3 10 1 0 0 10 1 7 1 1 2 10 4 3 1 4 1 2 10 0 0 8 0 2 2 4 10 0 2 5 9 1 7
split_gain=27.1431 9.04095 2.86436 2.16138 2.08742 1.55495 1.46516 2.50699 1.50249 1.46344 1.38665 1.27104 1.03527 0.983093 0.94403 0.943849 0.836402 2.95178 0.77392 0.722047 0.669058 0.570738 0.691051 0.541277 0.471415 0.434254 0.386517 0.365653 0.353952 0.245468 0.238163 0.295669 0.212459 0.203988 0.148615 0.0799317
threshold=1999.5000000000002 17.233333335000001 1976.5000000000002 30.950000000000003 17.000000000000004 435344.50000000006 4.5000000000000009 1.5000000000000002 9.5000000000000018 724942.50000000012 0.91666650000000016 76185.000000000015 349397.50000000006 1995.5000000000002 8.0000000000000018 14.283333335000002 28.466668335000005 1058670.0000000002 14.783333335000002 368085.00000000006 1985.5000000000002 17.000000000000004 4.5000000000000009 10.000000000000002 1.2500000000000002 15.500000000000002 1989.5000000000002 1987.5000000000002 15.783333335000002 34.500000000000007 12.500000000000002 1989.5000000000002 9.1666666665000012 6.0166666665000008 961222.50000000012 0.58333333350000005
decision_type=2 2 2 2 2 2 2 2 2 2 2 2 2 2 2 2 2 2 2 2 2 2 2 2 2 2 2 2 2 2 2 2 2 2 2 2
left_child=1 2 21 4 10 29 7 -4 -9 11 15 -8 33 16 20 -2 25 30 26 -5 -13 22 -1 28 -20 -11 -16 -10 -17 -6 31 -18 -24 -12 -7 -23
right_child=3 -3 6 19 5 34 9 8 27 13 12 14 -14 -15 18 23 17 -19 24 -21 -22 35 32 -25 -26 -27 -28 -29 -30 -31 -32 -33 -34 -35 -36 -37
leaf_value=-0.012778350135142153 0.018680499731139704 0.033882014608631536 -0.02075603365277251 0.038989156656540347 0.038572137870571815 0.018187114122239022 0.0020235896203666926 0.020110349295039975 -0.0067246928411935046 -0.0067657363685694602 0.0072552255168557116 -0.01779834389686584 0.032008331324905159 0.0061244199176629386 -0.020733005553483959 0.0010785987895602981 -0.0068931225625177214 -0.035784767419099806 -0.032567870020866384 0.021583504517647355 -0.00028687482117675247 -0.016643090817061331 -0.032244568490065052 -0.0050406738424499057 -0.01855276694521308 0.0072837543927810403 -0.0089838826762778431 0.004340039534145035 0.012132913406406131 0.027748306542634965 -0.010124121825484668 0.0042062129825353621 -0.023639094480313361 0.017354440502822401 0.0097651340533047928 -0.010742349565650027
leaf_weight=10.999999999999998 10.999999999999998 11.999999999999998 11.999999999999998 13.000000000000002 11.000000000000002 11.000000000000002 9.9999999999999982 11.999999999999998 14.000000000000002 11 10.000000000000005 10.000000000000002 9.9999999999999982 14.999999999999998 14.000000000000002 15.000000000000002 15.000000000000002 9.9999999999999982 15.000000000000002 10.999999999999998 11.999999999999998 11.000000000000002 13.000000000000002 15.999999999999998 9.9999999999999982 11 13.999999999999998 15.999999999999998 13.999999999999998 9.9999999999999982 17 9.9999999999999982 15.999999999999998 9.9999999999999982 9.9999999999999982 11.999999999999998
leaf_count=11 11 12 12 13 11 11 10 12 14 11 10 10 10 15 14 15 15 10 15 11 12 11 13 16 10 11 14 16 14 10 17 10 16 10 10 12
internal_value=0 -0.00864957 -0.0104034 0.0172422 0.0146605 0.0237973 -0.00779585 -0.000600987 0.0051576 -0.0100287 0.0101983 -0.0147208 0.0188727 -0.00554751 -0.0169534 0.00555133 -0.00791344 -0.011371 -0.0205676 0.0310116 -0.00824663 -0.0198405 -0.0234492 0.00234198 -0.0269618 0.000259009 -0.0148584 -0.000823502 0.00641516 0.0334179 -0.00555821 -0.00245339 -0.0274967 0.0123048 0.0141766 -0.0135644
internal_weight=0 303 291 152 128 42 228 54 42 174 86 85 30 89 75 56 74 52 53 24 22 63 40 45 25 22 28 30 29 21 42 25 29 20 21 23
internal_count=455 303 291 152 128 42 228 54 42 174 86 85 30 89 75 56 74 52 53 24 22 63 40 45 25 22 28 30 29 21 42 25 29 20 21 23
is_linear=0
shrinkage=0.05


Tree=19
num_leaves=37
num_cat=0
split_feature=2 4 2 2 0 0 3 0 4 10 1 10 1 0 10 0 0 7 6 6 10 1 10 0 0 3 2 2 1 2 1 7 5 9 7 4
split_gain=24.504 8.56912 2.29096 2.09439 1.57853 2.28787 1.50344 1.48051 1.52349 1.33026 1.15881 1.14154 0.827307 0.780265 0.815744 0.750504 0.801534 0.672948 0.723788 0.650732 0.635944 0.577572 0.515091 0.623674 0.4434 0.59877 0.351636 0.275282 0.250645 0.226655 0.218658 0.211125 0.191744 0.161837 0.0721384 0.0377866
threshold=1998.5000000000002 17.233333335000001 1976.5000000000002 2007.5000000000002 4.5000000000000009 1.5000000000000002 30.950000000000003 7.5000000000000009 16.250000000000004 9.5000000000000018 724942.50000000012 17.000000000000004 1383540.0000000002 10.000000000000002 17.000000000000004 7.5000000000000009 6.5000000000000009 0.58333333350000005 74.666668335000011 79.833333335000006 9.5000000000000018 368085.00000000006 17.000000000000004 4.5000000000000009 4.5000000000000009 30.683333335000004 1987.5000000000002 1988.5000000000002 939300.00000000012 1985.5000000000002 964985.00000000012 1.6583333335000001 9.1666666665000012 8.0500000000000025 0.58333333350000005 15.183333335000002
decision_type=2 2 2 2 2 2 2 2 2 2 2 2 2 2 2 2 2 2 2 2 2 2 2 2 2 2 2 2 2 2 2 2 2 2 2 2
left_child=1 2 22 6 5 -4 7 20 13 -7 15 24 19 -9 -15 16 -6 18 -17 27 -2 -19 23 -1 -5 31 -11 33 -16 -23 -29 -26 -25 35 -24 -12
right_child=3 -3 4 11 10 9 -8 8 -10 26 12 -13 -14 14 28 17 -18 21 -20 -21 -22 29 34 32 25 -27 -28 30 -30 -31 -32 -33 -34 -35 -36 -37
leaf_value=-0.012139432572505693 -0.0056114054432040775 0.034533371336080809 -0.019718232223143183 0.027038846605203372 -0.01285311777942947 0.01910483259804702 0.026770388549910141 0.030147681459784512 -0.0037543611176079142 -0.0063884580873751198 -0.0088434268285830803 0.033134637255635528 -0.019735402539372445 0.0038053245400078597 0.02587636806070804 -0.014871463510207829 -0.029772397237164627 -0.025937443934381001 0.0030209057283802675 0.0048784136772155769 0.0079179320571711297 -0.016543235108256334 -0.015810936079783868 -0.030632340334928943 0.016268545985221858 0.024584376066923142 0.0046296236431226136 -0.0071412292563102445 0.014938998323949902 -0.0058976864488795404 0.0030744307115674017 0.0066050911447606414 -0.022457139985635879 -0.014533954655582255 -0.010205232150231799 -0.0048755019204691054
leaf_weight=10.999999999999998 19 10.999999999999998 11.999999999999998 10.999999999999998 14 11.999999999999998 12.999999999999998 9.9999999999999982 9.9999999999999982 14.000000000000002 15.000000000000002 18 9.9999999999999982 11.999999999999998 10.000000000000002 10.000000000000002 14 10.000000000000002 12.999999999999998 14.999999999999998 15.999999999999998 10.000000000000002 11.000000000000002 13.000000000000002 10.000000000000002 11.999999999999998 14.999999999999998 11.000000000000002 10.999999999999998 9.9999999999999982 9.9999999999999982 12.999999999999998 15.999999999999998 10.999999999999998 11.999999999999998 9.9999999999999982
leaf_count=11 19 11 12 11 14 12 13 10 10 14 15 18 10 12 10 10 14 10 13 15 16 10 11 13 10 12 15 11 11 10 10 13 16 11 12 10
internal_value=0 -0.00875238 -0.010459 0.015383 -0.00801206 -0.000516129 0.0108988 0.00855409 0.0138243 0.005104 -0.0104494 0.0224596 -0.00625935 0.0179124 0.0142047 -0.0146912 -0.0213128 -0.011193 -0.00475839 -0.00438768 0.000573435 -0.0161261 -0.0188484 -0.0222767 0.0182824 0.0155304 -0.00068945 -0.00682613 0.0201473 -0.0112205 -0.00227663 0.0108066 -0.0261219 -0.00948 -0.0128862 -0.00725626
internal_weight=0 290 279 165 216 53 101 88 53 41 163 64 82 43 33 81 28 53 23 72 35 30 63 40 46 35 29 57 21 20 21 23 29 36 23 25
internal_count=455 290 279 165 216 53 101 88 53 41 163 64 82 43 33 81 28 53 23 72 35 30 63 40 46 35 29 57 21 20 21 23 29 36 23 25
is_linear=0
shrinkage=0.05


Tree=20
num_leaves=34
num_cat=0
split_feature=2 1 2 10 2 0 0 1 10 10 3 3 2 3 1 2 0 4 9 10 0 7 0 5 8 4 4 2 3 5 5 4 7
split_gain=22.18 7.91919 2.47245 1.92404 1.78215 1.30159 2.04395 1.29983 1.14366 0.986433 1.11609 0.887392 0.840621 0.824172 2.52143 0.653472 0.961623 0.606011 0.578638 0.513024 0.596041 0.498147 0.402121 0.340895 0.327638 0.319555 0.303821 0.372552 0.288204 0.176553 0.103735 0.0953559 0.0651049
threshold=1999.5000000000002 243670.00000000003 1976.5000000000002 50.000000000000007 2007.5000000000002 4.5000000000000009 1.5000000000000002 724942.50000000012 9.5000000000000018 5.0000000000000009 30.516666665000006 29.583333335000003 1995.5000000000002 28.466668335000005 1058670.0000000002 1987.5000000000002 7.5000000000000009 14.916666665000003 5.9166666670000003 17.000000000000004 4.5000000000000009 1.6666668335000001 15.500000000000002 8.5000000000000018 1.0666668335000002 14.250000000000002 15.716666665000002 1988.5000000000002 29.683333335000004 9.1666666665000012 2.1666665000000003 14.65 0.58333333350000005
decision_type=2 2 2 2 2 2 2 2 2 2 2 2 2 2 2 2 2 2 2 2 2 2 2 2 2 2 2 2 2 2 2 2 2
left_child=1 -1 19 4 9 6 -4 15 -8 -2 17 -6 13 22 26 24 -17 23 -13 20 -3 -20 -9 30 -7 -10 27 -15 -18 -22 -11 -26 -21
right_child=3 2 5 -5 11 7 8 12 25 10 -12 18 -14 14 -16 16 28 -19 21 32 29 -23 -24 -25 31 -27 -28 -29 -30 -31 -32 -33 -34
leaf_value=0.027600376034776372 -0.0023415411900108061 -0.011532461202957414 -0.018732320734610161 0.036784569844603536 0.032136300521401255 -0.025629608891904354 0.016992795316932294 -0.0060398201712153175 0.0055579584441147736 0.011673537211922496 0.023852174654603004 0.009267157092690468 0.0055145604908466341 -0.0082368754216336753 -0.033424205929040905 -0.018995937917497943 -0.0094157495722174619 0.0006288624423391679 0.015837706507820831 -0.015020389211448751 -0.029237871404205043 0.028267532497245285 0.007479875746437094 0.019430325038477102 -0.019177493791688566 -0.0049756394000723958 -0.011106487739016303 0.0032980436060045452 0.0018747298691708309 -0.021655587446601954 0.0048998419847339396 -0.013048511122663817 -0.0096949701818327128
leaf_weight=14.999999999999998 14.999999999999998 10.999999999999998 11.999999999999998 9.9999999999999982 12.999999999999998 11.999999999999998 12.999999999999998 11 12.000000000000002 13.000000000000002 14.999999999999998 14.999999999999998 14.999999999999998 14.000000000000002 9.9999999999999982 15.999999999999998 10.000000000000002 17 19 11.000000000000002 14.000000000000002 13.999999999999998 11 10.999999999999998 11.000000000000002 18 15.999999999999998 13.999999999999998 12.999999999999998 17 9.9999999999999982 14.999999999999998 11.999999999999998
leaf_count=15 15 11 12 10 13 12 13 11 12 13 15 15 15 14 10 16 10 17 19 11 14 14 11 11 11 18 16 14 13 17 10 15 12
internal_value=0 -0.00781889 -0.00966365 0.0155863 0.0140935 -0.00716249 -0.000486319 -0.00934814 0.00460559 0.00923257 0.011863 0.0205482 -0.00530253 -0.00743749 -0.0107609 -0.0141293 -0.00958259 0.00833684 0.0174098 -0.0182446 -0.0215317 0.021111 0.000720028 0.0121908 -0.0187957 -0.0007622 -0.00561017 -0.00246942 -0.00303417 -0.0250798 0.00872845 -0.0156415 -0.0122419
internal_weight=0 303 288 152 142 223 55 168 43 81 66 61 91 76 54 77 39 51 48 65 42 33 22 34 38 30 44 28 23 31 23 26 23
internal_count=455 303 288 152 142 223 55 168 43 81 66 61 91 76 54 77 39 51 48 65 42 33 22 34 38 30 44 28 23 31 23 26 23
is_linear=0
shrinkage=0.05


Tree=21
num_leaves=35
num_cat=0
split_feature=2 4 2 10 6 4 3 6 2 3 5 1 1 9 9 7 0 1 10 9 3 10 0 1 3 4 1 6 5 5 7 0 7 10
split_gain=20.0174 7.24285 2.06228 1.73645 1.66265 1.50113 1.38533 1.1769 1.4482 1.04669 1.00082 0.866038 1.18295 0.86946 1.18383 0.745024 0.689262 0.87387 0.574147 0.555879 0.437981 0.418688 0.507025 0.328908 0.324321 0.302739 0.30251 0.184347 0.182071 0.156567 0.107992 0.0897374 0.0587572 0.0471839
threshold=1999.5000000000002 17.233333335000001 1976.5000000000002 50.000000000000007 83.166666665000022 13.916666665000003 30.833331665000003 82.833333335000006 1988.5000000000002 30.083333335000003 20.166666665000005 600230.00000000012 766135.00000000012 7.495000000000001 7.0500000000000007 0.78333333350000012 3.5000000000000004 724942.50000000012 9.5000000000000018 6.9166666665000012 29.450000000000003 17.000000000000004 4.5000000000000009 357668.50000000006 29.050000000000004 14.916666665000003 625030.00000000012 78.166666665000022 21.166666665000005 9.1666666665000012 0.45000000000000001 8.5000000000000018 0.58333333350000005 17.000000000000004
decision_type=2 2 2 2 2 2 2 2 2 2 2 2 2 2 2 2 2 2 2 2 2 2 2 2 2 2 2 2 2 2 2 2 2 2
left_child=1 2 21 4 5 9 10 8 16 24 15 18 -13 14 -14 19 -4 20 -10 -7 -18 22 -1 -17 -2 -15 -21 30 -22 -24 -19 -32 -23 -20
right_child=3 -3 7 -5 -6 6 -8 -9 11 -11 -12 12 13 25 -16 23 17 27 33 26 28 32 29 -25 -26 -27 -28 -29 -30 -31 31 -33 -34 -35
leaf_value=-0.010955837944691833 0.024786080941557868 0.030639980531608064 -0.00082944089436851856 0.034945341050624849 -0.0023539808718487619 0.015695448092495401 0.024743218264646 -0.021394127234816554 -0.014444873481988908 0.038230755403637885 -0.0017942743725143373 0.014767485923532928 0.0011606827487840368 0.01172010412609035 -0.019350909208878875 0.014135443677122772 -0.022885884037789177 -0.0050474686288258198 -0.0043753795977681861 -0.00097051856108009793 -0.015716892968986131 -0.014269370043819597 -0.027638829442170942 0.026196891739964485 0.012051851823925971 -1.0566955262964422e-05 0.010256498344242575 -0.0012343977662650023 -0.00730230932822451 -0.020251503534382209 -0.0071527862244031631 -0.013187633654368775 -0.0092102220126738157 0.00048177741467952728
leaf_weight=10.999999999999998 10.000000000000005 11.999999999999998 18 9.9999999999999982 14.999999999999998 14.999999999999998 18 12.999999999999998 17 9.9999999999999982 15.999999999999998 13.999999999999998 17.000000000000004 11.000000000000002 11.999999999999998 13.000000000000002 17 13.999999999999998 10.000000000000002 15.000000000000002 18.000000000000004 11.000000000000002 13.000000000000002 9.9999999999999982 9.9999999999999982 10.999999999999998 9.9999999999999982 10.999999999999998 9.9999999999999982 15.999999999999998 11.000000000000002 13.999999999999998 11.999999999999998 9.9999999999999982
leaf_count=11 10 12 18 10 15 15 18 13 17 10 16 14 17 11 12 13 17 14 10 15 18 11 13 10 10 11 10 11 10 16 11 14 12 10
internal_value=0 -0.00742795 -0.00899776 0.014807 0.0133888 0.0152482 0.0122251 -0.00678517 -0.00590184 0.0250229 0.00937291 -0.00158263 0.00189339 -0.00164067 -0.00732687 0.012209 -0.0098006 -0.0115004 -0.00768916 0.00808597 -0.0165553 -0.0170052 -0.0200961 0.0193796 0.018419 0.00585477 0.00352029 -0.00695101 -0.0127117 -0.0235631 -0.00856339 -0.0105323 -0.0116298 -0.0019468
internal_weight=0 303 291 152 142 127 97 228 215 30 79 102 65 51 29 63 113 95 37 40 45 63 40 23 20 22 25 50 28 29 39 25 23 20
internal_count=455 303 291 152 142 127 97 228 215 30 79 102 65 51 29 63 113 95 37 40 45 63 40 23 20 22 25 50 28 29 39 25 23 20
is_linear=0
shrinkage=0.05


Tree=22
num_leaves=36
num_cat=0
split_feature=2 4 2 10 2 0 4 0 9 3 6 4 0 10 7 8 3 0 4 10 8 10 3 8 0 0 4 8 4 8 6 2 3 4 0
split_gain=18.0657 6.53667 1.87589 1.56714 1.525 1.10627 1.85058 0.937614 0.910654 0.794027 0.755424 1.19937 1.28641 0.743786 0.605396 0.528947 0.578981 0.498694 1.09918 0.478319 0.453027 0.450373 0.350365 0.320148 0.33155 0.309847 0.28071 0.279748 0.268397 0.187119 0.144404 0.1433 0.137886 0.0779187 0.0243973
threshold=1999.5000000000002 17.233333335000001 1975.5000000000002 50.000000000000007 2007.5000000000002 4.5000000000000009 15.983333335000003 1.5000000000000002 6.0750000000000002 29.583333335000003 76.416666665000022 13.350000000000003 15.500000000000002 5.0000000000000009 0.91666650000000016 1.2833335000000001 30.483333335000001 5.5000000000000009 14.216666665000002 27.000000000000004 1.1666668335000001 17.000000000000004 29.150000000000002 1.2833335000000001 8.5000000000000018 6.5000000000000009 14.250000000000002 1.8166666665000002 15.183333335000002 1.1666668335000001 79.583333335000006 1983.5000000000002 30.050000000000004 14.550000000000002 3.5000000000000004
decision_type=2 2 2 2 2 2 2 2 2 2 2 2 2 2 2 2 2 2 2 2 2 2 2 2 2 2 2 2 2 2 2 2 2 2 2
left_child=1 2 21 4 8 6 7 -4 -2 -6 19 -12 14 -10 20 16 -11 -15 22 23 28 25 -19 24 -7 -1 -9 30 -13 -27 -22 -21 -25 -34 -28
right_child=3 -3 5 -5 9 10 -8 26 13 15 11 12 -14 17 -16 -17 -18 18 -20 31 27 -23 -24 32 -26 29 34 -29 -30 -31 -32 -33 33 -35 -36
leaf_value=-0.014317408235122762 0.021596677669069985 0.02910798027490576 -0.017235671139011779 0.03319807425141335 0.02965181563049555 -0.023506335302122996 0.016831462395687901 0.0051855461167482041 -0.0041868018319032021 0.012303077298052171 0.010165809535167436 0.0089309625835581243 -0.020110135292634369 0.016499011761819324 -0.015474812500178814 0.0071092454000161245 0.025170020800497794 0.0076923261784637952 -0.0029651725174565068 -0.0099639192968606922 -0.013700685519725076 -0.010894501240303119 0.020364502817392351 -0.0061613912524824798 -0.013115820718710036 -0.019888942011378023 -0.002613438887055963 0.00079024503007531178 -0.0021143302472244776 -0.029339179992675782 -0.0052035141685337297 -0.0030525670836990082 -0.016277176337316627 -0.010301161743700505 -0.0060257925736633203
leaf_weight=11.999999999999998 10.999999999999998 11.999999999999998 11.999999999999998 9.9999999999999982 12.999999999999998 14.000000000000002 11.999999999999998 11.999999999999998 13.999999999999998 17 10.999999999999998 11.000000000000002 15.999999999999998 14.999999999999998 9.9999999999999982 12.999999999999998 18 12.000000000000002 19 15.000000000000002 10.000000000000005 18 9.9999999999999982 10.999999999999998 17 11.000000000000002 10 9.9999999999999982 10.999999999999998 9.9999999999999982 9.9999999999999982 14.999999999999998 10.000000000000002 11.999999999999998 11
leaf_count=12 11 12 12 10 13 14 12 12 14 17 11 11 16 15 10 13 18 12 19 15 10 18 10 11 17 11 10 10 11 10 10 15 10 12 11
internal_value=0 -0.00705655 -0.00854787 0.0140667 0.0127194 -0.0066973 -0.000614773 -0.0052671 0.00822282 0.0186903 -0.00859185 -0.00529037 -0.00747009 0.00612121 -0.00420814 0.0157215 0.0189204 0.00869821 0.00584426 -0.0117177 -0.00204147 -0.0172565 0.0134524 -0.0141597 -0.0178083 -0.0207266 -0.000914896 -0.00603798 0.00340832 -0.0243891 -0.0094521 -0.00650824 -0.0107322 -0.0130175 -0.00440086
internal_weight=0 303 291 152 142 240 57 45 81 61 183 89 78 70 62 48 35 56 41 94 52 51 22 64 31 33 33 30 22 21 20 30 33 22 21
internal_count=455 303 291 152 142 240 57 45 81 61 183 89 78 70 62 48 35 56 41 94 52 51 22 64 31 33 33 30 22 21 20 30 33 22 21
is_linear=0
shrinkage=0.05


Tree=23
num_leaves=36
num_cat=0
split_feature=2 1 0 4 1 3 0 7 2 1 1 3 1 1 0 0 0 3 4 2 2 0 0 0 3 8 4 5 3 8 7 1 6 3 9
split_gain=16.3271 7.4797 2.88529 3.0418 1.6242 1.51213 1.53485 1.10276 0.983012 0.926315 0.910355 0.873456 0.834734 0.778178 0.721869 2.20844 0.666618 0.527293 0.521787 0.510761 0.486769 0.427044 0.423529 0.381938 0.363452 0.344281 0.349378 0.201492 0.189993 0.18123 0.161482 0.149751 0.11183 0.0857363 0.0567866
threshold=1998.5000000000002 76185.000000000015 4.5000000000000009 15.983333335000003 695692.50000000012 30.950000000000003 13.500000000000002 0.81666650000000007 1982.5000000000002 499487.00000000006 236715.00000000003 28.916666665000005 1329380.0000000002 349397.50000000006 10.000000000000002 7.5000000000000009 1.5000000000000002 28.050000000000004 15.250000000000002 1988.5000000000002 1987.5000000000002 8.5000000000000018 5.5000000000000009 16.500000000000004 29.916666665000005 1.2833335000000001 14.916666665000003 7.8333333335000015 28.716666665000002 1.5416666665000003 0.7166666665000001 633000.00000000012 78.833333335000006 29.541666665000005 7.0500000000000007
decision_type=2 2 2 2 2 2 2 2 2 2 2 2 2 2 2 2 2 2 2 2 2 2 2 2 2 2 2 2 2 2 2 2 2 2 2
left_child=1 -1 3 16 11 6 7 14 17 -7 -8 -4 18 21 15 22 -3 -6 19 -10 31 -9 24 -12 -2 26 30 -19 -29 -27 -13 -18 -21 -30 -31
right_child=5 2 4 -5 8 9 10 13 12 -11 23 25 -14 -15 -16 -17 20 27 -20 32 -22 -23 -24 -25 -26 29 -28 28 33 34 -32 -33 -34 -35 -36
leaf_value=0.03534618231467903 0.01150906127877533 -0.016373887704685331 -0.027970687001943592 0.017726039762298265 -0.0044775730674155058 0.031085147685371337 0.030828870951452036 0.00095715060830116241 -0.0056662784960980605 0.011686296463012696 0.018802780844271186 -0.010376882292330258 -0.016903599575161934 0.023977097023565038 -0.0059963741630781444 0.025936629758639768 -0.0023938683454285963 -0.020033961435159051 -0.0083732270936974704 0.0033948989429821563 0.0042223812546581035 0.015569543149322271 -0.0073020787987237174 0.0075557166495575341 -0.00079697355628013619 -0.0074739946518093351 -0.026315940245985988 -0.018563779219985001 -0.0068492758879438028 -0.011570654362440105 -0.019362486153841021 -0.0098809493952156865 0.010374441793696447 -0.013396651567891242 -0.016582357084665163
leaf_weight=9.9999999999999982 10.000000000000002 11.999999999999998 14.999999999999998 18 14.999999999999998 16.000000000000004 10.999999999999998 10.000000000000002 12.999999999999998 9.9999999999999982 18 10.000000000000005 9.9999999999999982 12.999999999999998 15.999999999999998 10.999999999999998 11.000000000000002 14.999999999999998 17 12.000000000000002 14.999999999999998 9.9999999999999982 11.999999999999998 13.000000000000002 14.999999999999998 15.999999999999998 9.9999999999999982 10.000000000000002 10.000000000000002 10.000000000000002 9.9999999999999982 17 10.999999999999998 9.9999999999999982 12.999999999999998
leaf_count=10 10 12 15 18 15 16 11 10 13 10 18 10 10 13 16 11 11 15 17 12 15 10 12 13 15 16 10 10 10 10 10 17 11 10 13
internal_value=0 -0.00714434 -0.00866186 -0.000114944 -0.011676 0.0125567 0.0104866 0.00702929 -0.00801589 0.0236241 0.0184712 -0.0170354 -0.00365373 0.0144536 0.00320113 0.00626696 -0.00595381 -0.0125962 -0.00115375 0.00225545 -0.00304588 0.00826335 0.000419218 0.0140863 0.00412544 -0.0146582 -0.0186851 -0.0153024 -0.0129366 -0.0115605 -0.0148697 -0.0069396 0.00673294 -0.010123 -0.0144034
internal_weight=0 290 280 73 207 165 139 97 123 26 42 84 63 33 64 48 55 60 53 36 43 20 37 31 25 69 30 45 30 39 20 28 23 20 23
internal_count=455 290 280 73 207 165 139 97 123 26 42 84 63 33 64 48 55 60 53 36 43 20 37 31 25 69 30 45 30 39 20 28 23 20 23
is_linear=0
shrinkage=0.05


Tree=24
num_leaves=37
num_cat=0
split_feature=2 8 2 7 3 10 3 10 4 7 9 9 2 2 2 5 9 4 7 4 5 6 9 3 6 6 2 0 4 4 6 0 2 8 5 6
split_gain=14.7437 6.0005 2.05431 1.89099 1.41042 1.39385 1.35831 1.30262 0.924032 0.954293 0.886706 0.97306 0.806423 0.610278 0.594666 0.95881 0.606813 0.585662 0.535672 0.48336 0.47896 0.491834 0.454806 0.710721 0.454501 0.426542 0.293941 0.433009 0.420232 0.371904 0.263928 0.249065 0.238632 0.170841 0.131654 0.116577
threshold=1999.5000000000002 2.4666665000000005 1989.5000000000002 0.78333333350000012 30.150000000000002 3.5000000000000004 30.383333335000003 17.000000000000004 14.316666665000001 0.58333333350000005 7.495000000000001 6.8385057470000001 2005.5000000000002 1993.5000000000002 2010.5000000000002 20.166666665000005 6.716666666500001 15.516666665000001 1.0166666665000001 15.716666665000002 18.833333335000003 80.833333335000006 7.3072578000000012 29.683333335000004 79.119658120000011 81.166666665000022 1972.5000000000002 4.5000000000000009 14.683333335000002 15.283333335000002 74.166665000000009 2.5000000000000004 1983.5000000000002 1.0166666665000001 1.6666668335000001 75.333331665000017
decision_type=2 2 2 2 2 2 2 2 2 2 2 2 2 2 2 2 2 2 2 2 2 2 2 2 2 2 2 2 2 2 2 2 2 2 2 2
left_child=1 2 10 8 -5 -2 7 14 13 19 11 32 -9 -4 15 16 -7 -18 22 -10 21 24 30 -24 34 26 -12 31 35 -30 -13 -28 -1 -32 -8 -29
right_child=5 -3 3 4 -6 6 20 12 9 -11 25 18 -14 -15 -16 -17 17 -19 -20 -21 -22 -23 23 -25 -26 -27 27 28 29 -31 33 -33 -34 -35 -36 -37
leaf_value=-0.010305551033128389 -0.0053349545225501067 0.031712119188159707 0.010461283343928778 0.00075261368251898703 0.02441733887419105 0.015910372268020487 0.012706607207655899 0.010426038736477496 0.00021801676929873574 -0.021175775570528851 -0.015363913688522119 -0.016396388759215671 0.025611388453227635 -0.0052764958302889556 0.015860798895697702 -0.010746592059731483 -0.0055144791646550085 0.010869310535490513 -0.027515318393707279 -0.012327765763205078 0.029676099460233342 0.0082842047140002251 -0.026800173264928159 -0.011060814409015272 0.029809928871691229 0.0020198988601226697 -0.0067930730126265952 -0.0092706664719364833 -0.02218948617577552 -0.0093638922177398439 -0.012442524016369132 0.0028180237895307635 -0.00010999296015749377 -0.0034126925451511687 0.020633457872000608 -0.0022768597369297191
leaf_weight=11.000000000000002 9.9999999999999982 9.9999999999999982 11.000000000000002 17.000000000000004 9.9999999999999982 11.999999999999998 10.000000000000005 18 17.000000000000004 13.999999999999998 12.999999999999998 14.999999999999998 17 13.999999999999998 10.999999999999998 9.9999999999999982 12.000000000000002 9.9999999999999982 9.9999999999999982 13.999999999999998 10.999999999999998 9.9999999999999982 16.000000000000004 12.999999999999998 9.9999999999999982 10.999999999999998 14.000000000000002 11.000000000000002 10.000000000000002 12.999999999999998 10.000000000000002 12.999999999999998 11.999999999999998 10.999999999999998 10.999999999999998 12.999999999999998
leaf_count=11 10 10 11 17 10 12 10 18 17 14 13 15 17 14 11 10 12 10 10 14 11 10 16 13 10 11 14 11 10 13 10 13 12 11 11 13
internal_value=0 -0.00637483 -0.00767472 -0.00172343 0.00951733 0.0127077 0.0139783 0.0102612 -0.00605914 -0.010341 -0.01062 -0.013983 0.0178018 0.00164813 0.00546267 0.00286313 0.00686599 0.0019327 -0.0167421 -0.00544782 0.0204118 0.0179262 -0.0150847 -0.0197446 0.0210366 -0.00725697 -0.0084299 -0.00721177 -0.0101107 -0.0149402 -0.0113309 -0.00216551 -0.00498613 -0.00771261 0.0168588 -0.00548235
internal_weight=0 303 293 97 27 152 142 90 70 45 196 98 35 25 55 44 34 22 75 31 52 41 65 29 31 98 87 74 47 23 36 27 23 21 21 24
internal_count=455 303 293 97 27 152 142 90 70 45 196 98 35 25 55 44 34 22 75 31 52 41 65 29 31 98 87 74 47 23 36 27 23 21 21 24
is_linear=0
shrinkage=0.05


Tree=25
num_leaves=36
num_cat=0
split_feature=2 1 0 4 1 1 10 10 10 6 9 9 6 8 0 1 0 4 0 0 2 2 4 9 6 9 0 0 2 8 4 2 1 9 4
split_gain=13.3701 6.66299 2.46316 2.61573 1.42184 1.2666 1.35156 1.2604 1.32484 1.10051 0.895813 1.42169 0.803996 0.761056 0.613403 0.577948 0.776014 0.575288 1.06181 0.572247 0.470495 0.410241 0.404311 0.343993 0.327235 0.260475 0.260018 0.501962 0.320563 0.259709 0.20172 0.334455 0.120977 0.0958869 0.0507326
threshold=1998.5000000000002 76185.000000000015 4.5000000000000009 15.983333335000003 695692.50000000012 472240.00000000006 3.5000000000000004 17.000000000000004 8.0000000000000018 81.500000000000014 7.495000000000001 7.3072578000000012 79.833333335000006 0.98333333350000018 1.5000000000000002 823962.50000000012 8.5000000000000018 14.583333335000001 6.5000000000000009 12.500000000000002 1974.5000000000002 1987.5000000000002 15.283333335000002 8.0196665000000014 80.500000000000014 6.5416666665000003 7.5000000000000009 6.5000000000000009 1990.5000000000002 1.1166666665000002 14.65 1989.5000000000002 633000.00000000012 7.3500000000000005 14.583333335000001
decision_type=2 2 2 2 2 2 2 2 2 2 2 2 2 2 2 2 2 2 2 2 2 2 2 2 2 2 2 2 2 2 2 2 2 2 2
left_child=1 -1 3 14 19 7 -7 8 9 -2 11 13 23 -6 -3 17 -17 -8 -19 20 -4 32 25 -12 -9 -10 27 -22 33 -13 31 -15 -16 -28 -25
right_child=5 2 4 -5 10 6 15 24 22 -11 12 29 -14 30 21 16 -18 18 -20 -21 26 -23 -24 34 -26 -27 28 -29 -30 -31 -32 -33 -34 -35 -36
leaf_value=0.0336386090493761 0.028567493945204959 -0.015410425075485061 -0.023145017524560295 0.016543969065727047 -0.015863601590196293 -0.010715876314789057 0.022184819541871549 0.018762030151179606 0.013668986352590409 0.0077459824694828556 0.00062803752537417626 -0.026257358926037939 0.010054013759575108 -0.0057226132314938749 -0.0021142733960666433 -0.0074577046930789925 0.010297732846811415 0.018965646438300607 -0.0025409188460219991 -0.026328073848377577 -0.0094383060621718567 0.0040470415648693843 -0.002070943255407306 -0.0069127005711197833 0.029084711548473155 0.003214782434092327 -0.015931032411754125 -0.024225389686497772 -0.0030149569967761638 -0.015347129162400962 -0.0074960028093690725 0.0056191924887780964 -0.0088437241940375645 -0.0098581761419504459 -0.011833398687568579
leaf_weight=9.9999999999999982 15.000000000000002 11.999999999999998 11.999999999999998 18 14.999999999999998 9.9999999999999982 11.999999999999998 17.000000000000004 13.000000000000002 10.999999999999998 13.999999999999998 12.000000000000002 10.999999999999998 13.000000000000002 11.000000000000002 10.000000000000002 15.999999999999998 12.000000000000002 10.999999999999998 10.999999999999998 12 14.999999999999998 12.999999999999998 10.000000000000002 13.999999999999998 10.999999999999998 13.000000000000002 11 11.999999999999998 9.9999999999999982 13.999999999999998 12.999999999999998 17 12.999999999999998 10.999999999999998
leaf_count=10 15 12 12 18 15 10 12 17 13 11 14 12 11 13 11 10 16 12 11 11 12 15 13 10 14 11 13 11 12 10 14 13 17 13 11
internal_value=0 -0.0064651 -0.00789738 -3.88396e-07 -0.0106823 0.0113629 0.0063223 0.0151702 0.0111088 0.0197584 -0.0072578 -0.0105559 -0.00173712 -0.00625896 -0.00541491 0.00911545 0.00346872 0.0133102 0.0086799 -0.0156968 -0.0140948 -0.00262546 0.00503073 -0.00544291 0.0234239 0.00887748 -0.0123144 -0.0165104 -0.00977472 -0.0212982 -0.00265721 -5.17104e-05 -0.00620001 -0.0128946 -0.00949021
internal_weight=0 290 280 73 207 165 71 94 63 26 123 77 46 55 55 61 26 35 23 84 73 43 37 35 31 24 61 23 38 22 40 26 28 26 21
internal_count=455 290 280 73 207 165 71 94 63 26 123 77 46 55 55 61 26 35 23 84 73 43 37 35 31 24 61 23 38 22 40 26 28 26 21
is_linear=0
shrinkage=0.05


Tree=26
num_leaves=33
num_cat=0
split_feature=2 4 3 0 2 0 0 3 0 6 1 10 1 4 0 10 0 2 10 4 0 10 8 2 9 6 8 0 1 3 2 5
split_gain=12.0666 6.27123 1.20111 1.20724 1.19417 0.943475 1.23567 0.847823 1.57222 0.797425 0.788803 0.788248 0.768921 0.739307 0.77845 1.08384 0.722134 0.533024 0.517658 0.513363 0.363302 0.352582 0.335794 0.258718 0.251585 0.244748 0.243366 0.215637 0.182011 0.0977891 0.0961352 0.0579953
threshold=1998.5000000000002 17.233333335000001 30.950000000000003 13.500000000000002 1975.5000000000002 4.5000000000000009 1.5000000000000002 28.466668335000005 15.500000000000002 76.416666665000022 811120.00000000012 9.5000000000000018 499487.00000000006 14.350000000000003 10.000000000000002 8.0000000000000018 16.500000000000004 2005.5000000000002 9.5000000000000018 15.183333335000002 15.500000000000002 17.000000000000004 1.2833335000000001 1987.5000000000002 7.1166665000000009 75.333331665000017 1.1666668335000001 8.5000000000000018 515632.50000000006 30.050000000000004 1989.5000000000002 9.8333333335000024
decision_type=2 2 2 2 2 2 2 2 2 2 2 2 2 2 2 2 2 2 2 2 2 2 2 2 2 2 2 2 2 2 2 2
left_child=1 4 3 10 21 6 -6 20 9 22 13 -8 -4 -2 15 -15 17 -5 31 24 -7 25 27 -13 -11 -1 -26 -9 -24 -30 -21 -17
right_child=2 -3 12 16 5 7 11 8 -10 19 -12 23 -14 14 -16 18 -18 -19 -20 30 -22 -23 28 -25 26 -27 -28 -29 29 -31 -32 -33
leaf_value=-0.013657844087315929 0.016457093645524428 0.030888115631585774 0.027456202835310247 0.014725563028717741 -0.014639903779607267 -0.005043379443564585 0.013795282548436753 -0.019165652928253011 -0.022785900403304318 0.007874400224536655 -0.0046585938738038148 -0.0052955648847273539 0.0097820963338017472 0.018457592585507564 -0.0047376105071452916 0.00064865987515076956 0.0062389399426487774 0.028489017228518307 0.011460141837596895 -0.0047478080106278251 0.006812555548579742 -0.008889207544012203 -0.0020561262150295078 0.0038446894070754446 0.0038839883636683213 -0.022305628110965092 -0.0068933963775634766 -0.010821035085245968 -0.0059501212276518332 -0.012116894777864219 -0.010752032026648522 -0.0047362856566905975
leaf_weight=18 19 10.999999999999998 16.000000000000004 17.000000000000004 11.999999999999998 14 12.999999999999998 15.000000000000002 19 10.000000000000002 14.999999999999998 16.000000000000004 9.9999999999999982 17 14.999999999999998 10.000000000000005 12.999999999999998 11.999999999999998 10.999999999999998 12.000000000000002 12 18 9.9999999999999982 14.999999999999998 10.000000000000002 14.999999999999998 10.999999999999998 15.999999999999998 10.000000000000002 18 14.999999999999998 9.9999999999999982
leaf_count=18 19 11 16 17 12 14 13 15 19 10 15 16 10 17 15 10 13 12 11 12 12 18 10 15 10 15 11 16 10 18 15 10
internal_value=0 -0.00614185 0.0107948 0.00894975 -0.00760181 -0.00605471 -0.000417837 -0.00788997 -0.00937135 -0.00736445 0.00588357 0.00346091 0.0206585 0.00781201 0.00520477 0.00831176 0.0160312 0.0204208 0.00274791 -0.00304306 0.000428591 -0.0145183 -0.0109969 -0.000872861 0.00134698 -0.0175887 -0.00176131 -0.0148588 -0.00784649 -0.00991448 -0.00808349 -0.00204381
internal_weight=0 290 165 139 279 228 56 172 146 127 97 44 26 82 63 48 42 29 31 58 26 51 69 31 31 33 21 31 38 28 27 20
internal_count=455 290 165 139 279 228 56 172 146 127 97 44 26 82 63 48 42 29 31 58 26 51 69 31 31 33 21 31 38 28 27 20
is_linear=0
shrinkage=0.05


Tree=27
num_leaves=36
num_cat=0
split_feature=1 4 3 9 6 6 0 10 9 9 1 1 0 0 9 3 10 4 1 6 3 3 5 6 10 10 9 0 3 7 1 5 3 3 4
split_gain=8.54417 9.19922 2.19882 2.12053 1.59415 1.31201 1.41428 1.23719 1.20105 1.52106 1.04778 0.950881 0.854844 0.837597 0.761332 0.667602 0.646631 0.639739 0.843849 0.620386 0.585153 0.539252 0.486865 0.457599 0.455258 0.342308 0.246143 0.228998 0.298924 0.205262 0.225807 0.163116 0.127606 0.114101 0.117466
threshold=472240.00000000006 16.933331665000004 30.850001665000004 7.4574074075000008 73.666668335000011 76.833333335000006 6.5000000000000009 3.5000000000000004 6.855172414000001 7.366666833500001 667707.50000000012 1292150.0000000002 2.5000000000000004 7.5000000000000009 7.9166666665000012 30.116666665000004 17.000000000000004 14.283333335000002 961222.50000000012 79.119658120000011 30.199998335000004 29.383333335000003 2.5000000000000004 80.166665000000009 34.500000000000007 8.0000000000000018 6.0750000000000002 15.500000000000002 28.750000000000004 0.55000000000000016 964985.00000000012 20.166666665000005 29.050000000000004 29.616666665000004 14.283333335000002
decision_type=2 2 2 2 2 2 2 2 2 2 2 2 2 2 2 2 2 2 2 2 2 2 2 2 2 2 2 2 2 2 2 2 2 2 2
left_child=1 2 3 4 -1 6 10 -7 17 11 21 15 -11 -8 -5 31 20 18 -9 -4 26 -2 -14 29 -18 -23 -6 28 -15 -24 -31 -10 -12 -30 -35
right_child=5 -3 19 14 16 7 13 8 9 12 32 -13 22 27 -16 -17 24 -19 -20 -21 -22 25 23 -25 -26 -27 -28 -29 33 30 -32 -33 -34 34 -36
