tree
version=v3
num_class=1
num_tree_per_iteration=1
label_index=0
max_feature_idx=10
objective=regression
feature_names=Column_0 Column_1 Column_2 Column_3 Column_4 Column_5 Column_6 Column_7 Column_8 Column_9 Column_10
feature_infos=[1:18] [15540:1541410] [1969:2013] [26.833333329999999:32.833333330000002] [11.66666667:18.93333333] [0:107.66670000000001] [65:91.333333330000002] [0.033333333:5.8666669999999996] [0.366666667:3.1000000000000001] [2.3666666670000001:9.5999999999999996] [3:63]
tree_sizes=3468 3584 3493 3680 3608 3624 3746 3453 3508 3632 3663 3782 3471 3599 3682 3552 3834

Tree=0
num_leaves=35
num_cat=0
split_feature=1 6 6 0 1 9 9 0 1 5 3 1 1 0 5 6 6 5 3 6 5 0 0 3 5 1 9 9 1 3 0 1 5 3
split_gain=101.575 19.7252 17.8207 17.9111 11.7568 11.8363 10.3275 6.19054 6.13469 5.50978 8.04431 5.30044 5.01663 4.98106 4.35181 3.37417 2.85283 2.78511 2.76257 2.47045 2.45418 2.04012 1.83479 1.22532 1.06858 0.974688 0.970461 1.34736 1.1658 0.720923 0.72089 0.60295 0.539304 0.217219
threshold=474755.00000000006 73.666668335000011 76.833333335000006 3.5000000000000004 236715.00000000003 7.1500000000000012 6.8166666665000006 6.5000000000000009 319959.00000000006 11.166665000000002 30.016665000000003 852896.00000000012 711515.00000000012 2.5000000000000004 36.500000000000007 83.166666665000022 78.500000000000014 36.500000000000007 30.416665000000005 79.833333335000006 3.1666666665000007 6.5000000000000009 13.500000000000002 29.216666665000002 2.8333333335000002 552377.50000000012 7.2373737370000013 7.5086206895000007 1066992.5000000002 29.216666665000002 8.5000000000000018 686792.00000000012 20.166666665000005 30.066668335000003
decision_type=2 2 2 2 2 2 2 2 2 2 2 2 2 2 2 2 2 2 2 2 2 2 2 2 2 2 2 2 2 2 2 2 2 2
left_child=1 -1 3 13 14 8 12 -7 -6 15 19 21 -4 -2 16 22 -3 -12 20 23 -10 31 24 -11 -8 -23 -13 -28 -29 -27 -14 -5 -18 -31
right_child=2 4 6 11 5 7 9 -9 18 10 17 26 30 -15 -16 -17 32 -19 -20 -21 -22 25 -24 -25 -26 29 27 28 -30 33 -32 -33 -34 -35
leaf_value=-0.053697691137205364 -0.065309340758897341 0.12826812388621026 0.16728157937151447 -0.10102637013174835 0.078960165874384369 0.1212721968653028 0.033364420535636478 -0.088036122501592401 0.24684413770459337 -0.24760880579926312 0.038836735772976472 -0.056631302695393897 0.052245971656066696 0.081508475669027844 0.36815260032437497 -0.1012001098820253 0.27864833294970048 -0.082648614434791462 0.28751402874412396 -0.083319343754428107 0.10994624174530289 -0.26677629371859379 0.077037723310186865 -0.14860090484597036 -0.036785919896174517 -0.24086206039168187 -0.16238923551269122 -0.040073038579302493 -0.13215208388111377 -0.19444867961292897 -0.023695569166320037 -0.16752172659216075 0.21868701318524533 -0.15626157531607807
leaf_weight=18 18 9.9999999999999982 14.999999999999998 10.000000000000002 18 10.000000000000002 15.999999999999998 12.999999999999998 10.000000000000002 10.000000000000002 18.000000000000004 13.999999999999998 10.000000000000002 19 9.9999999999999982 10.999999999999998 15.000000000000002 12.999999999999998 14.999999999999998 11.999999999999998 10.999999999999998 9.9999999999999982 15.999999999999998 9.9999999999999982 19 9.9999999999999982 15.999999999999998 11.000000000000002 10.999999999999998 13.000000000000002 9.9999999999999982 11.999999999999998 9.9999999999999982 10.999999999999998
leaf_count=18 18 10 15 10 18 10 16 13 10 10 18 14 10 19 10 11 15 13 15 12 11 10 16 10 19 10 16 11 11 13 10 12 10 11
internal_value=9.89658e-10 0.141745 -0.0629979 -0.111329 0.170581 0.123118 -0.0161767 0.00296749 0.174293 -0.043064 -0.084719 -0.1494 0.0798494 0.0100836 0.251796 -0.000737087 0.218551 -0.0121087 0.22196 -0.15506 0.175136 -0.187025 0.0209314 -0.198105 -0.00471719 -0.211888 -0.101645 -0.118229 -0.0861126 -0.195745 0.0142752 -0.137297 0.254664 -0.176946
internal_weight=0 140 315 155 122 77 160 23 54 125 63 118 35 37 45 62 35 31 36 32 21 66 51 20 35 44 52 38 22 34 20 22 25 24
internal_count=455 140 315 155 122 77 160 23 54 125 63 118 35 37 45 62 35 31 36 32 21 66 51 20 35 44 52 38 22 34 20 22 25 24
is_linear=0
shrinkage=1


Tree=1
num_leaves=36
num_cat=0
split_feature=1 7 7 10 0 8 0 10 7 7 1 7 10 8 10 4 0 7 7 10 1 7 7 1 1 0 1 1 1 8 4 4 7 4 8
split_gain=65.6832 23.2934 20.6278 11.5165 9.72429 9.54533 6.75729 6.13984 9.05108 3.47109 3.07032 2.92431 2.75649 2.58734 2.30737 5.63303 4.41615 3.75223 2.21205 1.98655 1.92064 1.75364 4.00981 1.11353 1.07245 2.1125 1.02505 1.42555 1.13761 1.00104 0.573856 0.965179 0.82171 0.62326 0.489354
threshold=384341.00000000006 1.8166666665000002 0.95000000000000007 17.000000000000004 3.5000000000000004 1.5833335000000004 1.5000000000000002 17.000000000000004 0.86666683350000007 0.51666666650000004 1059760.0000000002 0.55000000000000016 17.000000000000004 1.1500000000000001 8.0000000000000018 14.65 6.5000000000000009 0.48333333350000002 0.78333333350000012 8.0000000000000018 582772.50000000012 0.96666683350000016 0.68333333350000014 23965.500000000004 571142.50000000012 4.5000000000000009 939220.00000000012 852896.00000000012 1002295.0000000001 1.1500000000000001 15.883333335000001 15.416665000000002 0.55000000000000016 16.433331665000004 1.5666668335000002
decision_type=2 2 2 2 2 2 2 2 2 2 2 2 2 2 2 2 2 2 2 2 2 2 2 2 2 2 2 2 2 2 2 2 2 2 2
left_child=2 4 3 11 6 12 -2 8 14 -8 26 13 29 -1 15 17 24 -6 -11 -10 -18 22 -12 -5 -16 -26 27 -9 -28 -4 31 -17 33 -32 -20
right_child=1 -3 5 23 7 -7 9 10 19 18 21 -13 -14 -15 16 30 20 -19 34 -21 -22 -23 -24 -25 25 -27 28 -29 -30 -31 32 -33 -34 -35 -36
leaf_value=0.10950261594050306 -0.09922867700457573 0.23166573842366539 0.19628236393133794 0.12948254455219613 0.13230570495128627 0.40963006854057316 0.1427662343503191 0.041208204627037032 -0.13744467363825863 -0.036463236883282665 -0.11267272531986235 -0.069015446129967184 0.27332773642106489 -0.031060101650655272 -0.01690365312730565 -0.066942455459918282 -0.11894221919539726 -0.040950807482004165 0.093205978187986371 -0.24219818154970807 -0.22722888469696045 -0.13521801585500889 0.044879189257820445 0.21947376863522963 -0.036445855369998351 -0.14477906525135037 0.085203607177192497 -0.053957182410008769 -0.0038401528455627464 0.11756168892607094 -0.0025251953439279027 -0.148295818567276 -0.096666346391042074 -0.071513887047767649 0.032075897157192231
leaf_weight=11.000000000000002 14.999999999999998 11.999999999999998 12.000000000000002 11.000000000000002 10.000000000000002 9.9999999999999982 12.999999999999998 10.000000000000002 14.000000000000002 14.999999999999998 14.000000000000002 17 10.999999999999998 9.9999999999999982 17 14.000000000000002 19.000000000000004 9.9999999999999982 11.000000000000002 14.999999999999998 9.9999999999999982 10.999999999999998 11.999999999999998 10.999999999999998 18 12.000000000000002 11.000000000000002 17 11.999999999999998 13.999999999999998 11.000000000000002 9.9999999999999982 14.999999999999998 9.9999999999999982 9.9999999999999982
leaf_count=11 15 12 12 11 10 10 13 10 14 15 14 17 11 10 17 14 19 10 11 15 10 11 12 11 18 12 11 17 12 14 11 10 15 10 10
internal_value=0 -0.042136 0.137041 0.0593197 -0.0519147 0.236259 0.0182282 -0.0684189 -0.0890251 0.0541844 -0.0246011 -0.00735092 0.189402 0.042568 -0.0699516 -0.0462439 -0.0949069 0.0456774 0.0221966 -0.191628 -0.156282 -0.0682775 -0.0399565 0.174478 -0.0570369 -0.0797791 0.00771936 -0.0187107 0.038746 0.153894 -0.0768844 -0.10084 -0.0609142 -0.035377 0.0640964
internal_weight=0 348 107 60 336 47 64 272 185 49 87 38 37 21 156 80 76 20 36 29 29 37 26 22 47 30 50 27 23 26 60 24 36 21 21
internal_count=455 348 107 60 336 47 64 272 185 49 87 38 37 21 156 80 76 20 36 29 29 37 26 22 47 30 50 27 23 26 60 24 36 21 21
is_linear=0
shrinkage=0.2


Tree=2
num_leaves=35
num_cat=0
split_feature=1 4 6 6 9 5 9 4 1 9 4 8 6 9 1 5 4 9 4 8 4 9 6 6 1 1 6 5 9 6 5 9 5 9
split_gain=42.7019 12.8414 10.4677 9.8175 6.49405 5.46648 4.26125 4.03051 2.08681 4.27241 1.997 2.02298 1.9421 1.77766 1.72707 1.57697 1.52391 1.71613 1.44312 1.55252 1.41488 1.38364 1.19303 1.16901 1.03092 2.00809 0.999899 0.942329 0.569626 0.466076 0.398329 0.378011 0.36279 0.106876
threshold=474755.00000000006 16.883335000000002 78.166666665000022 76.833333335000006 7.0132183910000014 11.166665000000002 6.8166666665000006 15.950000000000001 70030.000000000015 6.6500000000000012 14.383333335000001 1.3500000000000003 81.500000000000014 7.983333333500001 545932.50000000012 8.1666665000000016 14.316666665000001 7.366666833500001 14.783333335000002 1.0416666665000003 15.850000000000003 7.0265517245000009 74.500000000000014 80.166665000000009 660470.00000000012 852896.00000000012 79.833333335000006 10.500000000000002 7.0500000000000007 80.166665000000009 4.6666668335000017 8.0500000000000025 5.6666668335000017 7.8166666665000006
decision_type=2 2 2 2 2 2 2 2 2 2 2 2 2 2 2 2 2 2 2 2 2 2 2 2 2 2 2 2 2 2 2 2 2 2
left_child=1 2 4 7 22 6 -5 14 -4 10 29 -12 18 -9 -2 -6 21 26 19 -8 -19 -7 -1 -11 27 32 -18 -16 -27 -10 -30 -32 -26 -29
right_child=3 -3 8 5 15 16 12 13 9 23 11 -13 -14 -15 24 -17 17 20 -20 -21 -22 -23 -24 -25 25 28 -28 33 30 -31 31 -33 -34 -35
leaf_value=0.016542381942272182 -0.16995505121621221 0.27362106229577748 0.1781011013314128 0.11327975582527489 -0.035671739720485422 0.056128402277827241 0.091505898420205872 -0.06506812572479248 0.14756498560309406 0.079264991730451553 0.14553253971613367 0.025881048440933231 -0.057637834896643959 0.023955394562922026 -0.018145199519182958 -0.14540936112403871 -0.1296632056434949 -0.0597758084302768 -0.019466283710466492 -0.0024516797314087552 0.036123834401369091 -0.044602286691466972 0.11007785486678284 -0.011691162162102186 -0.11926130553086596 -0.035807864469560712 -0.057787319319322711 -0.10041920925199517 -0.12174411088228226 0.20722337636080657 -0.052213048163269243 -0.099574895833547297 -0.16665162018367224 -0.071178641468286521
leaf_weight=10.000000000000002 10.999999999999998 13.999999999999998 15.999999999999998 19 11.000000000000002 10.000000000000002 17.000000000000004 17 10.000000000000002 10.000000000000002 13.000000000000002 9.9999999999999982 14.999999999999998 19 13.999999999999998 9.9999999999999982 15.000000000000002 16.000000000000004 18 11.999999999999998 9.9999999999999982 11.999999999999998 11.999999999999998 12.999999999999998 12.000000000000002 10.999999999999998 15.999999999999998 10.000000000000002 9.9999999999999982 10.999999999999998 14.000000000000002 12.999999999999998 13.999999999999998 9.9999999999999982
leaf_count=10 11 14 16 19 11 10 17 17 10 10 13 10 15 19 14 10 15 16 18 12 10 12 12 13 12 11 16 10 10 11 14 13 14 10
internal_value=0 0.091905 0.0717143 -0.0408466 -0.00837499 -0.00609455 0.030414 -0.0767198 0.113206 0.097709 0.134224 0.0935102 0.00501967 -0.0180835 -0.0944585 -0.0879277 -0.0435274 -0.0607846 0.0250167 0.0526269 -0.0228913 0.00118439 0.0675617 0.027855 -0.086769 -0.100014 -0.092566 -0.0579415 -0.0757663 0.178815 -0.0876459 -0.0750169 -0.144779 -0.0857989
internal_weight=0 140 126 315 43 160 81 155 83 67 44 23 62 36 119 21 79 57 47 29 26 22 22 23 108 74 31 34 48 21 37 27 26 20
internal_count=455 140 126 315 43 160 81 155 83 67 44 23 62 36 119 21 79 57 47 29 26 22 22 23 108 74 31 34 48 21 37 27 26 20
is_linear=0
shrinkage=0.2


Tree=3
num_leaves=37
num_cat=0
split_feature=2 1 2 2 3 1 2 3 10 10 1 1 5 1 1 1 3 3 2 1 10 6 10 10 6 10 1 6 3 2 1 5 6 5 2 3
split_gain=67.6701 17.3518 8.6424 3.3692 3.41306 3.38373 2.99566 3.35765 1.95849 1.87817 1.81642 1.42059 1.34865 1.2781 1.23548 1.22466 0.850419 2.39258 0.929302 1.08097 0.759758 0.73093 0.72452 1.45848 0.639513 0.405955 0.383183 0.368507 0.26827 0.351575 0.343313 0.235114 0.209539 0.164336 0.0416992 0.00932943
threshold=1998.5000000000002 70030.000000000015 1974.5000000000002 1990.5000000000002 30.766668335000002 579400.00000000012 2008.5000000000002 31.250000000000004 17.000000000000004 17.000000000000004 545932.50000000012 961222.50000000012 9.1666666665000012 308451.00000000006 774340.00000000012 335803.50000000006 28.483335000000004 28.950000000000003 1988.5000000000002 649651.50000000012 8.0000000000000018 79.833333335000006 5.0000000000000009 8.0000000000000018 77.166665000000009 8.0000000000000018 923622.50000000012 75.333331665000017 29.750000000000004 1983.5000000000002 768855.00000000012 14.833335000000002 80.833333335000006 13.166666665000003 1979.5000000000002 29.783333335000005
decision_type=2 2 2 2 2 2 2 2 2 2 2 2 2 2 2 2 2 2 2 2 2 2 2 2 2 2 2 2 2 2 2 2 2 2 2 2
left_child=1 -1 12 10 5 31 7 9 15 13 -4 32 -3 -2 -7 20 27 -18 19 25 -8 24 -15 -24 -16 -19 -14 -12 30 34 -21 -5 -11 35 -30 -25
right_child=6 2 3 4 -6 14 8 -9 -10 11 16 -13 26 22 21 -17 17 18 -20 28 -22 -23 23 33 -26 -27 -28 -29 29 -31 -32 -33 -34 -35 -36 -37
leaf_value=0.18613142466003246 -0.012733430889519779 -0.19383730046889361 -0.13309316109208499 -0.079905487820506077 0.073391149737513983 0.055631163343787197 0.1160189107060432 0.18543275398286907 0.18885472542361212 0.11930397840646595 -0.053624386543577353 0.053332701783913833 -0.13956854323807513 0.022210825500743731 -0.014157102932222183 0.15467133104801178 -0.16409014889970422 -0.0022606067359447475 -0.015591552685946225 -0.12597635442560365 0.043250192295421257 0.019927392099052671 0.13054880729088417 0.044199996441602676 -0.082638941109180464 -0.055860153270455508 -0.091200834810733808 -0.0018551642921837896 -0.08230374509638004 -0.052709936997335817 -0.077060229331254962 -0.1214285785642763 0.15781234800815583 0.071281327480683096 -0.10014835819602014 0.035560814142227171
leaf_weight=10.999999999999998 10.999999999999998 17 17 10.000000000000002 12.999999999999998 9.9999999999999982 12.000000000000002 10.999999999999998 19 13.000000000000002 11.000000000000002 12.999999999999998 19.000000000000004 13.999999999999998 12.000000000000002 14.999999999999998 9.9999999999999982 10 14.999999999999998 11.000000000000002 10.999999999999998 9.9999999999999982 12.999999999999998 10.000000000000005 9.9999999999999982 13 9.9999999999999982 10.999999999999998 11.000000000000002 18 11.999999999999998 11.999999999999998 9.9999999999999982 9.9999999999999982 9.9999999999999982 9.9999999999999982
leaf_count=11 11 17 17 10 13 10 12 11 19 13 11 13 19 14 12 15 10 10 15 11 11 10 13 10 10 13 10 11 11 18 12 12 10 10 10 10
internal_value=0 -0.0601303 -0.0700895 -0.0540057 -0.0200364 -0.0390139 0.0989354 0.080353 0.136426 0.0692388 -0.0715603 0.106178 -0.14911 0.0496829 -0.00573069 0.110212 -0.0636356 -0.0708148 -0.0614873 -0.0695865 0.0812165 -0.0249063 0.0617282 0.0745943 -0.0452852 -0.032556 -0.12289 -0.0277398 -0.0833236 -0.0732206 -0.100455 -0.102554 0.136047 0.0503474 -0.0908012 0.0398804
internal_weight=0 283 272 226 77 64 172 115 57 104 149 36 46 68 42 38 132 110 100 85 23 32 57 43 22 23 29 22 62 39 23 22 23 30 21 20
internal_count=455 283 272 226 77 64 172 115 57 104 149 36 46 68 42 38 132 110 100 85 23 32 57 43 22 23 29 22 62 39 23 22 23 30 21 20
is_linear=0
shrinkage=0.2


Tree=4
num_leaves=36
num_cat=0
split_feature=2 10 2 2 4 10 10 10 8 10 10 10 2 2 2 10 10 4 6 6 8 5 6 2 4 8 5 8 10 10 10 5 2 10 8
split_gain=43.3263 9.29885 6.10544 2.93533 1.9962 1.9756 1.28838 1.42968 1.1804 1.06963 0.94405 0.936523 0.910661 0.861017 1.57185 0.813375 0.798524 0.776927 0.725346 0.599887 0.655505 0.485539 0.515426 0.527546 0.604735 0.479494 0.447542 0.420831 0.370674 1.01127 0.501921 0.367129 0.314608 0.22628 0.192013
threshold=1999.5000000000002 50.000000000000007 1974.5000000000002 1990.5000000000002 16.433331665000004 17.000000000000004 17.000000000000004 8.0000000000000018 1.3166666665000002 5.0000000000000009 8.0000000000000018 17.000000000000004 2007.5000000000002 2003.5000000000002 2008.5000000000002 9.5000000000000018 27.000000000000004 14.416666665000003 75.333331665000017 81.166666665000022 0.81666666650000008 47.833333330000009 82.833333335000006 1987.5000000000002 14.65 1.0416666665000003 8.8333333335000024 1.3166666665000002 17.000000000000004 6.5000000000000009 5.0000000000000009 3.1666666665000007 1977.5000000000002 9.5000000000000018 1.2666668335000002
decision_type=2 2 2 2 2 2 2 2 2 2 2 2 2 2 2 2 2 2 2 2 2 2 2 2 2 2 2 2 2 2 2 2 2 2 2
left_child=1 2 11 21 6 8 7 9 10 -5 19 17 26 -10 -15 -9 -8 -1 -19 20 -2 22 23 28 -25 -12 -7 -14 29 30 -4 -31 -30 -33 -34
right_child=5 -3 3 4 -6 12 16 15 13 -11 25 -13 27 14 -16 -17 -18 18 -20 -21 -22 -23 -24 24 -26 -27 -28 -29 32 31 -32 33 34 -35 -36
leaf_value=-0.17930044748566368 0.080829439461231209 0.12039268956734583 -0.063207330554723731 -0.038432555894056947 0.068611873093653811 0.075293720317514301 0.05553655995542859 -0.10458962108407699 0.073222337312558117 0.046011783685535192 0.090964171967723134 -0.068384193745441732 0.17511388388547025 -0.044066970050334914 0.068070506155490873 -0.037560317857811852 -0.016471916490367482 -0.085727210449320912 -0.15625239074230196 0.067717422855397072 0.14536149002173368 -0.097441537136381318 -0.097485669963061808 0.010994134809483178 -0.056961541958153256 0.038494425655440673 0.12598514922640541 0.11979132403026929 -0.071593023836612701 -0.11941634982824326 -0.0096525171771645532 -0.090344042144715767 -0.018456117568635626 -0.054012681590393186 -0.051659569152715537
leaf_weight=10.999999999999998 10.000000000000002 12.999999999999998 14 15.000000000000002 10.999999999999998 19.000000000000004 11.000000000000002 14.000000000000002 17 9.9999999999999982 11.000000000000002 10.999999999999998 11.000000000000002 10.000000000000002 9.9999999999999982 14.999999999999998 13.999999999999998 14.000000000000002 9.9999999999999982 11.999999999999998 17 10.999999999999998 9.9999999999999982 11.000000000000002 9.9999999999999982 19 10.999999999999998 10.999999999999998 9.9999999999999982 9.9999999999999982 14 16.000000000000004 19.000000000000004 11.999999999999998 10.999999999999998
leaf_count=11 10 13 14 15 11 19 11 14 17 10 11 11 11 10 10 15 14 14 10 12 17 11 10 11 10 19 11 11 10 10 14 16 19 12 11
internal_value=0 -0.0450143 -0.0525857 -0.0396937 -0.0112112 0.0846154 -0.0223258 -0.0397043 0.0689515 -0.00465482 0.0844065 -0.119288 0.116546 0.0401301 0.0120018 -0.0699193 0.0152118 -0.135286 -0.115113 0.104924 0.121461 -0.0570142 -0.0537682 -0.0503259 -0.0213657 0.0577333 0.0938806 0.147453 -0.0560633 -0.0652706 -0.0364299 -0.0865216 -0.0408713 -0.0747735 -0.0306307
internal_weight=0 297 284 238 90 158 79 54 106 25 69 46 52 37 20 29 25 35 24 39 27 148 137 127 21 30 30 22 106 66 28 38 40 28 30
internal_count=455 297 284 238 90 158 79 54 106 25 69 46 52 37 20 29 25 35 24 39 27 148 137 127 21 30 30 22 106 66 28 38 40 28 30
is_linear=0
shrinkage=0.2


Tree=5
num_leaves=36
num_cat=0
split_feature=10 6 3 10 4 4 6 10 5 5 5 4 5 8 3 10 8 5 10 4 4 5 6 5 8 8 6 4 5 4 5 8 3 8 4
split_gain=7.71148 5.48051 3.63852 6.40954 2.3005 2.02093 2.81446 1.91636 1.8073 1.7949 1.72324 1.67584 1.62733 1.59477 1.54027 1.37436 0.816022 0.642739 1.05534 0.617063 0.542941 0.525992 0.45164 0.371212 0.708834 0.360657 0.26854 0.232584 0.22538 0.183094 0.345846 0.16271 0.162258 0.13426 0.054143
threshold=50.000000000000007 76.166665000000009 30.050000000000004 9.5000000000000018 15.666668335000002 14.050000000000002 77.500000000000014 8.0000000000000018 19.500000000000004 20.833333335000003 0.50000000000000011 15.416665000000002 42.500000000000007 1.0666668335000002 28.783333335000005 17.000000000000004 1.5833335000000004 31.166666665000005 17.000000000000004 13.816666665000001 14.15 8.1666665000000016 73.166665000000009 8.5000000000000018 1.0666668335000002 1.5166666665000001 82.166666665000022 15.883333335000001 5.6666668335000017 14.816666665000001 5.6666668335000017 1.3166666665000002 28.716666665000002 1.1500000000000001 15.350000000000003
decision_type=2 2 2 2 2 2 2 2 2 2 2 2 2 2 2 2 2 2 2 2 2 2 2 2 2 2 2 2 2 2 2 2 2 2 2
left_child=1 4 3 7 15 -4 11 21 -2 16 33 -7 25 14 -12 19 22 18 -15 -1 -20 -3 -6 24 -17 26 29 -23 -21 -8 -31 -30 -25 -5 -9
right_child=8 2 5 10 9 6 12 34 -10 -11 13 -13 -14 17 -16 23 -18 -19 20 28 -22 27 -24 32 -26 -27 -28 -29 31 30 -32 -33 -34 -35 -36
leaf_value=-0.10194174886534089 0.048919663727283458 0.0024308593757450571 0.097985158506535774 0.056786343492567518 -0.020776694566011427 0.035606851503252976 0.057786210075331239 -0.10432253032922741 0.16201316778762984 -0.058330675435718154 -0.088871943341060092 0.15139434196054935 -0.061926698278297082 -0.024502966006596884 0.0061216921390344703 -0.036745408615331591 0.067311760918660604 0.074292981028556832 0.068871596003217336 -0.036532428201574547 0.010896921111270786 -0.031224043127149333 0.029171021921294078 -0.064589416384696938 0.031132598519325257 -0.0060986073004702726 0.003017352187695603 -0.073367813365025958 -0.082471864819526661 0.00079562694511630294 0.046863374556414789 -0.051226676988881087 -0.031233351078948809 0.089559472799301154 -0.12513464033603669
leaf_weight=19 10.000000000000002 10.000000000000002 19 10.000000000000002 15.000000000000002 10.000000000000002 11.999999999999998 10.000000000000002 12.999999999999998 15.999999999999998 11.000000000000002 9.9999999999999982 10.999999999999998 14.999999999999998 18 16.000000000000004 10.999999999999998 9.9999999999999982 14.000000000000002 12.999999999999998 11.999999999999998 10.000000000000002 13.999999999999998 10.000000000000002 9.9999999999999982 14.999999999999998 11.999999999999998 10.999999999999998 15.000000000000002 11.000000000000002 15.999999999999998 11.999999999999998 13.999999999999998 9.9999999999999982 9.9999999999999982
leaf_count=19 10 10 19 10 15 10 12 10 13 16 11 10 11 15 18 16 11 10 14 13 12 10 14 10 10 15 12 11 15 11 16 12 14 10 10
internal_value=0 -0.0060078 0.0117008 -0.00876253 -0.0346636 0.0383385 0.0266551 -0.0664618 0.112842 -0.00171638 0.0206641 0.0935006 0.00929267 0.00753687 -0.0299104 -0.0515906 0.0209293 0.0288304 0.017742 -0.0722646 0.0421141 -0.0353219 0.003336 -0.0271952 -0.0106385 0.0211626 0.0291806 -0.0532994 -0.058168 0.0372308 0.028095 -0.0685851 -0.0451317 0.0731729 -0.114729
internal_weight=0 432 267 151 165 116 97 51 23 56 100 20 77 80 29 109 40 51 41 59 26 31 29 50 26 66 51 21 40 39 27 27 24 20 20
internal_count=455 432 267 151 165 116 97 51 23 56 100 20 77 80 29 109 40 51 41 59 26 31 29 50 26 66 51 21 40 39 27 27 24 20 20
is_linear=0
shrinkage=0.2


Tree=6
num_leaves=37
num_cat=0
split_feature=2 1 2 10 3 7 1 3 2 7 2 3 3 8 10 1 3 2 7 1 1 8 10 1 1 2 1 3 10 7 8 8 8 1 2 2
split_gain=22.086 5.30297 2.94809 1.63412 1.51168 1.31823 1.14603 1.08671 0.842539 1.17392 0.574742 0.569979 1.12056 0.527087 0.497517 0.485953 0.38476 0.369213 0.360179 0.337943 0.321759 0.316251 0.309514 0.304705 0.335425 0.331783 0.295224 0.286069 0.309847 0.238457 0.199077 0.170151 0.142611 0.142032 0.106398 0.0488702
threshold=1998.5000000000002 243670.00000000003 1974.5000000000002 3.5000000000000004 30.350000000000005 0.48333333350000002 426255.00000000006 29.650000000000002 1990.5000000000002 0.61666666650000013 1994.5000000000002 28.483335000000004 28.950000000000003 1.1166666665000002 17.000000000000004 762905.50000000012 30.416665000000005 2006.5000000000002 0.45000000000000001 503102.50000000006 254492.50000000003 1.3500000000000003 6.5000000000000009 548903.50000000012 635302.50000000012 1988.5000000000002 329885.00000000006 29.116665000000005 9.5000000000000018 0.95000000000000007 1.0166666665000001 1.2166666665000003 1.1166666665000002 1232720.0000000002 1982.5000000000002 1982.5000000000002
decision_type=2 2 2 2 2 2 2 2 2 2 2 2 2 2 2 2 2 2 2 2 2 2 2 2 2 2 2 2 2 2 2 2 2 2 2 2
left_child=1 -1 16 -2 5 21 -4 14 11 13 -11 33 -13 -10 -7 19 27 -16 32 20 -6 30 -15 -20 -25 29 -22 28 -3 34 -5 -9 -14 -8 -26 -34
right_child=3 2 6 4 15 7 8 31 9 10 -12 12 18 22 17 -17 -18 -19 23 -21 26 -23 -24 24 25 -27 -28 -29 -30 -31 -32 -33 35 -35 -36 -37
leaf_value=0.081370420555273701 -0.021941776163876058 -0.10727653622627256 -0.084662104249000558 0.0077973717451095548 0.113531571355733 0.056041109841316938 -0.021121520611147082 0.016357839697351054 -0.07115845292806626 0.057965529710054378 -0.00070563050753930036 -0.10557009875774384 -0.06943278037584745 -0.045326813757419572 0.074968923330306983 0.046307307481765751 -0.12161649227142335 0.12608534395694734 -0.060717168301343917 0.12234336504569421 0.045769135747104867 -0.011724545418595274 -0.00098356326275012072 0.00097816379412132143 -0.043211190673437976 -0.00086557708722962584 0.089574990980327132 -0.05039327556309714 -0.061827125102281569 -0.061092833003827507 0.046005971450358632 0.04677789818593546 -0.03263867020606994 0.011151760620996357 -0.016926250061286348 -0.052411410883069047
leaf_weight=14.999999999999998 9.9999999999999982 15.000000000000002 14.999999999999998 10.000000000000002 10.999999999999998 13.999999999999998 12.000000000000002 12.000000000000002 9.9999999999999982 11.000000000000002 17 9.9999999999999982 12.999999999999998 10.000000000000002 10.000000000000002 9.9999999999999982 9.9999999999999982 12.999999999999998 9.9999999999999982 12.999999999999998 10.000000000000002 11.999999999999998 17 17 11.000000000000002 10.999999999999998 15.999999999999998 10.999999999999998 9.9999999999999982 13.999999999999998 11.999999999999998 19 10.000000000000002 9.9999999999999982 13.999999999999998 9.9999999999999982
leaf_count=15 10 15 15 10 11 14 12 12 10 11 17 10 13 10 10 10 10 13 10 13 10 12 17 17 11 11 16 11 10 14 12 19 10 10 14 10
internal_value=0 -0.0343521 -0.0408292 0.0565213 0.0613647 0.0465471 -0.0312806 0.0626242 -0.0274124 -0.00855305 0.0223438 -0.0360452 -0.0414707 -0.0319344 0.0857669 0.0865546 -0.0869111 0.103861 -0.0356435 0.094604 0.0848578 0.0143927 -0.017407 -0.0281514 -0.0232908 -0.0315422 0.0727266 -0.0772707 -0.0890968 -0.0401946 0.0286384 0.0350024 -0.0531251 -0.00645185 -0.0284916 -0.042525
internal_weight=0 283 268 172 162 102 222 68 207 65 28 142 120 37 37 60 46 23 110 50 37 34 27 77 67 50 26 36 25 39 22 31 33 22 25 20
internal_count=455 283 268 172 162 102 222 68 207 65 28 142 120 37 37 60 46 23 110 50 37 34 27 77 67 50 26 36 25 39 22 31 33 22 25 20
is_linear=0
shrinkage=0.2


Tree=7
num_leaves=34
num_cat=0
split_feature=4 9 10 5 8 6 10 10 10 9 9 6 9 10 8 10 5 4 6 5 8 4 8 9 9 10 4 5 5 4 4 4 5
split_gain=4.84504 3.22097 1.62483 1.473 1.30986 0.954931 0.950017 1.19773 1.07219 1.10001 0.775934 0.676035 0.638366 0.586497 0.916925 0.52435 0.517578 0.385148 0.344105 0.421618 0.639437 0.846143 0.489979 0.250462 0.250069 0.447345 0.593394 0.311698 0.179288 0.206443 0.114905 0.086968 0.078868
threshold=17.233333335000001 6.8385057470000001 50.000000000000007 1.0000000180025095e-35 1.7166666665000003 75.666668335000011 6.5000000000000009 9.5000000000000018 5.0000000000000009 7.366666833500001 7.0265517245000009 78.500000000000014 8.0500000000000025 8.0000000000000018 1.2500000000000002 5.0000000000000009 11.166665000000002 15.416665000000002 74.500000000000014 12.666668335000002 1.4500000000000002 14.316666665000001 1.2500000000000002 6.2500000000000009 5.5833333335000006 36.000000000000007 13.916666665000003 7.5000000000000009 6.1666666665000003 13.916666665000003 16.583333335000003 13.100000000000001 8.5000000000000018
decision_type=2 2 2 2 2 2 2 2 2 2 2 2 2 2 2 2 2 2 2 2 2 2 2 2 2 2 2 2 2 2 2 2 2
left_child=1 4 3 17 5 31 8 12 11 -10 -9 -5 13 -8 -15 -7 -13 -3 32 22 21 -21 28 -6 -17 26 -26 -28 29 -20 -11 -1 -12
right_child=-2 2 -4 6 23 15 7 10 9 30 18 16 -14 14 -16 24 -18 -19 19 20 -22 -23 -24 -25 25 -27 27 -29 -30 -31 -32 -33 -34
leaf_value=-0.016274843161756338 0.11177730180323125 0.0071449523961002155 0.049386213794350625 -0.054378252123531548 -0.030945590697228905 0.0012839641980826855 -0.0024214483458887448 -0.059207071063985289 -0.023573335384329163 0.056953559230480871 -0.023239835848410922 0.01868379469960928 -0.091430798758353513 -0.091996287802855181 -0.024153801974128277 0.072198245022445914 -0.032187504129251469 0.061377120018005375 -0.01148575911806388 -0.0010819694648186362 0.015761309753482541 -0.073456203086035593 -0.030507066642696208 0.0056844545129154413 0.095183016583323482 0.0055890000378713018 0.057909432930104879 0.018354357344408833 0.040553565919399265 0.02574209129581085 0.029638113178820775 0.0094956617057323466 -0.044993185143296921
leaf_weight=11.000000000000002 14.999999999999998 11.000000000000002 14.999999999999998 19 16.000000000000004 9.9999999999999982 10.999999999999998 17 14.999999999999998 14.000000000000002 15.000000000000002 15.999999999999998 13.999999999999998 14.999999999999998 17 15.999999999999998 15.999999999999998 9.9999999999999982 11.000000000000002 12.000000000000002 11.999999999999998 13.999999999999998 10.999999999999998 13.999999999999998 9.9999999999999982 9.9999999999999982 17 14.999999999999998 9.9999999999999982 12.999999999999998 10.999999999999998 9.9999999999999982 11.999999999999998
leaf_count=11 15 11 15 19 16 10 11 17 15 14 15 16 14 15 17 16 16 10 11 12 12 14 11 14 10 10 17 15 10 13 11 10 12
internal_value=0 -0.00381059 -0.0148314 -0.0180856 0.0227589 0.0338529 -0.0219844 -0.0302513 -0.00526898 0.0192442 -0.019441 -0.024495 -0.0543373 -0.0422603 -0.055955 0.044045 -0.00675185 0.0329698 -0.0132954 -0.00691534 -0.0224272 -0.0400527 0.00618359 -0.0138516 0.0503334 0.0436057 0.0526573 0.039368 0.0180541 0.00867933 0.0449348 -0.00400317 -0.032908
internal_weight=0 440 311 296 129 99 275 184 91 40 127 51 57 43 32 78 32 21 110 83 38 26 45 30 68 52 42 32 34 24 25 21 27
internal_count=455 440 311 296 129 99 275 184 91 40 127 51 57 43 32 78 32 21 110 83 38 26 45 30 68 52 42 32 34 24 25 21 27
is_linear=0
shrinkage=0.2


Tree=8
num_leaves=35
num_cat=0
split_feature=2 8 0 2 7 2 10 5 7 0 10 7 5 5 0 7 7 7 10 7 2 5 8 8 0 7 2 2 7 8 5 2 8 5
split_gain=10.9623 2.89678 2.90585 1.80757 2.93197 0.922854 0.845312 0.637902 0.454132 0.53423 0.627691 0.388675 0.875762 0.374417 0.365474 0.363999 0.356749 1.20327 0.449095 0.386197 0.322704 0.24773 0.357425 0.389185 0.22422 0.241999 0.238601 0.201151 0.154786 0.151095 0.17129 0.0983869 0.0930922 0.0198242
threshold=1998.5000000000002 2.3166666665000002 4.5000000000000009 1982.5000000000002 0.78333333350000012 1974.5000000000002 3.5000000000000004 36.666668335000004 0.91666650000000016 4.5000000000000009 12.000000000000002 0.91666650000000016 6.6666668335000017 9.1666666665000012 11.500000000000002 0.41666650000000011 0.61666666650000013 0.58333333350000005 17.000000000000004 0.28333333350000006 1999.5000000000002 2.1666665000000003 1.2500000000000002 0.94166666650000008 15.500000000000002 0.45000000000000001 2004.5000000000002 2010.5000000000002 0.78333333350000012 1.0416666665000003 13.500000000000002 1975.5000000000002 1.6666668335000001 16.166665000000005
decision_type=2 2 2 2 2 2 2 2 2 2 2 2 2 2 2 2 2 2 2 2 2 2 2 2 2 2 2 2 2 2 2 2 2 2
left_child=1 2 3 31 15 13 -2 8 20 -10 -11 16 -13 -4 -14 -5 17 19 28 -7 -8 -21 23 -23 25 29 -27 -12 -18 -22 -31 -1 33 -24
right_child=6 -3 5 4 -6 11 7 -9 9 10 27 12 14 -15 -16 -17 18 -19 -20 21 24 22 32 -25 -26 26 -28 -29 -30 30 -32 -33 -34 -35
leaf_value=-0.043362744959692147 -0.016612492529675366 0.081522808372974404 -0.092451127897948029 -0.022726877126842734 0.12976458929479123 -0.053736187868258539 0.0052560859783129261 -0.0056257118284702302 0.092462056924899422 0.020965198113730082 0.054711854168110412 -0.10278758496046066 -0.060832816430113526 -0.049824563107069807 -0.01283704167542358 0.023352698236703873 -0.018910820130258795 -0.092590408256420731 0.0099857771303504712 -0.048639700204366823 0.074710000994113776 -0.022734650867906478 -0.027119144275784476 0.029347020224668088 0.01670000869780779 0.016469403787050394 0.052221592036741121 0.089040587165138949 -0.050630015917122365 0.032596735627605358 0.067413486838340766 -0.019709943706060159 -0.044456170592457059 -0.014525734353810549
leaf_weight=12.000000000000002 9.9999999999999982 9.9999999999999982 15.999999999999998 12.000000000000002 9.9999999999999982 17 10.999999999999998 9.9999999999999982 14.999999999999998 19 18.000000000000004 9.9999999999999982 11 17 15 15.999999999999998 16.000000000000004 12.999999999999998 18 9.9999999999999982 12.999999999999998 11.000000000000002 10.000000000000005 11.999999999999998 11.999999999999998 16.000000000000004 13.999999999999998 10.999999999999998 9.9999999999999982 13.000000000000002 9.9999999999999982 17 9.9999999999999982 9.9999999999999982
leaf_count=12 10 10 16 12 10 17 11 10 15 19 18 10 11 17 15 16 16 13 18 10 13 11 10 12 12 16 14 11 10 13 10 17 10 10
internal_value=0 -0.0242018 -0.0280745 0.00810664 0.0368044 -0.0398421 0.0398203 0.0433039 0.0465229 0.0595163 0.0492208 -0.0339956 -0.0524887 -0.070492 -0.0331429 0.00360431 -0.0291361 -0.0361561 -0.0142984 -0.0269855 0.0373253 -0.0197671 -0.0143194 0.00443839 0.0418479 0.0464202 0.0331538 0.0677331 -0.0311105 0.0574756 0.0477345 -0.0294973 -0.0287003 -0.0208224
internal_weight=0 283 273 67 38 206 172 162 152 63 48 173 36 33 26 28 137 93 44 80 89 63 53 23 78 66 30 29 26 36 23 29 30 20
internal_count=455 283 273 67 38 206 172 162 152 63 48 173 36 33 26 28 137 93 44 80 89 63 53 23 78 66 30 29 26 36 23 29 30 20
is_linear=0
shrinkage=0.2


Tree=9
num_leaves=36
num_cat=0
split_feature=2 1 2 3 3 1 1 3 2 10 10 10 2 1 2 1 1 5 5 2 8 1 3 10 8 8 3 1 10 8 2 5 3 5 2
split_gain=7.0159 2.99344 1.19594 1.20569 1.72901 1.1307 0.801471 0.636485 0.616704 0.791934 0.574865 0.836861 0.674272 0.55098 0.363139 0.345242 0.377062 0.330063 0.32783 0.317689 0.292267 0.285906 0.180023 0.162005 0.150378 0.321983 0.132632 0.129892 0.110453 0.0882307 0.0872887 0.0808144 0.0685202 0.0626274 0.0464275
threshold=1998.5000000000002 70030.000000000015 1974.5000000000002 30.683333335000004 30.833331665000003 367001.50000000006 1355615.0000000002 30.950000000000003 2007.5000000000002 6.5000000000000009 9.5000000000000018 8.0000000000000018 1987.5000000000002 353860.00000000006 2010.5000000000002 236715.00000000003 170722.50000000003 17.500000000000004 8.8333333335000024 2004.5000000000002 1.1666668335000001 646137.50000000012 29.150000000000002 8.0000000000000018 1.6166666665000002 1.3500000000000003 29.750000000000004 711515.00000000012 3.5000000000000004 1.2166666665000003 1985.5000000000002 13.166666665000003 30.150000000000002 1.1666666665000001 1979.5000000000002
decision_type=2 2 2 2 2 2 2 2 2 2 2 2 2 2 2 2 2 2 2 2 2 2 2 2 2 2 2 2 2 2 2 2 2 2 2
left_child=1 -1 17 5 -5 -4 10 8 9 -2 11 21 29 15 -15 16 -10 27 22 -9 -13 -7 -11 -6 25 -20 -14 -3 -23 34 31 -30 -32 -24 -12
right_child=7 2 3 4 23 6 -8 19 13 18 12 20 26 14 -16 -17 -18 -19 24 -21 -22 28 33 -25 -26 -27 -28 -29 30 -31 32 -33 -34 -35 -36
leaf_value=0.082923170788721606 -0.02276380751281977 -0.077744007148944264 -0.08904164925217628 0.087241071825847033 0.0067649760842323284 0.013387431747590503 -0.075028663650155078 0.088336771726608254 0.016650964245200153 0.030315220848258051 -0.020178975218108717 -0.080816091461615114 0.0077076742388372714 0.043379463729533274 0.09603932231664658 0.0057622439460828902 0.070310816439715304 -0.032697506944992037 0.052393548997739937 0.0434117169064634 -0.039851613872145357 -0.038640889660878613 0.010703330379552563 -0.027094952676158687 0.058946012366901751 0.003801267966628075 0.034218745449414625 -0.049017758406698704 -0.03707495934583923 -0.029692609108200197 -0.017902682158588003 -0.012232890725135804 0.0049718663468956946 -0.010349213555455209 -0.0038909460284880233
leaf_weight=10.999999999999998 17 17.000000000000004 9.9999999999999982 9.9999999999999982 10.000000000000002 11.999999999999998 9.9999999999999982 10.000000000000002 10.000000000000002 13.999999999999998 14.000000000000002 11.000000000000002 18.000000000000004 11.000000000000002 9.9999999999999982 15.999999999999998 10.999999999999998 19 12.000000000000002 17 19 10.999999999999998 13.000000000000002 12.999999999999998 10.999999999999998 9.9999999999999982 12.999999999999998 9.9999999999999982 11.000000000000002 19 11.000000000000002 9.9999999999999982 9.9999999999999982 9.9999999999999982 13.999999999999998
leaf_count=11 17 17 10 10 10 12 10 10 10 14 14 11 18 11 10 16 11 19 12 17 19 11 13 13 11 10 13 10 11 19 11 10 10 10 14
internal_value=0 -0.0193614 -0.0234979 -0.0175149 0.0178129 -0.0235553 -0.0199769 0.0318563 0.0266063 0.0159566 -0.0167947 -0.0272413 -0.00407124 0.0425809 0.0684556 0.0278953 0.0447585 -0.052893 0.0253601 0.0600506 -0.0548719 -0.0144887 0.0124342 -0.0123732 0.0398528 0.0303061 0.0188252 -0.0671047 -0.0208003 -0.0191732 -0.0161277 -0.0252454 -0.00701004 0.00155005 -0.012035
internal_weight=0 283 272 226 33 193 183 172 145 87 173 95 78 58 21 37 21 46 70 27 30 65 37 23 33 22 31 27 53 47 42 21 21 23 28
internal_count=455 283 272 226 33 193 183 172 145 87 173 95 78 58 21 37 21 46 70 27 30 65 37 23 33 22 31 27 53 47 42 21 21 23 28
is_linear=0
shrinkage=0.2


Tree=10
num_leaves=36
num_cat=0
split_feature=4 7 5 5 3 4 4 3 3 7 7 3 5 5 10 5 7 5 3 3 5 3 5 8 5 10 8 4 3 5 3 5 8 4 8
split_gain=2.79529 1.25346 0.691993 0.648392 0.629285 0.616165 0.537288 0.490919 0.591081 0.469241 0.411947 0.344485 0.29024 0.522865 0.419203 0.617504 0.35316 0.255976 0.337741 0.226396 0.224221 0.209139 0.244855 0.292466 0.171477 0.171047 0.22164 0.163036 0.144612 0.12323 0.115007 0.102221 0.0835885 0.0539184 0.0474006
threshold=17.233333335000001 1.1500001665000001 7.1666666665000003 4.6666668335000017 28.583333335000003 13.883333335000001 15.350000000000003 29.216666665000002 28.450000000000003 0.68333333350000014 0.58333333350000005 29.150000000000002 44.333333335000006 33.166666665000008 8.0000000000000018 20.166666665000005 0.51666666650000004 0.83333333350000005 30.816665000000004 29.250000000000004 12.666668335000002 29.016666665000006 1.1666666665000001 1.1166666665000002 6.1666666665000003 17.000000000000004 0.94166666650000008 14.350000000000003 30.116666665000004 51.833333335000006 29.866668335000004 13.166666665000003 1.2666668335000002 14.383333335000001 1.2166666665000003
decision_type=2 2 2 2 2 2 2 2 2 2 2 2 2 2 2 2 2 2 2 2 2 2 2 2 2 2 2 2 2 2 2 2 2 2 2
left_child=1 2 3 4 -1 9 24 8 -7 11 -10 -4 13 14 20 28 -15 -3 19 -19 -9 -6 25 27 -5 26 -23 -24 31 -14 -21 -16 -22 -25 -28
right_child=-2 17 5 6 21 7 -8 12 10 -11 -12 -13 29 16 15 -17 -18 18 -20 30 32 22 23 33 -26 -27 34 -29 -30 -31 -32 -33 -34 -35 -36
leaf_value=-0.03737984405658943 0.08490204393863679 0.04300236136597746 -0.0045674210879951705 -0.0095968180242925819 0.029656269773840907 0.0034294100664556031 0.063952603529800076 -0.022477262925643188 -0.026546255578952179 -0.019676078576594591 -0.072289342433214193 0.043355059052507083 -0.052003350881859645 0.042805302143096913 -0.016712260171771045 -0.060007538964204937 -0.0078744301403110683 0.032327577844262122 0.044309092080220581 -0.01570399876218289 0.024069612305611363 0.021176797350247703 -0.012703053493584901 -0.0042720343545079222 0.027441164255142217 0.028364334531271684 -0.017941881773563526 -0.046139018088579176 -0.029509732012565321 -0.020605262555181983 0.0087744586443638094 0.011884396001696588 0.00046332220236460371 0.016496867612004279 -0.00051058795652352278
leaf_weight=19 14.999999999999998 17 10.000000000000002 10.000000000000005 9.9999999999999982 9.9999999999999982 10.999999999999998 12.999999999999998 13.999999999999998 15.999999999999998 18 14.999999999999998 10.000000000000002 11.000000000000002 10.000000000000002 17 10.999999999999998 9.9999999999999982 11.999999999999998 14.000000000000002 10.000000000000002 14.999999999999998 14.000000000000002 10.000000000000002 9.9999999999999982 12.999999999999998 13.000000000000002 9.9999999999999982 12.999999999999998 9.9999999999999982 17 9.9999999999999982 14.999999999999998 9.9999999999999982 11.999999999999998
leaf_count=19 15 17 10 10 10 10 11 13 14 16 18 15 10 11 10 17 11 10 12 14 10 15 14 10 10 13 13 10 13 10 17 10 15 10 12
internal_value=0 -0.00289439 -0.00753747 0.00253694 -0.00383827 -0.0149632 0.0284491 -0.0202151 -0.0390134 0.00706913 -0.0522767 0.0241861 -0.0141418 -0.0101123 -0.0170067 -0.0290407 0.0174654 0.0216476 0.014798 0.00616062 -0.00117259 0.00211771 -0.000721318 -0.0117496 0.00892217 0.00843428 0.00195701 -0.0266347 -0.013088 -0.0363043 -0.00228033 -0.00241393 0.00990584 0.00611242 -0.00957486
internal_weight=0 440 370 157 126 213 31 172 42 41 32 25 130 110 88 50 22 70 53 41 38 107 97 44 20 53 40 24 33 20 31 20 25 20 25
internal_count=455 440 370 157 126 213 31 172 42 41 32 25 130 110 88 50 22 70 53 41 38 107 97 44 20 53 40 24 33 20 31 20 25 20 25
is_linear=0
shrinkage=0.2


Tree=11
num_leaves=37
num_cat=0
split_feature=2 5 1 1 2 9 0 0 3 1 1 2 1 3 9 1 2 0 2 2 3 9 1 1 3 1 1 9 5 0 0 0 2 5 2 9
split_gain=3.61167 1.69123 3.65586 0.885467 0.852738 0.589129 0.37506 0.568382 0.489034 0.706926 0.365867 0.494083 0.344859 0.416039 0.316124 0.340041 0.292076 0.281594 0.315548 0.271338 0.260316 0.252665 0.227254 0.22665 0.211782 0.202626 0.188878 0.154437 0.0922699 0.0879683 0.244956 0.225754 0.182965 0.144119 0.0786409 0.0560383
threshold=1999.5000000000002 41.500000000000007 588382.50000000012 296547.50000000006 1974.5000000000002 7.1828571430000006 4.5000000000000009 1.5000000000000002 28.483335000000004 1082840.0000000002 329885.00000000006 2007.5000000000002 859962.50000000012 30.683333335000004 8.0196665000000014 726222.50000000012 1983.5000000000002 12.500000000000002 2005.5000000000002 2006.5000000000002 30.983333335000001 5.9166666670000003 885102.50000000012 739560.00000000012 29.541666665000005 1002295.0000000001 657110.00000000012 7.303448276000001 4.1666666665000003 7.5000000000000009 6.5000000000000009 10.000000000000002 1991.5000000000002 13.500000000000002 1989.5000000000002 6.6500000000000012
decision_type=2 2 2 2 2 2 2 2 2 2 2 2 2 2 2 2 2 2 2 2 2 2 2 2 2 2 2 2 2 2 2 2 2 2 2 2
left_child=1 3 -3 -1 14 10 7 -6 27 12 11 -2 13 29 15 -5 -9 18 35 20 23 -13 -4 -7 -19 34 -18 -8 -20 30 -10 -31 33 -33 -14 -12
right_child=5 2 22 4 6 19 8 16 9 -11 17 21 25 -15 -16 -17 26 24 28 -21 -22 -23 -24 -25 -26 -27 -28 -29 -30 31 -32 32 -34 -35 -36 -37
leaf_value=-0.063934072246775039 -0.032956299558281901 0.13064656084403398 -0.031639397108497523 -0.081790029934861425 -0.038325216360390185 0.0084743690142846263 -0.0024152372236130753 -0.0054955846684820514 -0.015062537799773658 -0.068436557257717301 0.027688193321228016 -0.005056924346302236 -0.00028169918805360784 0.015637035984545949 -0.018620846077489355 -0.03549437453349432 0.042677243053913107 0.026714487457647915 0.038299195873551059 0.0653422915509769 0.060936726480722431 0.031225360447869582 0.0084636694937944412 0.043555376463784629 -0.01444682945031673 -0.017328289486467838 0.0071921767666935921 0.030126998331397772 0.064843628487803714 0.0041168135032057761 -0.052863432280719283 -0.052845155873468934 -0.0085975177501412953 -0.021408753748983145 0.023732872089991967 0.0065149508323520434
leaf_weight=15.999999999999998 11.999999999999998 9.9999999999999982 13.000000000000002 11.000000000000002 9.9999999999999982 17.000000000000004 14.000000000000002 17 12.000000000000002 10.999999999999998 10.000000000000002 14.000000000000002 10.000000000000002 9.9999999999999982 14.999999999999998 14.999999999999998 15.000000000000002 10.000000000000002 10.000000000000002 13.999999999999998 9.9999999999999982 17 9.9999999999999982 12.999999999999998 9.9999999999999982 14.999999999999998 9.9999999999999982 9.9999999999999982 10.999999999999998 9.9999999999999982 15.999999999999998 14.000000000000002 10.999999999999998 9.9999999999999982 11.999999999999998 9.9999999999999982
leaf_count=16 12 10 13 11 10 17 14 17 12 11 10 14 10 10 15 15 15 10 10 14 10 17 10 13 10 15 10 10 11 10 16 14 11 10 12 10
internal_value=0 -0.0129966 0.0296906 -0.0183325 -0.0153904 0.0244303 -0.0101711 0.00452699 -0.015102 -0.0199104 0.0156302 0.00150136 -0.0154622 -0.0226207 -0.0417419 -0.055081 0.0147299 0.0255898 0.0350806 0.0413786 0.0329913 0.0148398 -0.0142033 0.0236761 0.00613383 0.000596031 0.0284832 0.011144 0.0522034 -0.0278615 -0.036663 -0.022385 -0.0299569 -0.0397467 0.0128172 0.0171016
internal_weight=0 297 33 264 248 158 207 52 155 131 104 43 120 83 41 26 42 61 41 54 40 31 23 30 20 37 25 24 21 73 28 45 35 24 22 20
internal_count=455 297 33 264 248 158 207 52 155 131 104 43 120 83 41 26 42 61 41 54 40 31 23 30 20 37 25 24 21 73 28 45 35 24 22 20
is_linear=0
shrinkage=0.2


Tree=12
num_leaves=34
num_cat=0
split_feature=2 8 1 2 7 8 9 1 10 9 1 9 9 7 1 10 9 10 1 2 9 8 7 7 1 8 7 9 9 9 1 2 10
split_gain=2.31147 1.74701 0.51678 0.590196 1.42718 0.491145 0.395695 0.370368 0.313674 0.332047 0.420162 0.311109 0.419171 0.505949 0.300664 0.287641 0.281563 0.268661 0.253156 0.232137 0.203043 0.173798 0.148148 0.120462 0.117024 0.107101 0.125761 0.103116 0.230521 0.0822578 0.0700015 0.069336 0.0375227
threshold=1999.5000000000002 2.3166666665000002 216166.50000000003 1990.5000000000002 0.7166666665000001 1.4166665000000001 7.8686668335000007 517407.50000000006 17.000000000000004 6.4166666665000012 308451.00000000006 7.495000000000001 6.9500000000000011 0.81666650000000007 797795.00000000012 9.5000000000000018 6.6500000000000012 27.000000000000004 184455.00000000003 2007.5000000000002 7.495000000000001 1.1166666665000002 0.48333333350000002 0.58333333350000005 497775.00000000006 1.4166665000000001 0.58333333350000005 8.0500000000000025 8.2333331665000014 7.3107060755000015 630552.50000000012 1985.5000000000002 17.000000000000004
decision_type=2 2 2 2 2 2 2 2 2 2 2 2 2 2 2 2 2 2 2 2 2 2 2 2 2 2 2 2 2 2 2 2 2
left_child=1 2 -1 7 14 -6 8 -4 9 10 -2 12 23 15 20 29 -11 27 -10 24 22 -16 -5 -9 -18 26 -20 31 -29 -14 -30 -13 -17
right_child=6 -3 3 4 5 -7 -8 11 18 16 -12 17 13 -15 21 32 19 -19 25 -21 -22 -23 -24 -25 -26 -27 -28 28 30 -31 -32 -33 -34
leaf_value=-0.052222886119181147 -0.027602574917384323 0.071777990981936463 -0.046657424443401402 -0.0070914473151788091 0.018072529998607933 0.072971030798825359 0.046615726157630745 -0.019455007687211031 0.053962646424770361 0.045928763505071406 0.015038290864935048 -0.010270857668824886 -0.024689459800720209 -0.071400211980058401 -0.052600905746221532 0.0018185328268869351 -0.014826273638755078 0.01451311637953806 0.014768782649965333 0.030910234249507392 -0.026479833181947472 -0.018079033387558802 0.025869441949762408 0.0085272212047129876 0.012089022488466331 0.0067411405167409361 0.044374802302230489 -0.037504925392568111 0.002619084875498499 -0.046594648109748962 -0.018701220439238983 0.010303749814629556 -0.015108869457617403
leaf_weight=12.999999999999998 18 9.9999999999999982 15.999999999999998 12.000000000000002 16.000000000000004 10.999999999999998 19 10.000000000000002 11.999999999999998 11.999999999999998 19 19.000000000000004 12.000000000000002 10.999999999999998 10.000000000000002 11.000000000000002 12.000000000000002 19 12.000000000000002 14.999999999999998 9.9999999999999982 13.999999999999998 9.9999999999999982 15.999999999999998 13.999999999999998 13.999999999999998 10.999999999999998 15.999999999999998 14.000000000000002 15.999999999999998 10.999999999999998 9.9999999999999982 9.9999999999999982
leaf_count=13 18 10 16 12 16 11 19 10 12 12 19 19 12 11 10 11 12 19 12 15 10 14 10 16 14 14 11 16 14 16 11 10 10
internal_value=0 -0.0103973 -0.0132605 -0.0114119 0.00266898 0.0404386 0.0195442 -0.0175309 0.0158438 0.00883345 -0.00570591 -0.0148679 -0.0234464 -0.0326379 -0.0155414 -0.0239362 0.0189836 -0.00657848 0.0287199 0.0110972 -0.00285004 -0.0324631 0.00789078 -0.00223517 -0.000333422 0.0205331 0.0289282 -0.0123033 -0.0187591 -0.0372067 -0.00676185 -0.00317617 -0.00624213
internal_weight=0 297 287 274 83 27 158 191 139 90 37 175 86 60 56 49 53 89 49 41 32 24 22 26 26 37 23 70 41 28 25 29 21
internal_count=455 297 287 274 83 27 158 191 139 90 37 175 86 60 56 49 53 89 49 41 32 24 22 26 26 37 23 70 41 28 25 29 21
is_linear=0
shrinkage=0.2


Tree=13
num_leaves=35
num_cat=0
split_feature=4 5 0 0 4 6 3 6 4 3 3 3 3 6 7 5 4 4 5 5 7 5 4 7 6 4 0 7 7 4 5 5 3 0
split_gain=1.48728 0.504988 0.482676 0.387789 0.385479 0.372431 0.471803 0.613488 0.345813 0.333872 0.33065 0.313405 0.293743 0.237708 0.289327 0.192284 0.179581 0.169579 0.167479 0.13829 0.124332 0.0962245 0.0844745 0.103703 0.0806712 0.189827 0.145458 0.0769413 0.121429 0.0869117 0.0607424 0.0580061 0.0581035 0.0498342
threshold=17.233333335000001 44.333333335000006 4.5000000000000009 1.5000000000000002 16.433331665000004 77.833333335000006 30.050000000000004 83.166666665000022 15.183333335000002 29.541666665000005 30.350000000000005 30.516666665000006 29.216666665000002 79.833333335000006 0.86666683350000007 23.500000000000004 13.983333335000003 15.766668335 9.1666666665000012 6.1666666665000003 0.86666683350000007 6.6666668335000017 15.350000000000003 0.61666666650000013 72.166665000000009 14.583333335000001 8.5000000000000018 0.86666683350000007 0.45000000000000001 14.483333335000003 7.1666666665000003 2.5000000000000004 29.250000000000004 10.000000000000002
decision_type=2 2 2 2 2 2 2 2 2 2 2 2 2 2 2 2 2 2 2 2 2 2 2 2 2 2 2 2 2 2 2 2 2 2
left_child=1 2 3 -1 5 9 7 8 13 20 -3 -6 -5 18 19 24 -8 27 -7 -15 31 -19 23 -18 30 -26 -27 28 -14 -30 -11 -4 33 -33
right_child=-2 10 4 12 11 6 16 -9 -10 15 -12 -13 17 14 -16 -17 22 21 -20 -21 -22 -23 -24 -25 25 26 -28 -29 29 -31 -32 32 -34 -35
leaf_value=-0.015125726053819939 0.061930116166671115 -0.043137257095230253 0.017682209673027197 -0.01207993519915776 -0.042246353357202476 0.0084525090704361591 0.042029762283588457 -0.045419310685247183 -0.023303337678225945 -0.01328733623027801 -0.00073121519138415658 0.0006035068495707078 0.030354241412132978 -0.011714185457676645 0.042414390827928278 -0.044374687653034928 -0.009221773762255905 0.023084645569324488 -0.02403784529729323 0.018649126241604488 -0.01517279366652171 0.049648648345222077 0.024294822225864564 0.018355211320643626 0.013148768525570632 -0.032453679812273803 -0.0045387964695692068 0.031620073467493064 0.018719951566308731 -0.0053510076808743184 -0.034824535292996603 -0.010980255150546629 0.013576922224213681 0.0056111425161361698
leaf_weight=17 14.999999999999998 19.000000000000004 11.999999999999998 10.999999999999998 18.000000000000004 15.000000000000002 11.999999999999998 11.999999999999998 15.999999999999998 10.000000000000002 11.999999999999998 10.999999999999998 9.9999999999999982 10.000000000000002 13.999999999999998 9.9999999999999982 10.000000000000002 10.000000000000002 10.999999999999998 14.999999999999998 14.999999999999998 11.999999999999998 18 11.999999999999998 10.999999999999998 14.000000000000002 15.999999999999998 9.9999999999999982 10.000000000000002 14.999999999999998 10.999999999999998 15.000000000000002 11.999999999999998 13.999999999999998
leaf_count=17 15 19 12 11 18 15 12 12 16 10 12 11 10 10 14 10 10 10 11 15 15 12 18 12 11 14 16 10 10 15 11 15 12 14
internal_value=0 -0.00211125 -0.000245891 0.0122452 -0.00402503 -0.0017897 0.00531442 -0.00321631 0.00303598 -0.00914754 -0.026722 -0.025993 0.0182106 0.00951951 0.0193948 -0.0186392 0.0205713 0.0231837 -0.00529341 0.0065038 0.000902498 0.0375741 0.0141338 0.00582022 -0.0144884 -0.00932526 -0.0175657 0.0161484 0.0117279 0.00427738 -0.0245687 0.00545211 0.00187257 -0.00297061
internal_weight=0 440 409 95 314 285 145 93 81 140 31 29 78 65 39 72 52 67 26 25 68 22 40 22 62 41 30 45 35 25 21 53 41 29
internal_count=455 440 409 95 314 285 145 93 81 140 31 29 78 65 39 72 52 67 26 25 68 22 40 22 62 41 30 45 35 25 21 53 41 29
is_linear=0
shrinkage=0.2


Tree=14
num_leaves=36
num_cat=0
split_feature=1 5 2 2 1 1 6 2 6 1 2 0 0 1 1 1 0 0 6 8 0 6 8 0 8 0 1 1 8 0 5 6 6 2 8
split_gain=1.61745 3.33694 1.22591 0.906979 0.698364 0.464943 0.354224 0.352053 0.279618 0.261261 0.250195 0.343792 0.209369 0.202508 0.190895 0.163507 0.162543 0.1591 0.147559 0.143367 0.134445 0.130244 0.171008 0.113568 0.102138 0.124333 0.105837 0.0860274 0.0851268 0.168459 0.101212 0.0834194 0.0557565 0.0529786 0.0492032
threshold=236715.00000000003 37.500000000000007 1998.5000000000002 1999.5000000000002 308451.00000000006 1355615.0000000002 80.166665000000009 1974.5000000000002 81.166666665000022 598232.50000000012 1988.5000000000002 10.000000000000002 6.5000000000000009 739560.00000000012 776830.00000000012 474755.00000000006 13.500000000000002 6.5000000000000009 77.833333335000006 0.76666683350000009 15.500000000000002 76.166665000000009 1.3166666665000002 10.000000000000002 1.5833335000000004 8.5000000000000018 776830.00000000012 870570.00000000012 1.1166666665000002 6.5000000000000009 10.833333335000001 78.500000000000014 81.166666665000022 1983.5000000000002 1.1666668335000001
decision_type=2 2 2 2 2 2 2 2 2 2 2 2 2 2 2 2 2 2 2 2 2 2 2 2 2 2 2 2 2 2 2 2 2 2 2
left_child=1 3 5 -1 -4 7 19 13 9 18 12 14 27 17 -12 32 -5 -2 21 -6 24 22 -9 -17 25 -14 -27 33 31 30 -30 -21 -8 -11 -16
right_child=2 -3 4 16 6 -7 15 8 -10 10 11 -13 20 -15 34 23 -18 -19 -20 28 -22 -23 -24 -25 -26 26 -28 -29 29 -31 -32 -33 -34 -35 -36
leaf_value=-0.044058818295598032 -0.017487691067667163 0.13727300642058254 -0.034886449140806991 0.011720603186404333 0.0048030095795790354 -0.054369974890723829 0.024293818382116458 -0.031054638165005595 -0.032397851208224894 0.0038685847073793404 0.043002680161346993 -0.01089127687247176 -0.043566526342183359 -0.0089455291300135509 0.020611503131856966 0.0043912567663937805 0.041229311217154764 -0.048018023744225508 -0.038995777592062957 0.024630298126827582 0.0060864107590168715 0.0067160821883589968 -0.00023186774342320859 -0.020775404343238244 -0.0018362221866846087 -0.0025847711685028935 -0.029240189979855832 -0.0074974219314754009 0.020768558216514063 0.00044461682438850402 0.046744445711374288 0.047904407259609018 0.0049467438154599886 0.022928538974374534 0.001227656975388527
leaf_weight=9.9999999999999982 11.000000000000002 9.9999999999999982 11.999999999999998 15.999999999999998 11.999999999999998 9.9999999999999982 13.000000000000002 18.000000000000004 15.999999999999998 14.000000000000002 11.999999999999998 19 9.9999999999999982 17 11.000000000000002 16.000000000000004 14.000000000000002 18 9.9999999999999982 11.000000000000002 9.9999999999999982 10.999999999999998 11.999999999999998 12.999999999999998 9.9999999999999982 11.000000000000002 12.999999999999998 14.999999999999998 15.000000000000002 9.9999999999999982 9.9999999999999982 13.999999999999998 10.999999999999998 9.9999999999999982 9.9999999999999982
leaf_count=10 11 10 12 16 12 10 13 18 16 14 12 19 10 17 11 16 14 18 10 11 10 11 12 13 10 11 13 15 15 10 10 14 11 10 10
internal_value=0 0.0339376 -0.00418983 0.0081038 0.0112002 -0.0120571 0.0156245 -0.0104171 -0.00697569 -0.00490041 -0.000569883 0.0105404 -0.00678209 -0.0262775 0.0228799 0.00321535 0.0254913 -0.0364376 -0.0172127 0.024759 -0.0148466 -0.0118997 -0.0187255 -0.00689035 -0.0196041 -0.02483 -0.0170231 0.00438421 0.0287502 0.0223834 0.0311589 0.0376638 0.0154264 0.0118102 0.0113811
internal_weight=0 50 405 40 137 268 125 258 212 196 145 52 93 46 33 53 30 29 51 72 54 41 30 29 44 34 24 39 60 35 25 25 24 24 21
internal_count=455 50 405 40 137 268 125 258 212 196 145 52 93 46 33 53 30 29 51 72 54 41 30 29 44 34 24 39 60 35 25 25 24 24 21
is_linear=0
shrinkage=0.2


Tree=15
num_leaves=35
num_cat=0
split_feature=1 1 2 0 1 1 1 6 1 0 6 2 7 8 0 0 1 8 1 7 0 0 8 2 2 0 2 0 6 2 1 2 7 1
split_gain=1.12596 2.2747 0.962161 0.677396 0.661302 0.467576 0.317373 0.444938 0.374628 0.24323 0.205958 0.196053 0.179875 0.346586 0.200979 0.32575 0.178322 0.162117 0.153456 0.169389 0.145065 0.101524 0.0898666 0.111906 0.0781038 0.0748888 0.137923 0.136918 0.0743089 0.050172 0.0375558 0.0325848 0.0311387 0.0311004
threshold=70030.000000000015 23965.500000000004 1998.5000000000002 4.5000000000000009 367001.50000000006 556127.50000000012 695692.50000000012 77.166665000000009 1355615.0000000002 1.5000000000000002 75.500000000000014 1982.5000000000002 0.58333333350000005 1.5166666665000001 7.5000000000000009 10.000000000000002 503102.50000000006 0.85000000000000009 384341.00000000006 1.6583333335000001 5.5000000000000009 13.500000000000002 1.4166665000000001 1974.5000000000002 1989.5000000000002 12.500000000000002 1988.5000000000002 15.500000000000002 75.333331665000017 1976.5000000000002 1140040.0000000002 1980.5000000000002 0.51666666650000004 621060.00000000012
decision_type=2 2 2 2 2 2 2 2 2 2 2 2 2 2 2 2 2 2 2 2 2 2 2 2 2 2 2 2 2 2 2 2 2 2
left_child=1 -1 3 5 -5 -2 7 22 17 -7 -4 33 13 14 20 -16 18 -8 19 -14 -12 -21 23 -6 -9 26 29 -27 -13 -19 -29 -31 -25 -11
right_child=2 -3 10 4 6 9 8 24 -10 11 12 28 16 -15 15 -17 -18 25 -20 21 -22 -23 -24 32 -26 27 -28 30 -30 31 -32 -33 -34 -35
leaf_value=-0.014354994241148231 0.047464742362499236 0.10431050433156391 0.032305454274949928 -0.063155199316414931 -0.036258636753667486 -0.026128697700121186 -0.023169806253697193 -0.061079113222658611 -0.043495978750288489 -0.015722219347953793 0.0078997662864052319 0.031796259116381398 0.02957123886379931 -0.032382913611151955 0.041375107260850752 -0.0006817250896026107 0.031076461455086246 -0.012874616572464054 -0.0086611151695251461 -0.0070882950306570677 -0.022594584462543331 0.019296603947877883 -0.0025216028780529376 -0.018421163402187322 -0.036082505062222485 -0.019613272572557131 0.021183560316761336 -0.0039590819938374409 0.010068848455215202 0.011506452919407321 0.011288479932894309 -0.0028247257322072984 -0.0033099001087248323 -0.00031138568777929658
leaf_weight=14.000000000000002 9.9999999999999982 11.999999999999998 14.999999999999998 10.999999999999998 10.999999999999998 10.999999999999998 13.999999999999998 10.000000000000002 9.9999999999999982 10.000000000000002 13.000000000000002 10.000000000000002 18 10.999999999999998 13.000000000000002 17 19 10.999999999999998 14.999999999999998 14.000000000000002 11.999999999999998 9.9999999999999982 19 12.000000000000002 9.9999999999999982 18 14.999999999999998 14.000000000000002 17 11.000000000000002 11.999999999999998 14.999999999999998 9.9999999999999982 10.999999999999998
leaf_count=14 10 12 15 11 11 11 14 10 10 10 13 10 18 11 13 17 19 11 15 14 12 10 19 12 10 18 15 14 17 11 12 15 10 11
internal_value=0 0.0404137 -0.00244931 -0.00964531 -0.0154642 0.00747416 -0.0127319 -0.0232295 -0.00643341 0.0006961 0.0100176 0.00684345 0.00766328 2.48025e-05 0.00650635 0.0175429 0.0142967 -0.00306408 0.00870343 0.0149051 -0.00673752 0.00390541 -0.013479 -0.0197878 -0.0485808 -0.000131996 0.0050064 -0.00620464 0.018116 -0.00155191 0.00307825 0.00323847 -0.0115524 -0.00764988
internal_weight=0 26 429 272 203 69 192 72 120 59 157 48 142 66 55 30 76 110 57 42 25 24 52 33 20 96 52 44 27 37 26 26 22 21
internal_count=455 26 429 272 203 69 192 72 120 59 157 48 142 66 55 30 76 110 57 42 25 24 52 33 20 96 52 44 27 37 26 26 22 21
is_linear=0
shrinkage=0.2


Tree=16
num_leaves=37
num_cat=0
split_feature=8 0 1 6 5 1 6 6 10 5 6 5 0 1 10 0 1 1 10 5 5 6 6 10 6 0 6 1 8 8 5 8 1 1 5 1
split_gain=0.812271 0.415631 0.482585 0.523385 0.423192 0.502015 0.208252 0.272028 0.249729 0.219972 0.236265 0.234769 0.206398 0.269603 0.285444 0.166932 0.147882 0.146714 0.158948 0.132131 0.189842 0.117654 0.159657 0.115336 0.110062 0.226344 0.106118 0.0936368 0.0817704 0.10879 0.0685619 0.0332409 0.0309927 0.0713434 0.0291612 0.0214561
threshold=2.3166666665000002 4.5000000000000009 469991.00000000006 78.166666665000022 42.500000000000007 686792.00000000012 82.833333335000006 83.833333335000006 12.000000000000002 12.666668335000002 72.166665000000009 15.166666665000003 1.5000000000000002 574122.50000000012 9.5000000000000018 14.500000000000002 695692.50000000012 474755.00000000006 8.0000000000000018 1.1666666665000001 6.5000000000000009 74.666668335000011 80.500000000000014 34.500000000000007 76.166665000000009 10.000000000000002 76.833333335000006 749247.50000000012 1.7407407405000004 1.1666668335000001 18.166666665000005 1.1166666665000002 885102.50000000012 630552.50000000012 9.8333333335000024 649651.50000000012
decision_type=2 2 2 2 2 2 2 2 2 2 2 2 2 2 2 2 2 2 2 2 2 2 2 2 2 2 2 2 2 2 2 2 2 2 2 2
left_child=1 2 3 -1 6 -6 8 -8 16 10 -10 -11 -4 34 -15 19 17 18 -3 -12 -21 35 26 -17 27 -26 -23 -18 29 -13 31 -20 33 -16 -14 -19
right_child=-2 4 12 -5 5 -7 7 -9 9 11 15 28 13 14 32 23 24 21 30 20 -22 22 -24 -25 25 -27 -28 -29 -30 -31 -32 -33 -34 -35 -36 -37
leaf_value=0.069764374345540989 0.051343563245609403 0.015886807839314527 -0.018593747088064751 0.0078114992007613186 -0.049721263787325685 0.0067523889988660817 -0.041767050535418085 0.0028969438001513483 -0.011575421020388603 -0.031352570423306053 0.024619953267808473 -0.0070244944343964243 -0.019725123755633827 0.045617156028747559 0.015127695893699467 0.042110248502845365 0.0049589253216981875 -0.01235019528714474 -0.012613009018823501 -0.010160671882331371 0.023589150831103328 -0.01989190440878949 -0.0060954928863793615 0.015468875562342313 0.024048689742469126 -0.0092164563015103337 -0.046582781046163292 -0.021245460119098426 -0.013698246832937003 0.018166916462359951 -0.024069427922368051 0.0030000274418853223 0.015398428144936378 -0.0067571948533161333 -0.0044512936100363732 0.00075129192322492605
leaf_weight=10.000000000000002 11.999999999999998 12.999999999999998 14.999999999999998 11.999999999999998 17.000000000000004 9.9999999999999982 12.000000000000002 9.9999999999999982 14.999999999999998 10.999999999999998 13.999999999999998 12.000000000000002 10.000000000000002 9.9999999999999982 11.000000000000002 13.000000000000002 10.000000000000002 10.000000000000002 10.000000000000002 20.000000000000004 9.9999999999999982 11.000000000000002 11.999999999999998 12.999999999999998 18 14.999999999999998 12.999999999999998 11.999999999999998 9.9999999999999982 15.999999999999998 9.9999999999999982 11.999999999999998 12.999999999999998 12.999999999999998 9.9999999999999982 9.9999999999999982
leaf_count=10 12 13 15 12 17 10 12 10 15 11 14 12 10 10 11 13 10 10 10 20 10 11 12 13 18 15 13 12 10 16 10 12 13 13 10 10
internal_value=0 -0.0013908 0.00966946 0.0359719 -0.00478391 -0.0288051 -0.00270516 -0.0214652 -0.00128198 0.00505053 0.011203 -0.00562212 0.00261271 0.00736042 0.0156364 0.0160841 -0.00672144 -0.0112655 -0.00276212 0.0085763 0.00108927 -0.0180986 -0.0249315 0.0287896 0.00162315 0.00892817 -0.0343495 -0.00933438 0.00182616 0.0073706 -0.0103383 -0.00409681 0.00753353 0.00327338 -0.0120882 -0.00579945
internal_weight=0 443 104 22 339 27 312 22 290 134 85 49 82 67 47 70 156 101 45 44 30 56 36 26 55 33 24 22 38 28 32 22 37 24 20 20
internal_count=455 443 104 22 339 27 312 22 290 134 85 49 82 67 47 70 156 101 45 44 30 56 36 26 55 33 24 22 38 28 32 22 37 24 20 20
is_linear=0
shrinkage=0.2


end of trees

feature_importances:
Column_1=93
Column_5=72
Column_2=62
Column_10=58
Column_8=55
Column_6=47
Column_3=45
Column_0=44
Column_4=41
Column_7=40
Column_9=33

parameters:
[boosting: gbdt]
[objective: regression]
[metric: rmse]
[tree_learner: serial]
[device_type: cpu]
[linear_tree: 0]
[data: ]
[valid: ]
[num_iterations: 10000]
[learning_rate: 0.2]
[num_leaves: 63]
[num_threads: 0]
[deterministic: 0]
[force_col_wise: 0]
[force_row_wise: 0]
[histogram_pool_size: -1]
[max_depth: -1]
[min_data_in_leaf: 10]
[min_sum_hessian_in_leaf: 0.001]
[bagging_fraction: 1]
[pos_bagging_fraction: 1]
[neg_bagging_fraction: 1]
[bagging_freq: 0]
[bagging_seed: 21709]
[feature_fraction: 0.5]
[feature_fraction_bynode: 1]
[feature_fraction_seed: 24116]
[extra_trees: 0]
[extra_seed: 15571]
[early_stopping_round: 50]
[first_metric_only: 0]
[max_delta_step: 0]
[lambda_l1: 0]
[lambda_l2: 0]
[linear_lambda: 0]
[min_gain_to_split: 0]
[drop_rate: 0.1]
[max_drop: 50]
[skip_drop: 0.5]
[xgboost_dart_mode: 0]
[uniform_drop: 0]
[drop_seed: 15722]
[top_rate: 0.2]
[other_rate: 0.1]
[min_data_per_group: 100]
[max_cat_threshold: 32]
[cat_l2: 10]
[cat_smooth: 10]
[max_cat_to_onehot: 4]
[top_k: 20]
[monotone_constraints: ]
[monotone_constraints_method: basic]
[monotone_penalty: 0]
[feature_contri: ]
[forcedsplits_filename: ]
[refit_decay_rate: 0.9]
[cegb_tradeoff: 1]
[cegb_penalty_split: 0]
[cegb_penalty_feature_lazy: ]
[cegb_penalty_feature_coupled: ]
[path_smooth: 0]
[interaction_constraints: ]
[verbosity: -1]
[saved_feature_importance_type: 0]
[max_bin: 255]
[max_bin_by_feature: ]
[min_data_in_bin: 3]
[bin_construct_sample_cnt: 200000]
[data_random_seed: 4074]
[is_enable_sparse: 1]
[enable_bundle: 1]
[use_missing: 1]
[zero_as_missing: 0]
[feature_pre_filter: 1]
[pre_partition: 0]
[two_round: 0]
[header: 0]
[label_column: ]
[weight_column: ]
[group_column: ]
[ignore_column: ]
[categorical_feature: ]
[forcedbins_filename: ]
[objective_seed: 10917]
[num_class: 1]
[is_unbalance: 0]
[scale_pos_weight: 1]
[sigmoid: 1]
[boost_from_average: 1]
[reg_sqrt: 0]
[alpha: 0.9]
[fair_c: 1]
[poisson_max_delta_step: 0.7]
[tweedie_variance_power: 1.5]
[lambdarank_truncation_level: 30]
[lambdarank_norm: 1]
[label_gain: ]
[eval_at: ]
[multi_error_top_k: 1]
[auc_mu_weights: ]
[num_machines: 1]
[local_listen_port: 12400]
[time_out: 120]
[machine_list_filename: ]
[machines: ]
[gpu_platform_id: -1]
[gpu_device_id: -1]
[gpu_use_dp: 0]
[num_gpu: 1]

end of parameters

pandas_categorical:null
