tree
version=v3
num_class=1
num_tree_per_iteration=1
label_index=0
max_feature_idx=24
objective=regression
feature_names=Column_0 Column_1 Column_2 Column_3 Column_4 Column_5 Column_6 Column_7 Column_8 Column_9 Column_10 Column_11 Column_12 Column_13 Column_14 Column_15 Column_16 Column_17 Column_18 Column_19 Column_20 Column_21 Column_22 Column_23 Column_24
feature_infos=[1:18] [9:471100] [1969:2013] [32.450000000000003:42.125] [16.399999999999999:25.399999999999999] [29.75:684.75] [60.75:87] [0.34999999999999998:8.3499999999999996] [2.2000000000000002:5.7750000000000004] [4.3499999999999996:8.3249999999999993] [3:63] [9:471100] [0.6632442313374779:10.043043890381137] [1.0240546187510806:8.6018588703669803] [1.2363482227658646:9.6235322340796703] [1.2437455139733868:8.7804591455214123] [1.0440385917329453:9.2244007499457226] [0.81210102723246513:8.7942185050649009] [1.5655225000617303:10.242602062283536] [1.0168972315262681:10.378534940089438] [1.1405281052210019:9.3194992608116074] [0.93998189864417425:8.5754646689744334] [1.5354131190493816:11.508665465898561] [1.4304309696247712:8.4106018559371094] [0:11]
tree_sizes=3499 3596 3455 3386 3254 3498 3481 3389 3375 3490 3478 3385 3350 3619 3308 3246 3633 3463 3154 3501

Tree=0
num_leaves=34
num_cat=0
split_feature=21 3 18 10 21 16 7 4 7 7 7 9 21 0 18 8 12 18 0 1 14 4 22 1 21 4 0 13 14 1 1 7 1
split_gain=26.1822 10.0009 16.5697 35.3534 5.26167 8.51431 6.14413 5.25667 4.36002 4.22204 3.67544 3.48337 3.10188 3.08412 2.70883 1.83222 2.20239 1.77617 1.57705 1.95521 1.57319 1.45966 1.29971 1.24524 0.863697 0.824922 0.54805 0.514032 0.512498 0.494881 0.453211 0.343999 0.279336
threshold=2.8535217362833767 33.987500000000004 7.1457535295345389 3.5000000000000004 4.0254769615534123 3.6516359944725028 1.2125000000000001 22.937500000000004 1.7875000000000003 2.0625000000000004 1.8875000000000002 6.7875000000000005 2.1040903814888092 3.5000000000000004 6.1857725921298679 3.4875000000000003 3.2428217022119861 5.7361192479378103 9.5000000000000018 29135.000000000004 2.8625778253389522 23.362500000000004 9.4881079389857685 79150.000000000015 3.4286929407442948 23.637500000000003 7.5000000000000009 3.0051456637621041 3.7802266957567143 212962.50000000003 37830.000000000007 1.6875000000000002 79750.000000000015
decision_type=2 2 2 2 2 2 2 2 2 2 2 2 2 2 2 2 2 2 2 2 2 2 2 2 2 2 2 2 2 2 2 2 2
left_child=9 17 3 -3 5 10 -7 15 21 12 13 -9 20 -5 -13 -6 -17 -2 19 -14 -1 -8 29 -11 25 -10 -26 -12 32 31 -22 -18 -15
right_child=1 2 -4 4 7 6 8 11 24 23 27 14 18 28 -16 16 22 -19 -20 -21 30 -23 -24 -25 26 -27 -28 -29 -30 -31 -32 -33 -34
leaf_value=0.012494906133358847 -0.025720101764192239 -0.081901494433869973 0.052755341793352839 -0.042088392422766796 -0.023013420288640955 0.051177511791000704 0.0039563850786076896 -0.052542905678739212 0.037296779731521928 0.054822372028837531 0.015463987419615128 -0.0021454783631303935 0.025356919257007612 -0.019682612612344025 -0.036759555583586359 0.019458243894370158 0.0020535156906122385 -0.05353578942059483 -0.0042183893009781794 0.00073151973312377905 0.041136418326592095 -0.019112404317982553 -0.017606919902686709 0.029869997965405327 0.020724702233682012 0.01698764322162662 0.0041709978210279766 0.00038550847405265939 -0.0027971764283356566 0.0061208766781155402 0.027199653441319808 -0.010088477971863236 -0.0087411571356927932
leaf_weight=10.999999999999998 12.000000000000002 14.999999999999998 11.999999999999998 9.9999999999999982 10.999999999999998 9.9999999999999982 16.000000000000004 9.9999999999999982 10.000000000000002 10.000000000000002 10.000000000000002 13.000000000000002 19 14.000000000000002 9.9999999999999982 10.999999999999998 10.000000000000002 10.999999999999998 15.999999999999998 13.999999999999998 14.000000000000002 11.999999999999998 14.999999999999998 9.9999999999999982 10.000000000000002 9.9999999999999982 9.9999999999999982 12.999999999999998 12.999999999999998 17 9.9999999999999982 13.999999999999998 9.9999999999999982
leaf_count=11 12 15 12 10 11 10 16 10 10 10 10 13 19 14 10 11 10 11 16 14 14 12 15 10 10 10 10 13 13 17 10 14 10
internal_value=-1.69267e-10 -0.00730357 -0.00475268 -0.00727128 -0.00294907 0.00322274 0.0145837 -0.0111782 0.00920227 0.0217 -0.00943663 -0.0279065 0.0167843 -0.0174514 -0.0171951 -0.00410076 -0.000995698 -0.0390233 0.00866385 0.0149098 0.0281529 -0.00593024 -0.00501344 0.0423462 0.019795 0.0271422 0.0124479 0.00694137 -0.0107927 -0.000406064 0.0353294 -0.00502931 -0.0151237
internal_weight=0 309 286 274 259 148 78 111 68 104 70 33 84 47 23 78 67 23 49 33 35 28 56 20 40 20 20 23 37 41 24 24 24
internal_count=413 309 286 274 259 148 78 111 68 104 70 33 84 47 23 78 67 23 49 33 35 28 56 20 40 20 20 23 37 41 24 24 24
is_linear=0
shrinkage=1


Tree=1
num_leaves=35
num_cat=0
split_feature=2 1 16 9 10 2 1 12 1 20 16 2 22 6 16 2 5 14 9 21 22 2 7 3 22 5 23 3 14 8 24 4 15 23
split_gain=42.0646 16.5162 13.6817 16.0705 12.2784 8.35959 6.08998 4.99975 4.61197 6.65549 4.8113 4.2079 3.93975 2.86362 2.13856 2.07863 1.90515 1.52168 1.23785 0.855225 0.71342 0.705601 0.695619 0.587009 0.515862 0.507076 0.458888 0.430987 0.423833 0.374406 0.331531 0.263582 0.213209 0.185911
threshold=1986.5000000000002 14500.000000000002 6.0775527014493393 6.4875000000000007 5.0000000000000009 1990.5000000000002 36380.500000000007 4.9569582563204149 7522.5000000000009 2.6736627186371171 4.0668088037615435 1977.5000000000002 7.2240669835618574 67.000000000000014 2.5168385352709017 2001.5000000000002 316.00000000000006 2.8625778253389522 6.8147727275000012 1.9437003974795604 6.7221858498598133 2003.5000000000002 1.9125000000000003 36.912500000000001 8.805743983923195 204.25000000000003 3.2220558550011336 35.587500000000013 5.2311219096858999 4.1625000000000005 3.5000000000000004 22.837500000000002 3.6655538800264336 2.8235622705522458
decision_type=2 2 2 2 2 2 2 2 2 2 2 2 2 2 2 2 2 2 2 2 2 2 2 2 2 2 2 2 2 2 2 2 2 2
left_child=1 7 3 4 -2 -6 8 28 9 15 19 13 17 -3 -14 -5 21 20 -9 -10 -8 29 25 -16 -18 27 -19 -15 -1 -7 33 -21 -32 -13
right_child=2 11 -4 6 5 16 12 18 10 -11 -12 30 14 22 23 -17 24 26 -20 31 -22 -23 -24 -25 -26 -27 -28 -29 -30 -31 32 -33 -34 -35
leaf_value=-0.021839161440730087 -0.048908107529083894 -0.043806153684854514 0.069827045612037189 -0.014353590000731246 -0.036541560016727696 0.0057091227344547692 0.020894989028403699 -0.074486284454663584 0.041001792939809656 0.045966404738525556 0.070159681849181657 0.0087972627868029181 -0.021694308891892434 -0.030050975626165207 0.010326691356634622 0.015075894732338689 -0.0106800212431699 0.022623678930103773 -0.050667208880186082 0.030821418017148963 0.0035936236811371955 0.027213638546791947 -0.0062988213920856231 -0.0041870700026100339 0.0053802122327033432 -0.010178807284682991 0.037771095782518388 -0.016603527798389011 -0.036396517716348172 0.018479930677197196 -0.0094064359002831287 0.019830121425911784 -0.00010429522621312312 0.00035325659264344726
leaf_weight=10.000000000000002 14.999999999999998 9.9999999999999982 9.9999999999999982 12.000000000000002 11.999999999999998 12.000000000000002 11.000000000000002 12.000000000000002 12.999999999999998 11.999999999999998 9.9999999999999982 11.000000000000002 9.9999999999999982 11.000000000000002 19.000000000000004 11.999999999999998 10.000000000000002 10.000000000000002 9.9999999999999982 10.000000000000002 12.999999999999998 10.999999999999998 17 10.999999999999998 9.9999999999999982 11.999999999999998 9.9999999999999982 12.999999999999998 9.9999999999999982 10.999999999999998 11.000000000000002 11.999999999999998 13.999999999999998 15.999999999999998
leaf_count=10 15 10 10 12 12 12 11 12 13 12 10 11 10 11 19 12 10 10 10 10 13 11 17 11 10 12 10 13 10 11 11 12 14 16
internal_value=0 -0.0203762 0.0124964 0.0101658 -0.00807382 0.0012067 0.0191199 -0.0472111 0.028902 0.0155629 0.0395732 -0.0105757 0.0096871 -0.019265 -0.00166984 0.000361152 0.0095952 0.0200116 -0.0636594 0.0308343 0.0115234 0.0167982 -0.0146346 0.00500498 -0.0026499 -0.0185709 0.0301974 -0.0227669 -0.0291178 0.0118169 -4.82487e-05 0.0248262 -0.00419724 0.00379341
internal_weight=0 157 256 246 81 66 165 42 81 36 45 115 84 63 40 24 54 44 22 35 24 34 53 30 20 36 20 24 20 23 52 22 25 27
internal_count=413 157 256 246 81 66 165 42 81 36 45 115 84 63 40 24 54 44 22 35 24 34 53 30 20 36 20 24 20 23 52 22 25 27
is_linear=0
shrinkage=0.05


Tree=2
num_leaves=34
num_cat=0
split_feature=2 1 16 16 10 2 20 19 2 7 12 2 8 6 4 22 13 0 2 21 14 9 8 7 20 16 5 19 14 13 6 18 1
split_gain=37.9633 14.9058 12.3477 15.2485 9.45081 6.38037 7.50056 6.1284 5.00494 5.31531 4.51227 3.79763 3.46366 2.58442 2.33212 2.32024 1.34845 1.26032 1.09254 1.0573 1.04589 0.874967 0.694985 0.627796 0.545099 0.544296 0.457636 0.397173 0.38251 0.322249 0.322487 0.300736 0.19975
threshold=1986.5000000000002 14500.000000000002 6.0775527014493393 5.0914742330508389 9.5000000000000018 2000.5000000000002 2.1925117395460854 4.8622265390422301 1989.5000000000002 1.9125000000000003 4.9569582563204149 1977.5000000000002 3.9625000000000008 67.000000000000014 23.287500000000005 6.8277515962979995 3.0051456637621041 11.500000000000002 2007.5000000000002 3.8735402533343124 4.312903131797504 6.5375000000000005 4.3375000000000012 1.9125000000000003 2.8913670628232331 2.8645429125811588 204.25000000000003 6.1753433737302919 5.2311219096858999 2.5283919993975128 73.875000000000014 5.3486347804550087 104725.00000000001
decision_type=2 2 2 2 2 2 2 2 2 2 2 2 2 2 2 2 2 2 2 2 2 2 2 2 2 2 2 2 2 2 2 2 2
left_child=1 10 3 5 -5 6 7 -2 9 -8 28 13 14 -3 17 31 -12 -7 22 20 24 -21 -14 26 -17 -26 27 -15 -1 -13 32 -10 -31
right_child=2 11 -4 4 -6 12 8 -9 15 -11 16 29 18 23 -16 19 -18 -19 -20 21 -22 -23 -24 -25 25 -27 -28 -29 -30 30 -32 -33 -34
leaf_value=-0.020747203580103808 0.06278295725584028 -0.041615847125649454 0.066335693076252936 -0.056698632426559918 0.003591719378556053 0.015291365583737688 -0.043619143116203213 0.010719180522629849 0.016474749031476672 0.0021401147435729704 -0.046916220188140852 0.0064388904853590907 0.015154654188414232 -0.027545285232078567 0.047697094788676814 0.012575243823230269 -0.071776662766933438 0.038207140564918522 0.025210678505910827 0.0010882890224456784 -0.015627632047981024 0.021113934305806957 -0.0016398569992320104 -0.0059838801567607073 -0.010228566378355022 0.0050446024829787876 -0.0096698669871936246 -0.014636141485111279 -0.034576692627742892 -0.0031129400210025211 -0.0084657588241887956 0.028215162307024002 0.0060418995012613864
leaf_weight=10.000000000000002 10.000000000000002 9.9999999999999982 9.9999999999999982 13 13 15.000000000000002 11.000000000000002 12.999999999999998 12.000000000000002 14.999999999999998 10.000000000000002 13.999999999999998 14.000000000000002 13.000000000000002 19 9.9999999999999982 11.999999999999998 9.9999999999999982 13.999999999999998 10.000000000000002 9.9999999999999982 11.999999999999998 10.999999999999998 17 10.000000000000002 13.999999999999998 11.999999999999998 10.999999999999998 9.9999999999999982 13.000000000000002 13.999999999999998 9.9999999999999982 10.999999999999998
leaf_count=10 10 10 10 13 13 15 11 13 12 15 10 14 14 13 19 10 12 10 14 10 10 12 11 17 10 14 12 11 10 13 14 10 11
internal_value=0 -0.0193574 0.0118715 0.00965755 -0.0265535 0.013937 0.00730937 0.0333556 0.00205443 -0.0172196 -0.0448505 -0.0100469 0.0248767 -0.0183017 0.0344929 0.00774902 -0.0604765 0.0244577 0.0140276 0.00306159 -0.0014133 0.0120114 0.00776507 -0.0139028 0.00276739 -0.00131922 -0.0176424 -0.0216286 -0.0276619 -4.58362e-05 -0.00243495 0.0218113 0.00108303
internal_weight=0 157 256 246 26 220 137 23 114 26 42 115 83 63 44 88 22 25 39 66 44 22 25 53 34 24 36 24 20 52 38 22 24
internal_count=413 157 256 246 26 220 137 23 114 26 42 115 83 63 44 88 22 25 39 66 44 22 25 53 34 24 36 24 20 52 38 22 24
is_linear=0
shrinkage=0.05


Tree=3
num_leaves=33
num_cat=0
split_feature=2 1 7 19 6 1 4 2 12 17 17 10 8 2 5 2 6 8 1 13 1 8 5 8 22 3 2 5 14 8 2 13
split_gain=34.2619 13.4525 11.1364 18.2593 10.7684 7.0318 5.21506 5.39843 4.07233 3.53018 5.57 7.98491 5.01691 3.42736 3.26676 2.63077 2.33244 1.29027 1.75972 1.21698 0.680983 0.813048 0.612998 0.603426 0.592501 0.446014 0.442577 0.535899 0.345215 0.297207 0.23663 0.231603
threshold=1986.5000000000002 14500.000000000002 2.3125000000000004 5.094990801804177 82.125000000000014 3885.0000000000005 22.737500000000004 1989.5000000000002 4.9569582563204149 1.8488466856705743 2.5860909716617519 6.5000000000000009 4.3375000000000012 1977.5000000000002 170.00000000000003 1998.5000000000002 67.000000000000014 3.9125000000000001 41572.500000000007 3.0051456637621041 13080.000000000002 4.2625000000000011 142.75000000000003 3.7125000000000008 8.0231847619517307 38.550000000000004 1970.5000000000002 195.75000000000003 5.2311219096858999 3.3375000000000008 1981.5000000000002 3.1834596410567966
decision_type=2 2 2 2 2 2 2 2 2 2 2 2 2 2 2 2 2 2 2 2 2 2 2 2 2 2 2 2 2 2 2 2
left_child=1 8 4 -4 6 -6 7 -2 28 -8 11 -11 15 16 25 23 -3 18 -9 -10 -19 -22 -17 -12 -18 -5 -26 -28 -1 -15 -31 -32
right_child=2 13 3 14 5 -7 9 17 19 10 12 -13 -14 29 -16 22 24 20 -20 -21 21 -23 -24 -25 26 -27 27 -29 -30 30 31 -33
leaf_value=-0.019709843536838884 -0.031149240906498482 -0.03953505426645279 0.09390788900665939 0.020778085961937892 -0.051907644824435301 0.002221048064529896 -0.0052061944035813219 0.028320025881895645 -0.044570408016443241 0.076556405872106534 -0.0002469311214306137 0.01805766299366951 -0.018305392628535627 -0.0062712112807535711 -0.0056785178685624322 0.036531384289264675 -0.004384117646675025 -0.0066980279625996064 0.0031864925846457485 -0.06818783010045687 -0.0013703739421223014 0.015240498990393604 0.022108101035253361 0.014965818019118161 -0.0099890327139291919 0.035711500551551582 -0.028124889731407161 -0.012846113673665309 -0.032847858075983824 -0.0026348910356561346 0.01115792922209948 0.0010366710296903666
leaf_weight=10.000000000000002 10.999999999999998 9.9999999999999982 9.9999999999999982 10.000000000000005 12.000000000000002 11.999999999999998 13.999999999999998 13.000000000000002 10.000000000000002 10.000000000000002 11.000000000000002 13.999999999999998 9.9999999999999982 13.999999999999998 10.999999999999998 17.000000000000004 13.999999999999998 17 14.999999999999998 11.999999999999998 17.000000000000004 12.999999999999998 12.999999999999998 15.999999999999998 15.999999999999998 9.9999999999999982 12.000000000000002 10.999999999999998 9.9999999999999982 14.999999999999998 10.000000000000002 12.999999999999998
leaf_count=10 11 10 10 10 12 12 14 13 10 10 11 14 10 14 11 17 14 17 15 12 17 13 13 16 16 10 12 11 10 15 10 13
internal_value=0 -0.0183895 0.011278 0.0351588 0.00672394 -0.0248433 0.0106905 0.00156139 -0.042608 0.0181677 0.0217637 0.0424321 0.01436 -0.00954455 0.0162075 0.0200908 -0.0173866 0.00635895 0.0148556 -0.0574526 0.0012971 0.00582767 0.0302813 0.00876803 -0.0132077 0.0282448 -0.0163751 -0.0208176 -0.0262789 -4.35444e-05 0.00225086 0.00543722
internal_weight=0 157 256 41 215 24 191 86 42 105 91 24 67 115 31 57 63 75 28 22 47 30 30 27 53 20 39 23 20 52 38 23
internal_count=413 157 256 41 215 24 191 86 42 105 91 24 67 115 31 57 63 75 28 22 47 30 30 27 53 20 39 23 20 52 38 23
is_linear=0
shrinkage=0.05


Tree=4
num_leaves=32
num_cat=0
split_feature=2 1 16 16 22 2 20 19 2 7 12 2 8 6 17 4 22 0 9 1 1 2 3 22 2 5 14 24 19 4 23
split_gain=30.9214 12.1409 11.143 12.7873 8.28877 5.24851 6.23694 5.42694 4.31177 3.73338 3.67527 3.09319 2.97242 2.10502 2.0604 2.03698 1.25436 1.1151 1.01205 0.851878 0.840888 0.723817 0.586567 0.534732 0.399426 0.483649 0.311556 0.276636 0.321246 0.243429 0.146202
threshold=1986.5000000000002 14500.000000000002 6.0775527014493393 5.0914742330508389 8.137317540842341 2000.5000000000002 2.1925117395460854 4.8622265390422301 1990.5000000000002 1.8625000000000003 4.9569582563204149 1977.5000000000002 3.9625000000000008 67.000000000000014 2.0670640920398182 23.287500000000005 6.9259984956026335 11.500000000000002 6.8147727275000012 9626.5000000000018 21982.500000000004 2003.5000000000002 36.63750000000001 8.0231847619517307 1970.5000000000002 195.75000000000003 5.2311219096858999 3.5000000000000004 5.6483978203274079 22.687500000000004 2.8235622705522458
decision_type=2 2 2 2 2 2 2 2 2 2 2 2 2 2 2 2 2 2 2 2 2 2 2 2 2 2 2 2 2 2 2
left_child=1 10 3 5 -5 6 7 -2 9 -8 26 13 15 -3 -10 17 -16 -7 -12 -14 -18 -21 -22 -15 -25 -26 -1 30 -29 -24 -13
right_child=2 11 -4 4 -6 12 8 -9 14 -11 18 27 19 23 16 -17 20 -19 -20 21 22 -23 29 24 25 -27 -28 28 -30 -31 -32
leaf_value=-0.018724351208657019 0.05796184420585631 -0.037558301761746404 0.062453246833756575 -0.055042432939323274 0.0015876444917271978 0.013359183122714358 -0.031930603173871835 0.0089681851999977458 -0.013315269034355879 0.001844475598126236 -0.064369720717271151 0.0079052624514919078 0.0025265192486196093 -0.0041649118198880128 0.021920759701415115 0.043700422895582097 0.017921794533657914 0.034914339035749441 -0.042832349389791496 0.0097573805976515771 0.0095292677612681138 0.026786496552328273 -0.0082548128254711604 -0.009489580785157159 -0.026718645356595513 -0.012203807857903568 -0.031205465178936721 -0.010773004111833868 0.00079645390932758645 0.0027776066586375236 0.00041714073449838907
leaf_weight=10.000000000000002 10.000000000000002 9.9999999999999982 9.9999999999999982 12.000000000000002 13.999999999999998 15.000000000000002 14.999999999999998 12.999999999999998 9.9999999999999982 18 12.000000000000002 11.000000000000002 13.999999999999998 13.999999999999998 19 19 12.999999999999998 9.9999999999999982 9.9999999999999982 13.000000000000002 19 11.999999999999998 10.000000000000002 15.999999999999998 12.000000000000002 10.999999999999998 9.9999999999999982 10.000000000000002 14.999999999999998 9.9999999999999982 15.999999999999998
leaf_count=10 10 10 10 12 14 15 15 13 10 18 12 11 14 14 19 19 13 10 10 13 19 12 10 16 12 11 10 10 15 10 16
internal_value=0 -0.0174701 0.0107141 0.00861084 -0.0245493 0.0125298 0.00651865 0.0302698 0.00172676 -0.0135078 -0.0404776 -0.00906732 0.0224517 -0.0165173 0.00793345 0.03136 0.0109262 0.0219812 -0.05458 0.0124014 0.00690899 0.0179314 0.00323805 -0.0125473 -0.0155564 -0.0197768 -0.0249649 -4.13672e-05 -0.00383133 -0.0027386 0.00346786
internal_weight=0 157 256 246 26 220 137 23 114 33 42 115 83 63 81 44 71 25 22 39 52 25 39 53 39 23 20 52 25 20 27
internal_count=413 157 256 246 26 220 137 23 114 33 42 115 83 63 81 44 71 25 22 39 52 25 39 53 39 23 20 52 25 20 27
is_linear=0
shrinkage=0.05


Tree=5
num_leaves=34
num_cat=0
split_feature=2 1 16 9 1 22 23 1 19 1 12 22 2 2 6 13 16 13 14 22 2 7 8 19 7 5 19 7 14 18 13 6 1
split_gain=27.9065 10.9572 10.0566 12.1656 8.10012 6.37757 5.13934 4.9919 4.98414 4.96029 3.31694 2.89719 2.7916 2.22793 1.89978 1.58889 1.13567 1.05139 1.02732 0.944157 0.913759 0.616574 0.555149 0.503089 0.500837 0.367187 0.347782 0.339817 0.28118 0.271646 0.267379 0.279038 0.160303
threshold=1986.5000000000002 14500.000000000002 6.0775527014493393 6.4875000000000007 4140.0000000000009 8.0479559490871484 3.2659742500078508 34701.000000000007 4.4032413035823481 7522.5000000000009 4.9569582563204149 7.2240669835618574 1977.5000000000002 2000.5000000000002 67.000000000000014 2.8061145311925357 2.5168385352709017 3.0051456637621041 3.64710586749929 6.8277515962979995 1995.5000000000002 2.2375000000000003 4.6875000000000009 5.2883456556528143 1.9125000000000003 204.25000000000003 6.1753433737302919 1.5125000000000002 5.2311219096858999 5.0365364500599581 2.5283919993975128 73.875000000000014 107542.50000000001
decision_type=2 2 2 2 2 2 2 2 2 2 2 2 2 2 2 2 2 2 2 2 2 2 2 2 2 2 2 2 2 2 2 2 2
left_child=1 10 3 4 5 -2 -6 8 -5 13 28 20 14 -10 -3 -11 -13 -12 -17 -8 21 -9 -7 -18 25 26 -16 -21 -1 -22 -14 32 -32
right_child=2 12 -4 7 6 22 19 11 9 15 17 16 30 -15 24 18 23 -19 -20 27 29 -23 -24 -25 -26 -27 -28 -29 -30 -31 31 -33 -34
leaf_value=-0.01778813369572162 -0.050461302725598213 -0.035680386386811737 0.059330589193850758 0.056428043137897149 -0.025607349835336208 -0.015662423409521575 0.027967494181357324 0.0023856506038170589 -0.0083336995666225735 0.049819420650601388 -0.039877210259437551 -0.015461156627332624 0.0058676015718707019 0.018488596376118948 -0.024367248883041048 0.03767201619392091 -0.003339587523563144 -0.061829170460502306 0.017253062027573055 0.016564289514314042 0.017778739705681796 0.018469874615865675 0.00099814174498533245 0.0094062318908981982 -0.0048468950916739076 -0.0081187000808616485 -0.012287405057048256 0.0049941815684239072 -0.029645192064344884 0.02893690246467789 -0.0023967087967321273 -0.0078253757009016621 0.0058919220697134737
leaf_weight=10.000000000000002 14.999999999999998 9.9999999999999982 9.9999999999999982 10.999999999999998 9.9999999999999982 10.000000000000002 9.9999999999999982 13.000000000000002 15.000000000000002 9.9999999999999982 10.000000000000002 10.999999999999998 13.999999999999998 15.999999999999998 13.000000000000002 11.000000000000002 15.000000000000002 11.999999999999998 13.999999999999998 11.000000000000002 10.000000000000002 10.999999999999998 9.9999999999999982 15.999999999999998 17 11.999999999999998 10.999999999999998 14.999999999999998 9.9999999999999982 11.999999999999998 14.000000000000002 13.999999999999998 9.9999999999999982
leaf_count=10 15 10 10 11 10 10 10 13 15 10 10 11 14 16 13 11 15 12 14 11 10 11 10 16 17 12 11 15 10 12 14 14 10
internal_value=0 -0.0165966 0.0101784 0.0081803 -0.0076894 -0.0258161 0.00610264 0.0159709 0.0252682 0.0200749 -0.0384537 0.00783574 -0.00861395 0.00551007 -0.0156914 0.0329751 -0.00165873 -0.051851 0.0262374 0.014911 0.0165046 0.00975759 -0.00733214 0.0032389 -0.0119199 -0.01526 -0.0188307 0.00988923 -0.0237167 0.023865 -3.92989e-05 -0.00221553 0.00105689
internal_weight=0 157 256 246 81 35 46 165 77 66 42 88 115 31 63 35 42 22 25 36 46 24 20 31 53 36 24 26 20 22 52 38 24
internal_count=413 157 256 246 81 35 46 165 77 66 42 88 115 31 63 35 42 22 25 36 46 24 20 31 53 36 24 26 20 22 52 38 24
is_linear=0
shrinkage=0.05


Tree=6
num_leaves=34
num_cat=0
split_feature=21 9 10 3 16 21 7 7 7 10 22 20 24 21 23 3 23 15 1 18 5 14 1 20 5 7 3 14 21 18 0 4 18
split_gain=14.7388 7.64819 20.0566 5.98922 3.8854 4.24378 2.90106 2.89706 2.83698 2.84678 2.69238 2.13224 1.99473 1.91788 1.52509 1.52211 1.75982 1.42995 1.25486 1.01711 0.845163 0.830257 0.759435 0.635598 0.605098 0.54927 0.51539 0.487455 0.345635 0.337723 0.221591 0.192596 0.0583176
threshold=2.8535217362833767 5.1125000000000007 3.5000000000000004 34.32500000000001 3.5285859695047734 4.0254769615534123 2.0625000000000004 1.7875000000000003 1.2125000000000001 9.5000000000000018 7.0135722111406018 4.1691587359311821 2.5000000000000004 2.3904354298253256 3.2992258513747905 35.587500000000013 5.3118237257173595 3.7283832762211313 74067.500000000015 5.8376476860877409 225.12500000000003 3.67591983957483 1355.0000000000002 3.9979881514154338 146.37500000000003 1.4875000000000003 37.01250000000001 2.8026825558036808 1.8330104507148992 2.8988665766830155 7.5000000000000009 23.775000000000002 5.4105248797748358
decision_type=2 2 2 2 2 2 2 2 2 2 2 2 2 2 2 2 2 2 2 2 2 2 2 2 2 2 2 2 2 2 2 2 2
left_child=6 -2 -3 17 7 8 13 12 -6 10 31 -7 -5 19 -8 22 29 -4 -11 27 -12 -15 -13 -14 -21 -24 -25 -1 -29 -17 -9 -10 -31
right_child=1 2 3 4 5 11 14 30 9 18 20 15 23 21 -16 16 -18 -19 -20 24 -22 -23 25 26 -26 -27 -28 28 -30 32 -32 -33 -34
leaf_value=0.0032918422576040021 0.037533825114369396 -0.063266087373097732 -0.012049297265968139 -0.035959857205549881 0.032935790508054195 -0.020389616065141229 0.01958832849748432 0.00910266291350126 0.0081721104611642628 0.026640476325624864 -0.0043407220393419264 -0.021036152541637421 -0.0045597756529847785 -0.0071610421157227121 0.047202551066875459 0.005844021842560985 0.021050209016539159 -0.033811536245048047 0.0047583750612102448 0.034721737422726363 -0.022659551762044431 0.0092374024961731933 -0.013072654642164703 -0.026250988859683268 0.017727718744426964 0.0027939440410894652 -0.010567182344807821 0.022820386493747877 0.0099766200524754826 -0.0077059751306660443 -0.00097515828480633591 0.01798525368794799 -0.0025359758175909522
leaf_weight=10.000000000000002 9.9999999999999982 14.999999999999998 13.000000000000002 11.999999999999998 11.999999999999998 18 10.000000000000002 10.000000000000002 10.000000000000002 19.000000000000004 17.000000000000004 9.9999999999999982 14.999999999999998 12.999999999999998 9.9999999999999982 10.999999999999998 11.999999999999998 18 9.9999999999999982 11.000000000000002 9.9999999999999982 19 10.000000000000002 10.000000000000002 9.9999999999999982 11.999999999999998 10.999999999999998 11.000000000000002 9.9999999999999982 10.000000000000002 11.999999999999998 9.9999999999999982 11.999999999999998
leaf_count=10 10 15 13 12 12 18 10 10 10 19 17 10 15 13 10 11 12 18 10 11 10 19 10 10 10 12 11 11 10 10 12 10 12
internal_value=0 -0.00547978 -0.00691836 -0.00394225 -0.00140059 0.00243164 0.0162813 -0.0114191 0.0103428 0.00677551 -0.000825833 -0.00489662 -0.0183055 0.0122065 0.0333954 -0.00127488 0.00465323 -0.0246854 0.0190949 0.0181332 -0.0111255 0.00257553 -0.00961127 -0.0124207 0.0266293 -0.00441815 -0.0180357 0.0123777 0.0167043 -0.00130931 0.00360567 0.0130787 -0.00488598
internal_weight=0 309 299 284 253 183 104 70 88 76 47 95 48 84 20 77 45 31 29 52 27 32 32 36 21 22 21 31 21 33 22 20 22
internal_count=413 309 299 284 253 183 104 70 88 76 47 95 48 84 20 77 45 31 29 52 27 32 32 36 21 22 21 31 21 33 22 20 22
is_linear=0
shrinkage=0.05


Tree=7
num_leaves=33
num_cat=0
split_feature=2 11 16 9 10 2 11 19 11 12 2 22 10 16 11 11 16 13 14 6 9 13 19 22 14 2 19 14 8 11 14 21
split_gain=22.896 9.12937 8.88181 10.4738 8.18786 5.84756 4.28815 4.49247 4.28076 2.71582 2.42858 2.38229 1.90018 1.70661 1.64949 1.21375 0.967269 0.868293 0.788218 0.473587 0.465601 0.461013 0.441356 0.439582 0.336194 0.324052 0.312398 0.240676 0.226445 0.202514 0.0725024 0.0656018
threshold=1986.5000000000002 14500.000000000002 6.0775527014493393 6.4875000000000007 5.0000000000000009 1990.5000000000002 34701.000000000007 4.4032413035823481 7522.5000000000009 4.9569582563204149 1975.5000000000002 7.2240669835618574 9.5000000000000018 3.8203062744185119 11877.500000000002 7522.5000000000009 2.5168385352709017 3.0051456637621041 2.8868854051576345 78.875000000000014 6.6442857145000014 4.0440906769698648 5.2883456556528143 6.9339168769749113 3.64710586749929 1979.5000000000002 4.2838230706972134 5.2311219096858999 3.3375000000000008 93020.000000000015 3.4683565214819381 3.5304669772509745
decision_type=2 2 2 2 2 2 2 2 2 2 2 2 2 2 2 2 2 2 2 2 2 2 2 2 2 2 2 2 2 2 2 2
left_child=1 9 3 4 -2 -6 7 -5 12 27 13 18 -9 -3 -10 -7 -13 -11 23 25 -15 26 -18 -8 -16 29 -17 -1 -27 -12 -22 -30
right_child=2 10 -4 6 5 15 11 8 14 17 19 16 -14 20 24 21 22 -19 -20 -21 30 -23 -24 -25 -26 28 -28 -29 31 -31 -32 -33
leaf_value=-0.016164059834554788 -0.040728896396855514 -0.028981662169098855 0.05541160237044096 0.052770414575934413 -0.031375926701972888 -0.0033900034743257696 0.01602147635645591 -0.0051114135274761595 0.047403481933288277 -0.036225346103310574 -0.013409850634634492 -0.014317213091999292 0.020303024103244149 -0.017711320180784574 0.028515545584793595 0.0028062677709385746 -0.0032208527314166223 -0.056174472222725549 0.022693540998979619 0.008537060385569931 -0.0019317218603100623 0.020513557518521946 0.0087173685751622543 0.0032530893887659272 0.01683468446135521 -0.0054116859433374241 0.014215289886730412 -0.027133931852877144 0.0057136838696897011 -0.0033472065581008795 -0.0078141887418248443 0.00023030213681825751
leaf_weight=10.000000000000002 14.999999999999998 17 9.9999999999999982 10.999999999999998 11.999999999999998 18 13.000000000000002 19.000000000000004 9.9999999999999982 10.000000000000002 10.000000000000002 10.999999999999998 11.999999999999998 10.999999999999998 14.000000000000002 12.000000000000002 15.000000000000002 11.999999999999998 19 9.9999999999999982 10.000000000000002 11.999999999999998 15.999999999999998 13.999999999999998 10.999999999999998 13.999999999999998 11.999999999999998 9.9999999999999982 10.000000000000002 9.9999999999999982 10.999999999999998 11.999999999999998
leaf_count=10 15 17 10 11 12 18 13 19 10 10 10 11 12 11 14 12 15 12 19 10 10 12 16 14 11 14 12 10 10 10 11 12
internal_value=0 -0.015033 0.00921944 0.00734171 -0.00738325 0.000195306 0.0145703 0.0231874 0.0182569 -0.034984 -0.00774651 0.0070304 0.00472643 -0.0161793 0.030241 0.00721114 -0.00157915 -0.0471067 0.0148913 -0.0014858 -0.00937806 0.0125117 0.00294081 0.00940083 0.023376 -0.0032756 0.00851078 -0.021649 -0.000440643 -0.00837853 -0.00501301 0.00272275
internal_weight=0 157 256 246 81 66 165 77 66 42 115 88 31 49 35 54 42 22 46 66 32 36 31 27 25 56 24 20 36 20 21 22
internal_count=413 157 256 246 81 66 165 77 66 42 115 88 31 49 35 54 42 22 46 66 32 36 31 27 25 56 24 20 36 20 21 22
is_linear=0
shrinkage=0.05


Tree=8
num_leaves=33
num_cat=0
split_feature=2 1 7 19 9 10 1 5 2 6 9 5 2 16 10 1 2 4 2 2 0 22 2 6 9 2 10 8 1 9 5 21
split_gain=20.6636 8.23925 8.02849 15.7387 9.97171 6.45007 5.18959 4.83887 3.63712 2.80115 2.2969 2.28875 2.1918 1.54022 1.41845 1.3639 1.24552 1.0547 0.756502 0.572522 0.518144 0.517078 0.432815 0.427412 0.420205 0.292457 0.280043 0.204367 0.182769 0.167364 0.0818961 0.0592056
threshold=1986.5000000000002 14500.000000000002 2.3875000000000006 5.094990801804177 6.4875000000000007 5.0000000000000009 29135.000000000004 243.00000000000003 1990.5000000000002 79.375000000000014 6.1375000000000011 170.00000000000003 1975.5000000000002 3.8203062744185119 36.000000000000007 7522.5000000000009 1996.5000000000002 22.937500000000004 1999.5000000000002 1999.5000000000002 8.5000000000000018 7.2425633066162129 1989.5000000000002 78.875000000000014 6.6442857145000014 1979.5000000000002 19.500000000000004 3.3375000000000008 93020.000000000015 7.0375000000000005 142.75000000000003 3.5304669772509745
decision_type=2 2 2 2 2 2 2 2 2 2 2 2 2 2 2 2 2 2 2 2 2 2 2 2 2 2 2 2 2 2 2 2
left_child=1 10 4 -4 5 -2 7 9 -7 18 -1 -5 13 -3 16 19 22 -12 -6 -10 -20 -18 -8 25 -15 28 -17 -27 -14 -24 -26 -29
right_child=2 12 3 11 6 8 14 -9 15 -11 17 -13 23 24 -16 26 21 -19 20 -21 -22 -23 29 -25 30 27 -28 31 -30 -31 -32 -33
leaf_value=-0.054151402413845064 -0.038692451547831297 -0.027532579486860949 0.083884529098868371 0.022525108326226468 0.015539943161146605 -0.025770942379648873 -0.0078678484646264799 0.050615986465261532 0.0028701576031744474 -0.0026104874110647611 -0.01640558622977031 -0.007102366773919626 -0.012739357985556123 -0.016825754292817279 -0.013474955372512341 0.0071020815211037787 0.02124635577201843 -0.034703802317380905 0.021909994259476654 -0.013660086454315622 0.037256651981310417 0.0080885157352895472 0.00026851392422731101 0.0081102070934139202 -0.0014875372312963004 -0.0051411016636328513 0.017228343032977798 0.0054279997386038285 -0.0031798460287973287 0.0086484032513743092 -0.0077394782480868429 0.00021878713256834694
leaf_weight=9.9999999999999982 14.999999999999998 17 9.9999999999999982 16.000000000000004 17 12.999999999999998 10.999999999999998 12.999999999999998 10.000000000000002 13.999999999999998 13.999999999999998 10.999999999999998 10.000000000000002 10.999999999999998 9.9999999999999982 18.000000000000004 14.000000000000002 18 11.000000000000002 10.999999999999998 10.999999999999998 15.999999999999998 13.000000000000002 9.9999999999999982 10.000000000000002 13.999999999999998 10.999999999999998 10.000000000000002 9.9999999999999982 10.999999999999998 10.999999999999998 11.999999999999998
leaf_count=10 15 17 10 16 17 13 11 13 10 14 14 11 10 11 10 18 14 18 11 11 11 16 13 10 10 14 11 10 10 11 11 12
internal_value=0 -0.0142813 0.00875847 0.0303006 0.00511893 -0.00922589 0.0130544 0.0232799 -0.00221004 0.0165748 -0.0332348 0.0104547 -0.00735919 -0.0153703 0.0040559 0.0039158 0.00675295 -0.0266983 0.0234618 -0.00578854 0.0295833 0.0142288 0.000345051 -0.00141151 -0.00890915 -0.00311182 0.0109431 -0.000418611 -0.0079596 0.0041093 -0.00476236 0.00258661
internal_weight=0 157 256 37 219 78 141 66 63 53 42 27 115 49 75 50 65 32 39 21 22 30 35 66 32 56 29 36 20 24 21 22
internal_count=413 157 256 37 219 78 141 66 63 53 42 27 115 49 75 50 65 32 39 21 22 30 35 66 32 56 29 36 20 24 21 22
is_linear=0
shrinkage=0.05


Tree=9
num_leaves=34
num_cat=0
split_feature=2 16 16 1 22 17 17 5 12 5 2 0 2 16 18 22 21 0 9 16 6 9 9 5 15 2 9 14 2 8 1 5 21
split_gain=18.6489 8.08519 9.08743 7.43593 6.37951 3.64268 5.72775 5.64864 2.27049 2.10486 3.35614 2.20306 1.9781 1.39005 1.29415 1.13165 0.873596 0.713355 0.64788 0.410932 0.385739 0.379235 0.325147 0.396036 0.269708 0.263942 0.234263 0.21721 0.209757 0.184441 0.164949 0.0739112 0.053433
threshold=1986.5000000000002 6.0775527014493393 5.0914742330508389 14500.000000000002 8.137317540842341 1.8488466856705743 2.2494413225316059 280.50000000000006 4.9569582563204149 247.12500000000003 1998.5000000000002 6.5000000000000009 1975.5000000000002 3.8203062744185119 5.0959568659230756 6.9259984956026335 3.142842237613352 4.5000000000000009 6.8147727275000012 2.5168385352709017 78.875000000000014 6.6442857145000014 7.0375000000000005 149.62500000000003 3.1197327286490268 1979.5000000000002 7.0875000000000012 5.2311219096858999 2007.5000000000002 3.3375000000000008 93020.000000000015 142.75000000000003 3.5304669772509745
decision_type=2 2 2 2 2 2 2 2 2 2 2 2 2 2 2 2 2 2 2 2 2 2 2 2 2 2 2 2 2 2 2 2 2
left_child=3 2 5 8 -4 -2 -7 9 27 10 15 16 13 -5 -13 -8 17 -12 -10 -17 25 -15 24 -24 -21 30 28 -1 -16 -27 -14 -23 -31
right_child=1 -3 4 12 -6 6 7 -9 18 -11 11 14 20 21 26 19 -18 -19 -20 22 -22 31 23 -25 -26 29 -28 -29 -30 32 -32 -33 -34
leaf_value=-0.014169613244011996 -0.011720365172045099 0.052392535507678986 -0.048176870828804862 -0.026155950633041998 0.0015047366897176419 0.041480962249139948 0.013822235267511324 -0.021179130912891458 -0.050490111609299962 0.034107273370027544 0.021471863825406345 0.013012622192812462 -0.012102390024811026 -0.015984466411596673 0.039244554936885806 -0.0084447745854655913 -0.0025052614277228714 0.0048585999834661686 -0.033258025646209714 0.0039934139093384139 0.0077046970592346041 -0.0014131603576242921 -0.0018379820883274074 0.011007841775814693 -0.0067578172344448309 -0.0048840466034432341 0.024751295074820517 -0.024590991586446762 0.029003537446260455 0.0051565996184945095 -0.0030208538752049211 -0.0073525042315437036 0.00020784768760980421
leaf_weight=10.000000000000002 18 9.9999999999999982 12.000000000000002 17 13.999999999999998 14.999999999999998 19 13.999999999999998 12.000000000000002 9.9999999999999982 14.000000000000002 14.999999999999998 10.000000000000002 10.999999999999998 10.000000000000005 11.999999999999998 11.999999999999998 11.999999999999998 9.9999999999999982 10.000000000000002 9.9999999999999982 10.000000000000002 10.000000000000002 14.999999999999998 13.999999999999998 13.999999999999998 9.9999999999999982 9.9999999999999982 9.9999999999999982 10.000000000000002 9.9999999999999982 10.999999999999998 11.999999999999998
leaf_count=10 18 10 12 17 14 15 19 14 12 10 14 15 10 11 10 12 12 12 10 10 10 10 10 15 14 14 10 10 10 10 10 11 12
internal_value=0 0.00832054 0.006529 -0.0135673 -0.0214252 0.00983268 0.0117532 0.00936867 -0.031573 0.0118408 0.0104747 0.0175184 -0.00699123 -0.0146018 0.0250041 0.00316685 0.00865385 0.0138042 -0.0426573 -0.000152046 -0.00134094 -0.0084637 0.00187883 0.00586951 -0.00227814 -0.00295623 0.0309998 -0.0193803 0.034124 -0.00039768 -0.00756162 -0.00452425 0.00245728
internal_weight=0 256 246 157 26 220 202 187 42 173 163 83 115 49 45 80 38 26 22 61 66 32 49 25 24 56 30 20 20 36 20 21 22
internal_count=413 256 246 157 26 220 202 187 42 173 163 83 115 49 45 80 38 26 22 61 66 32 49 25 24 56 30 20 20 36 20 21 22
is_linear=0
shrinkage=0.05


Tree=10
num_leaves=34
num_cat=0
split_feature=2 16 9 11 10 2 11 19 11 12 22 2 2 3 22 16 3 0 16 13 2 11 19 10 7 2 8 2 11 18 14 12 21
split_gain=16.8307 7.29688 8.20877 6.71093 6.11988 4.88347 3.54445 3.77634 3.70451 2.04911 1.80067 1.78523 1.58803 1.52333 1.26719 1.6538 0.935102 0.79398 0.727721 0.700378 0.606521 0.571497 0.420273 0.389332 0.371652 0.304332 0.272082 0.21415 0.210737 0.196618 0.196032 0.159923 0.15018
threshold=1986.5000000000002 6.0775527014493393 6.4875000000000007 14500.000000000002 5.0000000000000009 1990.5000000000002 34701.000000000007 4.4032413035823481 7522.5000000000009 4.9569582563204149 7.2240669835618574 1975.5000000000002 2000.5000000000002 36.362500000000004 8.2557482591644078 3.8203062744185119 36.712500000000013 7.5000000000000009 2.5168385352709017 3.0051456637621041 1995.5000000000002 7522.5000000000009 4.8741016865309854 19.500000000000004 2.2375000000000003 1979.5000000000002 3.4625000000000008 1970.5000000000002 93020.000000000015 5.2398117790310677 5.2311219096858999 5.1578814306839247 3.4521366550121395
decision_type=2 2 2 2 2 2 2 2 2 2 2 2 2 2 2 2 2 2 2 2 2 2 2 2 2 2 2 2 2 2 2 2 2
left_child=3 2 4 9 -2 -6 7 -4 12 30 20 14 -9 -10 -5 -16 21 -15 -12 -11 24 -7 -20 -23 -8 28 -27 -17 -13 -22 -1 -24 -28
right_child=1 -3 6 11 5 16 10 8 13 19 18 25 -14 17 15 27 -18 -19 22 -21 29 23 31 -25 -26 26 32 -29 -30 -31 -32 -33 -34
leaf_value=-0.013461132347583766 -0.03566206391900778 0.049772911295294764 0.047559151121161207 -0.0033196804320646659 -0.029132884337256356 -0.0043263932025772245 0.0013609039167372077 -0.0083588629215955706 0.043557271696627146 -0.030751758851110922 -0.012786872227760879 -0.011497270651161667 0.014286246735719033 0.013191425946230687 -0.035570923128927283 -0.0062601716071367247 0.019138974899595436 0.03138002376072109 -0.0062541744532063591 -0.048668411063651246 0.013851078802889039 0.0026261523831635708 0.0020395205313847816 0.015202569775283337 0.013848409414905208 -0.0041887233783199918 0.0085360997652804277 -0.016607885211706162 -0.001468360127711838 0.023304754038426009 -0.0233614419400692 0.010776057811453939 0.0011205716666558552
leaf_weight=10.000000000000002 14.999999999999998 9.9999999999999982 10.999999999999998 18 11.999999999999998 17 13.000000000000002 15.000000000000002 9.9999999999999982 10.000000000000002 10.999999999999998 10.000000000000002 15.999999999999998 15.000000000000002 11.000000000000002 10.000000000000002 10.999999999999998 9.9999999999999982 10.000000000000002 11.999999999999998 11.000000000000002 16.000000000000004 11.000000000000002 9.9999999999999982 10.999999999999998 15.999999999999998 11.000000000000002 9.9999999999999982 10.999999999999998 10.999999999999998 9.9999999999999982 9.9999999999999982 18
leaf_count=10 15 10 11 18 12 17 13 15 10 10 11 10 16 15 11 10 11 10 10 12 11 16 11 10 11 16 11 10 11 11 10 10 18
internal_value=0 0.00790452 0.00620255 -0.0128889 -0.00683335 -0.00028137 0.012602 0.0204363 0.0159158 -0.0299944 0.005747 -0.00664167 0.00332894 0.0270641 -0.0138717 -0.0199987 0.00613008 0.0204669 -0.00173814 -0.0405245 0.0125813 0.00280222 0.00218237 0.00746324 0.00708434 -0.00127389 0.00104551 -0.011434 -0.00624403 0.0185779 -0.0184113 0.00619978 0.00393336
internal_weight=0 256 246 157 81 66 165 77 66 42 88 115 31 35 49 31 54 25 42 22 46 43 31 26 24 66 45 20 21 22 20 21 29
internal_count=413 256 246 157 81 66 165 77 66 42 88 115 31 35 49 31 54 25 42 22 46 43 31 26 24 66 45 20 21 22 20 21 29
is_linear=0
shrinkage=0.05


Tree=11
num_leaves=33
num_cat=0
split_feature=2 7 19 9 1 2 18 23 19 2 2 12 2 1 21 8 5 3 12 13 22 21 5 20 2 6 6 5 18 2 14 1
split_gain=15.1897 6.88021 16.9011 6.37543 6.05661 4.91913 3.94529 3.1093 5.43802 2.15228 1.88267 1.84933 1.61117 1.36217 1.22921 1.21512 1.14791 0.954934 0.808525 0.632091 0.484863 0.455775 0.392812 0.37033 0.336328 0.327769 0.247324 0.231664 0.244411 0.295834 0.176919 0.0848675
threshold=1986.5000000000002 2.0125000000000006 4.8622265390422301 6.4875000000000007 14500.000000000002 1990.5000000000002 6.5460340378151036 4.2449450696737694 4.8622265390422301 1993.5000000000002 1999.5000000000002 4.9569582563204149 1975.5000000000002 7522.5000000000009 2.7427438292113995 3.1375000000000006 204.25000000000003 37.500000000000007 4.2160104293128429 3.0051456637621041 8.0231847619517307 3.3078614226837155 183.50000000000003 3.4462272373926677 1970.5000000000002 78.875000000000014 76.125000000000014 244.50000000000003 4.1271776786212682 1979.5000000000002 5.2311219096858999 57989.000000000007
decision_type=2 2 2 2 2 2 2 2 2 2 2 2 2 2 2 2 2 2 2 2 2 2 2 2 2 2 2 2 2 2 2 2
left_child=4 3 -3 6 11 -4 9 10 -9 -2 16 30 15 -11 -10 -6 18 21 -5 -13 -17 -7 -12 -15 -22 27 -20 28 -14 -30 -1 -31
right_child=1 2 5 7 12 17 -8 8 14 13 22 19 25 23 -16 20 -18 -19 26 -21 24 -23 -24 -25 -26 -27 -28 -29 29 31 -32 -33
leaf_value=-0.012788075860589738 -0.018194424474666664 0.072552285515345066 -0.020877421878553418 -0.0088201080956919631 -0.02781262164088813 0.01618570119142532 -0.033023268157350169 0.051287775387225502 0.021608904681422486 -0.0086958335588375717 0.020931862766544018 -0.029214170724153513 0.0054985317486253658 0.0047982647370260487 -0.00072643094296966288 0.00050890576094388964 -0.014282848585086563 0.026316389767453076 0.002287394609576201 -0.046234989476700628 -0.006430764596622722 0.002405048578511924 0.0084922379507175235 0.017263543555005031 -0.017418633007134001 0.0071280675567686556 0.010588825788152845 -0.0085479870581856143 -0.010271722730249167 0.0032056445382874113 -0.022193370088934902 -0.0030053244152275678
leaf_weight=10.000000000000002 17 12.999999999999998 10.999999999999998 10.999999999999998 10.999999999999998 15.000000000000002 13.999999999999998 10.999999999999998 11.000000000000002 14.999999999999998 15.000000000000002 10.000000000000002 10.999999999999998 13.000000000000002 13.999999999999998 9.9999999999999982 11.999999999999998 15.999999999999998 17 11.999999999999998 13.000000000000002 9.9999999999999982 10.999999999999998 10.999999999999998 14.999999999999998 9.9999999999999982 19 12.999999999999998 9.9999999999999982 11.000000000000002 9.9999999999999982 10.999999999999998
leaf_count=10 17 13 11 11 11 15 14 11 11 15 15 10 11 13 14 10 12 16 17 12 13 10 11 11 15 10 19 13 10 11 10 11
internal_value=0 0.00750929 0.0215604 0.0027275 -0.0122444 0.00881243 -0.00928274 0.00967557 0.0219915 -0.00334761 0.00445942 -0.0284947 -0.00630958 0.00312407 0.00910112 -0.0131781 -0.000480372 0.016778 0.00304366 -0.0384983 -0.00894185 0.0106734 0.0156689 0.0105115 -0.0123171 -0.0012102 0.00666871 -0.00269917 -0.000930927 -0.00314105 -0.0174907 0.00010016
internal_weight=0 256 65 191 157 52 70 121 36 56 85 42 115 39 25 49 59 41 47 22 38 25 26 24 28 66 36 56 43 32 20 22
internal_count=413 256 65 191 157 52 70 121 36 56 85 42 115 39 25 49 59 41 47 22 38 25 26 24 28 66 36 56 43 32 20 22
is_linear=0
shrinkage=0.05


Tree=12
num_leaves=33
num_cat=0
split_feature=2 16 16 1 22 2 8 5 8 12 1 1 3 2 18 1 16 16 2 8 22 9 6 3 5 18 2 14 0 1 20 5
split_gain=13.7087 6.76362 7.23026 5.46609 5.44198 2.6556 4.37231 3.922 2.04069 1.66902 1.58229 1.82078 1.53911 1.45408 1.31164 1.16681 1.31722 1.11341 0.622699 0.604295 0.469496 0.314226 0.295811 0.272898 0.209077 0.220581 0.26699 0.159669 0.0992201 0.0765929 0.0632011 0.0597052
threshold=1986.5000000000002 6.0775527014493393 5.0914742330508389 14500.000000000002 7.9625403172910127 2000.5000000000002 4.3375000000000012 271.62500000000006 3.7875000000000001 4.9569582563204149 11877.500000000002 972.50000000000011 36.562500000000007 1975.5000000000002 5.8082977592578304 32132.500000000004 2.5168385352709017 3.8203062744185119 2004.5000000000002 4.1875000000000009 6.7221858498598133 6.6442857145000014 78.875000000000014 36.562500000000007 244.50000000000003 4.1271776786212682 1979.5000000000002 5.2311219096858999 9.5000000000000018 57989.000000000007 4.2589317882047233 142.75000000000003
decision_type=2 2 2 2 2 2 2 2 2 2 2 2 2 2 2 2 2 2 2 2 2 2 2 2 2 2 2 2 2 2 2 2
left_child=3 2 5 9 -4 6 7 10 14 27 11 -2 18 17 -7 -12 -17 -5 -10 -11 -18 -19 24 28 25 -15 -27 -1 -22 -28 -25 -23
right_child=1 -3 4 13 -6 8 -8 -9 12 19 15 -13 -14 22 -16 16 20 21 -20 -21 23 31 -24 30 -26 26 29 -29 -30 -31 -32 -33
leaf_value=-0.012148672416806217 0.0058949777483940109 0.047443308904767036 -0.048374348785728202 -0.022859938009915984 -0.0013551691197790207 0.016185814161833966 0.027898088272880109 -0.029175613466650249 -0.0040415624320945314 -0.027495686858892435 0.018600029498338701 -0.024277722835540774 0.021126858276479386 0.0052236051044680862 0.035964336593945823 -0.012255214324051683 0.013596992653465884 -0.013871626454320822 0.0099354375526309029 -0.044138053649415573 0.011468329159542915 -0.00064364070072770103 0.0067716642562299966 -0.0027158961567858397 -0.0081205875861297301 -0.0097581365611404194 0.0030453622891482971 -0.021083701476454737 0.004843692940015059 -0.0028550582474880771 0.0025310818105936054 -0.0059817736672068186
leaf_weight=10.000000000000002 10.000000000000002 9.9999999999999982 10.000000000000002 17 15.999999999999998 19 17 9.9999999999999982 17 10.000000000000002 15.999999999999998 9.9999999999999982 17 10.999999999999998 14.999999999999998 10.999999999999998 17 10.999999999999998 14.999999999999998 11.999999999999998 10.000000000000002 10.000000000000002 9.9999999999999982 11.000000000000002 12.999999999999998 9.9999999999999982 11.000000000000002 9.9999999999999982 12.999999999999998 10.999999999999998 11.999999999999998 10.999999999999998
leaf_count=10 10 10 10 17 16 19 17 10 17 10 16 10 17 11 15 11 17 11 15 12 10 10 10 11 13 10 11 10 13 11 12 11
internal_value=0 0.00713383 0.00549523 -0.0116322 -0.0194395 0.00844206 0.00416624 0.000804232 0.0154997 -0.0270699 0.00352967 -0.00919137 0.00896901 -0.00599411 0.0249116 0.00635657 0.00370934 -0.0125192 0.00251016 -0.0365733 0.0064968 -0.00702574 -0.00114969 0.00387281 -0.00256421 -0.000884381 -0.002984 -0.0166162 0.00772397 9.5152e-05 2.16576e-05 -0.00343981
internal_weight=0 256 246 157 26 220 137 120 83 42 110 20 49 115 34 90 74 49 32 22 63 32 66 46 56 43 32 20 23 22 23 21
internal_count=413 256 246 157 26 220 137 120 83 42 110 20 49 115 34 90 74 49 32 22 63 32 66 46 56 43 32 20 23 22 23 21
is_linear=0
shrinkage=0.05


Tree=13
num_leaves=35
num_cat=0
split_feature=21 9 10 17 3 5 22 22 0 21 18 18 18 0 18 3 3 14 22 15 3 16 15 17 13 16 21 21 4 19 12 0 9 23
split_gain=7.33818 5.607 11.274 3.71269 4.84455 4.08371 7.51662 2.70225 1.95921 1.76311 1.75807 1.79196 1.52968 1.31809 1.00591 0.880325 0.746551 0.667895 0.561684 0.543329 0.455339 0.411039 0.404687 0.353525 0.300217 0.288602 0.270417 0.261603 0.196253 0.195693 0.191039 0.171655 0.121479 0.0856371
threshold=2.7965841224591594 5.1125000000000007 3.5000000000000004 2.5860909716617519 35.287500000000001 268.12500000000006 7.8504004013391713 8.0132313531806876 14.500000000000002 4.3488372126245594 5.8082977592578304 5.9794088741544167 6.4451153623012898 8.5000000000000018 6.2922293437193142 36.850000000000009 36.037500000000001 5.2631812817655286 6.638115852497843 3.8733779813046234 35.037500000000001 3.1262336873103691 3.2919975173565814 2.1408318295031914 4.8740569289066515 2.4971321908594661 3.2636912003922549 2.330489933908853 23.637500000000003 4.9782939169578961 5.7661213927681176 6.5000000000000009 7.1375000000000011 3.4687056767381903
decision_type=2 2 2 2 2 2 2 2 2 2 2 2 2 2 2 2 2 2 2 2 2 2 2 2 2 2 2 2 2 2 2 2 2 2
left_child=10 -2 -3 4 13 7 -7 18 14 -10 16 -12 19 -4 20 -13 -1 -11 26 24 -9 29 -20 -15 -8 -22 -5 -23 -28 -18 32 -27 -24 -31
right_child=1 2 3 5 -6 6 12 8 9 17 11 15 -14 23 -16 -17 21 -19 22 -21 25 27 30 -25 -26 31 28 -29 -30 33 -32 -33 -34 -35
leaf_value=-0.0056654474232345825 0.033123403936624531 -0.047193449139595035 0.01158966263756156 0.01532003909815103 0.030338993575423957 -0.056541175339370968 -0.0042324191890656939 -0.019970939904451371 0.019236263736383992 0.0041167624481022345 0.03872505195438862 0.0021817095018923276 -0.025863181557506321 -0.014796931195693709 -0.027968198677990587 0.021092867961851881 0.010785445974518856 -0.012801892716171487 0.0071465306253613615 -0.011793422240477342 -0.013945948518812657 0.020593420425429936 -0.0076957212904324879 -0.0020677426364272833 0.0074978680349886417 0.00030738065019249907 0.0016389854543376711 0.0091565764322876931 0.010885000821541656 -0.00056292314082384087 0.0031256769139033098 -0.0082697128411382444 -0.00071938114512401334 0.0059806650993414227
leaf_weight=9.9999999999999982 9.9999999999999982 14.999999999999998 11.999999999999998 11.999999999999998 18 9.9999999999999982 12.000000000000002 9.9999999999999982 9.9999999999999982 10.000000000000002 9.9999999999999982 10.000000000000002 9.9999999999999982 12.000000000000002 9.9999999999999982 15.999999999999998 11.999999999999998 13.999999999999998 19 12.999999999999998 12.999999999999998 10.000000000000002 13.000000000000002 9.9999999999999982 9.9999999999999982 10.000000000000002 12.000000000000002 9.9999999999999982 10.999999999999998 10.000000000000002 12.999999999999998 13.999999999999998 11.999999999999998 9.9999999999999982
leaf_count=10 10 15 12 12 18 10 12 10 10 10 10 10 10 12 10 16 12 14 19 13 13 10 13 10 10 10 12 10 11 10 13 14 12 10
internal_value=0 -0.00371747 -0.00492536 -0.00273908 0.00936418 -0.00538349 -0.0173303 -0.00179291 -0.00790206 0.00159717 0.011949 0.0207376 -0.00861681 -0.00174014 -0.0135683 0.0138193 0.00684594 -0.00575245 0.00424983 -0.00368928 -0.0105044 0.00925198 0.00118844 -0.00901094 0.00109953 -0.00794593 0.00923552 0.014875 0.00606099 0.00573759 -0.00179061 -0.00469592 -0.00434708 0.00270887
internal_weight=0 315 305 290 52 238 55 183 91 34 98 36 45 34 57 26 62 24 92 35 47 52 57 22 22 37 35 20 23 32 38 24 25 20
internal_count=413 315 305 290 52 238 55 183 91 34 98 36 45 34 57 26 62 24 92 35 47 52 57 22 22 37 35 20 23 32 38 24 25 20
is_linear=0
shrinkage=0.05


Tree=14
num_leaves=33
num_cat=0
split_feature=2 4 2 2 1 18 2 6 3 18 9 2 2 16 19 1 4 5 12 10 7 13 18 6 0 2 2 9 9 18 4 1
split_gain=11.215 6.88822 20.009 6.65166 4.56655 4.41036 4.18367 2.93295 2.59502 1.91191 1.27603 1.26458 1.01098 0.994904 0.944782 0.937257 0.774846 0.753956 0.752009 0.523199 0.352907 0.32017 0.276025 0.269448 0.259658 0.192684 0.180454 0.172118 0.171872 0.165434 0.162027 0.115742
threshold=1986.5000000000002 24.037500000000005 1994.5000000000002 1988.5000000000002 14500.000000000002 6.3467399145904091 1987.5000000000002 81.625000000000014 36.437500000000007 6.1039412262792041 6.1375000000000011 1975.5000000000002 2003.5000000000002 3.8203062744185119 3.8172456079868637 29135.000000000004 22.937500000000004 204.25000000000003 4.872714375776253 27.000000000000004 1.3125000000000002 2.8842566417145847 4.2300044287579111 78.875000000000014 11.500000000000002 1996.5000000000002 1979.5000000000002 6.9375000000000009 6.2625000000000011 4.8824664642061055 22.462500000000002 93020.000000000015
decision_type=2 2 2 2 2 2 2 2 2 2 2 2 2 2 2 2 2 2 2 2 2 2 2 2 2 2 2 2 2 2 2 2
left_child=4 3 -3 6 10 9 -2 17 -4 12 -1 13 14 -6 28 20 -12 -7 19 29 -16 -20 -15 26 -14 -23 31 -10 -5 -17 -28 -13
right_child=1 2 8 5 11 7 -8 -9 27 -11 16 23 24 22 15 18 -18 -19 21 -21 -22 25 -24 -25 -26 -27 30 -29 -30 -31 -32 -33
leaf_value=-0.040221767425537111 -0.001767242746427655 0.086701138275675479 -0.012708314919533829 0.00019716182723641392 -0.02122788633055547 0.0094765359908342336 -0.047503850627690553 -0.033156515080481772 0.012064303774386642 0.025088109996388941 -0.01093747979528936 -0.009811788168735798 0.01222616472126295 -0.011203697044402362 0.023924903050065033 0.0076375296494613073 -0.02662131685970558 -0.0080247382749803371 0.017516358129002832 -0.0088233276185664261 0.010641318559646607 0.0033890708416168171 -0.0018979934187989462 0.0067100182874128226 0.023135327734053135 0.012232121776535432 0.0030883297887875846 0.021341093480587006 -0.0086783474870026113 0.00021159456111490726 -0.0036308067415067105 -0.0022044744738377634
leaf_weight=9.9999999999999982 10 9.9999999999999982 11.999999999999998 12.000000000000002 17 10.000000000000002 10 9.9999999999999982 10.000000000000002 17 13.999999999999998 10.000000000000002 12.000000000000002 14.999999999999998 10.000000000000002 15.000000000000002 18 15.999999999999998 10.999999999999998 10.999999999999998 9.9999999999999982 14.000000000000002 17 9.9999999999999982 9.9999999999999982 10.999999999999998 19 9.9999999999999982 9.9999999999999982 14.999999999999998 17 9.9999999999999982
leaf_count=10 10 10 12 12 17 10 10 10 10 17 14 10 12 15 10 15 18 16 11 11 10 14 17 10 10 11 19 10 10 15 17 10
internal_value=0 0.00645246 0.0249658 0.00281899 -0.0105212 0.00564935 -0.0246355 -0.0101443 0.00567357 0.00924791 -0.0246316 -0.00536785 0.0073381 -0.011453 0.00551769 0.00763941 -0.0197596 -0.00129348 0.00513455 0.000504397 0.0172831 0.0104078 -0.00626004 -0.00085012 0.0171849 0.00728001 -0.00220014 0.0167027 -0.00383716 0.00392456 -8.45958e-05 -0.00600813
internal_weight=0 256 42 214 157 194 20 36 32 158 42 115 141 49 119 97 32 26 77 41 20 36 32 66 22 25 56 20 22 30 36 20
internal_count=413 256 42 214 157 194 20 36 32 158 42 115 141 49 119 97 32 26 77 41 20 36 32 66 22 25 56 20 22 30 36 20
is_linear=0
shrinkage=0.05


Tree=15
num_leaves=32
num_cat=0
split_feature=2 4 5 2 1 16 18 1 3 6 2 23 18 2 8 5 0 0 13 22 18 22 15 6 5 16 2 4 12 21 1
split_gain=10.1216 6.21662 19.7043 6.00313 4.12131 4.0385 3.78283 2.54335 2.51693 2.49805 1.51543 1.40076 1.17985 1.14129 1.02909 0.912178 0.904569 0.667751 0.467353 0.386695 0.353111 0.335715 0.28797 0.243177 0.176145 0.173582 0.16286 0.146229 0.143191 0.139994 0.104458
threshold=1986.5000000000002 24.037500000000005 219.87500000000003 1988.5000000000002 14500.000000000002 4.4630829489232315 5.2398117790310677 818.50000000000011 36.362500000000004 81.625000000000014 2003.5000000000002 4.0913627978720593 5.8509654784954819 1975.5000000000002 3.1375000000000006 350.25000000000006 7.5000000000000009 6.5000000000000009 3.7206347583573081 8.0231847619517307 5.6555501245939306 6.7221858498598133 4.411981746951767 78.875000000000014 160.37500000000003 3.9811471246073555 1979.5000000000002 22.462500000000002 4.6396501372724268 2.6057165939120441 93020.000000000015
decision_type=2 2 2 2 2 2 2 2 2 2 2 2 2 2 2 2 2 2 2 2 2 2 2 2 2 2 2 2 2 2 2
left_child=4 3 8 6 12 7 -2 -5 -3 15 11 20 -1 14 -6 -7 28 -10 -14 -16 21 -9 -21 26 -13 29 30 -28 -12 -23 -15
right_child=1 2 -4 5 13 9 -8 10 17 -11 16 24 18 23 19 -17 -18 -19 -20 22 -22 25 -24 -25 -26 -27 27 -29 -30 -31 -32
leaf_value=-0.011548493390104601 -0.0016585759446024889 -0.016226209867745641 0.084980901833623654 0.033789086327888074 -0.024348026955373248 0.0081544582033529888 -0.045148962363600734 0.011936273963510758 0.0044844557438045727 -0.027077660895884037 0.014019900128584013 -0.0025832398654893033 -0.02451095951772812 -0.0093211987323593322 0.001458213021978736 -0.0080489777788323794 0.026491130249840872 0.021978819121917091 -0.037992361597716809 -0.014716582621137298 0.013457122136146369 0.0051311498611337613 -0.004549287101970269 0.0063745174161158507 -0.011967931715771556 0.0093958682008087636 0.0029339132830500606 -0.0034492664203486022 0.0057530270144343382 -0.0010222128200295724 -0.0020942508592270317
leaf_weight=13.999999999999998 10.000000000000002 9.9999999999999982 9.9999999999999982 9.9999999999999982 10.999999999999998 15.999999999999998 9.9999999999999982 15.999999999999998 10.000000000000002 11.999999999999998 11.000000000000002 10.000000000000002 18.000000000000004 10.000000000000002 9.9999999999999982 19 13.999999999999998 11.999999999999998 9.9999999999999982 15.000000000000002 19 18 12.999999999999998 9.9999999999999982 9.9999999999999982 9.9999999999999982 19 17 9.9999999999999982 19 9.9999999999999982
leaf_count=14 10 10 10 10 11 16 10 16 10 12 11 10 18 10 10 19 14 12 10 15 19 18 13 10 10 10 19 17 10 19 10
internal_value=0 0.00612984 0.0237176 0.00267804 -0.00999515 0.00536689 -0.0234038 0.00944604 0.00457276 -0.0073913 0.00766917 0.00458874 -0.0234 -0.00509946 -0.0108803 -0.000641693 0.0166464 0.0140268 -0.0293257 -0.00698177 0.00748248 0.0056806 -0.00999605 -0.000807614 -0.00727559 0.00355101 -0.00209014 -8.0366e-05 0.0100833 0.00197131 -0.00570772
internal_weight=0 256 42 214 157 194 20 147 32 47 137 102 42 115 49 35 35 22 28 38 82 63 28 66 20 47 56 36 21 37 20
internal_count=413 256 42 214 157 194 20 147 32 47 137 102 42 115 49 35 35 22 28 38 82 63 28 66 20 47 56 36 21 37 20
is_linear=0
shrinkage=0.05


Tree=16
num_leaves=35
num_cat=0
split_feature=2 16 9 10 1 2 5 20 2 12 2 6 0 22 3 2 18 24 12 21 1 10 22 2 6 18 6 15 19 5 7 15 0 16
split_gain=9.13472 6.13046 5.76888 4.5078 3.71948 3.42695 2.84961 2.21914 1.63406 1.11382 1.03001 0.941761 0.720943 0.720716 0.5605 0.524345 0.515402 0.405139 0.388622 0.327959 0.320686 0.315071 0.273441 0.366476 0.219467 0.217021 0.47202 0.161026 0.278332 0.128265 0.124254 0.072405 0.0551826 0.0506035
threshold=1986.5000000000002 6.0775527014493393 6.4875000000000007 5.0000000000000009 14500.000000000002 1990.5000000000002 243.00000000000003 2.3972130763230504 1999.5000000000002 4.9569582563204149 1975.5000000000002 69.375000000000014 6.5000000000000009 6.8646802162018039 36.712500000000013 1977.5000000000002 5.2398117790310677 1.5000000000000002 4.3184368521580074 2.7965841224591594 7522.5000000000009 19.500000000000004 8.176658009720855 1970.5000000000002 78.875000000000014 5.9794088741544167 76.875000000000014 2.8343229199894413 6.1753433737302919 193.75000000000003 1.3875000000000002 3.7929032799149773 13.500000000000002 3.5807242228532208
decision_type=2 2 2 2 2 2 2 2 2 2 2 2 2 2 2 2 2 2 2 2 2 2 2 2 2 2 2 2 2 2 2 2 2 2
left_child=4 2 3 -2 9 -5 8 -8 13 30 11 -6 19 31 20 -11 -14 -15 -19 -10 -7 -22 -13 -24 27 26 -20 -12 29 -29 -1 -4 -18 -30
right_child=1 -3 6 5 10 14 7 -9 12 15 24 22 16 17 -16 -17 32 18 25 -21 21 -23 23 -25 -26 -27 -28 28 33 -31 -32 -33 -34 -35
leaf_value=-0.0097491351980715964 -0.031406935999790823 0.044199736490845687 0.014191720895469185 -0.025210630365957817 -0.024025392653420571 -0.0035871776423471815 0.043975683863973235 0.010665499134338461 0.01374454349914396 -0.021537611177191131 0.0034373048989271579 -0.00014665239617567171 0.0097035604275085719 0.0096501282416284091 0.014400844580747866 -0.037040025989214583 0.020672978771229578 -0.0081694208395977821 -0.0018961091163671676 0.0022076314315199854 0.00089290780597366375 0.012206515818834305 -0.0028452628292143338 -0.014404287596698852 0.0060557916836114604 -0.0048274529462849561 0.010607141743485746 -0.0031497200578451145 -0.0021394228376448148 -0.010817055404186249 -0.017631202936172485 0.0081748695112764842 0.025702096074819564 0.002591573069087015
leaf_weight=10.000000000000002 14.999999999999998 9.9999999999999982 10.000000000000002 11.999999999999998 9.9999999999999982 17 10.000000000000002 9.9999999999999982 11.000000000000002 10.000000000000002 10.999999999999998 10.999999999999998 10.999999999999998 9.9999999999999982 10.999999999999998 11.999999999999998 12.000000000000002 14.999999999999998 18.000000000000004 13.999999999999998 16.000000000000004 9.9999999999999982 12.000000000000002 15.999999999999998 9.9999999999999982 10.999999999999998 12.999999999999998 10.000000000000002 10.000000000000002 11.999999999999998 9.9999999999999982 9.9999999999999982 9.9999999999999982 12.999999999999998
leaf_count=10 15 10 10 12 10 17 10 10 11 10 11 11 11 10 11 12 12 15 18 14 16 10 12 16 10 11 13 10 10 12 10 10 10 13
internal_value=0 0.00582334 0.00426333 -0.00666485 -0.00949539 -0.00104165 0.00962807 0.0273206 0.00718772 -0.02223 -0.00484449 -0.0103363 0.0136885 0.00285387 0.00432924 -0.0299935 0.0185405 0.000367476 -0.00126106 0.00728387 0.00175278 0.0052443 -0.00682628 -0.00945042 -0.000767233 0.00120621 0.00334719 -0.00198563 -0.00331124 -0.0073319 -0.0136902 0.0111833 0.0229589 0.000534618
internal_weight=0 256 246 81 157 66 165 20 145 42 115 49 58 87 54 22 33 67 57 25 43 26 39 28 66 42 31 56 45 22 20 20 22 23
internal_count=413 256 246 81 157 66 165 20 145 42 115 49 58 87 54 22 33 67 57 25 43 26 39 28 66 42 31 56 45 22 20 20 22 23
is_linear=0
shrinkage=0.05


Tree=17
num_leaves=34
num_cat=0
split_feature=2 4 2 2 2 18 1 3 6 18 12 2 8 2 0 19 0 3 8 22 2 15 18 6 8 0 15 19 7 5 2 16 16
split_gain=8.24408 5.61156 17.6815 5.24848 3.73712 3.60529 3.35683 2.28096 2.25838 1.62557 1.00522 0.929585 0.893756 0.745121 0.768503 0.612077 0.569848 0.742388 0.49658 0.331778 0.280884 0.251696 0.209007 0.198069 0.19057 0.189277 0.145326 0.253177 0.112139 0.0921047 0.083332 0.0717622 0.0354959
threshold=1986.5000000000002 24.037500000000005 1994.5000000000002 1988.5000000000002 1987.5000000000002 6.3467399145904091 14500.000000000002 36.562500000000007 81.625000000000014 6.1039412262792041 4.9569582563204149 1975.5000000000002 3.1375000000000006 2003.5000000000002 4.5000000000000009 5.2487466361586774 6.5000000000000009 35.587500000000013 4.1875000000000009 8.0231847619517307 1996.5000000000002 4.411981746951767 5.1306024160579833 78.875000000000014 3.7875000000000001 11.500000000000002 2.8343229199894413 5.9896422408628167 1.3875000000000002 197.87500000000003 1992.5000000000002 3.1615675594155688 3.5807242228532208
decision_type=2 2 2 2 2 2 2 2 2 2 2 2 2 2 2 2 2 2 2 2 2 2 2 2 2 2 2 2 2 2 2 2 2
left_child=6 3 -3 4 -2 9 10 -4 15 13 28 12 -8 14 -5 -7 -16 22 -12 -14 29 -21 -18 26 -22 -15 -13 31 -1 30 -19 -28 -29
right_child=1 2 7 5 -6 8 11 -9 -10 -11 18 23 19 25 16 -17 17 20 -20 21 24 -23 -24 -25 -26 -27 27 32 -30 -31 -32 -33 -34
leaf_value=-0.0092616780241951326 -0.00052132079377770419 0.080275766765698794 -0.012031789392662737 0.014538840371567538 -0.043748176172375669 -0.0078111487906426177 -0.022370447878810495 0.01514859973992172 -0.029705925136804579 0.022626370454535766 -0.020264860261231657 0.0032654396406459536 0.0016314224363304674 0.010479233964967229 -0.0056082000548485673 0.0079576879739761356 0.0024141448177397245 0.0054220864262718403 -0.035351249389350414 -0.013391584580143291 0.016677020173519845 -0.003886187878938822 -0.0072007026021870292 0.0057530019851401454 0.0081495624666690428 0.019793300852179528 -0.0043436908163130275 -0.0019167081325907592 -0.016749643087387085 0.0084233539109118283 -0.00049099163575605921 -0.01033377286978066 0.0018787903717436298
leaf_weight=10.000000000000002 10 9.9999999999999982 12.999999999999998 17 10 16.000000000000004 10.999999999999998 19 9.9999999999999982 17 10.000000000000002 10.999999999999998 9.9999999999999982 12.000000000000002 15.999999999999998 9.9999999999999982 10.000000000000002 13.000000000000002 11.999999999999998 15.000000000000002 10.000000000000002 12.999999999999998 12.999999999999998 9.9999999999999982 19 9.9999999999999982 10.000000000000002 11.000000000000002 9.9999999999999982 9.9999999999999982 10.999999999999998 9.9999999999999982 13.999999999999998
leaf_count=10 10 10 13 17 10 16 11 19 10 17 10 11 10 12 16 10 10 13 12 15 10 13 13 10 19 10 10 11 10 10 11 10 14
internal_value=0 0.00553218 0.0222421 0.00225266 -0.0221347 0.00476683 -0.00902062 0.00410657 -0.0095128 0.00802041 -0.0211185 -0.00460226 -0.00981949 0.00625941 0.00469658 -0.00174621 0.0030562 0.00466819 -0.0284938 -0.00618632 0.00747511 -0.00897836 -0.00302033 -0.000728871 0.0110901 0.0147129 -0.00188635 -0.00314567 -0.0130057 0.00439176 0.00271193 -0.00733873 0.000208771
internal_weight=0 256 42 214 20 194 157 32 36 158 42 115 49 141 119 26 102 86 22 38 63 28 23 66 29 22 56 45 20 34 24 20 25
internal_count=413 256 42 214 20 194 157 32 36 158 42 115 49 141 119 26 102 86 22 38 63 28 23 66 29 22 56 45 20 34 24 20 25
is_linear=0
shrinkage=0.05


Tree=18
num_leaves=31
num_cat=0
split_feature=2 12 9 5 22 1 1 8 2 0 1 9 22 8 7 4 18 18 0 21 2 21 10 13 23 12 7 8 20 14
split_gain=7.44029 5.55807 5.13634 4.11507 7.89101 4.26408 3.02954 2.96094 2.37883 1.22999 1.40001 0.988634 0.855959 1.08979 0.645716 0.608527 0.602817 0.593703 0.482523 0.681675 0.401952 0.333381 0.299068 0.245479 0.177626 0.352209 0.166219 0.149401 0.131544 0.0687126
threshold=1986.5000000000002 5.9703900826288647 6.4875000000000007 268.12500000000006 8.2557482591644078 5152.5000000000009 14500.000000000002 4.4625000000000012 1999.5000000000002 7.5000000000000009 34701.000000000007 6.1375000000000011 8.2557482591644078 3.2375000000000003 1.9875000000000003 22.937500000000004 6.366670108770049 5.1712549624781579 14.500000000000002 2.3904354298253256 1974.5000000000002 2.7965841224591594 9.5000000000000018 2.8353446866203558 2.8235622705522458 5.3279519228951351 2.4375000000000004 3.9625000000000008 2.8913670628232331 3.2602035208094979
decision_type=2 2 2 2 2 2 2 2 2 2 2 2 2 2 2 2 2 2 2 2 2 2 2 2 2 2 2 2 2 2
left_child=6 2 3 5 -5 -2 11 8 14 21 -11 -1 24 -14 18 -13 -6 -7 19 28 27 -10 -21 -16 25 -8 29 -15 -4 -26
right_child=1 -3 7 4 16 17 12 -9 9 10 -12 15 13 20 23 -17 -18 -19 -20 22 -22 -23 -24 -25 26 -27 -28 -29 -30 -31
leaf_value=-0.033785227537155148 -0.024681946736845106 0.037108063998703776 0.0072113500946822248 -0.057223260924220087 0.0023391740795757083 0.0044185403881496508 0.0083814851017310621 0.033820682264525781 0.01279137105516651 0.033782172735248285 0.010508330697969845 -0.0079560324682721086 -0.024104182953014971 -0.014578408859670159 0.01420456451808356 -0.021855069148457713 -0.013734095767140389 0.016918044882875526 0.0075245003082922528 -0.014033261016205259 0.00017177515444071856 0.0021547132673171853 -0.0037237316260443016 0.004618604031994062 -0.0028916543931700282 -0.0032574639172078326 0.0018984832491976426 -0.0063034189127696054 -0.00055336539633572108 -0.0080251565626399089
leaf_weight=9.9999999999999982 10.999999999999998 12.999999999999998 12.000000000000002 9.9999999999999982 14.000000000000002 19 13.000000000000002 10.999999999999998 17.000000000000004 14.000000000000002 11.999999999999998 13.999999999999998 9.9999999999999982 10.000000000000002 11.000000000000002 18 9.9999999999999982 19 13.999999999999998 12.000000000000002 17 12.999999999999998 17 17 16.000000000000004 12.999999999999998 12.999999999999998 11.999999999999998 9.9999999999999982 10.999999999999998
leaf_count=10 11 13 12 10 14 19 13 11 17 14 12 14 10 10 11 18 10 19 14 12 17 13 17 17 16 13 13 12 10 11
internal_value=0 0.00525557 0.00355152 -0.00654134 -0.0199066 0.00273252 -0.00856959 0.0087872 0.00693909 0.0150806 0.0230404 -0.0200626 -0.00437215 -0.00937851 0.00203666 -0.0157742 -0.00435802 0.0106683 -0.0006978 -0.0029549 -0.00560269 0.00818215 -0.00798974 0.00838452 -0.000655313 0.00256201 -0.00274657 -0.0100648 0.00368193 -0.00498308
internal_weight=0 256 243 83 34 49 157 160 149 56 26 42 115 49 93 32 24 38 65 51 39 30 29 28 66 26 40 22 22 27
internal_count=413 256 243 83 34 49 157 160 149 56 26 42 115 49 93 32 24 38 65 51 39 30 29 28 66 26 40 22 22 27
is_linear=0
shrinkage=0.05


Tree=19
num_leaves=34
num_cat=0
split_feature=2 16 9 10 16 1 5 17 8 2 9 2 6 17 14 4 22 20 21 1 9 21 10 1 8 10 7 16 2 9 21 0 15
split_gain=6.71486 5.41695 4.49893 3.84964 4.23346 2.73416 2.47097 7.75909 1.49531 1.22337 0.892243 0.782764 1.0823 0.658565 0.601666 0.549196 0.533834 0.420895 0.349331 0.324149 0.268096 0.221085 0.197111 0.278784 0.168904 0.160449 0.170319 0.142554 0.134901 0.116094 0.101902 0.086609 0.0612113
threshold=1986.5000000000002 6.0775527014493393 6.4875000000000007 8.0000000000000018 5.0914742330508389 14500.000000000002 243.00000000000003 2.6748391781840382 3.8875000000000006 1999.5000000000002 6.1375000000000011 1979.5000000000002 67.000000000000014 3.239290328643786 3.64710586749929 22.937500000000004 6.8646802162018039 2.9105649294050493 3.5716690367057535 35940.000000000007 7.0875000000000012 2.3904354298253256 9.5000000000000018 52725.000000000007 3.4625000000000008 16.500000000000004 1.2125000000000001 3.9310057820663311 1971.5000000000002 6.0921428570000007 3.4521366550121395 7.5000000000000009 3.7929032799149773
decision_type=2 2 2 2 2 2 2 2 2 2 2 2 2 2 2 2 2 2 2 2 2 2 2 2 2 2 2 2 2 2 2 2 2
left_child=5 2 3 4 -2 10 9 -8 -5 16 -1 12 -7 17 19 -12 32 -10 21 -11 27 -18 -23 -24 -13 28 -27 -16 -14 -15 -26 -30 -4
right_child=1 -3 6 8 -6 11 7 -9 13 14 15 24 25 29 20 -17 18 -19 -20 -21 -22 22 23 -25 30 26 -28 -29 31 -31 -32 -33 -34
leaf_value=-0.032095966041088102 -0.0056386021276315047 0.041066861394792799 0.012176362350583073 -0.015366587254472756 -0.047637905776500705 -0.02268998985178769 0.055882155131548629 -0.0064038552017882475 0.0049154708077284413 0.02466627895832061 -0.0075582310291273259 -0.0031326507931225935 -0.0071050740778446199 0.002479282999411225 0.014185578127702074 -0.020762315061357287 0.0027492378139868379 0.019088748022913934 0.0071263817122339135 0.012692410314383991 0.00056900642812252045 -0.010002537188120187 0.0037990251633649059 -0.0067694367124484138 0.0070581406524235536 -0.0029919106682593163 -0.011074055905919523 0.0066282743731370351 0.0028136294165795493 -0.004574399450793863 0.0009497332024491497 -0.0034607409700666645 0.006644123774021864
leaf_weight=9.9999999999999982 15.000000000000002 9.9999999999999982 10.000000000000002 10.999999999999998 9.9999999999999982 9.9999999999999982 10.000000000000002 9.9999999999999982 11.000000000000002 10.000000000000002 13.999999999999998 15.999999999999998 10.999999999999998 14.000000000000002 12.000000000000002 18 18 9.9999999999999982 13.999999999999998 12.999999999999998 9.9999999999999982 9.9999999999999982 12.000000000000002 12.999999999999998 11.000000000000002 11.000000000000002 15.999999999999998 12.999999999999998 11.000000000000002 9.9999999999999982 18 10.999999999999998 9.9999999999999982
leaf_count=10 15 10 10 11 10 10 10 10 11 10 14 16 11 14 12 18 18 10 14 13 10 10 12 13 11 11 16 13 11 10 18 11 10
internal_value=0 0.00499279 0.00352636 -0.00612428 -0.0224383 -0.00814111 0.00826395 0.0247391 0.00115877 0.00599151 -0.0190594 -0.00415354 -0.007461 0.0051983 0.0116164 -0.0149855 0.00224162 0.0116647 0.00010173 0.0178984 0.00748813 -0.00175384 -0.00406971 -0.00169658 0.000991385 -0.00492283 -0.00778133 0.0102558 -0.00258406 -0.000459751 0.00326672 -0.000323556 0.00941024
internal_weight=0 256 246 81 25 157 165 20 56 145 42 115 70 45 58 32 87 21 67 23 35 53 35 25 45 60 27 25 33 24 29 22 20
internal_count=413 256 246 81 25 157 165 20 56 145 42 115 70 45 58 32 87 21 67 23 35 53 35 25 45 60 27 25 33 24 29 22 20
is_linear=0
shrinkage=0.05


end of trees

feature_importances:
Column_2=96
Column_1=53
Column_16=39
Column_22=34
Column_5=33
Column_9=32
Column_18=32
Column_8=28
Column_21=28
Column_7=26
Column_0=25
Column_6=25
Column_14=23
Column_3=22
Column_10=21
Column_12=21
Column_19=21
Column_4=19
Column_13=16
Column_11=11
Column_15=11
Column_20=11
Column_23=10
Column_17=9
Column_24=4

parameters:
[boosting: gbdt]
[objective: regression]
[metric: rmse]
[tree_learner: serial]
[device_type: cpu]
[linear_tree: 0]
[data: ]
[valid: ]
[num_iterations: 10000]
[learning_rate: 0.05]
[num_leaves: 63]
[num_threads: 0]
[deterministic: 0]
[force_col_wise: 0]
[force_row_wise: 0]
[histogram_pool_size: -1]
[max_depth: -1]
[min_data_in_leaf: 10]
[min_sum_hessian_in_leaf: 0.001]
[bagging_fraction: 0.9]
[pos_bagging_fraction: 1]
[neg_bagging_fraction: 1]
[bagging_freq: 0]
[bagging_seed: 28693]
[feature_fraction: 0.9]
[feature_fraction_bynode: 1]
[feature_fraction_seed: 24449]
[extra_trees: 0]
[extra_seed: 31430]
[early_stopping_round: 50]
[first_metric_only: 0]
[max_delta_step: 0]
[lambda_l1: 0]
[lambda_l2: 0]
[linear_lambda: 0]
[min_gain_to_split: 0]
[drop_rate: 0.1]
[max_drop: 50]
[skip_drop: 0.5]
[xgboost_dart_mode: 0]
[uniform_drop: 0]
[drop_seed: 12255]
[top_rate: 0.2]
[other_rate: 0.1]
[min_data_per_group: 100]
[max_cat_threshold: 32]
[cat_l2: 10]
[cat_smooth: 10]
[max_cat_to_onehot: 4]
[top_k: 20]
[monotone_constraints: ]
[monotone_constraints_method: basic]
[monotone_penalty: 0]
[feature_contri: ]
[forcedsplits_filename: ]
[refit_decay_rate: 0.9]
[cegb_tradeoff: 1]
[cegb_penalty_split: 0]
[cegb_penalty_feature_lazy: ]
[cegb_penalty_feature_coupled: ]
[path_smooth: 0]
[interaction_constraints: ]
[verbosity: -1]
[saved_feature_importance_type: 0]
[max_bin: 255]
[max_bin_by_feature: ]
[min_data_in_bin: 3]
[bin_construct_sample_cnt: 200000]
[data_random_seed: 54]
[is_enable_sparse: 1]
[enable_bundle: 1]
[use_missing: 1]
[zero_as_missing: 0]
[feature_pre_filter: 1]
[pre_partition: 0]
[two_round: 0]
[header: 0]
[label_column: ]
[weight_column: ]
[group_column: ]
[ignore_column: ]
[categorical_feature: ]
[forcedbins_filename: ]
[objective_seed: 27660]
[num_class: 1]
[is_unbalance: 0]
[scale_pos_weight: 1]
[sigmoid: 1]
[boost_from_average: 1]
[reg_sqrt: 0]
[alpha: 0.9]
[fair_c: 1]
[poisson_max_delta_step: 0.7]
[tweedie_variance_power: 1.5]
[lambdarank_truncation_level: 30]
[lambdarank_norm: 1]
[label_gain: ]
[eval_at: ]
[multi_error_top_k: 1]
[auc_mu_weights: ]
[num_machines: 1]
[local_listen_port: 12400]
[time_out: 120]
[machine_list_filename: ]
[machines: ]
[gpu_platform_id: -1]
[gpu_device_id: -1]
[gpu_use_dp: 0]
[num_gpu: 1]

end of parameters

pandas_categorical:null
