tree
version=v3
num_class=1
num_tree_per_iteration=1
label_index=0
max_feature_idx=10
objective=regression
feature_names=Column_0 Column_1 Column_2 Column_3 Column_4 Column_5 Column_6 Column_7 Column_8 Column_9 Column_10
feature_infos=[1:18] [15540:1541410] [1969:2013] [26.833333329999999:32.833333330000002] [11.66666667:18.93333333] [0:107.66670000000001] [65:91.333333330000002] [0.033333333:5.2999999999999998] [0.366666667:3.1000000000000001] [2.3666666670000001:9.6999999999999993] [3:63]
tree_sizes=1637 1626 1717 1633 1548 1638 1633 1628 1634 1709 1637 1550 1548 1639 1725 1555 1555 1633 1640 1558 1554 1649 1558 1557 1565 1635 1564 1728 1653 1658 1652 1580 1731 1655 1746 1656 1752 1667 1662 1584 1582 1587 1660 1580 1660 1664 1587 1666 1662 1671 1663 1676 1585 1752 1585 1583 1669 1760 1597 1675 1675 1587 1605 1753 1676 1775 1675 1670 1606 1758 1692 1590 1677 1676 1778 1764 1598 1672 1688 1601 1773 1774 1597 1677 1605 1593 1766 1679 1682 1605 1688 1678 1683 1690 1688 1770 1775 1692 1683 1601 1698 1773 1608 1606 1688 1683 1697 1775 1689 1769 1788 1617 1692 1777 1614 1701 1780 1699 1697 1693 1702 1780 1610 1694 1609 1608 1683 1702 1706 1697 1782 1699 1525 1528 1617 1690 1697 1689 1702 1521 1788 1615 1612 1694 1787 1696 1786 1702 1691 1616 1619 1794 1703 1778 1700 1707 1795 1879 1708 1710 1699 1692 1617 1697 1701 1795 1620 1789 1538 1710 1708 1701 1698 1708 1787 1705 1696 1616 1704 1788 1614 1789 1532 1703 1715 1624 1790 1709 1703 1614 1794 1619 1694 1621 1706 1797 1706 1714 1795

Tree=0
num_leaves=18
num_cat=0
split_feature=2 1 2 7 0 10 0 1 3 1 0 2 10 0 9 4 10
split_gain=169.463 23.7536 16.564 13.4428 6.61597 6.44465 4.997 6.1732 4.49155 4.4041 2.06515 1.96821 1.73359 1.25655 1.41778 0.90785 0.743347
threshold=1998.5000000000002 329885.00000000006 1982.5000000000002 0.91666650000000016 3.5000000000000004 17.000000000000004 3.5000000000000004 703587.50000000012 30.450000000000003 769760.00000000012 7.5000000000000009 1975.5000000000002 17.000000000000004 8.5000000000000018 7.5086206895000007 15.583333335000001 27.000000000000004
decision_type=2 2 2 2 2 2 2 2 2 2 2 2 2 2 2 2 2
left_child=1 -1 4 5 -3 8 -4 10 15 11 -8 -6 -5 -9 -15 -2 -11
right_child=3 2 6 12 9 -7 7 13 -10 16 -12 -13 -14 14 -16 -17 -18
leaf_value=0.028198845816039288 0.01905011280721703 -0.017203970423705139 0.0040047733941059342 0.052427860593163976 -0.066231318121271088 0.048010781655282518 -0.046816606427348417 -0.0025918368849407554 0.038043397811435904 -0.041451344392245348 -0.024617076550585242 -0.047159129904598952 0.069735677760896245 -0.026216462421036518 -0.0086523574979549024 0.0049883740484175506 -0.028690918098009388
leaf_weight=21 22 25 27 39 24 32 20 27 25 21 22 31 23 20 27 24 25
leaf_count=21 22 25 27 39 24 32 20 27 25 21 22 31 23 20 27 24 25
internal_value=-4.27283e-10 -0.0230168 -0.027015 0.0404537 -0.0402328 0.0293811 -0.0153685 -0.0198778 0.0209846 -0.045933 -0.0351883 -0.0554815 0.0588485 -0.0111881 -0.0161264 0.0117136 -0.0345163
internal_weight=0 290 269 165 126 103 143 116 71 101 42 55 62 74 47 46 46
internal_count=455 290 269 165 126 103 143 116 71 101 42 55 62 74 47 46 46
is_linear=0
shrinkage=1


Tree=1
num_leaves=18
num_cat=0
split_feature=2 1 2 2 0 10 0 1 4 1 10 6 0 2 2 3 10
split_gain=152.94 21.4376 14.949 11.7633 5.97091 5.33372 4.5098 5.57132 4.17187 3.9747 3.61595 2.53045 1.8638 1.78134 1.18465 0.820135 0.670871
threshold=1998.5000000000002 329885.00000000006 1982.5000000000002 2007.5000000000002 3.5000000000000004 17.000000000000004 3.5000000000000004 703587.50000000012 14.683333335000002 769760.00000000012 12.000000000000002 78.833333335000006 7.5000000000000009 1974.5000000000002 1989.5000000000002 30.483333335000001 27.000000000000004
decision_type=2 2 2 2 2 2 2 2 2 2 2 2 2 2 2 2 2
left_child=1 -1 4 5 -3 8 -4 12 -2 13 15 -10 -8 -6 -9 -5 -11
right_child=3 2 6 10 9 -7 7 14 11 16 -12 -13 -14 -15 -16 -17 -18
leaf_value=0.026788904881548316 0.037334374684308259 -0.016343771351501345 0.0038045354610033058 0.039399482274339315 -0.064157099383217953 0.042915434813177264 -0.044475776441395283 -0.017306755094655926 0.021456726790284333 -0.03937877721729733 0.071070111834484598 -0.002861081175506115 -0.023386222327297385 -0.045635625993942518 -0.0046356387149829132 0.053546991795301438 -0.027256371408700943
leaf_weight=21 21 25 27 21 21 37 20 35 23 21 23 20 22 34 39 20 25
leaf_count=21 21 25 27 21 21 37 20 35 23 21 23 20 22 34 39 20 25
internal_value=0 -0.0218659 -0.0256643 0.038431 -0.0382212 0.0278037 -0.0146001 -0.018884 0.0190673 -0.0436364 0.0552022 0.0101461 -0.0334289 -0.0527075 -0.0106287 0.0463007 -0.0327905
internal_weight=0 290 269 165 126 101 143 116 64 101 64 43 42 55 74 41 46
internal_count=455 290 269 165 126 101 143 116 64 101 64 43 42 55 74 41 46
is_linear=0
shrinkage=0.05


Tree=2
num_leaves=19
num_cat=0
split_feature=2 1 2 2 0 10 0 1 3 1 10 0 2 0 4 3 0 10
split_gain=138.028 19.3475 13.4915 10.6164 5.38875 4.81368 4.07009 5.02811 3.97499 3.58717 3.2634 1.68208 1.62098 1.16566 1.14178 0.740172 0.674864 0.605461
threshold=1998.5000000000002 329885.00000000006 1982.5000000000002 2007.5000000000002 3.5000000000000004 17.000000000000004 3.5000000000000004 703587.50000000012 30.516666665000006 769760.00000000012 12.000000000000002 7.5000000000000009 1975.5000000000002 7.5000000000000009 14.316666665000001 30.483333335000001 8.5000000000000018 27.000000000000004
decision_type=2 2 2 2 2 2 2 2 2 2 2 2 2 2 2 2 2 2
left_child=1 -1 4 5 -3 8 -4 11 13 12 15 -8 -6 -2 16 -5 -9 -11
right_child=3 2 6 10 9 -7 7 14 -10 17 -12 -13 -14 -15 -16 -17 -18 -19
leaf_value=0.025449457915965468 0.00055340679273718882 -0.015526582804508507 0.0036143091084711535 0.037429508460419522 -0.059827656919757527 0.040769663976656427 -0.042251986935734752 0.0017349339112462032 0.034750940278172493 -0.037409838821206777 0.067516603709562958 -0.022216911105947063 -0.042519390805354045 0.017419826667755843 -0.017020066184076397 0.050869644284248353 -0.011098572276532652 -0.025893552571535111
leaf_weight=21 21 25 27 21 24 37 20 21 23 21 23 22 31 20 33 20 20 25
leaf_count=21 21 25 27 21 24 37 20 21 23 21 23 22 31 20 33 20 20 25
internal_value=0 -0.0207726 -0.024381 0.0365095 -0.0363101 0.0264135 -0.0138701 -0.0179398 0.0181139 -0.0414546 0.0524421 -0.0317574 -0.0500721 0.00878093 -0.0100973 0.0439857 -0.00452531 -0.031151
internal_weight=0 290 269 165 126 101 143 116 64 101 64 42 55 41 74 41 41 46
internal_count=455 290 269 165 126 101 143 116 64 101 64 42 55 41 74 41 41 46
is_linear=0
shrinkage=0.05


Tree=3
num_leaves=18
num_cat=0
split_feature=2 1 2 7 0 1 10 3 3 1 10 10 10 2 2 10 4
split_gain=125.079 23.0419 13.8559 8.63366 4.88835 4.66949 4.61222 4.20193 3.75975 3.53563 2.06711 1.54581 1.32302 1.57736 0.913228 0.51147 0.434609
threshold=1999.5000000000002 313725.00000000006 1984.5000000000002 0.91666650000000016 3.5000000000000004 769760.00000000012 17.000000000000004 30.766668335000002 30.450000000000003 554897.50000000012 17.000000000000004 8.0000000000000018 5.0000000000000009 1989.5000000000002 1976.5000000000002 17.000000000000004 15.583333335000001
decision_type=2 2 2 2 2 2 2 2 2 2 2 2 2 2 2 2 2
left_child=1 -1 4 6 -3 11 8 9 16 -4 -5 -6 -11 -14 -7 -15 -2
right_child=3 2 7 10 5 14 -8 -9 -10 12 -12 -13 13 15 -16 -17 -18
leaf_value=0.033298726528882987 0.016243441837529342 -0.014851105571242758 -0.031402389183640481 0.044958935334132269 -0.03857013895920116 -0.03472473346020865 0.043890525350860993 0.0095685732085257769 0.037068317528991472 -0.020977051496844402 0.064416357732954482 -0.054702028722474073 -0.015978633782601562 -0.006737206541001798 -0.021575158017296946 0.004195691450782444 0.0060710111899035316
leaf_weight=20 21 29 25 39 27 23 29 21 21 22 21 33 29 20 31 23 21
leaf_count=20 21 29 25 39 27 23 29 21 21 22 21 33 29 20 31 23 21
internal_value=0 -0.0185677 -0.0222331 0.0370132 -0.03318 -0.0378426 0.0273898 -0.0110517 0.0197943 -0.0146906 0.051769 -0.0474427 -0.0102459 -0.00696699 -0.0271759 -0.000889377 0.0111572
internal_weight=0 303 283 152 143 114 92 140 63 119 60 60 94 72 54 43 42
internal_count=455 303 283 152 143 114 92 140 63 119 60 60 94 72 54 43 42
is_linear=0
shrinkage=0.05


Tree=4
num_leaves=17
num_cat=0
split_feature=1 10 10 6 0 9 9 9 1 7 3 10 6 4 5 1
split_gain=70.2149 27.7872 21.762 12.9883 12.4729 11.6623 5.7882 4.8571 4.05822 3.69375 2.83316 1.78961 1.22834 1.2216 0.60148 0.0999937
threshold=477510.00000000006 17.000000000000004 8.0000000000000018 76.833333335000006 3.5000000000000004 7.1166665000000009 6.8385057470000001 7.366666833500001 769760.00000000012 0.81666650000000007 29.183333335000004 5.0000000000000009 73.666668335000011 14.716666665000002 6.6666668335000017 651085.00000000012
decision_type=2 2 2 2 2 2 2 2 2 2 2 2 2 2 2 2
left_child=1 2 -1 4 -2 -4 -5 10 12 -3 -8 -9 15 -13 -10 -6
right_child=3 9 5 6 8 -7 7 11 14 -11 -12 13 -14 -15 -16 -17
leaf_value=0.04997546792030335 0.0021469385902348321 0.049960950601168654 0.015925855640120605 0.014346253151368156 -0.031682373508811 -0.028280690453946589 -0.033983660986026128 -0.010710049644112589 -0.014388472586870194 0.079650405645370487 -0.0098689471210899032 0.013464978180825711 -0.048683539097723758 -0.0023277545114979148 -0.024983065379028387 -0.036682215668261055
leaf_weight=30 38 22 37 38 20 25 21 25 21 20 29 25 23 24 37 20
leaf_count=30 38 22 37 38 20 25 21 25 21 20 29 25 23 24 37 20
internal_value=0 0.0304004 0.0150163 -0.0126905 -0.0228425 -0.00189936 -0.00272649 -0.00795846 -0.0306905 0.0640988 -0.0199971 0.000175772 -0.0394764 0.00572976 -0.0211471 -0.0341823
internal_weight=0 134 92 321 159 62 162 124 121 42 50 74 63 49 58 40
internal_count=455 134 92 321 159 62 162 124 121 42 50 74 63 49 58 40
is_linear=0
shrinkage=0.05


Tree=5
num_leaves=18
num_cat=0
split_feature=2 2 4 3 7 2 10 10 3 10 10 10 0 10 0 7 10
split_gain=105.212 14.1396 13.5634 7.19267 7.18324 5.93301 5.09709 4.07146 3.62662 2.98247 2.10586 2.97917 1.57691 0.991071 0.955951 0.879362 0.793286
threshold=1999.5000000000002 1977.5000000000002 16.816666665000003 30.950000000000003 0.91666650000000016 1989.5000000000002 6.5000000000000009 17.000000000000004 29.950000000000003 8.0000000000000018 17.000000000000004 8.0000000000000018 6.5000000000000009 9.5000000000000018 11.500000000000002 0.68333333350000014 12.000000000000002
decision_type=2 2 2 2 2 2 2 2 2 2 2 2 2 2 2 2 2
left_child=1 12 5 4 6 10 -2 9 14 -7 11 -3 -1 -6 -8 -12 -14
right_child=3 2 -4 -5 13 7 8 -9 -10 -11 15 -13 16 -15 -16 -17 -18
leaf_value=-0.02632101558220501 0.00050268709740560987 -0.018110450015713774 0.027360566297457336 0.059064973983913666 0.037027160823345187 -0.0017215385762674195 0.011764982705935838 0.0093593216531219024 0.045571251790970567 -0.023482217769924318 -0.0065911160104654047 -0.038359610385754528 -0.047760805904865269 0.051960042402148243 0.027224207560066133 -0.021077241154271179 -0.034742557596076619
leaf_weight=26 23 39 21 24 20 31 20 31 20 32 22 34 25 25 20 20 22
leaf_count=26 23 39 21 24 20 31 20 31 20 32 22 34 25 25 20 20 22
internal_value=0 -0.0170293 -0.0109442 0.0339465 0.0292368 -0.014793 0.0205153 -0.0054751 0.0281868 -0.0127746 -0.0224094 -0.0275416 -0.0362014 0.0453232 0.0194946 -0.0134893 -0.0416672
internal_weight=0 303 230 152 128 209 83 94 60 63 115 73 73 45 40 42 47
internal_count=455 303 230 152 128 209 83 94 60 63 115 73 73 45 40 42 47
is_linear=0
shrinkage=0.05


Tree=6
num_leaves=18
num_cat=0
split_feature=2 1 2 3 7 10 0 0 1 4 1 1 2 0 8 9 4
split_gain=95.0538 14.0983 9.226 7.11778 7.27111 4.74353 3.6289 3.25071 3.43994 2.88779 2.51821 1.51632 1.38901 1.13852 0.55735 0.539478 0.178491
threshold=1998.5000000000002 329885.00000000006 1982.5000000000002 30.950000000000003 0.91666650000000016 17.000000000000004 3.5000000000000004 4.5000000000000009 703587.50000000012 14.816666665000001 769760.00000000012 339971.00000000006 1974.5000000000002 10.000000000000002 1.1416666665000001 7.3072578000000012 14.983333335000003
decision_type=2 2 2 2 2 2 2 2 2 2 2 2 2 2 2 2 2
left_child=1 -1 6 4 5 9 -3 -4 16 -2 12 -6 -8 -10 -11 -12 -9
right_child=3 2 7 -5 11 -7 10 8 13 14 15 -13 -14 -15 -16 -17 -18
leaf_value=0.022218461441142218 0.025372312805848198 -0.013127717271447181 0.00068399505928540846 0.054309039620252755 0.033380843169987205 0.033953955036898457 -0.051735524336496988 -0.024134600734105335 -0.0013921660271340184 0.0077802132095464265 -0.01986388930430015 0.051379234597764237 -0.03538035355946597 -0.014919023794521178 -0.0037525229807943111 -0.03073455449938774 -0.030734614850509736
leaf_weight=21 20 25 39 26 25 30 21 20 28 22 21 22 34 35 20 25 21
leaf_count=21 20 25 39 26 25 30 21 20 28 22 21 22 34 35 20 25 21
internal_value=0 -0.0172382 -0.0203185 0.0302974 0.0258061 0.0176324 -0.0301831 -0.0116265 -0.0162429 0.00973485 -0.0344048 0.0418056 -0.0416251 -0.00890709 0.00228843 -0.0257719 -0.0275151
internal_weight=0 290 269 165 139 92 126 143 104 62 101 47 55 63 42 46 41
internal_count=455 290 269 165 139 92 126 143 104 62 101 47 55 63 42 46 41
is_linear=0
shrinkage=0.05


Tree=7
num_leaves=18
num_cat=0
split_feature=2 10 2 3 7 9 3 10 3 3 0 6 10 10 10 10 0
split_gain=86.1908 12.4723 10.7477 5.85936 5.84737 5.42723 5.13933 4.2758 3.17446 1.60961 1.54139 1.45592 1.36503 0.97429 0.95844 0.893193 0.764033
threshold=1999.5000000000002 36.000000000000007 1989.5000000000002 30.950000000000003 0.91666650000000016 7.495000000000001 30.716666665000002 6.5000000000000009 29.950000000000003 29.016666665000006 4.5000000000000009 76.833333335000006 12.000000000000002 8.0000000000000018 8.0000000000000018 12.000000000000002 11.500000000000002
decision_type=2 2 2 2 2 2 2 2 2 2 2 2 2 2 2 2 2
left_child=1 2 5 4 7 9 12 -2 16 -1 -7 -12 14 -11 -4 -6 -9
right_child=3 -3 6 -5 15 10 -8 8 -10 13 11 -13 -14 -15 -16 -17 -18
leaf_value=-0.044676345015966124 0.00027593874534511049 0.014107798470649869 -0.0096109999757922754 0.053396271122619514 0.03468744707107544 -0.010328827563085055 0.016640475405646223 0.010589168975129723 0.041896420917473733 -0.022922707938899597 -0.029124930255899309 -0.012962347873359582 -0.001422655440704978 -0.037026521503925325 -0.023622993290748285 0.048863778999075291 0.024409744408912956
leaf_weight=31 23 32 26 24 25 38 21 20 20 24 38 22 23 25 23 20 20
leaf_count=31 23 32 26 24 25 38 21 20 20 24 38 22 23 25 23 20 20
internal_value=0 -0.0154133 -0.0188992 0.0307252 0.0264743 -0.0260966 -0.0051235 0.0186055 0.0256318 -0.0357597 -0.0182083 -0.0231987 -0.0114713 -0.0301185 -0.0161881 0.040988 0.0174995
internal_weight=0 303 271 152 128 178 93 83 60 80 98 60 72 49 49 45 40
internal_count=455 303 271 152 128 178 93 83 60 80 98 60 72 49 49 45 40
is_linear=0
shrinkage=0.05


Tree=8
num_leaves=18
num_cat=0
split_feature=2 1 2 3 10 1 7 3 0 1 1 4 2 10 0 9 10
split_gain=77.7872 16.4436 8.583 5.28807 5.31054 4.45004 3.95485 3.1245 2.97054 3.31833 2.52436 1.91586 1.50432 1.20684 1.20408 1.04266 0.466196
threshold=1999.5000000000002 313725.00000000006 1984.5000000000002 30.950000000000003 17.000000000000004 435344.50000000006 0.95000000000000007 30.766668335000002 3.5000000000000004 724942.50000000012 554897.50000000012 14.816666665000001 1976.5000000000002 5.0000000000000009 6.5000000000000009 7.5416666665000003 8.0000000000000018
decision_type=2 2 2 2 2 2 2 2 2 2 2 2 2 2 2 2 2
left_child=1 -1 8 4 6 -6 11 10 -3 16 -4 -2 -11 -12 -15 -16 -10
right_child=3 2 7 -5 5 -7 -8 -9 9 12 13 -13 -14 14 15 -17 -18
leaf_value=0.029172646440565587 0.022853508628904822 -0.012066798323187335 -0.026197626527398828 0.050726459128782153 0.055999187983217694 0.023448732229215757 0.033065663451521558 0.0088424145820594959 -0.034633714173521311 -0.030680144528741949 -0.01857011627659879 0.0036459058649032506 -0.015680940714332143 0.0031581611144011496 -0.018707070662640036 -0.0033904356639832263 -0.044650001365404868
leaf_weight=20 20 29 25 24 21 21 29 21 21 32 22 37 35 27 20 25 26
leaf_count=20 20 29 25 24 21 21 29 21 21 32 22 37 35 27 20 25 26
internal_value=0 -0.0146426 -0.0177391 0.0291889 0.0251506 0.039724 0.0180334 -0.00893875 -0.0263548 -0.0299895 -0.0120766 0.0103854 -0.0228447 -0.00832101 -0.00518933 -0.0101978 -0.0401746
internal_weight=0 303 283 152 128 42 86 140 143 114 119 57 67 94 72 45 47
internal_count=455 303 283 152 128 42 86 140 143 114 119 57 67 94 72 45 47
is_linear=0
shrinkage=0.05


Tree=9
num_leaves=19
num_cat=0
split_feature=2 1 2 3 7 3 9 0 1 1 1 4 9 9 2 4 2 6
split_gain=70.2029 14.8404 7.74616 4.77249 4.78549 2.84368 2.68754 2.65099 2.47782 2.44081 1.91981 1.761 1.06237 2.9299 1.95349 0.977202 0.931325 0.290654
threshold=1999.5000000000002 313725.00000000006 1984.5000000000002 30.950000000000003 0.91666650000000016 30.683333335000004 7.495000000000001 13.500000000000002 554897.50000000012 724942.50000000012 339971.00000000006 14.916666665000003 7.366666833500001 6.855172414000001 1988.5000000000002 14.983333335000003 1976.5000000000002 74.166665000000009
decision_type=2 2 2 2 2 2 2 2 2 2 2 2 2 2 2 2 2 2
left_child=1 -1 6 4 7 8 9 11 -4 -3 -6 -2 13 -10 -14 17 -11 -8
right_child=3 2 5 -5 10 -7 15 -9 12 16 -12 -13 14 -15 -16 -17 -18 -19
leaf_value=0.02771401394158602 0.021037451225297099 -0.040700329922967488 -0.026169699834038815 0.048190136443008673 0.027785841047763826 0.0064296769551359691 -0.025823556073009971 0.031207155501065051 -0.0013141255015912264 -0.029557571209107455 0.048569396127422809 0.0037512659054139961 -0.01353738444687968 -0.027145602539461661 0.0070897054218221458 -0.0080288065550848855 -0.01520605269819498 -0.017401361128404028
leaf_weight=20 26 36 24 24 25 26 20 23 23 26 20 34 22 21 24 20 20 21
leaf_count=20 26 36 24 24 25 26 20 23 23 26 20 34 22 21 24 20 20 21
internal_value=0 -0.0139105 -0.0168522 0.0277295 0.0238931 -0.00849181 -0.0250371 0.0167745 -0.011895 -0.0309491 0.037023 0.0112419 -0.00808836 -0.0136428 -0.00277542 -0.0170898 -0.0233178 -0.0215097
internal_weight=0 303 283 152 128 140 143 83 114 82 45 60 90 44 46 61 46 41
internal_count=455 303 283 152 128 140 143 83 114 82 45 60 90 44 46 61 46 41
is_linear=0
shrinkage=0.05


Tree=10
num_leaves=18
num_cat=0
split_feature=2 1 2 3 10 1 7 3 0 1 1 10 2 10 0 2 6
split_gain=63.3582 13.3934 6.99091 4.30717 4.52948 3.93604 3.19135 2.57627 2.50054 2.74678 2.05086 1.40814 1.24325 1.08362 1.0453 0.903852 0.583079
threshold=1999.5000000000002 313725.00000000006 1984.5000000000002 30.950000000000003 17.000000000000004 435344.50000000006 0.95000000000000007 30.766668335000002 3.5000000000000004 724942.50000000012 554897.50000000012 6.5000000000000009 1976.5000000000002 5.0000000000000009 6.5000000000000009 1990.5000000000002 73.333331665000017
decision_type=2 2 2 2 2 2 2 2 2 2 2 2 2 2 2 2 2
left_child=1 -1 8 4 6 -6 11 10 -3 16 -4 -2 -11 -12 -15 -16 -10
right_child=3 2 7 -5 5 -7 -8 -9 9 12 13 -13 -14 14 15 -17 -18
leaf_value=0.02632831443101168 -0.00029978712656251766 -0.010676168065903517 -0.023644459158182144 0.045780628624682629 0.051463928251039417 0.02085100202155965 0.029628917080318107 0.008078810200095177 -0.030449882962486963 -0.027742744289571422 -0.017243233674459839 0.015718897409490586 -0.014107011111918838 0.0032137072645127777 -0.016805961080605076 -0.0026019958080723883 -0.041610833406448368
leaf_weight=20 23 29 25 24 21 21 29 21 22 32 22 34 35 27 21 24 25
leaf_count=20 23 29 25 24 21 21 29 21 22 32 22 34 35 27 21 24 25
internal_value=0 -0.013215 -0.0160095 0.026343 0.0226984 0.0361575 0.0161254 -0.00806722 -0.0237852 -0.02712 -0.0109165 0.00925522 -0.0206196 -0.00753143 -0.00456393 -0.00923051 -0.0363866
internal_weight=0 303 283 152 128 42 86 140 143 114 119 57 67 94 72 45 47
internal_count=455 303 283 152 128 42 86 140 143 114 119 57 67 94 72 45 47
is_linear=0
shrinkage=0.05


Tree=11
num_leaves=17
num_cat=0
split_feature=2 4 2 2 10 9 3 9 10 10 10 9 0 6 0 9
split_gain=57.2336 10.0487 5.34496 4.51146 2.67312 2.43658 2.43274 2.22607 2.05762 2.05053 1.60446 0.91454 0.775406 1.34708 0.708799 0.572245
threshold=1998.5000000000002 16.716666665000002 1989.5000000000002 2007.5000000000002 17.000000000000004 7.495000000000001 30.516666665000006 7.3072578000000012 8.0000000000000018 17.000000000000004 12.000000000000002 6.9500000000000011 4.5000000000000009 76.833333335000006 7.5000000000000009 6.5166666665000008
decision_type=2 2 2 2 2 2 2 2 2 2 2 2 2 2 2 2
left_child=1 2 5 6 8 7 9 11 -4 14 15 -1 -7 -14 -2 -5
right_child=3 -3 4 10 -6 12 -8 -9 -10 -11 -12 -13 13 -15 -16 -17
leaf_value=-0.014035473577678204 -0.0018000052443572453 0.015672217619915805 -0.0020704603064115399 0.021913534607738257 0.0075370790920435242 -0.0096199150968875203 0.028866171686289212 -0.03937310880193344 -0.021415633884524662 0.021817727355907361 0.044465841223364291 -0.026606503915853608 -0.024630051864752256 -0.0088506497597942765 0.011352206999436022 0.033731105355989367
leaf_weight=23 21 27 27 20 26 35 30 26 28 30 23 39 38 21 20 21
leaf_count=23 21 27 27 20 26 35 30 26 28 30 23 39 38 21 20 21
internal_value=0 -0.0133762 -0.0163584 0.0235097 -0.00567378 -0.0211136 0.0169283 -0.0270928 -0.0119189 0.0118842 0.0338959 -0.0219431 -0.015516 -0.0190137 0.00461571 0.0279664
internal_weight=0 290 263 165 81 182 101 88 55 71 64 62 94 59 41 41
internal_count=455 290 263 165 81 182 101 88 55 71 64 62 94 59 41 41
is_linear=0
shrinkage=0.05


Tree=12
num_leaves=17
num_cat=0
split_feature=2 1 2 1 10 3 0 1 9 1 2 0 6 2 7 2
split_gain=51.8465 11.7088 5.64908 3.90801 5.37134 4.14529 2.28971 2.4599 2.07969 2.04125 1.60032 2.01151 1.20522 0.706577 0.690218 0.638931
threshold=1999.5000000000002 313725.00000000006 1984.5000000000002 806740.00000000012 17.000000000000004 30.350000000000005 4.5000000000000009 644915.00000000012 7.495000000000001 724942.50000000012 1993.5000000000002 10.000000000000002 79.833333335000006 1976.5000000000002 0.61666666650000013 2007.5000000000002
decision_type=2 2 2 2 2 2 2 2 2 2 2 2 2 2 2 2
left_child=1 -1 8 4 5 15 -4 -8 9 -3 11 -9 -7 -11 -10 -2
right_child=3 2 6 -5 -6 12 7 10 14 13 -12 -13 -14 -15 -16 -17
leaf_value=0.025018485765904187 0.0072630832815775651 -0.035675069317221642 0.0038627222673419644 0.0053148981610623503 0.0439975951399122 0.041690569929778577 -0.022632033843547106 -0.00032469978693618691 -0.021402295593820189 -0.025213794908128109 0.0039502601775054172 -0.020867242642606684 0.024540295212396555 -0.012713305857032536 -0.010428105384466778 0.018655309528112413
leaf_weight=20 32 36 34 24 35 20 32 22 23 26 26 26 21 20 38 20
leaf_count=20 32 36 34 24 35 20 32 22 23 26 26 26 21 20 38 20
internal_value=0 -0.0119543 -0.0145672 0.02383 0.0273015 0.0210181 -0.0074277 -0.0110492 -0.021557 -0.0267576 -0.00604034 -0.0114519 0.0329063 -0.0197788 -0.0145659 0.0116447
internal_weight=0 303 283 152 128 93 140 106 143 82 74 48 41 46 61 52
internal_count=455 303 283 152 128 93 140 106 143 82 74 48 41 46 61 52
is_linear=0
shrinkage=0.05


Tree=13
num_leaves=18
num_cat=0
split_feature=2 1 2 1 10 3 0 1 5 1 3 6 10 3 2 2 10
split_gain=46.7915 10.5672 5.16771 3.52698 4.84763 3.74113 2.67608 2.18123 1.54905 1.22509 1.20957 1.08771 1.06455 0.876766 0.576635 0.474215 0.305131
threshold=1999.5000000000002 313725.00000000006 1989.5000000000002 806740.00000000012 17.000000000000004 30.350000000000005 4.5000000000000009 724942.50000000012 12.166666665000003 729415.00000000012 28.416666665000005 79.833333335000006 8.0000000000000018 30.050000000000004 2007.5000000000002 1977.5000000000002 9.5000000000000018
decision_type=2 2 2 2 2 2 2 2 2 2 2 2 2 2 2 2 2
left_child=1 -1 6 4 5 14 9 12 16 -3 -9 -7 -8 -10 -2 -12 -4
right_child=3 2 8 -5 -6 11 7 10 13 -11 15 -13 -14 -15 -16 -17 -18
leaf_value=0.023767561735585335 0.0068999289156636227 -0.0019344225236824877 -0.0011205006251111627 0.0050491534518338696 0.041797715617077694 0.039606041759252551 -0.021624399542256638 -0.0077214343724055935 -0.016098162017900635 -0.018020048909820615 -0.026502277676693421 0.023313280168388573 -0.034838339941842218 -0.0032340095727704469 0.017722543701529505 -0.016903779616263964 0.0076134924637153746
leaf_weight=20 32 29 20 24 35 20 27 26 27 20 22 21 35 26 20 31 20
leaf_count=20 32 29 20 24 35 20 27 26 27 20 22 21 35 26 20 31 20
internal_value=0 -0.0113566 -0.0138389 0.0226385 0.0259365 0.0199672 -0.0185659 -0.022064 -0.00418145 -0.00849998 -0.0165547 0.031261 -0.0290839 -0.00978745 0.0110625 -0.0208881 0.0032465
internal_weight=0 303 283 152 128 93 190 141 93 49 79 41 62 53 52 53 40
internal_count=455 303 283 152 128 93 190 141 93 49 79 41 62 53 52 53 40
is_linear=0
shrinkage=0.05


Tree=14
num_leaves=19
num_cat=0
split_feature=2 1 2 3 10 1 0 1 1 7 2 10 10 5 3 10 2 0
split_gain=42.2293 9.53686 4.8307 3.18507 3.27875 2.85805 2.83103 2.68777 2.32777 2.2713 1.48793 1.42483 1.35614 0.839405 0.796124 0.598683 0.583595 0.572464
threshold=1999.5000000000002 313725.00000000006 1975.5000000000002 30.950000000000003 17.000000000000004 435344.50000000006 3.5000000000000004 724942.50000000012 622197.50000000012 0.95000000000000007 1990.5000000000002 8.0000000000000018 6.5000000000000009 13.666666665000003 28.466668335000005 9.5000000000000018 1989.5000000000002 10.000000000000002
decision_type=2 2 2 2 2 2 2 2 2 2 2 2 2 2 2 2 2 2
left_child=1 -1 15 4 9 -6 8 11 -4 12 14 -8 -2 -12 -9 -3 -13 -16
right_child=3 2 6 -5 5 -7 7 10 -10 -11 13 16 -14 -15 17 -17 -18 -19
leaf_value=0.022579184072092178 -0.0023926745614279874 -0.03217068864032626 0.014107035440392794 0.038221585781623921 0.042866569260756181 0.016780402765254537 -0.010901646123134665 -0.0042159918155944484 -0.0097275501737991987 0.024172029914013272 0.0071685363352298739 -0.030165539509974994 0.013327464690048467 -0.006984648838194764 -0.010370133148739115 -0.021540580320827389 -0.019100614260374148 -0.021181148915396384
leaf_weight=20 23 26 20 24 21 21 28 22 21 29 20 26 34 22 25 27 22 24
leaf_count=20 23 26 20 24 21 21 28 22 21 29 20 26 34 22 25 27 22 24
internal_value=0 -0.0107888 -0.0131469 0.0215066 0.0183725 0.0298235 -0.0100111 -0.0125948 0.00189908 0.0127801 -0.00770482 -0.0198653 0.00698425 -0.000245037 -0.0121176 -0.0267554 -0.0250941 -0.0156653
internal_weight=0 303 283 152 128 42 230 189 41 86 113 76 57 42 71 53 48 49
internal_count=455 303 283 152 128 42 230 189 41 86 113 76 57 42 71 53 48 49
is_linear=0
shrinkage=0.05


Tree=15
num_leaves=17
num_cat=0
split_feature=2 4 2 3 10 10 7 10 9 9 4 2 7 4 10 10
split_gain=38.1119 8.29359 4.44133 2.87453 2.95907 2.19124 2.04985 1.97509 1.67801 1.47825 1.38315 1.3577 0.75896 0.570548 1.19189 0.136478
threshold=1999.5000000000002 16.816666665000003 1989.5000000000002 30.950000000000003 17.000000000000004 17.000000000000004 0.95000000000000007 8.0000000000000018 7.495000000000001 7.3072578000000012 14.816666665000001 2005.5000000000002 0.68333333350000014 15.616665000000003 17.000000000000004 17.000000000000004
decision_type=2 2 2 2 2 2 2 2 2 2 2 2 2 2 2 2
left_child=1 2 8 4 6 7 10 -4 9 12 -2 -6 15 14 -10 -1
right_child=3 -3 5 -5 11 -7 -8 -9 13 -11 -12 -13 -14 -15 -16 -17
leaf_value=-0.016783930813073226 0.017228877653542442 0.017335638590157031 -0.00024833494286623692 0.036310506549974281 0.019342571944885312 0.0069947713764474525 0.022963428381701997 -0.017956658373805112 -0.021014201472437866 -0.031945045651109137 0.00090863843121238668 0.037322052648024899 -0.025657594505520093 -0.0051218792051076897 -0.0084067917845555059 -0.011012694039382041
leaf_weight=21 20 25 31 24 21 31 29 32 37 27 37 21 21 20 38 20
leaf_count=21 20 25 31 24 21 31 29 32 37 27 37 21 21 20 38 20
internal_value=0 -0.0102493 -0.01273 0.0204312 0.0174539 -0.00388802 0.0121411 -0.00924304 -0.0172471 -0.0221802 0.00663504 0.0283323 -0.0179278 -0.0126255 -0.0146264 -0.0139687
internal_weight=0 303 278 152 128 94 86 63 184 89 57 42 62 95 75 41
internal_count=455 303 278 152 128 94 86 63 184 89 57 42 62 95 75 41
is_linear=0
shrinkage=0.05


Tree=16
num_leaves=17
num_cat=0
split_feature=2 4 1 10 3 2 10 1 2 4 10 10 6 2 10 9
split_gain=34.4401 7.74267 3.38077 3.95414 3.57092 3.01644 1.91425 1.58268 1.54542 1.1499 1.14854 1.04383 0.84039 0.535499 0.451778 0.395362
threshold=1998.5000000000002 16.816666665000003 806740.00000000012 17.000000000000004 30.350000000000005 1989.5000000000002 17.000000000000004 625030.00000000012 1975.5000000000002 15.883333335000001 17.000000000000004 8.0000000000000018 79.833333335000006 2007.5000000000002 9.5000000000000018 7.6833335000000007
decision_type=2 2 2 2 2 2 2 2 2 2 2 2 2 2 2 2
left_child=1 5 3 4 13 8 7 -7 14 10 11 -10 -6 -2 -1 -12
right_child=2 -3 -4 -5 12 6 -8 -9 9 -11 15 -13 -14 -15 -16 -17
leaf_value=-0.029309361428022387 0.0045636765607115302 0.016822695204367241 0.0033568480739279861 0.0358505877899006 0.034567276352927799 -0.020128293088434834 0.0063572671909171811 -0.0030423374479692997 -0.012859691752653038 -0.0034410115432642074 -0.01523783916141838 -0.025731633831229474 0.020421857262651125 0.014767836779356003 -0.019656917294142425 -0.006033469849665251
leaf_weight=22 36 24 31 36 21 23 26 33 28 23 20 36 21 20 27 28
leaf_count=22 36 24 31 36 21 23 26 33 28 23 20 36 21 20 27 28
internal_value=0 -0.0103762 0.018237 0.0216794 0.0164737 -0.0128303 -0.00485438 -0.0100598 -0.0163847 -0.0136241 -0.0157152 -0.0201002 0.0274946 0.00820802 -0.0239907 -0.00986862
internal_weight=0 290 165 134 98 266 82 56 184 135 112 64 42 56 49 48
internal_count=455 290 165 134 98 266 82 56 184 135 112 64 42 56 49 48
is_linear=0
shrinkage=0.05


Tree=17
num_leaves=18
num_cat=0
split_feature=1 9 1 0 4 7 1 8 6 9 1 7 8 6 3 6 6
split_gain=24.4017 11.6074 5.66587 5.50654 6.09086 5.47596 3.88838 2.44599 1.80269 2.2382 1.71971 1.4553 1.32816 1.17323 0.817849 0.717653 0.486815
threshold=236715.00000000003 6.8385057470000001 736935.00000000012 4.5000000000000009 15.950000000000001 0.95000000000000007 758185.50000000012 1.4500000000000002 75.500000000000014 7.366666833500001 811120.00000000012 0.58333333350000005 1.0416666665000003 76.833333335000006 29.283333335000005 73.333331665000017 79.416666665000022
decision_type=2 2 2 2 2 2 2 2 2 2 2 2 2 2 2 2 2
left_child=5 2 7 4 10 -1 11 16 -8 -10 -3 13 -11 15 -13 -5 -2
right_child=1 3 -4 6 -6 -7 8 -9 9 12 -12 14 -14 -15 -16 -17 -18
leaf_value=0.019427059083763097 0.020575469499453904 0.0019068321692898419 -0.0050262046751174093 -0.012754911696538329 0.023715047339868289 0.053945566341280941 -0.015497234079145617 0.0063557732307041696 -0.014097219998283046 0.015220124069601298 -0.014235082725909624 -0.03295059422297137 -0.0025828694014556029 -0.0056445681937038897 -0.020400733571937859 -0.026149430586956443 0.031241613075785015
leaf_weight=27 20 33 38 20 23 20 31 24 21 20 33 21 22 25 34 20 23
leaf_count=27 20 33 38 20 23 20 31 24 21 20 33 21 22 25 34 20 23
internal_value=0 -0.00393 0.0103963 -0.00889456 0.00155746 0.0341158 -0.0132414 0.0191434 -0.00562635 -0.000769242 -0.00616413 -0.0192066 0.00589475 -0.0141416 -0.0251925 -0.0194522 0.0262806
internal_weight=0 408 105 303 89 47 214 67 94 63 66 120 42 65 55 40 43
internal_count=455 408 105 303 89 47 214 67 94 63 66 120 42 65 55 40 43
is_linear=0
shrinkage=0.05


Tree=18
num_leaves=18
num_cat=0
split_feature=2 10 0 4 3 0 10 2 4 2 2 7 3 7 6 6 7
split_gain=28.7356 6.90742 5.95825 5.07144 2.6822 2.57426 2.39993 1.77913 1.79526 1.4378 1.32278 1.23678 1.35292 0.926641 0.711281 0.53916 0.625871
threshold=1998.5000000000002 36.000000000000007 4.5000000000000009 15.883333335000001 30.950000000000003 7.5000000000000009 17.000000000000004 2007.5000000000002 14.816666665000001 1974.5000000000002 2005.5000000000002 0.55000000000000016 29.216666665000002 0.48333333350000002 77.166665000000009 75.333331665000017 0.78333333350000012
decision_type=2 2 2 2 2 2 2 2 2 2 2 2 2 2 2 2 2
left_child=1 2 3 13 6 -4 7 8 -2 -7 -8 14 -13 -1 -11 -14 -17
right_child=4 -3 5 -5 -6 9 10 -9 -10 11 -12 12 15 -15 -16 16 -18
leaf_value=-0.015928443910723383 0.015452485652640464 0.013239195118658245 -0.028444937236092399 0.021468631327152252 0.031398236880508752 -0.025075011514127256 0.015554627053475437 0.017682712540231845 -0.0033262278565338679 -0.011343041301006452 0.032426595785433339 -0.02617900346716245 -0.018066149204969406 -0.0025109452555977531 0.0018321783370560127 -0.01407355856152373 -0.0018524510692805051
leaf_weight=22 20 30 38 20 26 24 26 37 35 20 21 21 21 31 21 22 20
leaf_count=22 20 30 38 20 26 24 26 37 35 20 21 21 21 31 21 22 20
internal_value=0 -0.00947802 -0.0120992 1.5172e-05 0.0166583 -0.0168284 0.0139012 0.00920535 0.0035024 -0.0138658 0.0230932 -0.0117136 -0.0151883 -0.00808047 -0.00459476 -0.0115247 -0.00825398
internal_weight=0 290 260 73 165 187 139 92 55 149 47 125 84 53 41 63 42
internal_count=455 290 260 73 165 187 139 92 55 149 47 125 84 53 41 63 42
is_linear=0
shrinkage=0.05


Tree=19
num_leaves=17
num_cat=0
split_feature=2 1 2 10 3 0 1 10 1 2 6 10 0 4 1 10
split_gain=25.9773 7.3392 3.53861 2.30584 3.86949 2.08047 3.73386 1.9227 1.52451 1.16797 0.997433 0.983289 0.883372 0.792582 0.687137 0.488661
threshold=1999.5000000000002 313725.00000000006 1975.5000000000002 5.0000000000000009 30.416665000000005 4.5000000000000009 797795.00000000012 17.000000000000004 724942.50000000012 1993.5000000000002 79.119658120000011 8.0000000000000018 12.500000000000002 14.683333335000002 323063.00000000006 9.5000000000000018
decision_type=2 2 2 2 2 2 2 2 2 2 2 2 2 2 2 2
left_child=1 -1 15 -2 7 6 -4 14 11 12 -6 -7 -10 -13 -5 -3
right_child=3 2 5 4 10 8 -8 -9 9 -11 -12 13 -14 -15 -16 -17
leaf_value=0.020810147686861458 0.0039081965373562915 -0.027070100863392538 0.012598682263245184 -0.00015838452614843845 0.024054441684857014 -0.0085439916101417365 -0.012789022603205273 0.022345265283116273 -0.0043523935705590518 0.003372455888387302 0.039482461559501567 -0.014023959225354097 -0.015294261282043798 -0.027012833888116091 0.012069287385653568 -0.017466298421775852
leaf_weight=20 28 26 30 20 20 28 28 35 39 23 22 24 35 23 27 27
leaf_count=20 28 26 30 20 20 28 28 35 39 23 22 24 35 23 27 27
internal_value=0 -0.00846178 -0.0105305 0.0168679 0.0197943 -0.00784657 0.000342549 0.013473 -0.010608 -0.00646882 0.0321358 -0.0159614 -0.0095276 -0.0203802 0.00686602 -0.0221776
internal_weight=0 303 283 152 124 230 58 82 172 97 42 75 74 47 47 53
internal_count=455 303 283 152 124 230 58 82 172 97 42 75 74 47 47 53
is_linear=0
shrinkage=0.05


Tree=20
num_leaves=17
num_cat=0
split_feature=2 8 1 1 10 3 1 9 9 2 7 10 6 9 8 3
split_gain=23.4595 5.96394 8.79128 2.52674 2.91569 2.61931 2.14074 2.1839 2.24113 1.64584 1.02073 0.777716 0.657714 0.637942 0.612751 0.469
threshold=1998.5000000000002 1.4166665000000001 488257.50000000006 806740.00000000012 17.000000000000004 30.350000000000005 546577.50000000012 7.495000000000001 7.3072578000000012 1990.5000000000002 0.78333333350000012 9.5000000000000018 79.833333335000006 6.4166666665000012 1.0166666665000001 30.016665000000003
decision_type=2 2 2 2 2 2 2 2 2 2 2 2 2 2 2 2
left_child=1 6 -3 4 5 13 -1 8 14 15 11 -9 -7 -2 -8 -4
right_child=3 2 9 -5 -6 12 7 10 -10 -11 -12 -13 -14 -15 -16 -17
leaf_value=-0.026056103186371429 8.5887968864129942e-05 0.030931574609130621 -0.014956479916168797 0.002187421615986574 0.030196443510552246 0.029253201772059714 -0.017316751275211574 -0.015614399973613522 -0.028138742685831827 0.0045818072296679021 0.003161925602704287 -0.0025994498452002355 0.016739268609810443 0.010933486163390405 -0.0069438944637243236 -0.0057519943416118628
leaf_weight=30 23 20 31 31 36 21 24 24 29 25 25 22 21 33 35 25
leaf_count=30 23 20 31 31 36 21 24 24 29 25 25 22 21 33 35 25
internal_value=0 -0.00856381 0.00124481 0.0150515 0.0180276 0.0135574 -0.0138055 -0.011494 -0.0167575 -0.00608525 -0.00497022 -0.00938986 0.0229962 0.00647822 -0.0111634 -0.0108473
internal_weight=0 290 101 165 134 98 189 159 88 81 71 46 42 56 59 56
internal_count=455 290 101 165 134 98 189 159 88 81 71 46 42 56 59 56
is_linear=0
shrinkage=0.05


Tree=21
num_leaves=18
num_cat=0
split_feature=2 1 2 10 3 10 3 1 9 9 2 6 2 10 1 3 0
split_gain=21.2234 6.14196 3.03252 2.00706 3.20968 1.58628 1.50817 1.10968 1.1469 2.16579 1.07533 0.923089 0.899436 0.678531 0.580163 0.445762 0.429547
threshold=1999.5000000000002 313725.00000000006 1982.5000000000002 5.0000000000000009 30.416665000000005 17.000000000000004 30.766668335000002 554897.50000000012 7.366666833500001 6.9500000000000011 1988.5000000000002 79.119658120000011 1974.5000000000002 6.5000000000000009 323063.00000000006 29.116665000000005 6.5000000000000009
decision_type=2 2 2 2 2 2 2 2 2 2 2 2 2 2 2 2 2
left_child=1 -1 12 -2 5 14 7 -4 9 -9 -10 -6 15 -14 -5 -3 -15
right_child=3 2 6 4 11 -7 -8 8 10 -11 -12 -13 13 16 -16 -17 -18
leaf_value=0.019129710961133244 0.0031555781257338825 -0.024986199317155063 -0.015948751010000706 -0.00023611687123775485 0.021442575373221192 0.020278360165123431 0.0072353899140249608 -0.0013099615405923848 -0.0057575321953856583 -0.022394044856939996 0.0079901292324066168 0.036284495331346991 -0.0050451869727112355 -0.0097092518117278814 0.010999501165416507 -0.015137620558962226 -0.018728877430443058
leaf_weight=20 28 27 27 20 20 35 22 29 33 21 25 22 24 22 27 20 33
leaf_count=20 28 27 27 20 20 35 22 29 33 21 25 22 24 22 27 20 33
internal_value=0 -0.00764843 -0.00954088 0.0152465 0.0179768 0.0122196 -0.00490412 -0.00688241 -0.00461583 -0.0101653 0.000168184 0.0292169 -0.0153184 -0.01206 0.00621839 -0.0207953 -0.015121
internal_weight=0 303 283 152 124 82 157 135 108 50 58 42 126 79 47 47 55
internal_count=455 303 283 152 124 82 157 135 108 50 58 42 126 79 47 47 55
is_linear=0
shrinkage=0.05


Tree=22
num_leaves=17
num_cat=0
split_feature=2 4 2 1 10 0 10 1 10 1 9 9 9 7 9 4
split_gain=19.1541 5.83396 2.4769 1.91235 2.28157 2.28808 2.68654 1.36127 1.29752 1.38841 1.23561 1.2384 0.50457 0.418325 0.243578 0.041423
threshold=1999.5000000000002 16.816666665000003 1989.5000000000002 806740.00000000012 17.000000000000004 10.000000000000002 8.0000000000000018 539196.00000000012 17.000000000000004 625030.00000000012 7.495000000000001 7.3072578000000012 7.8166666665000006 0.96666683350000016 7.0265517245000009 14.483333335000003
decision_type=2 2 2 2 2 2 2 2 2 2 2 2 2 2 2 2
left_child=1 2 7 4 5 6 -2 -1 9 -4 11 14 -12 15 -9 -14
right_child=3 -3 8 -5 -6 -7 -8 10 -10 -11 12 -13 13 -15 -16 -17
leaf_value=-0.023565682530403139 0.027808259081040676 0.01586969935009256 -0.015718876577627199 0.0015323770804873979 0.027794200078185116 0.0017262735599351507 0.00689394266477653 -0.014588500188591964 0.0056309005455865016 -0.00064196589503537967 0.0001622975105419755 -0.024708165228366854 -0.010407846989110112 -0.0034330271396108649 -0.007744389864651916 -0.013625883329659701
leaf_weight=25 34 25 26 24 35 31 28 26 31 37 20 25 20 22 26 20
leaf_count=25 34 25 26 24 35 31 28 26 31 37 20 25 20 22 26 20
internal_value=0 -0.00726601 -0.00934655 0.0144842 0.0169127 0.0128175 0.0183631 -0.0127199 -0.00274346 -0.00686418 -0.0110146 -0.0155631 -0.00674336 -0.00897099 -0.0111664 -0.0120169
internal_weight=0 303 278 152 128 93 62 184 94 63 159 77 82 62 52 40
internal_count=455 303 278 152 128 93 62 184 94 63 159 77 82 62 52 40
is_linear=0
shrinkage=0.05


Tree=23
num_leaves=17
num_cat=0
split_feature=1 7 7 9 9 1 1 8 0 0 6 0 9 1 8 5
split_gain=16.7296 7.16206 4.88213 3.70775 2.36317 2.07042 1.86298 1.63671 1.42473 2.06325 3.22144 1.42058 1.00771 1.56751 0.71509 0.240554
threshold=236715.00000000003 1.5500000000000003 0.95000000000000007 6.8385057470000001 7.366666833500001 736935.00000000012 546577.50000000012 1.3166666665000002 2.5000000000000004 4.5000000000000009 76.416666665000022 6.5000000000000009 7.3072578000000012 724942.50000000012 1.0416666665000003 13.666666665000003
decision_type=2 2 2 2 2 2 2 2 2 2 2 2 2 2 2 2
left_child=2 3 -1 5 11 7 -6 -2 -8 -10 15 -5 13 -13 -12 -11
right_child=1 -3 -4 4 6 -7 8 -9 9 10 14 12 -14 -15 -16 -17
leaf_value=0.014378578836719195 0.021917698860634119 0.018041004605280856 0.046971743782050907 -0.0039816982530314349 -0.015882981037078747 -0.00459386972146795 -0.012859103608876467 0.0027275912221521141 0.012429547582373576 -0.016151675522327425 0.011353133364508931 -0.019870316552428102 -0.026009949127381499 -0.0038318306598812343 -0.00089508561121130542 -0.0087947292625904089
leaf_weight=27 20 36 20 29 29 38 25 25 27 25 26 39 22 25 22 20
leaf_count=27 20 36 20 29 29 38 25 25 27 25 26 39 22 25 22 20
internal_value=0 -0.00325406 0.028248 -0.00531487 -0.00799 0.00399972 -0.00431427 0.0112565 -0.00200053 0.000261674 -0.00327093 -0.0135515 -0.0167786 -0.0136053 0.00573937 -0.0128819
internal_weight=0 408 47 372 289 83 174 45 145 120 93 115 86 64 48 45
internal_count=455 408 47 372 289 83 174 45 145 120 93 115 86 64 48 45
is_linear=0
shrinkage=0.05


Tree=24
num_leaves=17
num_cat=0
split_feature=2 4 1 10 3 8 1 9 9 2 7 9 10 6 7 3
split_gain=15.8018 5.24461 1.80643 2.10247 1.89559 1.77814 1.87342 1.61106 1.63807 1.19222 0.705383 0.666364 0.660355 0.53824 0.447584 0.178559
threshold=1998.5000000000002 16.816666665000003 806740.00000000012 17.000000000000004 30.350000000000005 1.4166665000000001 546577.50000000012 7.495000000000001 7.3072578000000012 1987.5000000000002 0.78333333350000012 6.4166666665000012 9.5000000000000018 79.833333335000006 0.55000000000000016 29.383333335000003
decision_type=2 2 2 2 2 2 2 2 2 2 2 2 2 2 2 2
left_child=1 5 3 4 11 6 -1 8 14 15 12 -2 -9 -6 -8 -7
right_child=2 -3 -4 -5 13 9 7 10 -10 -11 -12 -13 -14 -15 -16 -17
leaf_value=-0.023513561114668846 -0.0014820196827792604 0.015356835514345827 0.0014760282581611989 0.025202799133775346 0.024763331544541179 -0.011781898403370922 -0.0062289422449086692 -0.013624049785911389 -0.024747416577660122 0.0033287998026189135 0.0029141361631142598 0.0096045913287636023 -0.001507199729200114 0.013442893796378658 -0.015557941803708673 -0.0056055921409279112
leaf_weight=29 23 24 31 36 21 22 36 23 26 39 24 33 22 21 20 25
leaf_count=29 23 24 31 36 21 22 36 23 26 39 24 33 22 21 20 25
internal_value=0 -0.00702846 0.0123531 0.0148694 0.0110734 -0.00904819 -0.0118739 -0.00963845 -0.014376 -0.00313393 -0.00400829 0.00505116 -0.00770026 0.0191031 -0.00956073 -0.00849663
internal_weight=0 290 165 134 98 266 180 151 82 86 69 56 45 42 56 47
internal_count=455 290 165 134 98 266 180 151 82 86 69 56 45 42 56 47
is_linear=0
shrinkage=0.05


Tree=25
num_leaves=18
num_cat=0
split_feature=1 2 9 0 1 1 6 2 7 4 9 8 9 1 3 0 8
split_gain=14.4752 12.2686 4.68523 2.24747 2.19952 2.19142 1.86013 1.81822 1.61856 1.17988 0.980176 1.29299 0.856879 1.3103 0.820104 0.287984 0.207343
threshold=236715.00000000003 1998.5000000000002 7.2068965515000007 4.5000000000000009 695692.50000000012 729415.00000000012 81.166666665000022 1981.5000000000002 1.5500000000000003 13.350000000000003 7.5086206895000007 1.1166666665000002 6.9166666665000012 640114.00000000012 29.183333335000004 10.000000000000002 1.2833335000000001
decision_type=2 2 2 2 2 2 2 2 2 2 2 2 2 2 2 2 2
left_child=2 3 -1 5 14 7 8 -2 12 -6 11 -11 -3 -14 -5 -8 -16
right_child=1 6 -4 4 9 -7 15 -9 -10 10 -12 -13 13 -15 16 -17 -18
leaf_value=0.011466871216893196 -0.0046326689282432205 0.017447480830279263 0.043104424581608992 -0.026605367527476383 0.0019684706689216771 -0.011460069403232586 0.0047572673475813308 0.01643229020936858 0.024329207267612219 -0.02272428129729815 -0.0038962741406300128 -0.0076493502581301571 -0.004089917000383139 0.013238588441163303 -0.018486023192795423 -0.0036261645029298964 -0.012554534147356584
leaf_weight=25 20 22 22 21 26 31 21 21 25 25 39 33 20 24 26 20 34
leaf_count=25 20 22 22 21 26 31 21 21 25 25 39 33 20 24 26 20 34
internal_value=0 -0.00302689 0.0262759 -0.00902301 -0.0117035 -0.0014283 0.00951047 0.0061567 0.0134945 -0.00749033 -0.0100257 -0.0141472 0.00939049 0.005362 -0.0181013 0.000667788 -0.0151248
internal_weight=0 408 47 276 204 72 132 41 91 123 97 58 66 44 81 41 60
internal_count=455 408 47 276 204 72 132 41 91 123 97 58 66 44 81 41 60
is_linear=0
shrinkage=0.05


Tree=26
num_leaves=17
num_cat=0
split_feature=1 2 7 10 0 1 1 2 3 4 7 9 9 3 10 4
split_gain=13.0639 11.0725 4.46378 2.42704 2.02834 1.98507 1.97776 1.64094 1.50826 1.06484 0.949529 0.884609 1.19123 0.740144 0.374134 0.328455
threshold=236715.00000000003 1998.5000000000002 0.95000000000000007 5.0000000000000009 4.5000000000000009 695692.50000000012 729415.00000000012 1981.5000000000002 30.416665000000005 13.350000000000003 0.78333333350000012 7.5086206895000007 7.3072578000000012 29.183333335000004 8.0000000000000018 14.216666665000002
decision_type=2 2 2 2 2 2 2 2 2 2 2 2 2 2 2 2
left_child=2 4 -1 -3 6 13 7 -2 10 -7 15 12 -11 -6 -15 -5
right_child=1 3 -4 8 5 9 -8 -9 -10 11 -12 -13 -14 14 -16 -17
leaf_value=0.011700244082344904 -0.0044010355742648243 -0.0049913499355316165 0.042865702742710711 0.0094597083935514109 -0.025275098932685244 0.001870047128222023 -0.010887065968446193 0.015610675744357564 0.020648804074153305 -0.007838178233942018 0.01731853843142744 -0.0037014605250591651 -0.022606108354573901 -0.0089880059029729589 -0.017265848787979054 0.0012411170969566993
leaf_weight=27 20 25 20 20 21 26 31 21 36 36 20 39 22 21 39 31
leaf_count=27 20 25 20 20 21 26 31 21 36 36 20 39 22 21 39 31
internal_value=0 -0.00287554 0.0249621 0.00903495 -0.00857186 -0.0111183 -0.00135688 0.00584887 0.0123121 -0.00711581 0.00808506 -0.00952439 -0.0134398 -0.0171962 -0.0143686 0.00446409
internal_weight=0 408 47 132 276 204 72 41 107 123 71 97 58 81 60 51
internal_count=455 408 47 132 276 204 72 41 107 123 71 97 58 81 60 51
is_linear=0
shrinkage=0.05


Tree=27
num_leaves=19
num_cat=0
split_feature=1 2 9 0 1 1 6 2 7 6 7 4 2 3 4 9 0 4
split_gain=11.7902 9.99289 4.35531 1.83058 1.79153 1.78493 1.57194 1.48095 1.34988 0.966242 0.82266 0.855553 0.695707 0.66798 0.547492 0.463062 0.259715 0.204057
threshold=236715.00000000003 1998.5000000000002 7.2068965515000007 4.5000000000000009 695692.50000000012 729415.00000000012 81.166666665000022 1981.5000000000002 1.5500000000000003 79.833333335000006 0.45000000000000001 14.916666665000003 1976.5000000000002 29.183333335000004 14.100000000000001 7.5086206895000007 10.000000000000002 14.416666665000003
decision_type=2 2 2 2 2 2 2 2 2 2 2 2 2 2 2 2 2 2
left_child=2 3 -1 5 13 7 8 -2 10 12 -3 -12 -6 -5 -14 -16 -8 -15
right_child=1 6 -4 4 9 -7 16 -9 -10 -11 11 -13 14 17 15 -17 -18 -19
leaf_value=0.0094358824640512484 -0.0041809836635366086 0.015646455030073413 0.039939207194203685 -0.024011344131403826 -0.016525360709056258 -0.010342712895644288 0.0043379040213213085 0.014830142020114831 0.02214025146327913 0.0014028577832505109 0.011187370400875807 -0.0032623897772282363 -0.00090192721153681092 -0.010426544834411255 -0.014976195748085562 -0.0048295941965823827 -0.003623424074612558 -0.016287687982460768
leaf_weight=25 20 25 22 21 24 31 21 21 25 28 21 20 26 27 23 22 20 33
leaf_count=25 20 25 22 21 24 31 21 21 25 28 21 20 26 27 23 22 20 33
internal_value=0 -0.00273176 0.023714 -0.00814327 -0.0105624 -0.00128904 0.0085832 0.00555642 0.0122457 -0.00676002 0.0084977 0.00413871 -0.00916592 -0.0163364 -0.00667822 -0.0100156 0.000454329 -0.0136502
internal_weight=0 408 47 276 204 72 132 41 91 123 66 41 95 81 71 45 41 60
internal_count=455 408 47 276 204 72 132 41 91 123 66 41 95 81 71 45 41 60
is_linear=0
shrinkage=0.05


Tree=28
num_leaves=18
num_cat=0
split_feature=10 2 7 0 2 1 8 9 7 6 3 0 3 9 7 6 3
split_gain=10.7906 10.3928 4.20704 2.80109 2.22078 1.50308 1.15079 1.13766 1.13478 1.01899 0.717529 0.708976 0.508441 0.492019 0.464881 0.271154 0.114296
threshold=50.000000000000007 1990.5000000000002 0.78333333350000012 5.5000000000000009 1998.5000000000002 539196.00000000012 1.3166666665000002 7.495000000000001 0.58333333350000005 78.833333335000006 30.150000000000002 6.5000000000000009 29.050000000000004 7.8500000000000005 1.0166666665000001 79.583333335000006 29.816665000000004
decision_type=2 2 2 2 2 2 2 2 2 2 2 2 2 2 2 2 2
left_child=1 5 4 -4 8 -1 10 11 -3 -5 15 -7 -13 -9 16 -6 -15
right_child=-2 2 3 9 6 7 -8 13 -10 -11 -12 12 -14 14 -16 -17 -18
leaf_value=-0.021427044183015824 0.03416022101565349 -0.0020834529292187653 0.029705398157238962 0.0011438911398872734 0.0085498551372438676 -0.0055848476558889235 -0.0038601598917291716 0.0012721733336716339 -0.017265756172128024 0.014075234057142949 0.015231241732835771 -0.020447462814411635 -0.011315369438380005 -0.012488771313801409 -0.00049734846688807008 0.00031647758558392528 -0.0073205577756237719
leaf_weight=25 22 32 22 25 20 27 26 27 20 39 25 27 35 20 20 20 23
leaf_count=25 22 32 22 25 20 27 26 27 20 39 25 27 35 20 20 20 23
internal_value=0 -0.00173562 0.00557558 0.0143145 0.000319985 -0.00994281 0.00503015 -0.00833887 -0.0079228 0.00902393 0.00858627 -0.0123473 -0.0152922 -0.00437496 -0.00679516 0.00443317 -0.00972438
internal_weight=0 433 229 86 143 204 91 179 52 64 65 89 62 90 63 40 43
internal_count=455 433 229 86 143 204 91 179 52 64 65 89 62 90 63 40 43
is_linear=0
shrinkage=0.05


Tree=29
num_leaves=18
num_cat=0
split_feature=10 2 7 4 0 2 1 1 2 6 0 0 7 10 7 6 5
split_gain=9.73856 9.37947 3.79686 2.67506 2.52798 2.20553 1.59982 1.35653 1.02129 0.919643 0.813695 0.620185 0.865604 0.588047 0.478555 0.675861 0.390132
threshold=50.000000000000007 1990.5000000000002 0.78333333350000012 14.100000000000001 5.5000000000000009 1998.5000000000002 787680.00000000012 539196.00000000012 1974.5000000000002 78.833333335000006 10.000000000000002 6.5000000000000009 0.61666666650000013 9.5000000000000018 0.95000000000000007 75.333331665000017 5.6666668335000017
decision_type=2 2 2 2 2 2 2 2 2 2 2 2 2 2 2 2 2
left_child=1 7 3 6 -4 -5 -3 -1 13 -6 16 12 -10 -9 15 -13 -7
right_child=-2 2 4 5 9 10 -8 8 11 -11 -12 14 -14 -15 -16 -17 -18
leaf_value=-0.020355691820383073 0.032452209547839388 0.020213165811517025 0.028220128403468565 -0.014034168646645008 0.001086696564219892 0.01012726536189968 0.00067406886955723166 -0.020694566819639434 -0.0078278340795077377 0.013371472607533902 -0.0061669493741963221 -0.012763620797544718 0.0043959017456342868 -0.0087149391358252622 -0.015415465664118527 -0.0019997058677420554 0.00047845385968685154
leaf_weight=25 22 22 22 36 25 22 20 21 30 39 23 25 28 20 20 35 20
leaf_count=25 22 22 22 36 25 22 20 21 30 39 23 25 28 20 20 35 20
internal_value=0 -0.00164884 0.0052968 0.000303986 0.0135988 -0.00410595 0.0109088 -0.00944567 -0.00792192 0.00857273 0.00139276 -0.00586333 -0.00192672 -0.0148508 -0.00871737 -0.00648467 0.00553259
internal_weight=0 433 229 143 86 101 42 204 179 64 65 138 58 41 80 60 42
internal_count=455 433 229 143 86 101 42 204 179 64 65 138 58 41 80 60 42
is_linear=0
shrinkage=0.05


Tree=30
num_leaves=18
num_cat=0
split_feature=10 7 9 0 4 1 1 8 3 6 9 0 7 8 5 1 8
split_gain=8.78905 3.70417 2.32021 2.15613 3.50501 1.80348 1.43318 1.77536 1.14334 1.14307 1.55267 0.948925 0.738572 0.61712 0.368959 0.494234 0.208952
threshold=50.000000000000007 1.6666668335000001 6.8385057470000001 4.5000000000000009 15.883333335000001 695692.50000000012 736935.00000000012 1.3166666665000002 29.050000000000004 75.500000000000014 7.366666833500001 2.5000000000000004 0.48333333350000002 1.0416666665000003 16.166665000000005 472240.00000000006 1.2833335000000001
decision_type=2 2 2 2 2 2 2 2 2 2 2 2 2 2 2 2 2
left_child=1 2 6 4 11 8 7 -1 -5 16 -11 12 -4 -12 15 -10 -7
right_child=-2 -3 3 5 -6 9 -8 -9 14 10 13 -13 -14 -15 -16 -17 -18
leaf_value=0.018151689696781062 0.030829599025574601 0.014028375798817641 -0.015503860646858811 -0.02240415440325666 0.019986295085400344 -0.012925739667844029 -0.003714259860939101 0.00061431359462139597 -0.0010569673031568527 -0.0093466713039491046 0.011988725877282294 0.0038662459298696682 -0.0019155236025108027 0.00039516777032986287 -0.014314012729196943 -0.011204158527349744 -0.0060963196990390621
leaf_weight=27 22 35 20 23 20 24 38 31 20 26 22 24 20 24 28 30 21
leaf_count=27 22 35 20 23 20 24 38 31 20 26 22 24 20 24 28 30 21
internal_value=0 -0.0015664 -0.0029378 -0.0050902 0.00171581 -0.00771271 0.00383331 0.00877826 -0.0126074 -0.00348733 0.000419758 -0.00399372 -0.00870969 0.00593991 -0.00971867 -0.00714528 -0.00973868
internal_weight=0 433 398 302 84 218 96 58 101 117 72 64 40 46 78 50 45
internal_count=455 433 398 302 84 218 96 58 101 117 72 64 40 46 78 50 45
is_linear=0
shrinkage=0.05


Tree=31
num_leaves=17
num_cat=0
split_feature=1 2 7 10 2 3 1 1 4 1 2 10 10 7 1 4
split_gain=7.99919 6.87197 4.40468 2.26836 1.40873 1.01831 0.911437 0.829633 0.802683 0.736162 0.728345 1.44413 0.643487 0.514213 0.325925 0.258908
threshold=236715.00000000003 1999.5000000000002 0.95000000000000007 5.0000000000000009 1974.5000000000002 30.416665000000005 546577.50000000012 658950.00000000012 13.350000000000003 1063117.5000000002 1988.5000000000002 6.5000000000000009 8.0000000000000018 0.51666666650000004 732935.00000000012 15.416665000000002
decision_type=2 2 2 2 2 2 2 2 2 2 2 2 2 2 2 2
left_child=2 4 -1 -3 14 13 -6 12 -9 10 15 -12 -8 -5 -2 -10
right_child=1 3 -4 5 6 -7 7 8 9 -11 11 -13 -14 -15 -16 -17
leaf_value=0.0063591716742074055 -0.01794090004189423 -0.0063148281658473226 0.037317611370235683 0.0020532071035212047 -0.011892400441977841 0.018284496309405023 0.0074932447258526311 0.0028081767521798613 -0.011482246007358914 -0.015545911237408984 -0.009233612077229697 0.0086849939269582552 -0.0038603335618972779 0.011178634378225789 -0.0095195625070482494 -0.0048141598274620868
leaf_weight=27 27 23 20 26 39 33 26 25 37 21 23 22 24 38 20 24
leaf_count=27 27 23 20 26 39 33 26 25 37 21 23 22 24 38 20 24
internal_value=0 -0.00225012 0.019533 0.00780266 -0.00643878 0.0111501 -0.00489449 -0.00354341 -0.00538122 -0.00699331 -0.00529893 -0.000473405 0.00204353 0.00747143 -0.0143574 -0.00885874
internal_weight=0 408 47 120 288 97 241 202 152 127 106 45 50 64 47 61
internal_count=455 408 47 120 288 97 241 202 152 127 106 45 50 64 47 61
is_linear=0
shrinkage=0.05


Tree=32
num_leaves=19
num_cat=0
split_feature=10 2 7 4 0 2 1 1 3 9 0 9 9 6 5 1 9 6
split_gain=7.61077 7.22484 2.88412 2.3166 2.1821 1.79709 1.38067 1.11777 0.935762 0.907469 0.717187 0.522313 0.407677 0.37786 0.337846 0.278384 0.26657 0.112858
threshold=50.000000000000007 1990.5000000000002 0.78333333350000012 14.100000000000001 5.5000000000000009 1998.5000000000002 787680.00000000012 539196.00000000012 29.583333335000003 7.495000000000001 10.000000000000002 7.3072578000000012 8.0500000000000025 78.833333335000006 5.6666668335000017 657997.50000000012 7.0132183910000014 76.833333335000006
decision_type=2 2 2 2 2 2 2 2 2 2 2 2 2 2 2 2 2 2
left_child=1 7 3 6 -4 -5 -3 -1 -6 11 14 16 17 -10 -7 -14 -9 -11
right_child=-2 2 4 5 8 10 -8 9 13 12 -12 -13 15 -15 -16 -17 -18 -19
leaf_value=-0.018204033493995669 0.028688720198856162 0.018799109333618124 0.025458208644175268 -0.01277896889174978 0.01617188292555511 0.0093087136470289388 0.00064759211847558622 -0.01126225604210049 -0.0015053298409012233 -0.0022706512524746361 -0.0059508383193093801 -0.0161510402278509 -0.0021780989418568263 0.0077616676264865838 0.00032972353510558606 -0.0096940932132253826 -0.0046507724891266516 0.0030410811305046082
leaf_weight=25 22 22 22 36 20 22 20 30 22 20 23 28 22 22 20 28 31 20
leaf_count=25 22 22 22 36 20 22 20 30 22 20 23 28 22 22 20 28 31 20
internal_value=0 -0.00145763 0.00463827 0.000286757 0.0118739 -0.00381709 0.0101555 -0.00830057 0.00720433 -0.0069174 0.00114641 -0.0104974 -0.00337716 0.00312817 0.005033 -0.00638706 -0.00790232 0.000385215
internal_weight=0 433 229 143 86 101 42 204 64 179 65 89 90 44 42 50 61 40
internal_count=455 433 229 143 86 101 42 204 64 179 65 89 90 44 42 50 61 40
is_linear=0
shrinkage=0.05


Tree=33
num_leaves=18
num_cat=0
split_feature=10 2 7 4 0 0 1 5 0 1 3 10 3 7 8 3 2
split_gain=6.86872 6.52042 2.60292 2.09073 1.96934 1.63064 1.24605 1.20815 1.02867 1.24354 0.962737 0.892783 0.868839 0.716041 0.642788 0.612398 0.0309364
threshold=50.000000000000007 1990.5000000000002 0.78333333350000012 14.100000000000001 5.5000000000000009 11.500000000000002 787680.00000000012 25.833333335000003 6.5000000000000009 695692.50000000012 28.466668335000005 17.000000000000004 30.016665000000003 0.61666666650000013 1.4666668335000002 30.350000000000005 1980.5000000000002
decision_type=2 2 2 2 2 2 2 2 2 2 2 2 2 2 2 2 2
left_child=1 8 3 6 -4 7 -3 15 13 14 -11 -6 -12 16 -10 -5 -1
right_child=-2 2 4 5 11 -7 -8 -9 9 10 12 -13 -14 -15 -16 -17 -18
leaf_value=-0.0093878607894293965 0.02725428363985636 0.017859153879213743 0.024185298014940185 -0.00026515356531100614 0.0016359950254102133 -0.014703324943780899 0.00061521269381046304 -0.010531248915940525 -0.02145769358573792 0.002749529534485191 -0.015980954492336202 0.01354026506388826 -0.0032615258786827328 0.0015079390484300493 -0.0098855684348382062 0.010535180134077867 -0.0066707747226411656
leaf_weight=20 22 22 22 35 36 25 20 20 30 20 29 28 25 38 20 21 22
leaf_count=20 22 22 22 35 36 25 20 20 30 20 29 28 25 38 20 21 22
internal_value=0 -0.00138474 0.00440636 0.000272419 0.0112802 -0.00362623 0.00964775 1.75451e-05 -0.00788554 -0.0107374 -0.00662156 0.00684411 -0.0100923 -0.00346516 -0.0168288 0.00378497 -0.00796463
internal_weight=0 433 229 143 86 101 42 76 204 124 74 64 54 80 50 56 42
internal_count=455 433 229 143 86 101 42 76 204 124 74 64 54 80 50 56 42
is_linear=0
shrinkage=0.05


Tree=34
num_leaves=19
num_cat=0
split_feature=10 2 7 0 4 0 5 5 1 1 10 2 3 10 9 5 3 7
split_gain=6.19902 5.88784 2.36422 4.22703 2.15214 1.72 1.51619 1.51458 1.13072 1.01672 0.741387 0.701173 0.662706 0.465266 0.448151 0.354029 0.205209 0.0977681
threshold=50.000000000000007 1989.5000000000002 0.78333333350000012 4.5000000000000009 14.100000000000001 11.500000000000002 26.500000000000004 13.666666665000003 787680.00000000012 539196.00000000012 12.000000000000002 1974.5000000000002 30.350000000000005 9.5000000000000018 7.3500000000000005 10.333331665000001 30.283333335000005 0.81666650000000007
decision_type=2 2 2 2 2 2 2 2 2 2 2 2 2 2 2 2 2 2
left_child=1 9 4 -4 8 6 12 10 -3 -1 -5 13 -6 -11 15 -13 17 -16
right_child=-2 2 3 7 5 -7 -8 -9 -10 11 -12 14 -14 -15 16 -17 -18 -19
leaf_value=-0.017934887483716012 0.025891569872725419 0.016681733451938876 0.03059183322824538 0.0026026030234061184 -0.00025189587380737067 -0.014961865282832429 -0.011335135733878073 -0.0056545497844732989 0.00058445188216865067 -0.017414731350505638 0.01540731258260516 -0.012638223191723228 0.010673733249954555 -0.0067588884157885332 -0.0023949255967246636 -0.0042236081976443534 -0.0056659023098958039 0.0020592073126780718
leaf_weight=22 22 24 20 20 35 26 22 24 20 21 26 25 23 20 28 25 30 22
leaf_count=22 22 24 20 20 35 26 22 24 20 21 26 25 23 20 28 25 30 22
internal_value=0 -0.00131551 0.00391299 0.0103197 6.89911e-05 -0.00378964 -0.000158668 0.00452761 0.00936479 -0.00781727 0.00984005 -0.00651559 0.00408068 -0.0122168 -0.00471752 -0.00843092 -0.00239666 -0.000435107
internal_weight=0 433 240 90 150 106 80 70 44 193 46 171 58 41 130 50 80 50
internal_count=455 433 240 90 150 106 80 70 44 193 46 171 58 41 130 50 80 50
is_linear=0
shrinkage=0.05


Tree=35
num_leaves=18
num_cat=0
split_feature=10 2 4 4 5 0 8 0 1 3 3 2 4 8 9 1 1
split_gain=5.59461 5.3328 2.07008 2.18584 1.92611 1.37495 1.02502 0.900923 1.06102 0.86779 0.782106 0.590348 0.552777 0.546894 0.450773 0.412991 0.978403
threshold=50.000000000000007 1990.5000000000002 16.616665000000005 14.100000000000001 11.166665000000002 7.5000000000000009 1.3666668335000003 6.5000000000000009 695692.50000000012 28.466668335000005 30.016665000000003 1984.5000000000002 14.616666665000002 1.4166665000000001 6.8166666665000006 426255.00000000006 622197.50000000012
decision_type=2 2 2 2 2 2 2 2 2 2 2 2 2 2 2 2 2
left_child=1 7 3 5 15 -3 -6 11 13 -10 -11 12 -1 -9 -7 -5 -17
right_child=-2 2 -4 4 6 14 -8 8 9 10 -12 -13 -14 -15 -16 16 -18
leaf_value=-0.010353012148601314 0.024596992539326578 -0.0005418185470625758 0.018214551833174799 0.0085562614219573639 -0.014624429410644646 0.020325361702337185 -0.0014417748836179575 -0.01987421634317986 0.0029011309582710966 -0.01487802539647011 -0.0028101569395512344 0.0039820269919635561 -0.00058470066537016213 -0.0092792924803992115 0.0099537220364436518 -0.0066028450959888492 0.0069169875336228875
leaf_weight=30 22 20 23 30 29 22 30 29 20 29 25 22 28 21 20 23 32
leaf_count=30 22 20 23 30 29 22 30 29 20 29 25 22 28 21 20 23 32
internal_value=0 -0.00124973 0.00398749 0.00239903 -0.000980526 0.0102483 -0.00792138 -0.00712877 -0.00979767 -0.00599587 -0.00929105 -0.00299197 -0.00563728 -0.0154243 0.0153865 0.00383725 0.00126324
internal_weight=0 433 229 206 144 62 59 204 124 74 54 80 58 50 42 85 55
internal_count=455 433 229 206 144 62 59 204 124 74 54 80 58 50 42 85 55
is_linear=0
shrinkage=0.05


Tree=36
num_leaves=19
num_cat=0
split_feature=1 7 9 5 1 1 9 1 0 0 6 8 7 9 10 1 4 3
split_gain=5.09413 4.40647 2.22781 1.52339 1.28307 1.79636 1.08005 0.891856 0.981547 0.954556 1.01124 0.71309 0.583466 0.701604 0.372194 0.313186 0.184399 0.0277956
threshold=236715.00000000003 0.95000000000000007 6.8385057470000001 1.0000000180025095e-35 736935.00000000012 334722.50000000006 7.366666833500001 546577.50000000012 2.5000000000000004 4.5000000000000009 76.416666665000022 1.2833335000000001 0.81666650000000007 7.3072578000000012 6.5000000000000009 724942.50000000012 14.716666665000002 29.650000000000002
decision_type=2 2 2 2 2 2 2 2 2 2 2 2 2 2 2 2 2 2
left_child=1 -1 4 -4 5 -2 12 -8 -9 -10 16 -7 13 15 -12 17 -11 -5
right_child=2 -3 3 6 -6 11 7 8 9 10 14 -13 -14 -15 -16 -17 -18 -19
leaf_value=0.0024111605594279591 -0.0034739046102567092 0.033375888180453332 0.0090212128357961777 -0.0061678582965396349 -0.0028584464391889545 0.021272898252354937 -0.010487641367529121 -0.00989093336975202 0.0088901671827382716 -0.0033456706802826378 -0.0005308556303914104 0.0087149243909292497 -0.015969661216844212 -0.014738786466081033 0.0089997831522487109 -0.00084949443553341555 -0.0099102185836628734 -0.0088039333492633889
leaf_weight=27 21 20 21 20 38 20 28 24 30 20 21 26 22 22 20 32 23 20
leaf_count=27 21 20 21 20 38 20 28 24 30 20 21 26 22 22 20 32 23 20
internal_value=0 0.0155876 -0.00179564 -0.0039706 0.0044807 0.00864319 -0.00493808 -0.0023514 -0.000700566 0.00123425 -0.00150001 0.0141749 -0.0086397 -0.00692418 0.00411824 -0.00453638 -0.00685694 -0.0074859
internal_weight=0 47 408 303 105 67 282 166 138 114 84 46 116 94 41 72 43 40
internal_count=455 47 408 303 105 67 282 166 138 114 84 46 116 94 41 72 43 40
is_linear=0
shrinkage=0.05


Tree=37
num_leaves=18
num_cat=0
split_feature=10 2 6 0 4 5 1 2 2 6 7 10 9 5 5 8 1
split_gain=4.87688 4.49812 2.08698 1.72997 2.24576 1.76507 0.799433 0.633967 0.591867 0.523876 0.46493 0.418185 0.350286 0.308601 0.172957 0.128208 0.174565
threshold=50.000000000000007 1989.5000000000002 82.833333335000006 3.5000000000000004 14.100000000000001 11.166665000000002 539196.00000000012 2002.5000000000002 1974.5000000000002 78.500000000000014 0.58333333350000005 9.5000000000000018 7.3500000000000005 10.333331665000001 2.8333333335000002 1.1666668335000001 777170.00000000012
decision_type=2 2 2 2 2 2 2 2 2 2 2 2 2 2 2 2 2
left_child=1 6 3 -3 7 9 -1 -5 11 -6 -7 -8 13 -10 -11 -14 -17
right_child=-2 2 -4 4 5 10 8 -9 12 14 -12 -13 15 -15 -16 16 -18
leaf_value=-0.015821276448497717 0.022965086933056062 0.015101435482501986 -0.010918383770014931 0.0060069236727752565 -0.00059289223115359044 -0.0023459018208086494 -0.015861401653715544 0.016554742830339818 -0.011254578501917422 0.011612165477126839 -0.01141228091812903 -0.0057590707234339792 0.00059248076751828194 -0.0033983599282801156 0.0050365036453877115 -0.0005876997336745262 -0.0064964267257601018
leaf_weight=22 22 35 23 29 28 26 21 28 25 20 31 20 30 25 20 25 25
leaf_count=22 22 35 23 29 28 26 21 28 25 20 31 20 30 25 20 25 25
internal_value=0 -0.00116682 0.00340316 0.00492112 0.00296336 -0.000787214 -0.00684969 0.0111883 -0.00569546 0.00465254 -0.00727674 -0.0109334 -0.00404348 -0.00732647 0.00832433 -0.00199161 -0.00354206
internal_weight=0 433 240 217 182 125 193 57 171 68 57 41 130 50 40 80 50
internal_count=455 433 240 217 182 125 193 57 171 68 57 41 130 50 40 80 50
is_linear=0
shrinkage=0.05


Tree=38
num_leaves=18
num_cat=0
split_feature=10 2 7 10 4 2 3 1 0 1 3 3 8 7 3 3 4
split_gain=4.40139 4.06075 1.87505 1.77251 1.45135 1.43217 1.27973 0.885767 0.745554 0.880467 0.7367 0.680602 0.592904 0.592818 0.508173 0.182645 0.0270018
threshold=50.000000000000007 1990.5000000000002 0.78333333350000012 6.5000000000000009 14.100000000000001 1998.5000000000002 29.583333335000003 787680.00000000012 6.5000000000000009 695692.50000000012 28.466668335000005 30.016665000000003 1.3166666665000002 0.61666666650000013 29.850000000000005 30.050000000000004 14.483333335000003
decision_type=2 2 2 2 2 2 2 2 2 2 2 2 2 2 2 2 2
left_child=1 8 4 -4 7 -6 -5 -3 13 14 -11 -12 15 16 -10 -7 -1
right_child=-2 2 3 6 5 12 -8 -9 9 10 11 -13 -14 -15 -16 -17 -18
leaf_value=-0.0077782433056695901 0.021816831852563404 0.014687512764199216 0.019906851489752256 0.014722889713011684 -0.011295702111803824 0.0010569153400138021 -0.00083347043344894275 0.00014872856670990588 -0.018260260039408293 0.002994222206034465 -0.01345122455587161 -0.0021936557563021777 -0.0055404685183682231 0.002049577534260032 -0.0081054796126078486 0.0075901634019354116 -0.0052398186112986881
leaf_weight=22 22 22 27 20 36 20 39 20 28 20 29 25 22 38 22 23 20
leaf_count=22 22 22 27 20 36 20 39 20 28 20 29 25 22 38 22 23 20
internal_value=0 -0.00110848 0.00346163 0.00929578 -4.70186e-05 -0.00329528 0.00443987 0.00776428 -0.00623865 -0.00866653 -0.00520328 -0.00823939 0.00113572 -0.00247542 -0.0137922 0.00455144 -0.00656947
internal_weight=0 433 229 86 143 101 59 42 204 124 74 54 65 80 50 43 42
internal_count=455 433 229 86 143 101 59 42 204 124 74 54 65 80 50 43 42
is_linear=0
shrinkage=0.05


Tree=39
num_leaves=17
num_cat=0
split_feature=4 5 9 3 3 6 3 4 10 10 10 10 0 6 7 8
split_gain=4.12681 1.53592 1.06072 1.17039 1.091 0.865432 0.800385 0.945773 0.910697 0.760826 0.820728 1.65933 0.848344 0.735116 0.589298 0.518361
threshold=17.150000000000002 0.83333333350000005 6.8385057470000001 29.116665000000005 28.383333335000003 78.166666665000022 30.416665000000005 15.283333335000002 36.000000000000007 17.000000000000004 8.0000000000000018 5.0000000000000009 6.5000000000000009 75.500000000000014 0.55000000000000016 1.1166666665000002
decision_type=2 2 2 2 2 2 2 2 2 2 2 2 2 2 2 2
left_child=1 5 6 4 -4 -1 7 8 -3 10 11 14 -12 -11 -5 -6
right_child=-2 2 3 9 15 -7 -8 -9 -10 13 12 -13 -14 -15 -16 -17
leaf_value=-0.0010264353531126221 0.021647448190266178 0.0085578643763437861 -0.00046135271619752294 -0.012902855885807763 -0.019597259056310923 0.010750279925429287 0.0095062976754787896 -0.0098168929154053338 -0.0052163365436717866 -0.0034156622835839895 -0.0023271267946042558 0.0070581044285343252 -0.013580871974541385 0.0085541338691937519 -0.0011930195465018707 -0.0091231938089347542
leaf_weight=26 21 30 23 22 21 39 27 20 20 23 34 39 33 29 21 27
leaf_count=26 21 30 23 22 21 39 27 20 20 23 34 39 33 29 21 27
internal_value=0 -0.00104746 -0.00229585 -0.00389673 -0.00941521 0.00603959 0.00219321 -0.000627552 0.00304818 -0.00194742 -0.00376471 -0.000410368 -0.00787002 0.0032598 -0.0071841 -0.0137056
internal_weight=0 434 369 272 71 65 97 70 50 201 149 82 67 52 43 48
internal_count=455 434 369 272 71 65 97 70 50 201 149 82 67 52 43 48
is_linear=0
shrinkage=0.05


Tree=40
num_leaves=17
num_cat=0
split_feature=10 2 6 3 5 7 0 9 1 1 2 10 3 0 10 7
split_gain=3.85107 3.52302 1.8579 1.82073 1.62836 0.87407 0.945636 0.812024 0.663681 0.630456 0.501349 0.375763 0.324303 0.588427 0.889543 0.274734
threshold=50.000000000000007 1989.5000000000002 82.833333335000006 30.816665000000004 11.166665000000002 0.78333333350000012 7.5000000000000009 6.983333333500001 383118.00000000006 539196.00000000012 1974.5000000000002 9.5000000000000018 28.466668335000005 6.5000000000000009 8.0000000000000018 0.61666666650000013
decision_type=2 2 2 2 2 2 2 2 2 2 2 2 2 2 2 2
left_child=1 9 3 4 5 6 -3 -6 -7 -1 11 -11 -12 15 -15 -14
right_child=-2 2 -4 -5 7 8 -8 -9 -10 10 12 -13 13 14 -16 -17
leaf_value=-0.014033392546910115 0.020407387532759461 -0.0037641043770903098 -0.010505112361810778 0.014224313547870574 0.0018642575001797162 0.0056875724671408539 0.0084151864051818844 -0.0086110954147738377 0.018568573556840422 -0.014533335684488217 0.001727565388137009 -0.0049571165344968905 -0.004154035745887086 -0.0028255993107865964 -0.015174405675148592 0.0035814605886116627
leaf_weight=22 22 30 23 39 37 20 34 37 20 21 24 20 24 35 25 22
leaf_count=22 22 30 23 39 37 20 34 37 20 21 24 20 24 35 25 22
internal_value=0 -0.00103686 0.00300756 0.00443978 0.00229597 0.00632996 0.00270614 -0.00337342 0.0121281 -0.0060662 -0.00504118 -0.00986201 -0.00352076 -0.00470906 -0.00797094 -0.000454451
internal_weight=0 433 240 217 178 104 64 74 40 193 171 41 130 106 60 46
internal_count=455 433 240 217 178 104 64 74 40 193 171 41 130 106 60 46
is_linear=0
shrinkage=0.05


Tree=41
num_leaves=17
num_cat=0
split_feature=4 2 1 2 4 10 8 6 2 4 3 10 4 3 10 8
split_gain=3.64445 4.15522 1.00289 0.78073 0.751455 0.510991 1.15211 0.43259 0.571171 0.673326 0.728258 0.462507 0.384477 0.245702 0.190116 0.0954475
threshold=17.150000000000002 1999.5000000000002 334722.50000000006 1974.5000000000002 13.950000000000001 9.5000000000000018 1.2833335000000001 81.500000000000014 1987.5000000000002 14.316666665000001 30.116666665000004 6.5000000000000009 14.816666665000001 29.116665000000005 9.5000000000000018 1.1666668335000001
decision_type=2 2 2 2 2 2 2 2 2 2 2 2 2 2 2 2
left_child=1 2 -1 13 -3 6 -6 8 11 -10 -11 -5 -7 -4 -13 -16
right_child=-2 4 3 7 5 12 -8 -9 9 10 -12 14 -14 -15 15 -17
leaf_value=-0.015251892646774651 0.02034303066098974 0.012303782821233783 -0.012961018531117589 0.0011090988503588786 0.0059989090770100938 0.0031742130561421313 -0.0083110522309487508 -0.0094568417221307759 0.0064023557166266887 -0.0085899047935381525 0.0031510027790708204 -0.0095915684664550308 0.012034085225313903 -0.0055257737287320204 -0.0024217680953683911 -0.0065144850523211062
leaf_weight=20 21 35 25 31 39 24 22 20 37 25 28 26 25 20 29 28
leaf_count=20 21 35 25 31 39 24 22 20 37 25 28 26 25 20 29 28
internal_value=0 -0.00098434 -0.00444977 -0.00364664 0.00592262 0.00389225 0.000837939 -0.00243931 -0.00175131 0.00122631 -0.00238716 -0.00410207 0.00769456 -0.00965647 -0.00604841 -0.00443223
internal_weight=0 434 289 269 145 110 61 224 204 90 53 114 49 45 83 57
internal_count=455 434 289 269 145 110 61 224 204 90 53 114 49 45 83 57
is_linear=0
shrinkage=0.05


Tree=42
num_leaves=18
num_cat=0
split_feature=10 2 4 4 5 0 9 0 7 10 0 3 9 7 10 4 4
split_gain=3.44693 2.89241 1.50884 1.49294 1.60007 0.91951 0.630946 0.604181 0.71534 0.48778 0.474024 0.551898 0.470532 0.445762 0.30287 0.277401 0.0315435
threshold=50.000000000000007 1990.5000000000002 16.616665000000005 14.316666665000001 11.166665000000002 7.5000000000000009 6.8166666665000006 6.5000000000000009 0.86666683350000007 8.0000000000000018 12.500000000000002 29.783333335000005 7.6833335000000007 0.61666666650000013 5.0000000000000009 14.983333335000003 14.483333335000003
decision_type=2 2 2 2 2 2 2 2 2 2 2 2 2 2 2 2 2
left_child=1 7 3 5 14 -3 -7 13 10 -6 11 -9 -10 16 -5 -16 -1
right_child=-2 2 -4 4 9 6 -8 8 12 -11 -12 -13 -14 -15 15 -17 -18
leaf_value=-0.0067795794160867284 0.019306920222218402 -0.00059805019944906244 0.015022378688192237 -0.0022197986642519636 -0.0023261368718175664 0.016522401030390307 0.0051536261023062725 -0.011680664936284302 -0.018422531767282636 -0.012074065818028017 0.0014297928322445264 -0.0022409349179361017 -0.0075766613008454442 0.0020008543904527633 0.0011276680544984562 0.0081135177720959 -0.0040359634836204345
leaf_weight=22 22 25 23 21 21 26 23 32 20 33 22 30 20 38 27 30 20
leaf_count=22 22 25 23 21 21 26 23 32 20 33 22 30 20 38 27 30 20
internal_value=0 -0.000980952 0.00287608 0.00151994 -0.00166709 0.00720493 0.011186 -0.00531066 -0.00749627 -0.0082832 -0.00487564 -0.00711305 -0.0129996 -0.00192297 0.00291329 0.00480443 -0.0054731
internal_weight=0 433 229 206 132 74 49 204 124 54 84 62 40 80 78 57 42
internal_count=455 433 229 206 132 74 49 204 124 54 84 62 40 80 78 57 42
is_linear=0
shrinkage=0.05


Tree=43
num_leaves=17
num_cat=0
split_feature=4 0 0 0 7 0 5 0 10 10 0 1 3 6 6 10
split_gain=3.14957 1.31334 1.39228 1.80062 1.54345 1.70435 1.19981 1.18745 1.07662 0.67331 1.20748 0.962002 0.576986 0.492453 0.444528 0.403988
threshold=17.150000000000002 1.5000000000000002 4.5000000000000009 7.5000000000000009 0.51666666650000004 10.000000000000002 2.1666665000000003 6.5000000000000009 9.5000000000000018 17.000000000000004 11.500000000000002 1045747.5000000001 29.650000000000002 78.833333335000006 75.500000000000014 27.000000000000004
decision_type=2 2 2 2 2 2 2 2 2 2 2 2 2 2 2 2
left_child=1 -1 8 7 5 -5 -6 12 -3 10 -8 -11 -4 -12 -10 -7
right_child=-2 2 3 4 6 15 9 -9 14 11 13 -13 -14 -15 -16 -17
leaf_value=-0.013112798412995681 0.018911469408443998 0.014736486089658801 0.00073905439203372227 0.017714030340151943 0.0058727023877306953 -0.0018559079939116014 -0.00049303941812147117 -0.015983701326573889 -0.0040811432665213941 0.0058534251890766126 -0.0077540347840459574 -0.0071558467503227462 -0.0095166647806763649 -0.01858227433902877 0.0051281607947251031 0.0070997285004705188
leaf_weight=21 21 23 32 23 36 34 34 30 20 30 21 27 24 21 38 20
leaf_count=21 21 23 32 23 36 34 34 30 20 30 21 27 24 21 38 20
internal_value=0 -0.000915071 -0.000294848 -0.00172879 0.000448385 0.0063158 -0.00222493 -0.00795653 0.00558255 -0.00441677 -0.00749771 -0.000308862 -0.00365625 -0.0131682 0.00195254 0.00146099
internal_weight=0 434 413 332 246 77 169 86 81 133 76 57 56 42 58 54
internal_count=455 434 413 332 246 77 169 86 81 133 76 57 56 42 58 54
is_linear=0
shrinkage=0.05


Tree=44
num_leaves=18
num_cat=0
split_feature=10 2 7 10 3 4 2 0 0 7 5 2 9 0 3 4 5
split_gain=2.9705 2.56094 1.38581 1.50518 1.14226 1.08213 1.12115 0.555227 0.514932 0.61296 0.443173 0.440152 0.41801 0.414019 0.469088 0.393483 0.114304
threshold=50.000000000000007 1990.5000000000002 0.78333333350000012 6.5000000000000009 29.583333335000003 14.100000000000001 1998.5000000000002 10.000000000000002 6.5000000000000009 0.86666683350000007 6.6666668335000017 1984.5000000000002 7.6833335000000007 12.500000000000002 29.783333335000005 14.616666665000002 5.6666668335000017
decision_type=2 2 2 2 2 2 2 2 2 2 2 2 2 2 2 2 2
left_child=1 8 5 -4 -5 10 -7 16 11 13 -3 15 -11 14 -10 -1 -8
right_child=-2 2 3 4 -6 6 7 -9 9 12 -12 -13 -14 -15 -16 -17 -18
leaf_value=-0.0081200305783810708 0.017923048993741926 0.0015501755162734877 0.017512462367476136 0.012974494138034059 -0.001722568001236934 -0.010181141927346794 0.0067246313757178466 -0.005426751648116371 -0.010878608912753407 -0.017208067898172887 0.011834005552809687 0.0041646140786311169 -0.0069854263984598227 0.0013162584615532648 -0.0021758395764239443 0.00012148777568654623 0.0015018932241946459
leaf_weight=30 22 22 27 20 39 36 22 23 32 20 20 22 20 22 30 28 20
leaf_count=30 22 22 27 20 39 36 22 23 32 20 20 22 20 22 30 28 20
internal_value=0 -0.00091064 0.00271866 0.00773426 0.00325949 -0.000297711 -0.00310254 0.000817915 -0.00498471 -0.00700244 0.00644724 -0.00185722 -0.0120967 -0.00457658 -0.00666759 -0.00414137 0.00423761
internal_weight=0 433 229 86 59 143 101 65 204 124 42 80 40 84 62 58 42
internal_count=455 433 229 86 59 143 101 65 204 124 42 80 40 84 62 58 42
is_linear=0
shrinkage=0.05


Tree=45
num_leaves=18
num_cat=0
split_feature=1 7 2 10 0 0 1 1 2 6 6 3 7 3 3 2 5
split_gain=2.78547 4.23116 2.11134 1.00816 0.66162 0.588101 0.862691 0.805272 0.706511 0.553863 0.515346 0.431051 0.371737 0.322639 0.463528 0.419908 0.225252
threshold=236715.00000000003 0.91666650000000016 1998.5000000000002 5.0000000000000009 5.5000000000000009 4.5000000000000009 729415.00000000012 608262.50000000012 1981.5000000000002 79.333331665000017 79.833333335000006 29.866668335000004 0.7166666665000001 28.916666665000005 28.383333335000003 1988.5000000000002 10.500000000000002
decision_type=2 2 2 2 2 2 2 2 2 2 2 2 2 2 2 2 2
left_child=1 -1 5 -4 -5 6 8 12 -2 -6 13 -11 -7 14 -9 16 -15
right_child=2 -3 3 4 9 7 -8 10 -10 11 -12 -13 -14 15 -16 -17 -18
leaf_value=-0.0025467418804764747 -0.0018968108424451203 0.02751867490481924 -0.0051668359339237212 0.011873003829598681 -0.0028838030605887375 -0.0068780704291254687 -0.0062244706952403637 -0.0031985796010121706 0.011234155181972754 0.0024061426801350099 0.0021421170356034332 0.011812268286233857 -0.015563319826667961 -0.0086983737474872255 -0.013963430486619473 0.0026242529042065144 -0.0024516076735791661
leaf_weight=25 20 22 25 33 24 28 31 20 21 29 33 21 22 27 20 23 31
leaf_count=25 20 22 25 33 24 28 31 20 21 29 33 21 22 27 20 23 31
internal_value=0 0.0115264 -0.0013278 0.0038732 0.00598536 -0.00381524 6.97563e-05 -0.00518641 0.00482881 0.00335979 -0.00339642 0.00635672 -0.0106996 -0.00490693 -0.00858101 -0.00309257 -0.00535958
internal_weight=0 47 408 132 107 276 72 204 41 74 154 50 50 121 40 81 58
internal_count=455 47 408 132 107 276 72 204 41 74 154 50 50 121 40 81 58
is_linear=0
shrinkage=0.05


Tree=46
num_leaves=17
num_cat=0
split_feature=4 2 4 3 7 9 9 10 0 7 0 8 8 8 8 0
split_gain=2.72528 2.76725 0.602567 0.586738 1.04968 0.611914 0.53717 0.583121 0.359266 0.973924 0.735474 0.569216 0.342893 0.301658 0.160854 0.126514
threshold=17.150000000000002 1999.5000000000002 13.950000000000001 29.183333335000004 0.86666683350000007 7.3107060755000015 7.495000000000001 9.5000000000000018 4.5000000000000009 0.48333333350000002 7.5000000000000009 1.1416666665000001 1.4500000000000002 1.2833335000000001 1.6666668335000001 10.000000000000002
decision_type=2 2 2 2 2 2 2 2 2 2 2 2 2 2 2 2
left_child=1 3 -3 4 5 15 7 13 9 -5 -10 -12 -13 -4 -14 -1
right_child=-2 2 6 8 -6 -7 -8 -9 10 -11 11 12 14 -15 -16 -17
leaf_value=-0.0029924814589321613 0.01759160521684126 0.010499494106375747 0.00080661356076598169 -0.0074256008934407008 -0.016216932731154172 -0.0099863881979567505 0.0092475481188068025 0.0054982051814500346 -0.010440880778866511 0.0060558313264738066 0.0033353345529911552 -0.0088182197382243779 0.0017359201144427064 -0.0074318933859467504 -0.0043355127461836675 0.0023697088324380194
leaf_weight=22 21 35 25 21 23 26 26 39 30 37 38 26 20 20 24 22
leaf_count=22 21 35 25 21 23 26 26 39 30 37 38 26 20 20 24 22
internal_value=0 -0.000851207 0.00478535 -0.00367924 -0.00694986 -0.00390496 0.00296722 0.0010233 -0.00212736 0.00117462 -0.00351515 -0.00159134 -0.00426582 -0.00285495 -0.00157577 -0.000311386
internal_weight=0 434 145 289 93 70 110 84 196 58 138 108 70 45 44 44
internal_count=455 434 145 289 93 70 110 84 196 58 138 108 70 45 44 44
is_linear=0
shrinkage=0.05


Tree=47
num_leaves=18
num_cat=0
split_feature=10 2 7 10 3 4 0 5 1 1 0 1 3 8 3 2 4
split_gain=2.56303 1.87548 1.14029 1.32581 1.05035 0.925458 1.04292 0.675704 0.631295 0.484291 0.426961 0.612534 0.586536 0.428591 0.404034 0.37043 0.344527
threshold=50.000000000000007 1990.5000000000002 0.78333333350000012 6.5000000000000009 29.583333335000003 14.100000000000001 11.500000000000002 25.833333335000003 787680.00000000012 518920.00000000006 6.5000000000000009 695692.50000000012 28.466668335000005 1.4166665000000001 30.016665000000003 1984.5000000000002 14.616666665000002
decision_type=2 2 2 2 2 2 2 2 2 2 2 2 2 2 2 2 2
left_child=1 10 5 -4 -5 8 7 9 -3 -7 15 13 -13 -12 -14 16 -1
right_child=-2 2 3 4 -6 6 -8 -9 -10 -11 11 12 14 -15 -16 -17 -18
leaf_value=-0.0073028843698800007 0.016648455294357104 0.01160612079230222 0.015986717362991638 0.011925937668420376 -0.0021674901879846285 0.0088997832685709013 -0.011928764384239912 -0.0080449726618826399 -0.0006678288779221475 -0.00080422215396538379 -0.014384122606334759 0.0040334660827647901 -0.010005704502189725 -0.0050048816239550006 -0.0013319524046964944 0.0040398403409529823 0.00040892299085888749
leaf_weight=30 22 22 27 20 39 20 25 20 20 36 29 20 29 21 25 22 28
leaf_count=30 22 22 27 20 39 20 25 20 20 36 29 20 29 21 25 22 28
internal_value=0 -0.00084588 0.00225996 0.00680963 0.00260994 -0.000476202 -0.00307005 -0.000155997 0.00576138 0.00266149 -0.00433234 -0.00616965 -0.00328101 -0.0104448 -0.00599008 -0.0014845 -0.00357994
internal_weight=0 433 229 86 59 143 101 76 42 56 204 124 74 50 54 80 58
internal_count=455 433 229 86 59 143 101 76 42 56 204 124 74 50 54 80 58
is_linear=0
shrinkage=0.05


Tree=48
num_leaves=18
num_cat=0
split_feature=4 2 1 2 4 9 1 1 6 10 1 10 0 2 4 1 8
split_gain=2.41422 2.31951 1.03804 0.55517 0.527097 0.490499 0.577934 0.61947 0.379943 0.357401 0.916797 0.622152 0.474089 0.364815 0.408676 0.207691 0.0741771
threshold=17.150000000000002 1999.5000000000002 368085.00000000006 1974.5000000000002 13.950000000000001 7.495000000000001 472240.00000000006 344048.00000000006 81.500000000000014 8.0000000000000018 811120.00000000012 9.5000000000000018 10.000000000000002 1987.5000000000002 14.15 732935.00000000012 1.1666668335000001
decision_type=2 2 2 2 2 2 2 2 2 2 2 2 2 2 2 2 2
left_child=1 2 -1 15 -3 6 7 -6 9 10 12 -11 -5 16 -15 -4 -13
right_child=-2 4 3 8 5 -7 -8 -9 -10 11 -12 13 -14 14 -16 -17 -18
leaf_value=-0.013829618133604527 0.016557254214283258 0.0097036367681409639 -0.010632405191659929 0.010147747732844437 -0.00069365273349178153 0.0086601427720429808 -0.0063821133647468838 0.0095160396265176438 -0.0080774036142975108 -0.0087522782571613795 -0.0058781879190355543 -0.0013381945627645173 0.00020951025903091899 0.0079453686252236363 -0.002041442090412602 -0.0037964283137262101 -0.0049461767958876284
leaf_weight=22 21 35 25 28 39 26 21 24 20 30 25 29 21 21 20 20 28
leaf_count=22 21 35 25 28 39 26 21 24 20 30 25 29 21 21 20 20 28
internal_value=0 -0.000801157 -0.00339032 -0.00253015 0.0043593 0.00265883 0.000801287 0.00319575 -0.00150365 -0.000852788 0.00191327 -0.00245191 0.0058885 -0.000523232 0.00307375 -0.00759419 -0.00311054
internal_weight=0 434 289 267 145 110 84 63 222 202 74 128 49 98 41 45 57
internal_count=455 434 289 267 145 110 84 63 222 202 74 128 49 98 41 45 57
is_linear=0
shrinkage=0.05


Tree=49
num_leaves=18
num_cat=0
split_feature=10 2 6 3 5 4 0 9 6 2 3 0 9 5 5 4 10
split_gain=2.33644 1.55693 1.08764 1.11434 0.960689 0.722223 0.597201 0.454292 0.402264 0.354708 0.323548 0.238453 0.217773 0.201167 0.18724 0.146415 0.175533
threshold=50.000000000000007 1990.5000000000002 82.833333335000006 30.816665000000004 11.166665000000002 14.316666665000001 13.500000000000002 7.495000000000001 77.500000000000014 1974.5000000000002 30.150000000000002 6.5000000000000009 7.8166666665000006 11.500000000000002 24.333331665000003 15.616665000000003 17.000000000000004
decision_type=2 2 2 2 2 2 2 2 2 2 2 2 2 2 2 2 2
left_child=1 7 3 4 6 -6 10 8 9 -1 11 -3 -9 -11 -7 16 -14
right_child=-2 2 -4 -5 5 14 -8 12 -10 13 -12 -13 15 -15 -16 -17 -18
leaf_value=-0.010395418966654689 0.015895492676645518 0.0027583998749437541 -0.0085476803720336073 0.011140966296402946 0.0045587695048501095 -0.0038783369486703086 0.010446382084240516 0.0023087765739406817 -0.012177948248775109 -0.0056181779540754083 0.0060519253586729374 -0.0047065390599891552 -0.0074569140092935419 0.00027113531491365926 -0.010261280064005405 0.00046366924758661885 -0.0017840793736589454
leaf_weight=20 22 23 22 36 21 27 30 26 23 29 30 20 25 29 20 22 30
leaf_count=20 22 23 22 36 21 27 30 26 23 29 30 20 25 29 20 22 30
internal_value=0 -0.000807623 0.00202219 0.00314556 0.00146231 -0.0031501 0.00450739 -0.00398422 -0.00636698 -0.0046535 0.00206671 -0.000713665 -0.00164773 -0.00267352 -0.00659448 -0.00298369 -0.00436264
internal_weight=0 433 229 207 171 68 103 204 101 78 73 43 103 58 47 77 55
internal_count=455 433 229 207 171 68 103 204 101 78 73 43 103 58 47 77 55
is_linear=0
shrinkage=0.05


Tree=50
num_leaves=18
num_cat=0
split_feature=4 0 0 0 7 0 5 0 5 10 10 0 1 6 5 1 6
split_gain=2.1666 1.01869 1.02845 1.31845 1.26875 1.35693 0.93607 0.9613 0.870439 0.753579 0.464093 0.928758 0.65741 0.60098 0.371597 0.340549 0.299795
threshold=17.150000000000002 1.5000000000000002 4.5000000000000009 7.5000000000000009 0.51666666650000004 10.000000000000002 24.333331665000003 6.5000000000000009 2.1666665000000003 9.5000000000000018 17.000000000000004 11.500000000000002 1045747.5000000001 78.833333335000006 15.166666665000003 736935.00000000012 75.500000000000014
decision_type=2 2 2 2 2 2 2 2 2 2 2 2 2 2 2 2 2
left_child=1 -1 9 6 5 -5 7 15 -6 -3 11 -10 -12 -13 -7 -4 -11
right_child=-2 2 3 4 8 14 -8 -9 10 16 12 13 -14 -15 -16 -17 -18
leaf_value=-0.011501633748412133 0.015685162331820244 0.012497176256273753 0.0048695182383415251 0.015907943934839946 0.0048912486785815824 -0.0021669129504927344 -0.016250375899253416 -0.012735984885754684 -0.00028740831938407876 -0.0031532863993197682 0.0046318242287573721 -0.005422782246023417 -0.0061224992593957323 -0.017384825824272067 0.0062210887797055359 -0.0038491640065331013 0.0044096271605475953
leaf_weight=21 21 23 21 23 36 31 20 21 34 20 30 21 27 21 23 24 38
leaf_count=21 21 23 21 23 36 31 20 21 34 20 30 21 27 21 23 24 38
internal_value=0 -0.000758959 -0.000212722 -0.00144515 0.000417862 0.00573758 -0.00677422 -0.00390266 -0.00200591 0.00483871 -0.00387282 -0.00643068 -0.000462329 -0.0114038 0.00140575 0.000219554 0.00180173
internal_weight=0 434 413 332 246 77 86 66 169 81 133 76 57 42 54 45 58
internal_count=455 434 413 332 246 77 86 66 169 81 133 76 57 42 54 45 58
is_linear=0
shrinkage=0.05


Tree=51
num_leaves=18
num_cat=0
split_feature=1 7 10 1 9 0 0 5 7 6 9 7 0 4 10 5 4
split_gain=2.0696 3.80949 0.958843 1.4432 1.52867 0.959898 0.537309 0.526732 0.363678 0.620646 0.28257 0.284185 0.266042 0.475469 0.478406 0.14865 0.112494
threshold=236715.00000000003 0.95000000000000007 5.0000000000000009 323063.00000000006 6.5416666665000003 3.5000000000000004 2.5000000000000004 0.83333333350000005 0.91666650000000016 80.500000000000014 7.1828571430000006 0.41666650000000011 5.5000000000000009 14.316666665000001 8.0000000000000018 13.166666665000003 14.483333335000003
decision_type=2 2 2 2 2 2 2 2 2 2 2 2 2 2 2 2 2
left_child=1 -1 10 -4 16 6 -6 -7 9 12 -2 -12 -9 15 -15 -14 -5
right_child=2 -3 3 4 5 7 -8 8 -10 -11 11 -13 13 14 -16 -17 -18
leaf_value=-0.0023159763465325041 -0.010791619977680966 0.026474937275052068 -0.01309080793056637 0.012267557040322572 0.00020450934852388775 0.0043611448828195188 0.010918461445719004 0.00046899430030448866 -0.0071818026200605517 0.0042012103929129595 -0.0080782205205072056 5.3520383135903452e-05 0.00059972965353799446 -0.0035307814101023338 -0.014336055610328913 -0.0047054993393628496 0.0071402535125937158
leaf_weight=27 25 20 20 20 22 29 25 33 39 34 22 21 31 21 20 23 23
leaf_count=27 25 20 20 20 22 29 25 33 39 34 22 21 31 21 20 23 23
internal_value=0 0.00993548 -0.00114453 -6.05293e-05 0.000753863 -0.000607728 0.00590342 -0.00193827 -0.00284714 -0.00180361 -0.00656452 -0.00410691 -0.00339864 -0.00474213 -0.00880165 -0.0016599 0.00952505
internal_weight=0 47 408 340 320 277 47 230 201 162 68 43 128 95 41 54 43
internal_count=455 47 408 340 320 277 47 230 201 162 68 43 128 95 41 54 43
is_linear=0
shrinkage=0.05


Tree=52
num_leaves=17
num_cat=0
split_feature=10 2 6 3 5 7 0 10 7 3 7 10 9 0 6 5
split_gain=2.00236 1.2865 1.10527 1.0457 0.876901 0.632371 0.55226 0.559827 0.404998 0.307408 0.848438 0.344189 0.180706 0.134166 0.154849 0.269495
threshold=50.000000000000007 1989.5000000000002 82.833333335000006 30.816665000000004 11.166665000000002 0.58333333350000005 7.5000000000000009 17.000000000000004 0.61666666650000013 29.116665000000005 0.81666650000000007 27.000000000000004 6.983333333500001 4.5000000000000009 76.166665000000009 10.500000000000002
decision_type=2 2 2 2 2 2 2 2 2 2 2 2 2 2 2 2
left_child=1 9 3 4 6 -6 8 -8 -3 10 11 -1 -7 -11 15 -15
right_child=-2 2 -4 -5 5 12 7 -9 -10 13 -12 -13 -14 14 -16 -17
leaf_value=-0.006497500975045466 0.014715252103368668 -0.0038492888544203237 -0.0087259882109482663 0.010216200645439901 0.0020293293308521454 -0.003884756767656654 0.0034885462209144065 0.013724780327174814 0.005408888398891404 0.00023788703470735959 -0.015114582045935094 0.0015752336870797951 -0.010606097052805127 -0.0090241390604363838 -0.00035543007751195031 -0.0018303350110848748
leaf_weight=31 22 27 23 39 34 20 34 22 21 38 20 23 20 23 28 30
leaf_count=31 22 27 23 39 34 20 34 22 21 38 20 23 20 23 28 30
internal_value=0 -0.000747657 0.00169636 0.00280103 0.00117636 -0.00298405 0.00413665 0.00750992 0.000201164 -0.00378685 -0.00631735 -0.00305911 -0.00724543 -0.00221326 -0.00336318 -0.00495217
internal_weight=0 433 240 217 178 74 104 56 48 193 74 54 40 119 81 53
internal_count=455 433 240 217 178 74 104 56 48 193 74 54 40 119 81 53
is_linear=0
shrinkage=0.05


Tree=53
num_leaves=19
num_cat=0
split_feature=10 2 6 0 0 0 5 5 1 9 7 9 3 10 3 9 7 6
split_gain=1.80713 1.16107 0.997511 1.018 2.01905 1.11865 0.888338 0.55704 0.357307 0.339743 0.436545 0.529018 0.276876 0.273726 0.54482 0.209612 0.128817 0.0781152
threshold=50.000000000000007 1989.5000000000002 82.833333335000006 4.5000000000000009 2.5000000000000004 7.5000000000000009 11.166665000000002 17.500000000000004 539196.00000000012 7.495000000000001 0.78333333350000012 7.3072578000000012 29.783333335000005 17.000000000000004 30.150000000000002 8.0500000000000025 0.96666683350000016 74.666668335000011
decision_type=2 2 2 2 2 2 2 2 2 2 2 2 2 2 2 2 2 2
left_child=1 8 3 4 -3 12 13 -8 -1 10 11 17 -5 14 -7 -11 -17 -10
right_child=-2 2 -4 5 -6 6 7 -9 9 15 -12 -13 -14 -15 -16 16 -18 -19
leaf_value=-0.0095953961241651668 0.013979489730925047 -0.0035463447682559492 -0.0082896886595889268 -0.002259260513396426 0.016830308173572825 -0.0013228477063504133 -0.0084082855793531069 0.0023643675535762066 -0.0019203334406483919 0.0022989636224034866 -0.011322996791984355 -0.0095199288767097261 -0.010285751261419916 0.010702639600882928 0.0095704285699563726 -0.0048643814592525883 0.0002776283926020066 0.0023430172121152283
leaf_weight=22 22 20 23 22 31 22 20 30 22 36 21 21 21 27 24 29 21 21
leaf_count=22 22 20 23 22 31 22 20 30 22 36 21 21 21 27 24 29 21 21
internal_value=0 -0.000710274 0.00161154 0.00266098 0.00883946 0.000762769 0.00318963 -0.00194469 -0.0035975 -0.00282585 -0.00506759 -0.00301504 -0.00617917 0.00670629 0.0043606 -0.000610165 -0.00270474 0.000161768
internal_weight=0 433 240 217 51 166 123 50 193 171 85 64 43 73 46 86 50 43
internal_count=455 433 240 217 51 166 123 50 193 171 85 64 43 73 46 86 50 43
is_linear=0
shrinkage=0.05


Tree=54
num_leaves=17
num_cat=0
split_feature=4 0 10 0 10 7 5 8 5 8 1 7 5 4 4 6
split_gain=1.83515 0.795085 0.798487 1.29949 1.06924 1.00306 0.70786 0.715971 0.657383 0.634432 0.613521 0.596523 0.515802 0.33448 0.230227 0.432872
threshold=17.150000000000002 1.5000000000000002 8.0000000000000018 10.000000000000002 9.5000000000000018 0.51666666650000004 0.83333333350000005 1.3500000000000003 20.166666665000005 1.2833335000000001 644915.00000000012 0.86666683350000007 26.500000000000004 14.183333335000002 14.250000000000002 76.166665000000009
decision_type=2 2 2 2 2 2 2 2 2 2 2 2 2 2 2 2
left_child=1 -1 3 5 8 -3 -6 11 -4 -5 -7 14 13 -9 15 -8
right_child=-2 2 4 9 6 10 7 12 -10 -11 -12 -13 -14 -15 -16 -17
leaf_value=-0.010189178501743647 0.014435622943121763 0.014730648131377097 -0.0039037396185076199 0.0017200380256399514 0.0065251841963104469 0.0079635785025512357 -0.0045452979315693176 0.0048587196443060582 -0.015053304320317692 -0.0100685537393604 -0.0026138556248042734 -0.010831635245510068 0.0093132970202714199 -0.0029666760781159006 -0.0052053875015938989 0.004252275922295541
leaf_weight=21 21 27 39 25 34 29 27 22 20 21 26 24 20 36 34 29
leaf_count=21 21 27 39 25 34 29 27 22 20 21 26 24 20 36 34 29
internal_value=0 -0.000698498 -0.000215921 0.00306463 -0.00168929 0.00683794 -0.000124495 -0.00130204 -0.00768325 -0.00366171 0.00296334 -0.00382763 0.0023892 1.57747e-06 -0.00195989 1.05885e-05
internal_weight=0 434 413 128 285 82 226 192 59 46 55 114 78 58 90 56
internal_count=455 434 413 128 285 82 226 192 59 46 55 114 78 58 90 56
is_linear=0
shrinkage=0.05


Tree=55
num_leaves=17
num_cat=0
split_feature=4 0 0 0 7 0 5 0 7 10 5 3 3 8 1 6
split_gain=1.65622 0.717564 0.748766 0.959831 0.975494 1.01575 0.760339 0.759601 0.699366 0.520833 0.43201 0.334028 0.382342 0.329573 0.307063 0.211969
threshold=17.150000000000002 1.5000000000000002 4.5000000000000009 7.5000000000000009 0.55000000000000016 10.000000000000002 24.333331665000003 6.5000000000000009 1.6666668335000001 9.5000000000000018 11.500000000000002 29.050000000000004 30.416665000000005 1.3166666665000002 736935.00000000012 75.500000000000014
decision_type=2 2 2 2 2 2 2 2 2 2 2 2 2 2 2 2
left_child=1 -1 9 6 5 -5 7 14 11 -3 -7 -6 13 -13 -4 -11
right_child=-2 2 3 4 8 10 -8 -9 -10 15 -12 12 -14 -15 -16 -17
leaf_value=-0.0096797196172355195 0.013713842010058994 0.010471927940987212 0.0048641614394173737 0.013342613090450565 -0.0072090361469562582 -0.0030877164324435097 -0.014344076889101415 -0.011067727749538054 0.006504514638245815 -0.0025862285820767283 0.0052025683809805547 0.0044423312221750109 -0.0061401249999603769 -0.0026766550617065986 -0.0034147727594245228 0.0037731318033030745
leaf_weight=21 21 23 21 24 39 30 20 21 21 20 33 29 33 37 24 38
leaf_count=21 21 23 21 24 39 30 20 21 21 20 33 29 33 37 24 38
internal_value=0 -0.000663573 -0.000205125 -0.0012567 0.000332868 0.00458938 -0.00580362 -0.0032156 -0.00199617 0.00410505 0.00125481 -0.00328975 -0.00174579 0.000451384 0.00044873 0.00158025
internal_weight=0 434 413 332 246 87 86 66 159 81 63 138 99 66 45 58
internal_count=455 434 413 332 246 87 86 66 159 81 63 138 99 66 45 58
is_linear=0
shrinkage=0.05


Tree=56
num_leaves=18
num_cat=0
split_feature=1 7 2 1 2 10 0 2 1 6 9 1 1 9 9 4 1
split_gain=1.61465 3.62676 0.840259 0.53781 0.54648 0.382654 0.56454 0.589916 0.47183 0.390648 0.3702 0.380557 0.290081 0.261402 0.672707 0.259622 0.0237253
threshold=236715.00000000003 0.95000000000000007 1998.5000000000002 323063.00000000006 2008.5000000000002 5.0000000000000009 4.5000000000000009 1979.5000000000002 644915.00000000012 79.833333335000006 6.6500000000000012 640114.00000000012 905302.50000000012 7.3072578000000012 7.5416666665000003 14.416666665000003 877497.50000000012
decision_type=2 2 2 2 2 2 2 2 2 2 2 2 2 2 2 2 2
left_child=1 -1 5 -4 10 12 7 -7 15 13 -5 -12 -2 -10 -15 -8 -13
right_child=2 -3 3 4 -6 6 8 -9 9 -11 11 16 -14 14 -16 -17 -18
leaf_value=-0.0031782467677085487 -0.011317842632997781 0.024913657065480949 -0.0048663244413381275 0.0070217365166172392 0.010551610733787327 -0.0041170401138846176 -0.0039753222259981879 0.0061711138230748476 0.0001325571318031163 0.0035591137306443575 -0.0054677691511725163 0.0039371240371838213 -0.0030843293784014155 -0.012318845115424623 -0.00087127663533795969 -0.011005622235825286 0.0015016931388527157
leaf_weight=27 20 20 22 25 23 22 29 38 37 29 22 20 23 21 33 24 20
leaf_count=27 20 20 22 25 23 22 29 38 37 29 22 20 23 21 33 24 20
internal_value=0 0.00877575 -0.00101093 0.00227013 0.00369742 -0.00258013 -0.00178035 0.00239879 -0.00322976 -0.00149441 0.00188539 -0.000185719 -0.00691387 -0.00310487 -0.00532311 -0.00715885 0.00271941
internal_weight=0 47 408 132 110 276 233 60 173 120 87 62 43 91 54 53 40
internal_count=455 47 408 132 110 276 233 60 173 120 87 62 43 91 54 53 40
is_linear=0
shrinkage=0.05


Tree=57
num_leaves=19
num_cat=0
split_feature=10 2 6 0 7 4 5 6 7 1 2 2 10 3 1 0 2 1
split_gain=1.55263 0.864088 0.826894 0.824711 1.609 1.14301 0.79204 0.308285 0.299739 0.298258 0.289521 0.281586 0.313174 0.24856 0.282309 0.144159 0.088352 0.0741131
threshold=50.000000000000007 1989.5000000000002 82.833333335000006 4.5000000000000009 0.75000000000000011 13.950000000000001 11.166665000000002 79.833333335000006 0.58333333350000005 539196.00000000012 2002.5000000000002 1974.5000000000002 9.5000000000000018 28.466668335000005 912545.00000000012 5.5000000000000009 1982.5000000000002 499487.00000000006
decision_type=2 2 2 2 2 2 2 2 2 2 2 2 2 2 2 2 2 2
left_child=1 9 3 4 -3 10 7 17 -8 -1 -5 12 -11 -13 15 -15 -17 -7
right_child=-2 2 -4 5 -6 6 8 -9 -10 11 -12 13 -14 14 -16 16 -18 -19
leaf_value=-0.008629044678739527 0.012957797580483287 0.00072779815884367117 -0.0076701585203409195 0.0033260730935422626 0.018917968329042197 0.001116535420508378 -0.0021433087308769644 0.0062176753087745361 -0.0096767516776679035 -0.010321594592893408 0.011259508586448173 0.0032900963696495945 -0.0015792074333876372 0.001899885698672264 -0.0064519739308646733 -0.0045128029822371898 -5.419359367806465e-05 -0.0030889480188488962
leaf_weight=22 22 31 23 23 20 22 23 24 31 21 23 24 20 31 30 25 20 20
leaf_count=22 22 31 23 23 20 22 23 24 31 21 23 24 20 31 30 25 20 20
internal_value=0 -0.000658364 0.00134462 0.00230011 0.0078612 0.000591578 -0.00197722 0.00169711 -0.00646806 -0.00314912 0.00729279 -0.00244411 -0.00605702 -0.00130465 -0.00234497 -0.000723783 -0.0025312 -0.000886076
internal_weight=0 433 240 217 51 166 120 66 54 193 46 171 41 130 106 76 45 42
internal_count=455 433 240 217 51 166 120 66 54 193 46 171 41 130 106 76 45 42
is_linear=0
shrinkage=0.05


Tree=58
num_leaves=17
num_cat=0
split_feature=4 2 1 2 1 4 2 5 10 10 10 2 2 1 8 5
split_gain=1.44828 1.095 1.0553 0.379088 0.378898 0.316898 0.371822 0.356355 0.293283 0.660631 0.436181 0.408956 0.378073 0.162305 0.143885 0.0422153
threshold=17.150000000000002 1999.5000000000002 363469.00000000006 1974.5000000000002 1092122.5000000002 13.950000000000001 2003.5000000000002 0.50000000000000011 5.0000000000000009 8.0000000000000018 9.5000000000000018 1987.5000000000002 1986.5000000000002 732935.00000000012 1.2833335000000001 10.500000000000002
decision_type=2 2 2 2 2 2 2 2 2 2 2 2 2 2 2 2
left_child=1 2 -1 13 8 -3 -7 -8 -5 12 -11 15 -10 -4 -9 -12
right_child=-2 5 3 4 -6 6 7 14 9 10 11 -13 -14 -15 -16 -17
leaf_value=-0.013193081705165761 0.012824061592774733 0.0070690333437440651 -0.0084257120937109003 -0.0039827603181995649 -0.0069386449896476484 0.0065813544896497801 0.0046123394759854785 -6.6923746004855894e-05 0.0019504295606166126 -0.0060541807906702161 -0.0036504082437604671 0.0047515376961815197 0.011173569702077658 -0.0023826429527252914 -0.0052029584422707562 -0.00071460263473757852
leaf_weight=21 21 35 25 38 22 28 27 30 25 32 25 37 20 20 25 24
leaf_count=21 21 35 25 38 22 28 27 30 25 32 25 37 20 20 25 24
internal_value=0 -0.000620519 -0.00239948 -0.00155372 -0.000708971 0.00292514 0.00160663 -9.2055e-05 -2.7116e-05 0.000895059 -0.00107066 0.000783677 0.0060496 -0.0057399 -0.00240148 -0.00221246
internal_weight=0 434 289 268 223 145 110 82 201 163 118 86 45 45 55 49
internal_count=455 434 289 268 223 145 110 82 201 163 118 86 45 45 55 49
is_linear=0
shrinkage=0.05


Tree=59
num_leaves=18
num_cat=0
split_feature=5 7 2 4 5 8 7 4 6 7 8 0 0 10 4 3 5
split_gain=1.45663 3.44237 0.88572 0.798379 0.561978 0.50818 0.553632 0.387238 0.744367 0.37818 0.337721 0.271835 0.540822 0.845669 0.184634 0.172492 0.0919459
threshold=33.166666665000008 0.85000000000000009 1998.5000000000002 16.616665000000005 43.500000000000007 1.3500000000000003 0.91666650000000016 14.250000000000002 76.833333335000006 0.75000000000000011 1.0416666665000003 13.500000000000002 10.000000000000002 8.0000000000000018 14.450000000000001 29.866668335000004 2.1666665000000003
decision_type=2 2 2 2 2 2 2 2 2 2 2 2 2 2 2 2 2
left_child=2 4 3 5 -2 6 7 8 -1 14 -9 12 13 -4 -7 -13 -15
right_child=1 -3 11 -5 -6 9 -8 10 -10 -11 -12 15 -14 16 -16 -17 -18
leaf_value=-0.0045825838882690836 0.0053079519812441016 0.023571751681378202 0.0079437118086561169 -0.012173566806384109 -0.0054575557967096022 0.0013947642111981457 -0.011491197066026785 -0.0016686461175559088 0.0064568396827850774 0.0051006918744833183 -0.0097335470443660477 0.007839249927550555 -0.0059875222714617857 -5.6187895825132732e-05 -0.0049466792746291812 0.0016094212967436761 -0.0047931890317981715
leaf_weight=37 22 21 37 22 27 22 21 25 26 33 27 25 25 20 24 20 21
leaf_count=37 22 21 37 22 27 22 21 25 26 33 27 25 25 20 24 20 21
internal_value=0 0.00663468 -0.00120631 -0.00310146 -0.000624063 -0.00217315 -0.00402584 -0.00266261 -2.66313e-05 0.0010163 -0.00585619 0.0018285 0.000412122 0.00246329 -0.00191381 0.00507044 -0.00248246
internal_weight=0 70 385 237 49 215 136 115 63 79 52 148 103 78 46 45 41
internal_count=455 70 385 237 49 215 136 115 63 79 52 148 103 78 46 45 41
is_linear=0
shrinkage=0.05


Tree=60
num_leaves=18
num_cat=0
split_feature=10 6 2 9 10 4 5 1 6 1 2 3 4 6 7 4 6
split_gain=1.439 0.666793 1.12805 0.611073 0.934779 0.85207 0.602801 0.526116 0.38785 0.328375 0.297658 0.280227 0.200768 0.206539 0.121604 0.103841 0.0331209
