tree
version=v3
num_class=1
num_tree_per_iteration=1
label_index=0
max_feature_idx=10
objective=regression
feature_names=Column_0 Column_1 Column_2 Column_3 Column_4 Column_5 Column_6 Column_7 Column_8 Column_9 Column_10
feature_infos=[1:18] [15540:1541410] [1969:2013] [26.833333329999999:32.366666670000001] [11.66666667:18.93333333] [0:107.66670000000001] [65:91.333333330000002] [0.033333333:5.8666669999999996] [0.366666667:2.8999999999999999] [3.9333333330000002:9.6999999999999993] [3:63]
tree_sizes=650 726 643 806 643 721 807 726 728 643 728 727 724 811 725 728 727 721 726 646 729 725 729 728 812 727 733 726 814 812 731 816 816 729 814 731 731 731 733 736 819 731 649 730 731 737 730 732 737 820 651 736 732 738 737 740 737 738 647 814 736 741 816 740 734 737 743 821 737 821 820 742 740 824 826 742 827 822 737 826 743 739 740 744 741 738 826 824 742 658 744 742 742 738 738 740 743 735 738

Tree=0
num_leaves=6
num_cat=0
split_feature=2 2 7 4 2
split_gain=176.877 24.0746 15.826 10.0259 8.66477
threshold=1999.5000000000002 1977.5000000000002 0.91666650000000016 15.950000000000001 1988.5000000000002
decision_type=2 2 2 2 2
left_child=1 -1 -2 4 -3
right_child=2 3 -4 -5 -6
leaf_value=-0.047797057064497966 0.030524693268157276 -0.031671152569197884 0.063228105358249895 0.0048243635413255772 -0.0095856359517718318
leaf_weight=71 94 85 61 52 93
leaf_count=71 94 85 61 52 93
internal_value=-1.39086e-09 -0.0223463 0.0433951 -0.0144898 -0.0201321
internal_weight=0 301 155 230 178
internal_count=456 301 155 230 178
is_linear=0
shrinkage=1


Tree=1
num_leaves=7
num_cat=0
split_feature=2 2 7 10 10 10
split_gain=159.885 19.4239 16.4318 15.1303 11.0915 3.79507
threshold=1998.5000000000002 1977.5000000000002 0.91666650000000016 17.000000000000004 8.0000000000000018 9.5000000000000018
decision_type=2 2 2 2 2 2
left_child=1 -1 5 4 -3 -2
right_child=2 3 -4 -5 -6 -7
leaf_value=-0.045407201853436489 0.017623337680873062 -0.011881881555000062 0.058805682202653281 0.0036496594102239949 -0.039651129613489371 0.036575277350842955
leaf_weight=71 56 79 63 71 66 50
leaf_count=71 56 79 63 71 66 50
internal_value=0 -0.0227193 0.0385824 -0.0152617 -0.0245217 0.0265629
internal_weight=0 287 169 216 145 106
internal_count=456 287 169 216 145 106
is_linear=0
shrinkage=0.05


Tree=2
num_leaves=6
num_cat=0
split_feature=2 2 10 7 10
split_gain=144.764 19.5258 14.1325 12.845 10.5814
threshold=1999.5000000000002 1977.5000000000002 17.000000000000004 0.91666650000000016 8.0000000000000018
decision_type=2 2 2 2 2
left_child=1 -1 4 -2 -3
right_child=3 2 -4 -5 -6
leaf_value=-0.043136842685266283 0.027663656324148179 -0.0098832756613514254 0.0045020798748163018 0.05712641622932231 -0.036204887933230831
leaf_weight=71 94 84 76 61 70
leaf_count=71 94 84 76 61 70
internal_value=0 -0.0202163 -0.0131408 0.0392587 -0.0218476
internal_weight=0 301 230 155 154
internal_count=456 301 230 155 154
is_linear=0
shrinkage=0.05


Tree=3
num_leaves=8
num_cat=0
split_feature=2 2 7 4 10 10 2
split_gain=130.85 16.0203 13.292 11.1079 7.60323 3.39299 2.92372
threshold=1998.5000000000002 1975.5000000000002 0.91666650000000016 15.983333335000003 17.000000000000004 9.5000000000000018 1988.5000000000002
decision_type=2 2 2 2 2 2 2
left_child=1 -1 5 4 6 -2 -3
right_child=2 3 -4 -5 -6 -7 -8
leaf_value=-0.045964911251383668 0.015640659008308182 -0.036129908489643557 0.053092608512157496 0.005860342010855675 -0.0078200611600678562 0.033560552312061197 -0.020155496697838386
leaf_weight=51 56 61 63 50 71 50 54
leaf_count=51 56 61 63 50 71 50 54
internal_value=0 -0.0205531 0.0349038 -0.0150616 -0.0206857 0.0240934 -0.0286289
internal_weight=0 287 169 236 186 106 115
internal_count=456 287 169 236 186 106 115
is_linear=0
shrinkage=0.05


Tree=4
num_leaves=6
num_cat=0
split_feature=2 2 7 8 2
split_gain=118.482 16.2531 10.4276 8.85144 4.33529
threshold=1999.5000000000002 1978.5000000000002 0.91666650000000016 1.5666668335000002 1988.5000000000002
decision_type=2 2 2 2 2
left_child=1 -1 -2 4 -3
right_child=2 3 -4 -5 -6
leaf_value=-0.037766082915536403 0.025069506994963804 -0.025244283851054386 0.051615465169803046 0.0062515888854654299 -0.0091757097625346905
leaf_weight=79 94 82 61 54 86
leaf_count=79 94 82 61 54 86
internal_value=0 -0.0182893 0.0355166 -0.0113584 -0.0170187
internal_weight=0 301 155 222 168
internal_count=456 301 155 222 168
is_linear=0
shrinkage=0.05


Tree=5
num_leaves=7
num_cat=0
split_feature=2 4 2 2 0 3
split_gain=107.034 13.4121 11.0417 10.8523 3.52532 1.27112
threshold=1998.5000000000002 16.041666665000005 1988.5000000000002 2007.5000000000002 6.5000000000000009 30.050000000000004
decision_type=2 2 2 2 2 2
left_child=1 2 4 5 -1 -2
right_child=3 -3 -4 -5 -6 -7
leaf_value=-0.021887213818467501 0.016128653695560852 0.0049436694404575978 -0.009252855150830434 0.047594737144043817 -0.037647210432097636 0.02718616691874523
leaf_weight=57 53 50 86 65 94 51
leaf_count=57 53 50 86 65 94 51
internal_value=0 -0.0185887 -0.0235534 0.0315679 -0.0316981 0.0215511
internal_weight=0 287 237 169 151 104
internal_count=456 287 237 169 151 104
is_linear=0
shrinkage=0.05


Tree=6
num_leaves=8
num_cat=0
split_feature=2 10 2 10 10 3 3
split_gain=96.9327 14.5704 11.4305 10.1225 4.80349 4.47064 3.59048
threshold=1999.5000000000002 17.000000000000004 1988.5000000000002 17.000000000000004 6.5000000000000009 29.216666665000002 30.283333335000005
decision_type=2 2 2 2 2 2 2
left_child=1 2 4 6 -1 -3 -2
right_child=3 5 -4 -5 -6 -7 -8
leaf_value=-0.022398882777430119 0.013978707963460178 -0.011518337875371799 -0.0099381567376506767 0.050107871031818491 -0.04275112782699475 0.009625541158718989 0.03265719705633819
leaf_weight=50 53 50 82 52 69 50 50
leaf_count=50 53 50 82 52 69 50 50
internal_value=0 -0.0165427 -0.024302 0.0321248 -0.0341998 -0.000946398 0.0230459
internal_weight=0 301 201 155 119 100 103
internal_count=456 301 201 155 119 100 103
is_linear=0
shrinkage=0.05


Tree=7
num_leaves=7
num_cat=0
split_feature=1 7 6 0 4 3
split_gain=65.5344 20.0099 12.1888 13.4808 6.49179 4.2646
threshold=461489.50000000006 0.95000000000000007 76.833333335000006 6.5000000000000009 14.100000000000001 30.050000000000004
decision_type=2 2 2 2 2 2
left_child=1 -1 3 -2 -4 -6
right_child=2 -3 4 -5 5 -7
leaf_value=0.014512353592634766 -0.0063045900523368463 0.054931638747453694 0.012279783004459414 -0.035206643260235704 -0.019402959301435162 6.117284123320132e-05
leaf_weight=79 76 50 52 86 53 60
leaf_count=79 76 50 52 86 53 60
internal_value=0 0.0301787 -0.0119054 -0.0216477 -0.00234023 -0.00906802
internal_weight=0 129 327 162 165 113
internal_count=456 129 327 162 165 113
is_linear=0
shrinkage=0.05


Tree=8
num_leaves=7
num_cat=0
split_feature=1 7 6 0 4 5
split_gain=59.1448 18.0589 11.0004 12.3482 5.85884 2.38224
threshold=461489.50000000006 0.95000000000000007 76.833333335000006 5.5000000000000009 14.100000000000001 11.166666665000003
decision_type=2 2 2 2 2 2
left_child=1 -1 3 -2 -4 -6
right_child=2 -3 4 -5 5 -7
leaf_value=0.013786736209700001 -0.0032606383342118489 0.052185056731104851 0.011665793610154651 -0.03157731272901098 -0.00046554459584876901 -0.015082141551529133
leaf_weight=79 63 50 52 99 50 63
leaf_count=79 63 50 52 99 50 63
internal_value=0 0.0286698 -0.0113101 -0.0205653 -0.00222322 -0.00861462
internal_weight=0 129 327 162 165 113
internal_count=456 129 327 162 165 113
is_linear=0
shrinkage=0.05


Tree=9
num_leaves=6
num_cat=0
split_feature=1 0 6 5 1
split_gain=54.0088 16.4818 18.1519 5.11308 5.08611
threshold=371765.00000000006 3.5000000000000004 78.166666665000022 11.166666665000003 777275.00000000012
decision_type=2 2 2 2 2
left_child=-1 -2 4 -4 -3
right_child=1 2 3 -5 -6
leaf_value=0.032676547947175089 0.011596243292565067 -0.032744735407299906 0.010777945601536582 -0.010429645197776456 -0.015125261267854108
leaf_weight=99 76 95 60 54 72
leaf_count=99 76 95 60 54 72
internal_value=0 -0.00906156 -0.0146487 0.000732245 -0.0251483
internal_weight=0 357 281 114 167
internal_count=456 357 281 114 167
is_linear=0
shrinkage=0.05


Tree=10
num_leaves=7
num_cat=0
split_feature=2 10 0 10 10 3
split_gain=72.2385 11.8182 14.8061 8.54101 5.0522 4.07599
threshold=1998.5000000000002 17.000000000000004 4.5000000000000009 17.000000000000004 8.0000000000000018 30.350000000000005
decision_type=2 2 2 2 2 2
left_child=1 2 -1 5 -4 -2
right_child=3 -3 4 -5 -6 -7
leaf_value=0.00099081842042505748 0.0090353933240597453 -0.00084698503273294165 -0.021478207689017849 0.041690259046950624 -0.040348055321669241 0.028161139413714412
leaf_weight=50 60 95 73 57 69 52
leaf_count=50 60 95 73 57 69 52
internal_value=0 -0.0152712 -0.0224083 0.025934 -0.0306474 0.0179152
internal_weight=0 287 192 169 142 112
internal_count=456 287 192 169 142 112
is_linear=0
shrinkage=0.05


Tree=11
num_leaves=7
num_cat=0
split_feature=2 2 10 10 10 7
split_gain=65.3014 11.741 8.48543 8.67402 7.69356 1.86073
threshold=1999.5000000000002 1975.5000000000002 17.000000000000004 8.0000000000000018 17.000000000000004 0.55000000000000016
decision_type=2 2 2 2 2 2
left_child=1 -1 3 -3 5 -2
right_child=4 2 -4 -5 -6 -7
leaf_value=-0.035441566244059919 0.011796896199051006 -0.0052942585607524961 0.003831777610078765 -0.028260129973292355 0.042045130688123981 0.025238282688181193
leaf_weight=51 52 91 84 75 52 51
leaf_count=51 52 91 84 75 52 51
internal_value=0 -0.0135779 -0.00911767 -0.0156704 0.0263673 0.0184523
internal_weight=0 301 250 166 155 103
internal_count=456 301 250 166 155 103
is_linear=0
shrinkage=0.05


Tree=12
num_leaves=7
num_cat=0
split_feature=2 4 2 7 0 6
split_gain=59.1323 10.9926 7.29291 6.19798 2.07823 1.12676
threshold=1998.5000000000002 16.041666665000005 1988.5000000000002 0.91666650000000016 6.5000000000000009 80.166665000000009
decision_type=2 2 2 2 2 2
left_child=1 2 4 5 -1 -2
right_child=3 -3 -4 -5 -6 -7
leaf_value=-0.017397675996548252 0.021045909671705554 0.0074877079669386148 -0.0066891075117340272 0.035884129622625931 -0.02949819787506985 0.010728446766734123
leaf_weight=57 55 50 86 63 94 51
leaf_count=57 55 50 86 63 94 51
internal_value=0 -0.0138166 -0.0183112 0.0234638 -0.0249305 0.0160818
internal_weight=0 287 237 169 151 106
internal_count=456 287 237 169 151 106
is_linear=0
shrinkage=0.05


Tree=13
num_leaves=8
num_cat=0
split_feature=2 10 10 10 2 6 3
split_gain=53.4627 10.1777 7.54168 6.88329 6.77531 5.21631 2.87679
threshold=1999.5000000000002 17.000000000000004 8.0000000000000018 17.000000000000004 1985.5000000000002 75.500000000000014 30.283333335000005
decision_type=2 2 2 2 2 2 2
left_child=1 2 4 6 -1 -3 -2
right_child=3 5 -4 -5 -6 -7 -8
leaf_value=-0.022453472721045493 0.0082549846854131186 -0.010670235252007844 -0.029312691069461161 0.038687047075766784 0.0024792355908588928 0.012169002960436047 0.024974361788481475
leaf_weight=54 53 50 92 52 55 50 50
leaf_count=54 53 50 92 52 55 50 50
internal_value=0 -0.0122856 -0.0187706 0.0238578 -0.00987275 0.000749384 0.0163712
internal_weight=0 301 201 155 109 100 103
internal_count=456 301 201 155 109 100 103
is_linear=0
shrinkage=0.05


Tree=14
num_leaves=7
num_cat=0
split_feature=2 8 0 10 1 7
split_gain=48.3161 10.0998 6.59267 6.16697 5.23168 2.12673
threshold=1998.5000000000002 1.5666668335000002 4.5000000000000009 17.000000000000004 730695.00000000012 0.58333333350000005
decision_type=2 2 2 2 2 2
left_child=1 2 -1 5 -4 -2
right_child=3 -3 4 -5 -6 -7
leaf_value=-0.0032429714734523983 0.008095744713285908 0.0048450541310012347 -0.03198531709045549 0.034598092121284521 -0.014061462954850869 0.021930942657020162
leaf_weight=59 61 65 79 57 84 51
leaf_count=59 61 65 79 57 84 51
internal_value=0 -0.0124892 -0.0175646 0.0212095 -0.0227485 0.0143957
internal_weight=0 287 222 169 163 112
internal_count=456 287 222 169 163 112
is_linear=0
shrinkage=0.05


Tree=15
num_leaves=7
num_cat=0
split_feature=2 2 4 7 2 1
split_gain=43.8099 9.55199 6.63221 4.46962 3.58992 0.41972
threshold=1999.5000000000002 1975.5000000000002 15.983333335000003 0.91666650000000016 1988.5000000000002 776342.50000000012
decision_type=2 2 2 2 2 2
left_child=1 -1 4 -2 5 -3
right_child=3 2 -4 -5 -6 -7
leaf_value=-0.030841851318437682 0.014757125034180292 -0.021074237700551751 0.0087929992112689287 0.032136831122267319 -0.0043320517029011773 -0.014658252723389664
leaf_weight=51 94 50 52 61 96 52
leaf_count=51 94 50 52 61 96 52
internal_value=0 -0.0111213 -0.00709833 0.0215969 -0.0112718 -0.0178033
internal_weight=0 301 250 155 198 102
internal_count=456 301 250 155 198 102
is_linear=0
shrinkage=0.05


Tree=16
num_leaves=7
num_cat=0
split_feature=2 2 8 7 2 4
split_gain=39.5384 8.62067 6.0419 4.03383 1.77846 1.6143
threshold=1999.5000000000002 1975.5000000000002 1.5666668335000002 0.91666650000000016 1983.5000000000002 14.316666665000001
decision_type=2 2 2 2 2 2
left_child=1 -1 4 -2 -3 -6
right_child=3 2 -4 -5 5 -7
leaf_value=-0.029299758875961691 0.014019268750153642 -0.017588528652098586 0.0073990002194226816 0.030529989974936934 -0.00064807006285763256 -0.012209621288285063
leaf_weight=51 94 67 58 61 51 74
leaf_count=51 94 67 58 61 51 74
internal_value=0 -0.0105653 -0.00674341 0.020517 -0.0110156 -0.00749251
internal_weight=0 301 250 155 192 125
internal_count=456 301 250 155 192 125
is_linear=0
shrinkage=0.05


Tree=17
num_leaves=7
num_cat=0
split_feature=2 4 2 7 1 0
split_gain=35.8581 8.68361 5.07204 4.4066 1.78541 1.72528
threshold=1998.5000000000002 16.041666665000005 1988.5000000000002 1.1666666665000001 461489.50000000006 6.5000000000000009
decision_type=2 2 2 2 2 2
left_child=1 2 5 4 -2 -1
right_child=3 -3 -4 -5 -6 -7
leaf_value=-0.013410783653850095 0.01964476737363095 0.0081758455969393254 -0.0050617523399333272 0.030727366377599537 0.0073607248094049284 -0.02443599828241512
leaf_weight=57 55 50 86 50 64 94
leaf_count=57 55 50 86 50 64 94
internal_value=0 -0.0107593 -0.014754 0.0182717 0.0130382 -0.0202742
internal_weight=0 287 237 169 119 151
internal_count=456 287 237 169 119 151
is_linear=0
shrinkage=0.05


Tree=18
num_leaves=7
num_cat=0
split_feature=1 2 2 2 9 4
split_gain=34.0158 26.7504 4.51968 3.86021 1.81655 1.74436
threshold=238755.50000000003 1998.5000000000002 1983.5000000000002 2005.5000000000002 7.495000000000001 14.316666665000001
decision_type=2 2 2 2 2 2
left_child=-1 2 4 -3 -2 -4
right_child=1 3 5 -5 -6 -7
leaf_value=0.038483118702310561 -0.025680966110279164 0.0061798841531078025 -0.0012665827743088207 0.023442003943318128 -0.013449924540085098 -0.012348402435382849
leaf_weight=51 75 75 60 57 51 87
leaf_count=51 75 75 60 57 51 87
internal_value=0 -0.00484602 -0.0137814 0.013634 -0.0207303 -0.00782521
internal_weight=0 405 273 132 126 147
internal_count=456 405 273 132 126 147
is_linear=0
shrinkage=0.05


Tree=19
num_leaves=6
num_cat=0
split_feature=6 10 0 3 8
split_gain=14.9636 14.2819 11.7865 7.36034 2.48301
threshold=76.833333335000006 17.000000000000004 4.5000000000000009 30.050000000000004 1.4166665000000001
decision_type=2 2 2 2 2
left_child=2 3 -1 -2 -4
right_child=1 -3 4 -5 -6
leaf_value=0.009638600041552519 -0.01163501411676407 0.024435770755287176 -0.023592154859729552 0.0087580639299833125 -0.0098814352760436368
leaf_weight=52 80 86 85 99 54
leaf_count=52 80 86 85 99 54
internal_value=0 0.00768952 -0.0106687 -0.000356161 -0.0182657
internal_weight=0 265 191 179 139
internal_count=456 265 191 179 139
is_linear=0
shrinkage=0.05


Tree=20
num_leaves=7
num_cat=0
split_feature=1 2 0 1 6 7
split_gain=29.734 23.0829 6.90392 5.16787 3.64984 0.878817
threshold=238755.50000000003 1998.5000000000002 4.5000000000000009 776342.50000000012 80.500000000000014 0.58333333350000005
decision_type=2 2 2 2 2 2
left_child=-1 2 -2 5 -3 -4
right_child=1 4 3 -5 -6 -7
leaf_value=0.035979638036851794 0.00045414485848596089 0.019338854174711744 -0.020155030665567744 -0.0086862928058124254 0.0023232551963211826 -0.029061976012549014
leaf_weight=51 72 80 53 90 52 58
leaf_count=51 72 80 53 90 52 58
internal_value=0 -0.00453077 -0.0128311 -0.0175899 0.0126357 -0.0248091
internal_weight=0 405 273 201 132 111
internal_count=456 405 273 201 132 111
is_linear=0
shrinkage=0.05


Tree=21
num_leaves=7
num_cat=0
split_feature=1 9 0 1 1 7
split_gain=26.8349 11.7764 8.9463 5.061 1.86972 1.58491
threshold=238755.50000000003 6.8385057470000001 4.5000000000000009 744342.50000000012 538750.00000000012 0.58333333350000005
decision_type=2 2 2 2 2 2
left_child=-1 4 -3 5 -2 -4
right_child=1 2 3 -5 -6 -7
leaf_value=0.034180656647967066 0.017422787388786675 0.0040492413967149329 -0.016177181180319168 -0.006104883270485229 0.0037490290820132947 -0.027695223509467078
leaf_weight=51 50 90 64 95 50 56
leaf_count=51 50 90 64 95 50 56
internal_value=0 -0.00430423 -0.00918624 -0.0147267 0.0105859 -0.0215523
internal_weight=0 405 305 215 100 120
internal_count=456 405 305 215 100 120
is_linear=0
shrinkage=0.05


Tree=22
num_leaves=7
num_cat=0
split_feature=1 2 0 1 2 7
split_gain=24.2185 19.9766 5.67101 4.23705 3.05846 0.705641
threshold=238755.50000000003 1998.5000000000002 4.5000000000000009 776342.50000000012 2005.5000000000002 0.58333333350000005
decision_type=2 2 2 2 2 2
left_child=-1 2 -2 5 -3 -4
right_child=1 4 3 -5 -6 -7
leaf_value=0.03247162399302219 0.00023001801067342364 0.0052457100300428768 -0.018490115294830418 -0.0080616961605846898 0.020610983632995111 -0.026471373030980086
leaf_weight=51 72 75 53 90 57 58
leaf_count=51 72 75 53 90 57 58
internal_value=0 -0.00408902 -0.0118106 -0.0161237 0.0118807 -0.0226605
internal_weight=0 405 273 201 132 111
internal_count=456 405 273 201 132 111
is_linear=0
shrinkage=0.05


Tree=23
num_leaves=7
num_cat=0
split_feature=1 2 0 1 6 0
split_gain=21.8572 18.0289 5.11808 3.82394 3.24077 0.690926
threshold=238755.50000000003 1998.5000000000002 4.5000000000000009 776342.50000000012 80.500000000000014 10.000000000000002
decision_type=2 2 2 2 2 2
left_child=-1 2 -2 5 -3 -4
right_child=1 4 3 -5 -6 -7
leaf_value=0.03084804226059978 0.00021851697626213231 0.017602997506037357 -0.025230870460617845 -0.0076586115070191836 0.0015692656049325776 -0.017325550061650576
leaf_weight=51 72 80 59 90 52 52
leaf_count=51 72 80 59 90 52 52
internal_value=0 -0.00388457 -0.0112201 -0.0153175 0.0112867 -0.0215275
internal_weight=0 405 273 201 132 111
internal_count=456 405 273 201 132 111
is_linear=0
shrinkage=0.05


Tree=24
num_leaves=8
num_cat=0
split_feature=1 2 0 1 0 2 2
split_gain=19.7262 16.2759 4.04243 3.83104 3.09258 1.51087 0.577528
threshold=238755.50000000003 1999.5000000000002 4.5000000000000009 730695.00000000012 10.000000000000002 1986.5000000000002 1984.5000000000002
decision_type=2 2 2 2 2 2 2
left_child=-1 2 -2 6 -3 -5 -4
right_child=1 4 3 5 -6 -7 -8
leaf_value=0.029305640368679012 -9.4444454156768486e-05 0.019071782527096345 -0.02443700123205781 -0.012553225583160075 0.002853910626298836 -0.00073952845484018335 -0.016945789693107935
leaf_weight=51 74 66 50 59 53 50 53
leaf_count=51 74 66 50 59 53 50 53
internal_value=0 -0.00369034 -0.0101559 -0.0136679 0.0118487 -0.0071341 -0.0205823
internal_weight=0 405 286 212 119 109 103
internal_count=456 405 286 212 119 109 103
is_linear=0
shrinkage=0.05


Tree=25
num_leaves=7
num_cat=0
split_feature=1 2 0 1 6 0
split_gain=17.8029 14.7485 4.19255 3.13836 2.86201 0.610311
threshold=238755.50000000003 1998.5000000000002 4.5000000000000009 776342.50000000012 80.500000000000014 10.000000000000002
decision_type=2 2 2 2 2 2
left_child=-1 2 -2 5 -3 -4
right_child=1 4 3 -5 -6 -7
leaf_value=0.027840357901090209 0.00021231352746124482 0.016151710171252491 -0.022955447390391414 -0.0069105462639385638 0.0010840465798257635 -0.015525605645066557
leaf_weight=51 72 80 59 90 52 52
leaf_count=51 72 80 59 90 52 52
internal_value=0 -0.00350582 -0.0101405 -0.013849 0.010216 -0.0194748
internal_weight=0 405 273 201 132 111
internal_count=456 405 273 201 132 111
is_linear=0
shrinkage=0.05


Tree=26
num_leaves=7
num_cat=0
split_feature=2 4 10 2 10 7
split_gain=14.8556 6.23427 4.26602 3.70145 1.67933 0.403595
threshold=1999.5000000000002 16.116665000000005 17.000000000000004 1988.5000000000002 17.000000000000004 0.55000000000000016
decision_type=2 2 2 2 2 2
left_child=1 3 5 4 -1 -2
right_child=2 -3 -4 -5 -6 -7
leaf_value=-0.018682265049826945 0.0035827505975388565 0.0094556721858680259 0.024250546744308221 -0.0021492533101508697 -0.0078264822742264532 0.009842759549763859
leaf_weight=95 52 51 52 98 57 51
leaf_count=95 52 51 52 98 57 51
internal_value=0 -0.00647612 0.0125762 -0.00972621 -0.0146113 0.00668237
internal_weight=0 301 155 250 152 103
internal_count=456 301 155 250 152 103
is_linear=0
shrinkage=0.05


Tree=27
num_leaves=7
num_cat=0
split_feature=1 2 2 0 0 1
split_gain=15.339 12.1443 3.64456 2.79966 2.55409 2.8204
threshold=238755.50000000003 1999.5000000000002 1975.5000000000002 10.000000000000002 4.5000000000000009 711515.00000000012
decision_type=2 2 2 2 2 2
left_child=-1 2 -2 -3 -4 -6
right_child=1 3 4 -5 5 -7
leaf_value=0.025842164106228773 -0.02095513662104221 0.017040973365532629 0.0024975249117555761 0.0016102495919561614 -0.016213575678254984 -0.0034091004708741782
leaf_weight=51 51 66 62 53 80 93
leaf_count=51 51 66 62 53 80 93
internal_value=0 -0.0032542 -0.00883915 0.0101685 -0.00620973 -0.00933025
internal_weight=0 405 286 119 235 173
internal_count=456 405 286 119 235 173
is_linear=0
shrinkage=0.05


Tree=28
num_leaves=8
num_cat=0
split_feature=1 2 2 1 1 2 0
split_gain=13.8435 11.1561 4.75783 3.03484 2.47694 1.53522 0.846033
threshold=238755.50000000003 1988.5000000000002 2005.5000000000002 609017.50000000012 852896.00000000012 1975.5000000000002 6.5000000000000009
decision_type=2 2 2 2 2 2 2
left_child=-1 5 3 -3 -5 -2 -7
right_child=1 2 -4 4 -6 6 -8
leaf_value=0.024550056260298284 -0.019907379861208885 -0.0094280485196545586 0.016675498854499638 0.013055750485509636 -0.0016979116923528529 -0.0045772705243434754 -0.012996526966752435
leaf_weight=51 51 57 57 50 66 50 74
leaf_count=51 51 57 57 50 66 50 74
internal_value=0 -0.00309149 0.00414709 1.92288e-05 0.00466143 -0.012605 -0.00960167
internal_weight=0 405 230 173 116 175 124
internal_count=456 405 230 173 116 175 124
is_linear=0
shrinkage=0.05


Tree=29
num_leaves=8
num_cat=0
split_feature=1 2 2 1 1 2 0
split_gain=12.4937 10.0683 4.29394 2.73895 2.23544 1.38553 0.763545
threshold=238755.50000000003 1988.5000000000002 2005.5000000000002 609017.50000000012 852896.00000000012 1975.5000000000002 6.5000000000000009
decision_type=2 2 2 2 2 2 2
left_child=-1 5 3 -3 -5 -2 -7
right_child=1 2 -4 4 -6 6 -8
leaf_value=0.023322553019605431 -0.018912010919302703 -0.00895664584496173 0.01584172403121269 0.012402962896972895 -0.0016130162000825459 -0.0043484069816768171 -0.012346700606615963
leaf_weight=51 51 57 57 50 66 50 74
leaf_count=51 51 57 57 50 66 50 74
internal_value=0 -0.00293691 0.00393973 1.82674e-05 0.00442835 -0.0119748 -0.00912158
internal_weight=0 405 230 173 116 175 124
internal_count=456 405 230 173 116 175 124
is_linear=0
shrinkage=0.05


Tree=30
num_leaves=7
num_cat=0
split_feature=1 2 0 6 1 0
split_gain=11.2756 9.11861 3.17148 2.45311 2.44899 0.485761
threshold=238755.50000000003 1998.5000000000002 4.5000000000000009 80.500000000000014 776342.50000000012 10.000000000000002
decision_type=2 2 2 2 2 2
left_child=-1 2 -2 -3 5 -4
right_child=1 3 4 -5 -6 -7
leaf_value=0.022156425623917113 0.00099736227501933989 0.01349481532990467 -0.019307286822694846 -0.00045501715682733519 -0.0051031690473771762 -0.012678788222659094
leaf_weight=51 72 80 59 52 90 52
leaf_count=51 72 80 59 52 90 52
internal_value=0 -0.00279007 -0.00800697 0.00799943 -0.0112324 -0.016202
internal_weight=0 405 273 132 201 111
internal_count=456 405 273 132 201 111
is_linear=0
shrinkage=0.05


Tree=31
num_leaves=8
num_cat=0
split_feature=1 2 4 7 2 6 7
split_gain=10.1762 8.51416 3.95686 3.44114 1.2437 1.1501 0.29444
threshold=238755.50000000003 1988.5000000000002 14.050000000000002 0.75000000000000011 1975.5000000000002 79.416666665000022 0.61666666650000013
decision_type=2 2 2 2 2 2 2
left_child=-1 4 -3 5 -2 -4 -6
right_child=1 2 3 -5 6 -7 -8
leaf_value=0.021048604696076001 -0.017534217648390756 0.014712110491624722 -0.00035675846343368009 0.0091658343298120365 -0.010857489367882753 -0.010677964055688459 -0.0059744162456781581
leaf_weight=51 51 60 53 62 58 55 66
leaf_count=51 51 60 53 62 58 55 66
internal_value=0 -0.00265056 0.0036731 -0.000223026 -0.0109617 -0.00561293 -0.00825843
internal_weight=0 405 230 170 175 108 124
internal_count=456 405 230 170 175 108 124
is_linear=0
shrinkage=0.05


Tree=32
num_leaves=8
num_cat=0
split_feature=2 8 10 6 3 10 10
split_gain=7.79134 5.04854 3.50144 2.69267 2.22819 2.1242 1.65866
threshold=1999.5000000000002 1.4166665000000001 17.000000000000004 75.833333335000006 30.283333335000005 17.000000000000004 8.0000000000000018
decision_type=2 2 2 2 2 2 2
left_child=1 5 4 -3 -2 6 -1
right_child=2 3 -4 -5 -6 -7 -8
leaf_value=-0.0074779304014383893 -0.0033747757802594387 -0.0035641333483651563 0.019684307302724427 0.012611363837728276 0.011339598331600427 -0.0017793562472058788 -0.018565049346987949
leaf_weight=69 53 53 52 50 50 63 66
leaf_count=69 53 53 52 50 50 63 66
internal_value=0 -0.00469004 0.00910775 0.00428805 0.00376812 -0.00936045 -0.0128983
internal_weight=0 301 155 103 103 198 135
internal_count=456 301 155 103 103 198 135
is_linear=0
shrinkage=0.05


Tree=33
num_leaves=7
num_cat=0
split_feature=2 3 4 8 2 9
split_gain=7.2747 5.15881 3.37751 2.49652 1.24585 0.47642
threshold=1988.5000000000002 30.766668335000002 14.050000000000002 1.3666668335000003 1998.5000000000002 7.495000000000001
decision_type=2 2 2 2 2 2
left_child=3 2 -2 5 -4 -1
right_child=1 -3 4 -5 -6 -7
leaf_value=-0.015090857666458877 0.012010043213570801 0.019510768955189953 -0.0070982580167005095 -2.9201862582964685e-05 0.0018052653880103638 -0.008658266954897147
leaf_weight=63 60 51 67 67 95 53
leaf_count=63 60 51 67 67 95 53
internal_value=0 0.00517058 0.00187621 -0.00771349 -0.00187706 -0.0121518
internal_weight=0 273 222 183 162 116
internal_count=456 273 222 183 162 116
is_linear=0
shrinkage=0.05


Tree=34
num_leaves=8
num_cat=0
split_feature=1 2 2 1 1 3 0
split_gain=8.60291 6.64299 3.11583 2.22893 3.10297 1.1085 0.739045
threshold=238755.50000000003 2005.5000000000002 1983.5000000000002 609017.50000000012 776342.50000000012 30.066668335000003 6.5000000000000009
decision_type=2 2 2 2 2 2 2
left_child=-1 2 6 -4 -5 -6 -2
right_child=1 -3 3 4 5 -7 -8
leaf_value=0.019353196861258911 -0.0065875884748529644 0.013385486815190107 -0.0090846508986372233 0.012081398509442808 0.0018460126856172628 -0.0084404354738944667 -0.014414652794565833
leaf_weight=51 50 57 67 50 55 50 76
leaf_count=51 50 57 67 50 55 50 76
internal_value=0 -0.00243707 -0.00502869 -0.00146438 0.00182954 -0.0030523 -0.0113087
internal_weight=0 405 348 222 155 105 126
internal_count=456 405 348 222 155 105 126
is_linear=0
shrinkage=0.05


Tree=35
num_leaves=7
num_cat=0
split_feature=10 3 6 0 0 0
split_gain=6.61228 7.84961 4.8188 2.55268 2.59796 1.61856
threshold=17.000000000000004 30.816665000000004 77.833333335000006 4.5000000000000009 7.5000000000000009 11.500000000000002
decision_type=2 2 2 2 2 2
left_child=1 3 -2 -1 -5 -6
right_child=2 -3 -4 4 5 -7
leaf_value=0.00099756234615552635 -0.00038774413344646366 0.013429635233030871 0.017417488999873106 -0.019581479453160591 -0.002049642471773647 -0.013172481817610819
leaf_weight=61 76 52 76 58 75 58
leaf_count=61 76 52 76 58 75 58
internal_value=0 -0.00425744 0.00851487 -0.00790715 -0.0107511 -0.0069002
internal_weight=0 304 152 252 191 133
internal_count=456 304 152 252 191 133
is_linear=0
shrinkage=0.05


Tree=36
num_leaves=7
num_cat=0
split_feature=1 2 7 4 0 1
split_gain=7.61047 5.89357 3.22926 2.48234 1.03936 1.20447
threshold=238755.50000000003 1988.5000000000002 0.78333333350000012 14.316666665000001 6.5000000000000009 716317.50000000012
decision_type=2 2 2 2 2 2
left_child=-1 4 3 -3 -2 -6
right_child=1 2 -4 -5 5 -7
leaf_value=0.018202699680684827 -0.004314691507094192 0.0069739997097901232 0.011402593542650146 -0.0061272059569697987 -0.017928975163493305 -0.0073393431904119569
leaf_weight=51 67 58 76 96 50 58
leaf_count=51 67 58 76 96 50 58
internal_value=0 -0.00229219 0.00296903 -0.00119299 -0.00920694 -0.012242
internal_weight=0 405 230 154 175 108
internal_count=456 405 230 154 175 108
is_linear=0
shrinkage=0.05


Tree=37
num_leaves=7
num_cat=0
split_feature=10 3 6 0 0 0
split_gain=5.647 6.99502 4.12823 2.23136 2.40196 1.47667
threshold=17.000000000000004 30.816665000000004 76.416666665000022 4.5000000000000009 7.5000000000000009 11.500000000000002
decision_type=2 2 2 2 2 2
left_child=1 3 -2 -1 -5 -6
right_child=2 -3 -4 4 5 -7
leaf_value=0.00094568614278286393 -0.0021955023462441369 0.012762101770539842 0.014615287322058166 -0.018529444150546373 -0.0017028165841475131 -0.012326941884861425
leaf_weight=61 61 52 91 58 75 58
leaf_count=61 61 52 91 58 75 58
internal_value=0 -0.00393443 0.00786885 -0.00737974 -0.0100386 -0.00633589
internal_weight=0 304 152 252 191 133
internal_count=456 304 152 252 191 133
is_linear=0
shrinkage=0.05


Tree=38
num_leaves=7
num_cat=0
split_feature=1 7 0 1 4 6
split_gain=6.80577 3.87908 1.95757 5.76882 2.51305 1.67381
threshold=473992.50000000006 0.95000000000000007 6.5000000000000009 708402.50000000012 15.183333335000002 76.833333335000006
decision_type=2 2 2 2 2 2
left_child=1 -1 3 -2 5 -4
right_child=2 -3 4 -5 -6 -7
leaf_value=0.0027105809582105601 0.011458025485808321 0.020127060660496895 -0.0087777060283092314 -0.0096896044056316352 -0.013717176093080317 0.0036398950592887685
leaf_weight=83 64 52 51 65 83 58
leaf_count=83 64 52 51 65 83 58
internal_value=0 0.00941915 -0.00396133 0.000802243 -0.00716185 -0.00217018
internal_weight=0 135 321 129 192 109
internal_count=456 135 321 129 192 109
is_linear=0
shrinkage=0.05


Tree=39
num_leaves=7
num_cat=0
split_feature=1 2 0 0 1 2
split_gain=6.33652 4.96839 2.17134 1.72328 1.53972 0.807336
threshold=238755.50000000003 1998.5000000000002 4.5000000000000009 10.000000000000002 691867.50000000012 1982.5000000000002
decision_type=2 2 2 2 2 2
left_child=-1 2 -2 -3 -4 -6
right_child=1 3 4 -5 5 -7
leaf_value=0.016609451533569134 0.0015080849544675504 0.011008686907206702 -0.013671729715302762 -0.00048202383923896791 -0.0092025188200006436 -0.00081585926314195001
leaf_weight=51 72 73 86 59 55 60
leaf_count=51 72 73 86 59 55 60
internal_value=0 -0.00209156 -0.00594241 0.00587269 -0.00861124 -0.00482687
internal_weight=0 405 273 132 201 115
internal_count=456 405 273 132 201 115
is_linear=0
shrinkage=0.05


Tree=40
num_leaves=8
num_cat=0
split_feature=1 2 4 0 4 2 0
split_gain=5.71871 4.58847 2.69439 3.65573 1.30553 0.946726 0.395242
threshold=238755.50000000003 1988.5000000000002 14.050000000000002 4.5000000000000009 15.433331665000003 1975.5000000000002 6.5000000000000009
decision_type=2 2 2 2 2 2 2
left_child=-1 5 -3 -4 -5 -2 -7
right_child=1 2 3 4 -6 6 -8
leaf_value=0.015778979047329403 -0.013822679250676862 0.011764600176829846 0.0097639260042597653 -0.0001496368363775589 -0.010908819952884972 -0.0022955915551865474 -0.0080501448322163032
leaf_weight=51 51 60 57 54 59 50 74
leaf_count=51 51 60 57 54 59 50 74
internal_value=0 -0.00198698 0.0026553 -0.000559747 -0.00576726 -0.00808827 -0.00572976
internal_weight=0 405 230 170 113 175 124
internal_count=456 405 230 170 113 175 124
is_linear=0
shrinkage=0.05


Tree=41
num_leaves=7
num_cat=0
split_feature=1 7 0 1 4 1
split_gain=5.21944 3.35158 1.43478 5.23766 2.18263 0.884389
threshold=473992.50000000006 0.95000000000000007 6.5000000000000009 691867.50000000012 14.316666665000001 726222.50000000012
decision_type=2 2 2 2 2 2
left_child=1 -1 3 -2 -4 -6
right_child=2 -3 4 -5 5 -7
leaf_value=0.002012915929487671 0.011246445562812638 0.018201945998813387 0.0005227553110720741 -0.0089332286002258218 -0.015392154891628261 -0.0066541920124150028
leaf_weight=83 61 52 74 68 51 67
leaf_count=83 61 52 74 68 51 67
internal_value=0 0.00824869 -0.00346908 0.000609098 -0.0062091 -0.0104308
internal_weight=0 135 321 129 192 118
internal_count=456 135 321 129 192 118
is_linear=0
shrinkage=0.05


Tree=42
num_leaves=6
num_cat=0
split_feature=4 2 0 10 10
split_gain=4.75363 4.21147 3.42216 1.64153 1.31783
threshold=16.483333335000001 1998.5000000000002 7.5000000000000009 17.000000000000004 8.0000000000000018
decision_type=2 2 2 2 2
left_child=1 3 -3 4 -1
right_child=-2 2 -4 -5 -6
leaf_value=-0.004142746728140554 0.013115113934036344 -0.0049125065447085288 0.010986340308921752 -0.00034883632218803877 -0.013087701392197594
leaf_weight=79 60 55 88 88 86
leaf_count=79 60 55 88 88 86
internal_value=0 -0.00198714 0.0048714 -0.0058637 -0.00880497
internal_weight=0 396 143 253 165
internal_count=456 396 143 253 165
is_linear=0
shrinkage=0.05


Tree=43
num_leaves=7
num_cat=0
split_feature=1 10 0 2 4 1
split_gain=4.63843 4.42067 6.31608 3.99465 1.89359 1.55703
threshold=238755.50000000003 5.0000000000000009 3.5000000000000004 1995.5000000000002 14.683333335000002 730695.00000000012
decision_type=2 2 2 2 2 2
left_child=-1 -2 -3 5 -5 -4
right_child=1 2 3 4 -6 -7
leaf_value=0.014210702522712596 -0.013119510564425122 0.015617941156057802 -0.012169451759490628 0.011116512259468437 -0.0021612900225445627 -0.0025423860293813053
leaf_weight=51 71 58 84 58 50 84
leaf_count=51 71 58 84 58 50 84
internal_value=0 -0.0017895 0.00061898 -0.00253298 0.00496938 -0.00735592
internal_weight=0 405 334 276 108 168
internal_count=456 405 334 276 108 168
is_linear=0
shrinkage=0.05


Tree=44
num_leaves=7
num_cat=0
split_feature=1 10 0 9 1 3
split_gain=4.18618 3.98965 5.70026 4.43491 1.54382 0.319884
threshold=238755.50000000003 5.0000000000000009 3.5000000000000004 7.0132183910000014 730695.00000000012 29.683333335000004
decision_type=2 2 2 2 2 2
left_child=-1 -2 -3 -4 5 -5
right_child=1 2 3 4 -6 -7
leaf_value=0.01350016743309942 -0.012463534992634202 0.01483704396783839 0.006630643977285338 -0.013827277509495618 -0.0017881207953555037 -0.0082260923772712255
leaf_weight=51 71 58 91 50 83 52
leaf_count=51 71 58 91 50 83 52
internal_value=0 -0.00170002 0.000588031 -0.00240633 -0.00685154 -0.0109718
internal_weight=0 405 334 276 185 102
internal_count=456 405 334 276 185 102
is_linear=0
shrinkage=0.05


Tree=45
num_leaves=7
num_cat=0
split_feature=4 2 4 2 4 5
split_gain=4.02227 3.25003 1.37355 0.998261 0.900223 0.533331
threshold=16.483333335000001 1998.5000000000002 14.616666665000002 1976.5000000000002 14.316666665000001 12.666668335000002
decision_type=2 2 2 2 2 2
left_child=1 3 -3 -1 -5 -6
right_child=-2 2 -4 4 5 -7
leaf_value=-0.010992178222132398 0.01206410073209554 0.009719146646204449 -0.00015147168567636982 0.00030419845756706463 -0.0027388303603511303 -0.0097577586864768459
leaf_weight=58 60 63 80 86 50 59
leaf_count=58 60 63 80 86 50 59
internal_value=0 -0.00182789 0.00419712 -0.00523334 -0.00352045 -0.00653807
internal_weight=0 396 143 253 195 109
internal_count=456 396 143 253 195 109
is_linear=0
shrinkage=0.05


Tree=46
num_leaves=7
num_cat=0
split_feature=3 10 1 10 10 10
split_gain=3.7624 5.09158 5.4241 1.52757 3.67154 1.67514
threshold=30.816665000000004 17.000000000000004 619892.50000000012 8.0000000000000018 5.0000000000000009 9.5000000000000018
decision_type=2 2 2 2 2 2
left_child=1 3 -3 4 -1 -5
right_child=-2 2 -4 5 -6 -7
leaf_value=-0.0108790343394503 0.01084879881099743 0.018200170688079973 -0.0022077885609710726 -0.016263560533266646 0.0060593472830413921 -0.0046163752872609735
leaf_weight=63 68 54 82 58 65 66
leaf_count=63 68 54 82 58 65 66
internal_value=0 -0.00190134 0.00589537 -0.00610908 -0.00227751 -0.0100643
internal_weight=0 388 136 252 128 124
internal_count=456 388 136 252 128 124
is_linear=0
shrinkage=0.05


Tree=47
num_leaves=7
num_cat=0
split_feature=1 10 0 2 4 1
split_gain=3.51729 3.33869 4.71305 3.07046 1.54082 1.21933
threshold=238755.50000000003 5.0000000000000009 3.5000000000000004 1995.5000000000002 14.683333335000002 730695.00000000012
decision_type=2 2 2 2 2 2
left_child=-1 -2 -3 5 -5 -4
right_child=1 2 3 4 -6 -7
leaf_value=0.012374680834438871 -0.011404633410537327 0.01349131354323492 -0.010676004826936628 0.0099345680723641194 -0.0020427114330232145 -0.0021566772681017895
leaf_weight=51 71 58 84 58 50 84
leaf_count=51 71 58 84 58 50 84
internal_value=0 -0.00155829 0.000534791 -0.00218796 0.00438953 -0.00641634
internal_weight=0 405 334 276 108 168
internal_count=456 405 334 276 108 168
is_linear=0
shrinkage=0.05


Tree=48
num_leaves=7
num_cat=0
split_feature=3 10 1 10 10 10
split_gain=3.33533 4.24182 4.65684 1.43518 3.11548 1.45997
threshold=30.816665000000004 17.000000000000004 619892.50000000012 8.0000000000000018 5.0000000000000009 9.5000000000000018
decision_type=2 2 2 2 2 2
left_child=1 3 -3 4 -1 -5
right_child=-2 2 -4 5 -6 -7
leaf_value=-0.0098403410017786058 0.010214535030579154 0.016727583575562609 -0.0021819694883405891 -0.015251946051059099 0.0057627559447875967 -0.0043785026237001699
leaf_weight=63 68 54 82 58 65 66
leaf_count=63 68 54 82 58 65 66
internal_value=0 -0.00179018 0.00532624 -0.00563078 -0.00191689 -0.00946447
internal_weight=0 388 136 252 128 124
internal_count=456 388 136 252 128 124
is_linear=0
shrinkage=0.05


Tree=49
num_leaves=8
num_cat=0
split_feature=4 2 0 4 1 2 9
split_gain=3.27194 2.56177 2.40172 1.17994 0.677704 0.466188 0.0819346
threshold=16.483333335000001 1988.5000000000002 7.5000000000000009 14.283333335000002 561685.00000000012 1976.5000000000002 7.716666666500001
decision_type=2 2 2 2 2 2 2
left_child=1 5 4 -4 -3 -1 -7
right_child=-2 2 3 -5 -6 6 -8
leaf_value=-0.010131173531107348 0.010880830834309262 -0.0083318386226892468 0.011902193552528983 0.0023186079344235454 -0.00014001158632191959 -0.0030685175126418471 -0.0059168727108615217
leaf_weight=58 60 50 52 84 51 50 51
leaf_count=58 60 50 52 84 51 50 51
internal_value=0 -0.00164861 0.00164534 0.00598292 -0.00419537 -0.00655846 -0.0045068
internal_weight=0 396 237 136 101 159 101
internal_count=456 396 237 136 101 159 101
is_linear=0
shrinkage=0.05


Tree=50
num_leaves=6
num_cat=0
split_feature=10 3 10 0 10
split_gain=3.03633 3.21725 1.50857 1.57163 2.31109
threshold=36.000000000000007 30.816665000000004 17.000000000000004 6.5000000000000009 8.0000000000000018
decision_type=2 2 2 2 2
left_child=1 2 3 -1 -5
right_child=-2 -3 -4 4 -6
leaf_value=0.00021266960908713586 0.011626253593713047 0.0090523271528523304 0.0021586013026535511 -0.002828304460560661 -0.014653615943156185
leaf_weight=85 50 62 92 92 75
leaf_count=85 50 62 92 92 75
internal_value=0 -0.0014318 -0.00332139 -0.00532202 -0.00813907
internal_weight=0 406 344 252 167
internal_count=456 406 344 252 167
is_linear=0
shrinkage=0.05


Tree=51
num_leaves=7
num_cat=0
split_feature=1 7 10 10 10 2
split_gain=3.05569 2.42781 2.27817 3.0392 1.06933 0.834382
threshold=473992.50000000006 0.95000000000000007 5.0000000000000009 8.0000000000000018 12.000000000000002 1983.5000000000002
decision_type=2 2 2 2 2 2
left_child=1 -1 -2 -4 -5 -6
right_child=2 -3 3 4 5 -7
leaf_value=0.0010041366010085197 -0.01093393464248176 0.014782693722428611 0.0080255666664310714 -0.0092612826535182578 -0.0060125930098971977 0.002474737364743183
leaf_weight=83 66 52 74 63 51 67
leaf_count=83 66 52 74 63 51 67
internal_value=0 0.00631143 -0.00265434 -0.000511387 -0.00400163 -0.00119352
internal_weight=0 135 321 255 181 118
internal_count=456 135 321 255 181 118
is_linear=0
shrinkage=0.05


Tree=52
num_leaves=7
num_cat=0
split_feature=4 0 10 6 0 1
split_gain=2.77997 2.05558 2.53771 2.46154 1.20965 0.646035
threshold=16.483333335000001 7.5000000000000009 9.5000000000000018 76.166665000000009 11.500000000000002 405949.50000000006
decision_type=2 2 2 2 2 2
left_child=1 2 -1 -3 -5 -6
right_child=-2 3 -4 4 5 -7
leaf_value=-0.011626986332837194 0.010029511440661736 -0.006338403748397007 0.00044966693924092314 0.011258831677325774 0.0059263864147485988 -0.0020320511642186083
leaf_weight=87 60 67 87 53 51 51
leaf_count=87 60 67 87 53 51 51
internal_value=0 -0.00151962 -0.00558866 0.00166962 0.00513116 0.00194717
internal_weight=0 396 174 222 155 102
internal_count=456 396 174 222 155 102
is_linear=0
shrinkage=0.05


Tree=53
num_leaves=7
num_cat=0
split_feature=10 0 10 1 7 9
split_gain=2.68597 4.72252 3.34337 4.03555 1.74207 0.662035
threshold=5.0000000000000009 3.5000000000000004 17.000000000000004 852896.00000000012 0.55000000000000016 7.2068965515000007
decision_type=2 2 2 2 2 2
left_child=-1 -2 4 -4 -3 -6
right_child=1 2 3 -5 5 -7
leaf_value=-0.0085135813309605447 0.014727962609790899 0.00025449811711293114 0.016756455293856564 -0.0017341066837414272 -0.0049916666916105905 -0.012976122182724929
leaf_weight=77 59 94 50 72 50 54
leaf_count=77 59 94 50 72 50 54
internal_value=0 0.00172967 -0.000666888 0.00584399 -0.00467864 -0.00913744
internal_weight=0 379 320 122 198 104
internal_count=456 379 320 122 198 104
is_linear=0
shrinkage=0.05


Tree=54
num_leaves=7
num_cat=0
split_feature=2 3 7 4 0 0
split_gain=2.58796 2.65471 2.01881 0.771395 0.742755 0.73195
threshold=1975.5000000000002 30.816665000000004 1.0666668335000002 14.100000000000001 6.5000000000000009 13.500000000000002
decision_type=2 2 2 2 2 2
left_child=-1 2 3 -2 -5 -6
right_child=1 -3 -4 4 5 -7
leaf_value=-0.010614724706529695 0.0019509774100978251 0.010858102265985744 0.0078632519576606937 0.00051844975184367015 -0.0087774583086481003 -0.0011534536466933788
leaf_weight=51 81 62 61 66 85 50
leaf_count=51 81 62 61 66 85 50
internal_value=0 0.00133667 -0.000384406 -0.00216847 -0.00382855 -0.00595375
internal_weight=0 405 343 282 201 135
internal_count=456 405 343 282 201 135
is_linear=0
shrinkage=0.05


Tree=55
num_leaves=7
num_cat=0
split_feature=1 7 10 10 2 1
split_gain=2.38586 2.00999 1.88586 2.53576 0.879725 0.626211
threshold=473992.50000000006 0.95000000000000007 5.0000000000000009 8.0000000000000018 1993.5000000000002 859962.50000000012
decision_type=2 2 2 2 2 2
left_child=1 -1 -2 -4 5 -5
right_child=2 -3 3 4 -6 -7
leaf_value=0.00074787925976519309 -0.0098784822794241896 0.013284855601019586 0.0074021769453129554 -0.0091570507437127701 0.0016241312883461694 -0.0020515727324221331
leaf_weight=83 66 52 74 68 56 57
leaf_count=83 66 52 74 68 56 57
internal_value=0 0.00557694 -0.00234544 -0.000395712 -0.0035838 -0.00591695
internal_weight=0 135 321 255 181 125
internal_count=456 135 321 255 181 125
is_linear=0
shrinkage=0.05


Tree=56
num_leaves=7
num_cat=0
split_feature=4 0 2 10 8 7
split_gain=2.29932 1.83679 2.58981 2.04905 0.599279 0.358143
threshold=16.483333335000001 7.5000000000000009 1995.5000000000002 9.5000000000000018 1.3666668335000003 0.65000000000000013
decision_type=2 2 2 2 2 2
left_child=1 3 4 -1 -3 -4
right_child=-2 2 5 -5 -6 -7
leaf_value=-0.010654315111580595 0.0091213551113226762 -0.0062769438681841306 0.010589934004470707 0.00019747439327639067 0.00080926158966926429 0.0046054322985000914
leaf_weight=87 60 70 50 87 52 50
leaf_count=87 60 70 50 87 52 50
internal_value=0 -0.00138202 0.00163272 -0.00522842 -0.00325659 0.00759768
internal_weight=0 396 222 174 122 100
internal_count=456 396 222 174 122 100
is_linear=0
shrinkage=0.05


Tree=57
num_leaves=7
num_cat=0
split_feature=10 3 5 4 9 2
split_gain=2.22284 2.3463 1.15318 0.796873 1.24984 0.644121
threshold=36.000000000000007 30.816665000000004 7.5000000000000009 15.183333335000002 7.3072578000000012 1991.5000000000002
decision_type=2 2 2 2 2 2
left_child=1 2 5 4 -4 -1
right_child=-2 -3 3 -5 -6 -7
leaf_value=-0.0037393248176456175 0.0099476249634753919 0.0077282004599129005 0.0030552064740749182 -0.0087642057046580773 -0.0077530121197924018 0.0031144245348584195
leaf_weight=55 50 62 53 91 54 91
leaf_count=55 50 62 53 91 54 91
internal_value=0 -0.00122508 -0.00283875 -0.00532464 -0.00239941 0.000532533
internal_weight=0 406 344 198 107 146
internal_count=456 406 344 198 107 146
is_linear=0
shrinkage=0.05


Tree=58
num_leaves=6
num_cat=0
split_feature=10 10 10 6 7
split_gain=2.11395 3.39542 3.75669 1.84691 1.42299
threshold=5.0000000000000009 8.0000000000000018 9.5000000000000018 75.500000000000014 0.81666650000000007
decision_type=2 2 2 2 2
left_child=-1 -2 -3 -4 -5
right_child=1 2 3 4 -6
leaf_value=-0.007552812292010754 0.009953716524766636 -0.0120284917892047 -0.0046784442343130355 0.0013750150158279102 0.011423996117135342
leaf_weight=77 91 62 73 98 55
leaf_count=77 91 62 73 98 55
internal_value=0 0.00153448 -0.00112577 0.00186524 0.00498739
internal_weight=0 379 288 226 153
internal_count=456 379 288 226 153
is_linear=0
shrinkage=0.05


Tree=59
num_leaves=8
num_cat=0
split_feature=2 10 0 0 0 0 5
split_gain=2.07878 2.19221 4.36363 2.15503 1.71734 1.29927 1.26142
threshold=1975.5000000000002 5.0000000000000009 3.5000000000000004 7.5000000000000009 5.5000000000000009 15.500000000000002 15.500000000000002
decision_type=2 2 2 2 2 2 2
left_child=-1 -2 -3 4 -4 6 -5
right_child=1 2 3 5 -6 -7 -8
leaf_value=-0.0095133604171375452 -0.0067806376688654586 0.016356625393325209 0.0013668407466349321 0.0023815847388333712 -0.011427305172266509 -0.0023254745793408428 0.01275161811397137
leaf_weight=51 71 51 51 69 54 58 51
leaf_count=51 71 51 51 69 54 58 51
internal_value=0 0.00119798 0.00289403 0.000467911 -0.00521301 0.00381901 0.00678885
internal_weight=0 405 334 283 105 178 120
internal_count=456 405 334 283 105 178 120
is_linear=0
shrinkage=0.05


Tree=60
num_leaves=7
num_cat=0
split_feature=1 2 0 3 2 5
split_gain=1.98651 1.76598 1.63795 1.13151 0.479602 0.0994758
threshold=238755.50000000003 1988.5000000000002 10.000000000000002 30.516666665000006 1975.5000000000002 14.166666665000003
decision_type=2 2 2 2 2 2
left_child=-1 4 3 -3 -2 -6
right_child=1 2 -4 -5 5 -7
leaf_value=0.0092998311636905539 -0.0090376923125529401 0.0017405506090298511 -0.0034123352566365938 0.011179318489506842 -0.0045011100439604004 -0.0016384324827670772
leaf_weight=51 51 87 93 50 71 53
leaf_count=51 51 87 93 50 71 53
internal_value=0 -0.00117109 0.0017089 0.00518536 -0.00495622 -0.00327755
internal_weight=0 405 230 137 175 124
internal_count=456 405 230 137 175 124
is_linear=0
shrinkage=0.05


Tree=61
num_leaves=7
num_cat=0
split_feature=10 3 5 0 1 2
split_gain=1.95106 1.86433 1.04604 0.550929 0.748121 0.486369
threshold=36.000000000000007 30.816665000000004 7.5000000000000009 6.5000000000000009 691867.50000000012 1992.5000000000002
decision_type=2 2 2 2 2 2
left_child=1 2 5 -4 -5 -1
right_child=-2 -3 3 4 -6 -7
leaf_value=-0.0029300124304176404 0.0093196855289861564 0.0068331634685877829 -0.0010475287026154899 -0.0099806917285173748 -0.0024980657879989281 0.0029675708859444555
leaf_weight=58 50 62 62 77 59 88
leaf_count=58 50 62 62 77 59 88
internal_value=0 -0.00114774 -0.00258616 -0.00495377 -0.00673455 0.000624695
internal_weight=0 406 344 198 136 146
internal_count=456 406 344 198 136 146
is_linear=0
shrinkage=0.05


Tree=62
num_leaves=8
num_cat=0
split_feature=4 0 2 0 0 8 7
split_gain=1.82714 1.53758 1.92268 1.43106 1.308 0.524286 0.329019
threshold=16.483333335000001 7.5000000000000009 1995.5000000000002 5.5000000000000009 2.5000000000000004 1.3666668335000003 0.65000000000000013
decision_type=2 2 2 2 2 2 2
left_child=1 3 5 4 -1 -3 -4
right_child=-2 2 6 -5 -6 -7 -8
leaf_value=-0.007414140321962609 0.0081310371953683593 -0.0055115115223452454 0.0095338966157287371 -0.011001476202315341 0.0033572466611596092 0.0011165030439420102 0.003797875550109893
leaf_weight=51 60 70 50 60 63 52 50
leaf_count=51 60 70 50 60 63 52 50
internal_value=0 -0.00123198 0.00152631 -0.00475117 -0.00146153 -0.00268646 0.00666589
internal_weight=0 396 222 174 114 122 100
internal_count=456 396 222 174 114 122 100
is_linear=0
shrinkage=0.05


Tree=63
num_leaves=7
num_cat=0
split_feature=10 3 5 4 9 9
split_gain=1.82134 1.62528 0.955463 0.716841 0.990656 0.431825
threshold=36.000000000000007 30.816665000000004 7.5000000000000009 15.183333335000002 7.3072578000000012 7.495000000000001
decision_type=2 2 2 2 2 2
left_child=1 2 5 4 -4 -1
right_child=-2 -3 3 -5 -6 -7
leaf_value=-0.0016225765816514093 0.0090045230500400072 0.0063427461581605105 0.0029159335955485422 -0.0079770125666182943 -0.0067065818938081738 0.0039187597349617572
leaf_weight=87 50 62 53 91 54 59
leaf_count=87 50 62 53 91 54 59
internal_value=0 -0.00110893 -0.00245197 -0.00471474 -0.00194029 0.000616731
internal_weight=0 406 344 198 107 146
internal_count=456 406 344 198 107 146
is_linear=0
shrinkage=0.05


Tree=64
num_leaves=7
num_cat=0
split_feature=10 0 10 1 7 4
split_gain=1.71181 3.51117 2.40218 2.6663 1.557 1.29103
threshold=5.0000000000000009 3.5000000000000004 17.000000000000004 852896.00000000012 0.58333333350000005 15.070370370000001
decision_type=2 2 2 2 2 2
left_child=-1 -2 4 -4 5 -3
right_child=1 2 3 -5 -6 -7
leaf_value=-0.0067965666625146789 0.012588755582396131 0.0059353677267208697 0.013703300657914953 -0.0013265094454658942 -0.0087029247074755598 -0.0052650533672553967
leaf_weight=77 59 50 50 72 95 53
leaf_count=77 59 50 50 72 95 53
internal_value=0 0.00138083 -0.000685628 0.00483325 -0.00408615 0.000172044
internal_weight=0 379 320 122 198 103
internal_count=456 379 320 122 198 103
is_linear=0
shrinkage=0.05


Tree=65
num_leaves=7
num_cat=0
split_feature=4 0 0 0 9 7
split_gain=1.62206 1.43728 1.29097 1.25145 1.20211 0.851385
threshold=16.483333335000001 7.5000000000000009 5.5000000000000009 2.5000000000000004 6.9166666665000012 0.58333333350000005
decision_type=2 2 2 2 2 2
left_child=1 2 3 -1 -3 -6
right_child=-2 4 -4 -5 5 -7
leaf_value=-0.0072612807757275952 0.0076611334040838606 0.0074166042756499545 -0.010499751865281723 0.0032746601360110895 0.0036250709493357972 -0.0038012656518013072
leaf_weight=51 60 62 60 63 65 95
leaf_count=51 60 62 60 63 65 95
internal_value=0 -0.00116078 -0.00456326 -0.00143879 0.00150603 -0.000784316
internal_weight=0 396 174 114 222 160
internal_count=456 396 174 114 222 160
is_linear=0
shrinkage=0.05


Tree=66
num_leaves=7
num_cat=0
split_feature=7 1 10 10 10 3
split_gain=1.56194 1.54717 1.21359 1.47842 1.17645 0.567077
threshold=0.96666683350000016 489897.50000000006 5.0000000000000009 8.0000000000000018 9.5000000000000018 29.683333335000004
decision_type=2 2 2 2 2 2
left_child=2 -2 -1 -4 -5 -6
right_child=1 -3 3 4 5 -7
leaf_value=-0.0079400981025349714 0.011600545060583483 -0.00059871037868466578 0.0064089519521579727 -0.0086651180989442862 -0.0026103079061475442 0.0031983535041496774
leaf_weight=62 51 53 65 53 99 73
leaf_count=62 51 53 65 53 99 73
internal_value=0 0.00538362 -0.00159061 -0.000233138 -0.00215196 -0.000145004
internal_weight=0 104 352 290 225 172
internal_count=456 104 352 290 225 172
is_linear=0
shrinkage=0.05


Tree=67
num_leaves=8
num_cat=0
split_feature=10 0 0 4 9 9 1
split_gain=1.53376 1.36614 4.23137 1.96887 1.53527 0.797329 0.579028
threshold=36.000000000000007 4.5000000000000009 2.5000000000000004 15.183333335000002 7.0132183910000014 7.4783333335000011 691867.50000000012
decision_type=2 2 2 2 2 2 2
left_child=1 2 -1 4 -3 -6 -5
right_child=-2 3 -4 6 5 -7 -8
leaf_value=-0.0068074980796333038 0.0082631278622429822 0.0074900019103162256 0.012857594512801586 -0.010427388615670219 -0.0071082237620293254 0.0012440361453392994 -0.0035232150640625223
leaf_weight=51 50 56 59 73 53 62 52
leaf_count=51 50 56 59 73 53 62 52
internal_value=0 -0.00101763 0.00374014 -0.00278572 0.000700786 -0.00260527 -0.00755525
internal_weight=0 406 110 296 171 115 125
internal_count=456 406 110 296 171 115 125
is_linear=0
shrinkage=0.05


Tree=68
num_leaves=7
num_cat=0
split_feature=2 7 4 10 7 2
split_gain=1.41936 1.57298 1.81766 1.46522 1.02304 0.542952
threshold=1975.5000000000002 0.78333333350000012 15.616665000000003 5.0000000000000009 0.58333333350000005 1990.5000000000002
decision_type=2 2 2 2 2 2
left_child=-1 3 -3 -2 5 -5
right_child=1 2 -4 4 -6 -7
leaf_value=-0.0078609597430947947 -0.0090205165464431053 0.0010250579317911499 0.012770802442751387 -0.0012251136927968927 -0.004837226009274471 0.0050659027720920428
leaf_weight=51 50 93 51 54 63 94
leaf_count=51 50 93 51 54 63 94
internal_value=0 0.000989899 0.00518501 -0.00132464 0.000499021 0.00277053
internal_weight=0 405 144 261 211 148
internal_count=456 405 144 261 211 148
is_linear=0
shrinkage=0.05


Tree=69
num_leaves=8
num_cat=0
split_feature=4 0 2 0 0 8 7
split_gain=1.30998 1.25446 1.3553 1.17593 0.923847 0.474986 0.310393
threshold=16.483333335000001 7.5000000000000009 1995.5000000000002 5.5000000000000009 2.5000000000000004 1.3666668335000003 0.65000000000000013
decision_type=2 2 2 2 2 2 2
left_child=1 3 5 4 -1 -3 -4
right_child=-2 2 6 -5 -6 -7 -8
leaf_value=-0.0062425537233460043 0.0068848065389223237 -0.0047776381915485095 0.0085490282084792861 -0.0098876899791260561 0.0028099146919206733 0.0015310579763116458 0.0029777373123215513
leaf_weight=51 60 70 50 60 63 52 50
leaf_count=51 60 70 50 60 63 52 50
internal_value=0 -0.00104315 0.00144828 -0.00422188 -0.00123987 -0.00208869 0.00576338
internal_weight=0 396 222 174 114 122 100
internal_count=456 396 222 174 114 122 100
is_linear=0
shrinkage=0.05


Tree=70
num_leaves=8
num_cat=0
split_feature=10 0 0 4 2 1 1
split_gain=1.41121 1.23908 3.42204 1.84353 1.34933 0.573265 0.450587
threshold=36.000000000000007 4.5000000000000009 2.5000000000000004 15.183333335000002 1995.5000000000002 691867.50000000012 726222.50000000012
decision_type=2 2 2 2 2 2 2
left_child=1 2 -1 4 6 -5 -3
right_child=-2 3 -4 5 -6 -7 -8
leaf_value=-0.0059304259778525424 0.0079261209503747529 -0.006170214713543269 0.011754274348357409 -0.010133015710464998 0.0061800233239088865 -0.0032632879859123098 0.00044419978398318387
leaf_weight=51 50 52 59 73 68 52 51
leaf_count=51 50 52 59 73 68 52 51
internal_value=0 -0.000976123 0.003555 -0.00265999 0.000713711 -0.00727521 -0.00289512
internal_weight=0 406 110 296 171 125 103
internal_count=456 406 110 296 171 125 103
is_linear=0
shrinkage=0.05


Tree=71
num_leaves=7
num_cat=0
split_feature=10 3 5 4 2 9
split_gain=1.27361 1.18124 0.817029 0.618971 0.660259 0.372572
threshold=36.000000000000007 30.816665000000004 7.5000000000000009 14.316666665000001 1986.5000000000002 7.495000000000001
decision_type=2 2 2 2 2 2
left_child=1 2 5 -4 -5 -1
right_child=-2 -3 3 4 -6 -7
leaf_value=-0.0013145949033376112 0.0075298150684684519 0.0054253875383085785 0.00023215663004840168 -0.0016637446874202316 -0.0086783979599753952 0.0038325463654473426
leaf_weight=87 50 62 57 55 86 59
leaf_count=87 50 62 57 55 86 59
internal_value=0 -0.000927317 -0.00207228 -0.00416472 -0.00594219 0.000765414
internal_weight=0 406 344 198 141 146
internal_count=456 406 344 198 141 146
is_linear=0
shrinkage=0.05


Tree=72
num_leaves=7
num_cat=0
split_feature=2 7 4 10 7 0
split_gain=1.21072 1.37496 1.59233 1.22888 0.895208 0.630655
threshold=1975.5000000000002 0.78333333350000012 15.616665000000003 5.0000000000000009 0.58333333350000005 7.5000000000000009
decision_type=2 2 2 2 2 2
left_child=-1 3 -3 -2 5 -5
right_child=1 2 -4 4 -6 -7
leaf_value=-0.0072602681218211056 -0.0082976233428344141 0.00094284987526505157 0.011936479724724502 -0.00067479108270102495 -0.0045713098266989818 0.0058535776878247134
leaf_weight=51 50 93 51 75 63 73
leaf_count=51 50 93 51 75 63 73
internal_value=0 0.000914256 0.00483643 -0.0012497 0.000420423 0.00254528
internal_weight=0 405 144 261 211 148
internal_count=456 405 144 261 211 148
is_linear=0
shrinkage=0.05


Tree=73
num_leaves=8
num_cat=0
split_feature=8 2 3 4 5 1 5
split_gain=1.13102 1.30969 1.62178 0.809581 0.953432 0.23438 0.255474
threshold=1.7166666665000003 1988.5000000000002 30.683333335000004 14.050000000000002 7.8333333335000015 866762.50000000012 13.500000000000002
decision_type=2 2 2 2 2 2 2
left_child=1 5 3 -3 -5 6 -1
right_child=-2 2 -4 4 -6 -7 -8
leaf_value=-0.0081476265709550886 0.006397284289511542 0.0041863289210596127 0.009233847523305137 0.00095852125599396555 -0.0078811457052194913 -0.0018786504073068499 -0.0032093961881473664
leaf_weight=55 60 56 52 67 56 60 50
leaf_count=55 60 56 52 67 56 60 50
internal_value=0 -0.000969285 0.00146091 -0.000797144 -0.00306604 -0.00437157 -0.00579609
internal_weight=0 396 231 179 123 165 105
internal_count=456 396 231 179 123 165 105
is_linear=0
shrinkage=0.05


Tree=74
num_leaves=8
num_cat=0
split_feature=10 2 6 4 5 7 1
split_gain=1.10482 0.95856 1.3882 2.31467 0.937649 0.276357 0.0944855
threshold=36.000000000000007 1988.5000000000002 77.500000000000014 14.316666665000001 11.166666665000003 0.81666650000000007 716317.50000000012
decision_type=2 2 2 2 2 2 2
left_child=1 5 -3 -4 -5 6 -1
right_child=-2 2 3 4 -6 -7 -8
leaf_value=-0.0037911239755540637 0.0070131061535794294 0.0069553020665706657 0.006779268766143199 -0.0014183171600433849 -0.010621080089127646 -0.0067852544334699519 -0.00087059043883716688
leaf_weight=58 50 72 58 62 50 53 53
leaf_count=58 50 72 58 62 50 53 53
internal_value=0 -0.000863683 0.00113632 -0.00132819 -0.00552669 -0.00381491 -0.00239663
internal_weight=0 406 242 170 112 164 111
internal_count=456 406 242 170 112 164 111
is_linear=0
shrinkage=0.05


Tree=75
num_leaves=7
num_cat=0
split_feature=4 10 10 10 6 7
split_gain=1.09733 0.56613 1.33385 1.71939 0.792476 0.677193
threshold=16.483333335000001 17.000000000000004 8.0000000000000018 5.0000000000000009 79.833333335000006 0.58333333350000005
decision_type=2 2 2 2 2 2
left_child=1 2 3 -1 -3 -4
right_child=-2 4 5 -5 -6 -7
leaf_value=-0.0040740448665411147 0.0063012657935420675 -0.0011590407922259592 -0.0021607022492389663 0.0079377910761501309 0.0066319994758814579 -0.0093265696224989376
leaf_weight=65 60 94 64 55 50 68
leaf_count=65 60 94 64 55 50 68
internal_value=0 -0.000954737 -0.00238383 0.00143138 0.00154618 -0.00585221
internal_weight=0 396 252 120 144 132
internal_count=456 396 252 120 144 132
is_linear=0
shrinkage=0.05


Tree=76
num_leaves=8
num_cat=0
split_feature=7 8 10 2 7 10 6
split_gain=1.03711 1.79355 0.98326 1.07996 0.613075 0.46017 0.411718
threshold=0.75000000000000011 1.5416666665000003 5.0000000000000009 1999.5000000000002 0.58333333350000005 12.000000000000002 76.166665000000009
decision_type=2 2 2 2 2 2 2
left_child=2 5 -1 4 6 -2 -4
right_child=1 -3 3 -5 -6 -7 -8
leaf_value=-0.0078588664151241338 -0.0030046048892579755 0.010820280891270019 -0.0032260557110809413 0.0050402040955109095 -0.006938745129715514 0.0032437231024512307 0.0029172975332476202
leaf_weight=55 68 52 60 65 54 52 50
leaf_count=55 68 52 60 65 54 52 50
internal_value=0 0.00306404 -0.00185569 -0.000413875 -0.00257555 -0.000296996 -0.000433622
internal_weight=0 172 284 229 164 120 110
internal_count=456 172 284 229 164 120 110
is_linear=0
shrinkage=0.05


Tree=77
num_leaves=8
num_cat=0
split_feature=4 0 0 6 0 0 4
split_gain=0.983081 0.976575 1.14333 1.01259 1.20576 0.65676 0.435969
threshold=16.483333335000001 7.5000000000000009 5.5000000000000009 75.500000000000014 11.500000000000002 2.5000000000000004 14.316666665000001
decision_type=2 2 2 2 2 2 2
left_child=1 2 5 -3 -5 -1 -6
right_child=-2 3 -4 4 6 -7 -8
leaf_value=-0.0049859175330721865 0.005964228980883491 -0.0042541639557263505 -0.0092950521316379313 0.0093662784612652938 0.0036646557589992885 0.0026466477935808523 -0.0027322084258980398
leaf_weight=51 60 60 60 55 50 63 57
leaf_count=51 60 60 60 55 50 63 57
internal_value=0 -0.000903671 -0.00370831 0.00129456 0.00334964 -0.000767921 0.00025698
internal_weight=0 396 174 222 162 114 107
internal_count=456 396 174 222 162 114 107
is_linear=0
shrinkage=0.05


Tree=78
num_leaves=7
num_cat=0
split_feature=10 0 4 9 1 5
split_gain=1.01471 1.17411 1.70641 0.979329 0.743117 0.688894
threshold=36.000000000000007 3.5000000000000004 15.183333335000002 6.8166666665000006 744342.50000000012 17.833333335000003
decision_type=2 2 2 2 2 2
left_child=1 -1 3 -3 -5 -4
right_child=-2 2 5 4 -6 -7
leaf_value=0.004600109895291098 0.0067210514582693578 0.0067863852698721141 -0.0036794672626434123 -0.005064489994958208 0.0021760736239721645 -0.011080290664697304
leaf_weight=80 50 51 82 68 74 51
leaf_count=80 50 51 82 68 74 51
internal_value=0 -0.000827716 -0.0021597 0.000843263 -0.00129124 -0.00651738
internal_weight=0 406 326 193 142 133
internal_count=456 406 326 193 142 133
is_linear=0
shrinkage=0.05


Tree=79
num_leaves=8
num_cat=0
split_feature=7 9 10 10 10 0 2
split_gain=0.921795 1.11291 0.603572 1.04734 0.693006 1.24602 0.267336
threshold=0.96666683350000016 7.2373737370000013 5.0000000000000009 8.0000000000000018 17.000000000000004 6.5000000000000009 1989.5000000000002
decision_type=2 2 2 2 2 2 2
left_child=2 -2 -1 -4 5 -5 -6
right_child=1 -3 3 4 6 -7 -8
leaf_value=-0.0056997582248802629 -0.00084123961213562228 0.0095110009035561244 0.0053258662670850757 0.0011467740816228529 -0.00162404839216766 -0.009404162539079065 0.0032646864797149242
leaf_weight=62 54 50 65 51 54 62 58
leaf_count=62 54 50 65 51 54 62 58
internal_value=0 0.0041358 -0.00122194 -0.000264614 -0.00187964 -0.00464224 0.000907618
internal_weight=0 104 352 290 225 113 112
internal_count=456 104 352 290 225 113 112
is_linear=0
shrinkage=0.05


Tree=80
num_leaves=7
num_cat=0
split_feature=1 2 0 10 10 3
split_gain=0.917853 0.827823 1.33402 1.38059 1.06842 0.247039
threshold=238755.50000000003 1982.5000000000002 10.000000000000002 8.0000000000000018 12.000000000000002 29.450000000000003
decision_type=2 2 2 2 2 2
left_child=-1 5 3 -3 -4 -2
right_child=1 2 4 -5 -6 -7
leaf_value=0.0063214487419007166 -0.0022959028274806984 0.0083695481399981633 -0.0089952060824725778 -0.00065056930611570997 0.0007596097264467972 -0.0068740195263392078
leaf_weight=51 68 78 50 93 64 52
leaf_count=51 68 78 50 93 64 52
internal_value=0 -0.000796034 0.000670795 0.00346387 -0.00351882 -0.00427975
internal_weight=0 405 285 171 114 120
internal_count=456 405 285 171 114 120
is_linear=0
shrinkage=0.05


Tree=81
num_leaves=7
num_cat=0
split_feature=10 0 4 6 5 2
split_gain=0.86491 0.971164 1.48345 0.830994 0.642105 0.360105
threshold=36.000000000000007 3.5000000000000004 15.183333335000002 80.166665000000009 17.833333335000003 1987.5000000000002
decision_type=2 2 2 2 2 2
left_child=1 -1 3 5 -4 -3
right_child=-2 2 4 -5 -6 -7
leaf_value=0.004172296992619522 0.0062051334464922545 -0.0039536751941061368 -0.0032987778282315447 0.0060212800590406096 -0.010443854783935582 0.001163211772345925
leaf_weight=80 50 65 82 55 51 73
leaf_count=80 50 65 82 55 51 73
internal_value=0 -0.000764179 -0.00197558 0.000824331 -0.00603862 -0.00124692
internal_weight=0 406 326 193 133 138
internal_count=456 406 326 193 133 138
is_linear=0
shrinkage=0.05


Tree=82
num_leaves=7
num_cat=0
split_feature=8 3 1 9 9 5
split_gain=0.838609 0.849514 0.529827 0.876236 0.929632 0.434483
threshold=1.7407407405000004 30.816665000000004 321410.50000000006 6.8385057470000001 7.366666833500001 7.5000000000000009
decision_type=2 2 2 2 2 2
left_child=1 2 -1 -4 -5 -6
right_child=-2 -3 3 4 5 -7
leaf_value=-0.0065320024900138388 0.0057306439915139765 0.004629715742947931 0.0047212825292213406 -0.0062429202735874356 0.0030758923199702649 -0.0024395942760354564
leaf_weight=50 56 61 55 91 69 74
leaf_count=50 56 61 55 91 69 74
internal_value=0 -0.00080229 -0.00177973 -0.000957538 -0.0022923 0.000221724
internal_weight=0 400 339 289 234 143
internal_count=456 400 339 289 234 143
is_linear=0
shrinkage=0.05


Tree=83
num_leaves=7
num_cat=0
split_feature=4 0 0 0 0 10
split_gain=0.856675 0.915923 0.962299 0.767953 0.678245 0.639781
threshold=16.483333335000001 7.5000000000000009 5.5000000000000009 10.000000000000002 2.5000000000000004 17.000000000000004
decision_type=2 2 2 2 2 2
left_child=1 2 4 -3 -1 -5
right_child=-2 3 -4 5 -6 -7
leaf_value=-0.0051485846805221893 0.0055675934472431739 0.0061174764165965222 -0.0086851176381848444 -0.0038886048076674342 0.0026078197885201211 0.0024130277573826842
leaf_weight=51 60 60 60 75 63 87
leaf_count=51 60 60 60 75 63 87
internal_value=0 -0.000843575 -0.00355973 0.0012853 -0.000862151 -0.000504395
internal_weight=0 396 174 222 114 162
internal_count=456 396 174 222 114 162
is_linear=0
shrinkage=0.05


Tree=84
num_leaves=7
num_cat=0
split_feature=1 0 0 0 4 0
split_gain=0.828906 1.69201 1.66238 0.863227 0.793103 0.503649
threshold=660100.00000000012 3.5000000000000004 13.500000000000002 7.5000000000000009 15.433331665000003 12.500000000000002
decision_type=2 2 2 2 2 2
left_child=1 -1 4 -2 -3 -5
right_child=3 2 -4 5 -6 -7
leaf_value=0.009340115217491984 -0.0062452057458964802 -0.00014640135099975075 0.0071662631333928627 0.0040072327591742412 -0.0079072079062461869 -0.0024537637227747058
leaf_weight=59 84 82 53 53 55 70
leaf_count=59 84 82 53 53 55 70
internal_value=0 0.00194368 -0.000353102 -0.00233806 -0.00326205 0.000330243
internal_weight=0 249 190 207 137 123
internal_count=456 249 190 207 137 123
is_linear=0
shrinkage=0.05


Tree=85
num_leaves=7
num_cat=0
split_feature=2 7 8 1 1 2
split_gain=0.784395 0.96079 1.10397 0.873991 0.533221 0.253856
threshold=1975.5000000000002 0.78333333350000012 1.4666668335000002 809185.00000000012 635302.50000000012 1998.5000000000002
decision_type=2 2 2 2 2 2
left_child=-1 3 -3 4 5 -2
right_child=1 2 -4 -5 -6 -7
leaf_value=-0.0058438267262068159 -0.0033813008588691388 0.0006734851665876724 0.0097510801188928908 -0.0053478930207968853 0.0047285149215410159 0.00123756390142565
leaf_weight=51 59 91 53 82 60 60
leaf_count=51 59 91 53 82 60 60
internal_value=0 0.000735889 0.00401454 -0.00107302 0.000885296 -0.00105246
internal_weight=0 405 144 261 179 119
internal_count=456 405 144 261 179 119
is_linear=0
shrinkage=0.05


Tree=86
num_leaves=8
num_cat=0
split_feature=10 0 0 4 6 1 5
split_gain=0.794775 0.832294 2.39455 1.19828 0.765225 0.497976 0.218887
threshold=36.000000000000007 4.5000000000000009 2.5000000000000004 15.183333335000002 80.166665000000009 691867.50000000012 8.1666665000000016
decision_type=2 2 2 2 2 2 2
left_child=1 2 -1 4 6 -5 -3
right_child=-2 3 -4 5 -6 -7 -8
leaf_value=-0.004953568938243039 0.0059482291322201491 0.00055881846362924187 0.0098398031935222063 -0.0084970191453403333 0.0056672065730218983 -0.0020942739793099463 -0.0037301370339021863
leaf_weight=51 50 59 59 73 52 52 60
leaf_count=51 50 59 59 73 52 52 60
internal_value=0 -0.000732541 0.00298106 -0.00211259 0.00060735 -0.00583348 -0.00160368
internal_weight=0 406 110 296 171 125 119
internal_count=456 406 110 296 171 125 119
is_linear=0
shrinkage=0.05


Tree=87
num_leaves=8
num_cat=0
split_feature=1 10 3 6 9 9 3
split_gain=0.740535 1.2466 1.62729 0.53455 0.369105 0.716015 0.39528
threshold=660100.00000000012 17.000000000000004 30.483333335000001 77.500000000000014 7.366666833500001 7.0300000000000002 30.066668335000003
decision_type=2 2 2 2 2 2 2
left_child=1 2 3 -1 5 -2 -6
right_child=4 -3 -4 -5 6 -7 -8
leaf_value=-0.0001646569018766027 -0.00012111269682645797 0.0072776357139888647 0.0068518015538465305 -0.0067920094174041884 0.0027912138758057897 -0.0085412996580856212 -0.0033197384240909243
leaf_weight=58 50 74 53 64 55 51 51
leaf_count=58 50 74 53 64 55 51 51
internal_value=0 0.00183716 -0.00046339 -0.0036413 -0.00220991 -0.00437289 -0.000148961
internal_weight=0 249 175 122 207 101 106
internal_count=456 249 175 122 207 101 106
is_linear=0
shrinkage=0.05


Tree=88
num_leaves=7
num_cat=0
split_feature=4 0 7 0 5 0
split_gain=0.715014 0.750726 0.950181 0.79807 0.783256 0.613641
threshold=16.483333335000001 7.5000000000000009 0.58333333350000005 5.5000000000000009 7.5000000000000009 2.5000000000000004
decision_type=2 2 2 2 2 2
left_child=1 3 -3 5 -4 -1
right_child=-2 2 4 -5 -6 -7
leaf_value=-0.0048502680973387235 0.0050864743452984848 0.0053095381298814623 0.0029923433574430389 -0.007897305951143305 -0.0046592994404461565 0.0025274854142307529
leaf_weight=51 60 85 58 60 79 63
leaf_count=51 60 85 58 60 79 63
internal_value=0 -0.000770678 0.00115668 -0.00322972 -0.00141992 -0.000773089
internal_weight=0 396 222 174 137 114
internal_count=456 396 222 174 137 114
is_linear=0
shrinkage=0.05


Tree=89
num_leaves=6
num_cat=0
split_feature=7 4 2 2 7
split_gain=0.709282 1.20315 0.675711 0.630752 0.331639
threshold=0.61666666650000013 15.716666665000002 1998.5000000000002 1989.5000000000002 0.45000000000000001
decision_type=2 2 2 2 2
left_child=2 3 4 -2 -1
right_child=1 -3 -4 -5 -6
leaf_value=-0.0021618402989455657 -0.0036422570678405469 0.0078611611256501571 0.0015329160344861878 0.0026147475819392452 -0.0071004877417263669
leaf_weight=89 75 63 87 87 55
leaf_count=89 75 63 87 87 55
internal_value=0 0.00199808 -0.00194618 -0.000282014 -0.00404813
internal_weight=0 225 231 162 144
internal_count=456 225 231 162 144
is_linear=0
shrinkage=0.05


Tree=90
num_leaves=7
num_cat=0
split_feature=10 0 7 1 9 0
split_gain=0.710105 0.731097 0.60498 0.512481 0.637712 0.322017
threshold=36.000000000000007 3.5000000000000004 0.58333333350000005 884745.00000000012 7.0833333335000006 10.000000000000002
decision_type=2 2 2 2 2 2
left_child=1 -1 5 4 -4 -3
right_child=-2 2 3 -5 -6 -7
leaf_value=0.0035906794483889825 0.0056224684435874223 0.0028651641081803695 -0.002202532048434464 0.00011134408567039693 -0.0094319499954443539 -0.0019202146704628831
leaf_weight=80 50 78 67 61 56 64
leaf_count=80 50 78 67 61 56 64
internal_value=0 -0.000692422 -0.00174349 -0.00363569 -0.00549397 0.000708374
internal_weight=0 406 326 184 123 142
internal_count=456 406 326 184 123 142
is_linear=0
shrinkage=0.05


Tree=91
num_leaves=7
num_cat=0
split_feature=5 2 10 4 5 2
split_gain=0.702512 0.7517 0.548865 0.806395 0.474686 0.4706
threshold=33.166666665000008 1982.5000000000002 8.0000000000000018 14.183333335000002 11.166666665000003 1998.5000000000002
decision_type=2 2 2 2 2 2
left_child=1 4 -3 -4 -1 -5
right_child=-2 2 3 5 -6 -7
leaf_value=-0.0074429212346801476 0.0046878723930978382 0.0036344399425740307 0.0032390597099921266 -0.0071201896563602186 -0.00079499513097107421 -0.00071645628631813454
leaf_weight=58 68 95 69 52 50 64
leaf_count=58 68 95 69 52 50 64
internal_value=0 -0.000821586 0.000545228 -0.00104112 -0.00436518 -0.0035871
internal_weight=0 388 280 185 108 116
internal_count=456 388 280 185 108 116
is_linear=0
shrinkage=0.05


Tree=92
num_leaves=7
num_cat=0
split_feature=9 8 4 0 10 7
split_gain=0.705463 1.95773 0.585405 0.537868 0.323631 0.217391
threshold=7.366666833500001 1.4666668335000002 14.100000000000001 6.5000000000000009 12.000000000000002 0.58333333350000005
decision_type=2 2 2 2 2 2
left_child=2 4 -1 -4 -2 -5
right_child=1 -3 3 5 -6 -7
leaf_value=0.0014014033733734065 -0.0024772569871856832 0.010445601354300414 0.00059257057385847859 -0.0032407626956701277 0.0022532308442068513 -0.0077578643059129267
leaf_weight=91 96 53 51 50 58 57
leaf_count=91 96 53 51 50 58 57
internal_value=0 0.00215694 -0.00179312 -0.00363301 -0.000695645 -0.00564707
internal_weight=0 207 249 158 154 107
internal_count=456 207 249 158 154 107
is_linear=0
shrinkage=0.05


Tree=93
num_leaves=7
num_cat=0
split_feature=7 8 1 2 1 2
split_gain=0.687387 1.81787 1.03106 0.655213 0.495752 0.332589
threshold=0.61666666650000013 1.5666668335000002 809185.00000000012 1998.5000000000002 744342.50000000012 2007.5000000000002
decision_type=2 2 2 2 2 2
left_child=2 4 3 -1 5 -2
right_child=1 -3 -4 -5 -6 -7
leaf_value=-0.0023410089646715912 -0.0045776608509614193 0.010164497498100481 -0.006640017917984492 0.004262425118179705 0.0035304690096175893 0.00073434129142417365
leaf_weight=89 68 52 77 65 53 52
leaf_count=89 68 52 77 65 53 52
internal_value=0 0.00196699 -0.0019159 0.000446155 -0.000496996 -0.00227579
internal_weight=0 225 231 154 173 120
internal_count=456 225 231 154 173 120
is_linear=0
shrinkage=0.05


Tree=94
num_leaves=7
num_cat=0
split_feature=9 8 4 3 2 7
split_gain=0.655273 1.68335 0.554995 0.33716 0.286599 0.180963
threshold=7.366666833500001 1.4666668335000002 14.100000000000001 30.350000000000005 1988.5000000000002 0.55000000000000016
decision_type=2 2 2 2 2 2
left_child=2 4 -1 5 -2 -4
right_child=1 -3 3 -5 -6 -7
leaf_value=0.0013822850013909104 -0.0027801033065964782 0.009764704843851264 -0.0029835545807727613 -0.00026862890688034722 0.0015353241295824891 -0.007139728627781468
leaf_weight=91 75 53 50 53 79 55
leaf_count=91 75 53 50 53 79 55
internal_value=0 0.0020788 -0.00172816 -0.00351962 -0.000566345 -0.0051606
internal_weight=0 207 249 158 154 105
internal_count=456 207 249 158 154 105
is_linear=0
shrinkage=0.05


Tree=95
num_leaves=7
num_cat=0
split_feature=1 5 0 4 1 9
split_gain=0.638653 0.554703 0.324961 1.05839 0.627252 0.294587
threshold=238755.50000000003 0.83333333350000005 5.5000000000000009 15.183333335000002 651530.00000000012 7.4783333335000011
decision_type=2 2 2 2 2 2
left_child=-1 -2 4 5 -3 -4
right_child=1 2 3 -5 -6 -7
leaf_value=0.0052730565607620808 0.0039554492678559785 0.004063495822265395 -0.0015560183823773903 -0.0069254435318083889 -0.003410770090064034 0.0030999274369185935
leaf_weight=51 56 64 98 85 50 52
leaf_count=51 56 64 98 85 50 52
internal_value=0 -0.000664015 -0.00140525 -0.0024679 0.000785309 5.80428e-05
internal_weight=0 405 349 235 114 150
internal_count=456 405 349 235 114 150
is_linear=0
shrinkage=0.05


Tree=96
num_leaves=7
num_cat=0
split_feature=5 2 5 5 5 5
split_gain=0.651135 0.610543 0.53385 0.541327 0.566781 0.41312
threshold=33.166666665000008 1982.5000000000002 11.166666665000003 4.1666666665000003 0.83333333350000005 11.166666665000003
decision_type=2 2 2 2 2 2
left_child=1 5 3 4 -3 -1
right_child=-2 2 -4 -5 -6 -7
leaf_value=-0.0068557893279297599 0.0045131983940818292 0.0031031656932706637 -0.0026302523335114993 0.0054652486768152035 -0.0039129747218399685 -0.00065394364052917813
leaf_weight=58 68 63 94 70 53 50
leaf_count=58 68 63 94 70 53 50
internal_value=0 -0.000790973 0.000440841 0.0019929 -0.000102485 -0.00398456
internal_weight=0 388 280 186 116 108
internal_count=456 388 280 186 116 108
is_linear=0
shrinkage=0.05


Tree=97
num_leaves=7
num_cat=0
split_feature=9 4 1 1 9 1
split_gain=0.600513 1.5937 0.513874 0.896564 1.39116 0.42626
threshold=7.366666833500001 15.983333335000003 809185.00000000012 321410.50000000006 6.8385057470000001 879222.50000000012
decision_type=2 2 2 2 2 2
left_child=2 5 3 -1 -5 -2
right_child=1 -3 -4 4 -6 -7
leaf_value=-0.0061553453756205273 -0.0026186652995826816 0.009764199434779585 -0.0057763148954234509 0.007084843251686835 -0.0028906012076412801 0.002696577903060686
leaf_weight=50 94 50 58 64 77 63
leaf_count=50 94 50 58 64 77 63
internal_value=0 0.00199005 -0.00165438 -0.000402689 0.00163726 -0.000485797
internal_weight=0 207 249 191 141 157
internal_count=456 207 249 191 141 157
is_linear=0
shrinkage=0.05


Tree=98
num_leaves=7
num_cat=0
split_feature=10 0 0 4 7 5
split_gain=0.59631 0.607306 1.8802 1.07104 0.705353 0.58251
threshold=36.000000000000007 4.5000000000000009 2.5000000000000004 16.150000000000002 0.58333333350000005 7.5000000000000009
decision_type=2 2 2 2 2 2
left_child=1 2 -1 4 -3 -6
right_child=-2 3 -4 -5 5 -7
leaf_value=-0.0044933111126096376 0.0051523057855665686 0.0029418253409063543 0.0086153116325800444 -0.0083284651041209985 0.00093437244297202803 -0.005359296678251262
leaf_weight=51 50 95 59 52 66 83
leaf_count=51 50 95 59 52 66 83
internal_value=0 -0.00063452 0.00253768 -0.00181338 -0.000424917 -0.0025715
internal_weight=0 406 110 296 244 149
internal_count=456 406 110 296 244 149
is_linear=0
shrinkage=0.05


end of trees

feature_importances:
Column_2=107
Column_0=98
Column_10=90
Column_1=84
Column_4=58
Column_7=51
Column_3=29
Column_5=26
Column_9=25
Column_6=24
Column_8=16

parameters:
[boosting: gbdt]
[objective: regression]
[metric: rmse]
[tree_learner: serial]
[device_type: cpu]
[linear_tree: 0]
[data: ]
[valid: ]
[num_iterations: 10000]
[learning_rate: 0.05]
[num_leaves: 15]
[num_threads: 0]
[deterministic: 0]
[force_col_wise: 0]
[force_row_wise: 0]
[histogram_pool_size: -1]
[max_depth: -1]
[min_data_in_leaf: 50]
[min_sum_hessian_in_leaf: 0.001]
[bagging_fraction: 0.5]
[pos_bagging_fraction: 1]
[neg_bagging_fraction: 1]
[bagging_freq: 0]
[bagging_seed: 10961]
[feature_fraction: 0.8]
[feature_fraction_bynode: 1]
[feature_fraction_seed: 53]
[extra_trees: 0]
[extra_seed: 11644]
[early_stopping_round: 50]
[first_metric_only: 0]
[max_delta_step: 0]
[lambda_l1: 0]
[lambda_l2: 0]
[linear_lambda: 0]
[min_gain_to_split: 0]
[drop_rate: 0.1]
[max_drop: 50]
[skip_drop: 0.5]
[xgboost_dart_mode: 0]
[uniform_drop: 0]
[drop_seed: 30626]
[top_rate: 0.2]
[other_rate: 0.1]
[min_data_per_group: 100]
[max_cat_threshold: 32]
[cat_l2: 10]
[cat_smooth: 10]
[max_cat_to_onehot: 4]
[top_k: 20]
[monotone_constraints: ]
[monotone_constraints_method: basic]
[monotone_penalty: 0]
[feature_contri: ]
[forcedsplits_filename: ]
[refit_decay_rate: 0.9]
[cegb_tradeoff: 1]
[cegb_penalty_split: 0]
[cegb_penalty_feature_lazy: ]
[cegb_penalty_feature_coupled: ]
[path_smooth: 0]
[interaction_constraints: ]
[verbosity: -1]
[saved_feature_importance_type: 0]
[max_bin: 255]
[max_bin_by_feature: ]
[min_data_in_bin: 3]
[bin_construct_sample_cnt: 200000]
[data_random_seed: 4071]
[is_enable_sparse: 1]
[enable_bundle: 1]
[use_missing: 1]
[zero_as_missing: 0]
[feature_pre_filter: 1]
[pre_partition: 0]
[two_round: 0]
[header: 0]
[label_column: ]
[weight_column: ]
[group_column: ]
[ignore_column: ]
[categorical_feature: ]
[forcedbins_filename: ]
[objective_seed: 602]
[num_class: 1]
[is_unbalance: 0]
[scale_pos_weight: 1]
[sigmoid: 1]
[boost_from_average: 1]
[reg_sqrt: 0]
[alpha: 0.9]
[fair_c: 1]
[poisson_max_delta_step: 0.7]
[tweedie_variance_power: 1.5]
[lambdarank_truncation_level: 30]
[lambdarank_norm: 1]
[label_gain: ]
[eval_at: ]
[multi_error_top_k: 1]
[auc_mu_weights: ]
[num_machines: 1]
[local_listen_port: 12400]
[time_out: 120]
[machine_list_filename: ]
[machines: ]
[gpu_platform_id: -1]
[gpu_device_id: -1]
[gpu_use_dp: 0]
[num_gpu: 1]

end of parameters

pandas_categorical:null
